%YAML:1.0
my_nn: !!opencv-ml-ann-mlp
   layer_sizes: !!opencv-matrix
      rows: 1
      cols: 3
      dt: i
      data: [ 4, 100, 4 ]
   activation_function: SIGMOID_SYM
   f_param1: 1.
   f_param2: 1.
   min_val: -9.4999999999999996e-01
   max_val: 9.4999999999999996e-01
   min_val1: -9.7999999999999998e-01
   max_val1: 9.7999999999999998e-01
   training_params:
      train_method: RPROP
      dw0: 1.0000000149011612e-01
      dw_plus: 1.2000000000000000e+00
      dw_minus: 5.0000000000000000e-01
      dw_min: 1.0000000116860974e-07
      dw_max: 50.
      term_criteria: { epsilon:9.9999997764825821e-03, iterations:1000 }
   input_scale: [ 1.7471142324765967e+00, 7.3681582778161614e-02,
       1.2153732203091239e+00, -7.2377221156776167e-02,
       7.2614100788718128e-01, -1.8174115796505816e-01,
       8.1475007183358039e-01, 1.8504531351572254e-01 ]
   output_scale: [ 1.0526315789473684e+00, 0., 1.0526315789473684e+00,
       0., 1.0526315789473684e+00, 0., 1.0526315789473684e+00, 0. ]
   inv_output_scale: [ 9.4999999999999996e-01, 0.,
       9.4999999999999996e-01, 0., 9.4999999999999996e-01, 0.,
       9.4999999999999996e-01, 0. ]
   weights:
      - [ -8.2729166647836705e-01, 5.9161022740174873e-01,
          2.6891505951199030e-01, 5.4393540281732267e-01,
          1.8257194223341766e-01, -4.3294629576983112e-01,
          1.8131988169134547e-01, 1.2015403405533051e-01,
          -7.0770863937078232e-01, 4.7964333484951932e-01,
          -2.0613876692549077e-01, 2.5474014305627313e-01,
          -4.3148023723553608e-01, -2.0693667873090579e-01,
          -2.7957468501852700e-01, -2.7810648974885893e-01,
          -4.8565309429543352e-01, 1.7519406538167742e-01,
          -3.2727902444572460e-01, -2.8625304868961727e+00,
          -4.5289463071044556e-01, -3.2470743733678184e-02,
          4.6855402935001572e-01, -2.2996299654954111e-01,
          -9.7983153159250758e-01, 2.4067813263481921e-01,
          -7.6700671627050898e-01, 2.2252200892111541e-02,
          2.9649228229250474e-01, 1.1408355358018409e-01,
          -4.8643666555675869e-01, -1.2730264675468211e-01,
          2.1027292859797903e-01, 2.9897115412161729e-01,
          2.0527995553783004e-01, -2.2285301009448807e-01,
          1.1555870973961810e-01, -1.2671482646167936e-01,
          9.3435433008395552e-01, 4.0161304735544046e-01,
          -7.4345405836009326e-01, 4.6552242137406497e-01,
          -2.5443651317381327e-01, -7.8002542126761581e-02,
          -1.1212131626693000e-01, -1.7984372935844570e-01,
          -1.2837508134747935e+00, -1.9391839955418261e-01,
          3.4901762168874811e-01, -3.8942819028371045e-01,
          1.8215271555793450e-01, 6.4059454241742941e-01,
          2.0722176870074471e-01, 1.7161330949948496e-03,
          -6.8742354042496262e-03, -2.3999112529266828e-01,
          -1.5149012611912135e-01, 7.5331527424258649e-01,
          -3.7628334821803644e-01, 7.3415298977680976e-01,
          -4.9795975916365864e-02, -1.3183481436282532e-01,
          4.0075300065989272e-01, 1.0063870255379352e+00,
          8.1969403634960525e-02, -1.0700714311260384e-01,
          -3.1595235460508719e-01, 8.6816128192957354e-01,
          -4.3923021363263498e-01, 1.2120298518828725e+00,
          2.8314337462431627e-01, -1.6063578758941169e-01,
          -6.0829402106125441e-01, -1.2337887385006746e-02,
          3.3364522461862983e-01, -2.6235467594724471e-01,
          1.2471373183424799e+00, -6.6595046058394336e-01,
          -2.2269967652535319e-01, -7.5640664579973621e-02,
          -2.8510419621278127e-01, 1.7678515377556892e-01,
          -6.9389967023750443e-01, 1.3796841777707347e-01,
          -6.9829901704264907e-01, -3.8561466920460052e-01,
          -7.3331817729861204e-01, -4.0600056007255303e-01,
          -1.9816262373916463e-01, -6.4443815484745470e-01,
          3.1056345966866650e-01, -3.0527004034137695e-01,
          -6.9935528113787493e-01, 1.0039365480321067e+00,
          -5.6463702849355579e-01, -1.0080374988762453e+00,
          -4.2644857239026551e-01, 9.2505801000774476e-03,
          -2.9984820697992098e-01, -9.4525951578352796e-01,
          1.7705977732495398e-01, -2.5237559106659385e-01,
          -4.9688822660042797e-01, 2.0619271374583942e-02,
          -2.0946852042757907e-01, 2.0670999223352809e-01,
          -1.5497125620896751e-01, -7.7462113645342323e-01,
          9.9358602891287354e-02, 7.7117291070329030e-01,
          -9.2375712011055086e-02, 4.9337332948591869e-02,
          -2.0152570525407501e-01, 5.1435204560648462e-01,
          -1.3674920452314251e-01, 2.0190763267338302e-01,
          -4.2071723162607083e-01, -2.9323395453332296e-01,
          4.5656751015009645e-01, -3.2164362999228735e-01,
          4.1111607920533721e-01, -2.8897164217882054e-01,
          -4.3164633551565995e-02, -1.1365929881493926e-01,
          4.7556220665238447e-01, -3.8467032570616905e-01,
          1.4285374467562911e-01, -3.6401046703013562e-01,
          1.4743257415934324e-01, 5.6390152246754122e-01,
          -8.6182384990788133e-03, 2.9268672772570575e-01,
          -4.1517569120603309e-01, 2.9836566401566855e-01,
          -2.7585055422126575e-01, 1.0674655999196814e-01,
          -6.4143765629543115e-01, 2.9978483336484524e-01,
          1.0913614393618581e-01, 3.6897865715741029e-01,
          2.6354542302102368e-01, -1.4936142065708485e-01,
          4.1222675067628722e-01, 1.2429209125025218e+00,
          -2.0941776893018671e-01, 2.5926286647837921e-01,
          1.2567205972758932e-01, 3.4386309399451453e-01,
          8.0681679302643000e-02, -2.0830950000728318e-01,
          4.0942932701236412e-01, -1.3501452490191351e-01,
          2.6687632795799865e-01, 3.7474619217483179e-01,
          1.3893589655530270e-01, 2.8688089268501127e-01,
          4.7522328745427606e-03, 3.5016482701390444e-01,
          5.4489636713749887e-02, 7.3442525270269909e-01,
          -3.8397100917492455e-01, 3.8883609811044456e-01,
          -8.3219405618447387e-02, -2.1518266132308089e-01,
          1.4384024816010543e-01, 3.4213940054407105e-01,
          3.0880268016108503e-01, 2.6872634232694964e-01,
          -3.6949076564314565e-01, 7.0037549674223620e-01,
          -4.9010893579768749e-01, 1.9030906834951761e-01,
          -2.9715172190204864e-01, -2.5201375244905538e-01,
          -1.8353058067854466e-01, 1.6630496351592813e-01,
          6.7807409833816412e-01, -3.9439633376135624e-01,
          -5.8081681320091205e-01, 4.6059414258047487e-01,
          -3.9924243448355423e-01, 4.5391158524158165e-01,
          -5.4797600600159280e-01, 4.1475092886593701e-01,
          -4.3033936136722312e-01, 3.6842404837840836e-01,
          1.4907989087282131e-01, -2.6197846195070724e-02,
          2.0892155141587512e-01, -2.4888368345436654e-01,
          4.1352907743410561e-01, 1.7844433748779970e-01,
          3.2717403529089684e-01, -1.2007162345796396e-01,
          -8.5735633463119840e-02, 6.5906149123626967e-01,
          -3.7328812834280134e-01, -1.3377766072193154e-01,
          -1.3123828359812137e-01, -6.9933954905424334e-01,
          2.0056344476044652e-01, 2.3882228569738634e-01,
          3.3109691099676847e-01, -1.7252627704739110e-01,
          2.1615139509753778e-01, 1.4407731897874856e-01,
          1.2357363177631769e-01, -5.8824931162969640e-01,
          2.5689836670516508e-01, 3.9443638449901186e-01,
          3.8578374039254459e-02, -4.2104999397134374e-01,
          -8.6248888214225980e-02, 6.6558343787367608e-02,
          3.1030201852488742e-01, 5.0530393828489362e-01,
          -5.6535693763889880e-02, -3.5505291696977009e-01,
          5.2455850357944603e-02, -3.1179123842131823e-01,
          3.3314807588330098e-01, 1.4805149631837397e-01,
          7.4914269737364772e-02, -1.9258616937126211e-01,
          2.1653481505605532e-01, 2.1941178473680850e-01,
          -2.5166542325567620e-01, -3.7952835510915667e-01,
          -4.2024394614479976e-01, 4.0524683851773707e-01,
          3.2716976786161728e-01, -3.1088029242706300e-01,
          2.3067199333442448e-01, -1.7504296931937888e-01,
          2.5373805764122709e-01, -3.9221990140339147e-01,
          -6.3145533173493598e-02, 9.4971002520698988e-01,
          -1.2135880290467449e-01, -7.0615086303025048e-03,
          2.2985486308189437e-01, -1.5009164811408263e-01,
          -1.5023373780362875e-01, 1.3752937822981082e+00,
          -5.8815980468772067e-01, -2.5007851408731252e-01,
          3.6940914750188497e-01, -9.9325840326046244e-02,
          4.4394182542427707e-01, 6.1034835431633505e-01,
          3.4499835308977095e-01, -4.9922869762579425e-01,
          1.3136365974506042e-01, 1.0327727006489898e-01,
          -1.7337082920362781e-01, 2.4158108494371355e-01,
          1.0068177528732347e+00, 3.2706985363270241e-01,
          -1.7737746242378302e-01, 3.3884754814663082e-01,
          1.4203904248397209e-01, -5.5202260054908803e-01,
          1.1707830979178706e-01, -3.4821342395330118e-01,
          -2.3798193237460841e-01, 7.0956180592243248e-02,
          3.9529453362147671e-01, -3.5035975491043231e-01,
          -4.6859672713598366e-01, 6.2886842740181359e-01,
          1.1682045995116692e-01, -2.2453332113505528e-01,
          5.0997554434225267e-01, 2.5402029378539537e-01,
          -1.1801738353258183e-01, 4.4692792997137618e-02,
          -2.0423496251540257e-01, 9.8671448330723152e-02,
          4.2036839802887915e-01, -4.5571557695868686e-01,
          1.6470470921587439e-02, -4.3258392243912114e-01,
          1.1404689018339968e-01, -7.6486298629397889e-02,
          -1.0012093534804066e-01, -2.1484734022829843e-01,
          2.0597346620259965e-01, -1.5098320378676369e-01,
          -1.4313549966619465e-01, 3.2626227413357034e-01,
          -3.3788296884280478e-02, 2.5753924476563872e-01,
          2.5061278673475913e-02, -8.4468068096749532e-02,
          -2.0278321249666215e-01, 1.3668382619032593e+00,
          -1.7886560770782534e-02, -2.1449416388965181e-01,
          -7.3378748514391445e-01, -5.3450874114920326e-02,
          2.7916885926291879e-02, -1.8948150650351120e-01,
          1.4309980646709186e-01, 3.0415759150987015e-01,
          -3.1504186829142045e-01, 2.9092972276731988e-01,
          -5.1751786313016055e-04, -3.3415559456827348e-01,
          -1.1303239367024097e-01, -2.6965691898594690e-01,
          -2.6741388805967470e-01, 3.0117053041566200e-01,
          2.0446916815956190e-01, -1.2473961616382419e-01,
          5.3447409582413619e-01, 4.1984720465974701e-01,
          -1.5728411794846317e-01, 6.9758907087977717e-01,
          6.9159312790086913e-02, 1.0242594099629018e-02,
          -4.4611922378650537e-01, 3.4632686502464238e-01,
          6.3159560785502233e-01, 3.0361028287737069e-01,
          -4.0751591844289869e-01, -1.2268975643717052e-01,
          5.3547212618426543e-01, 1.7597972610091286e-01,
          4.6587175807019077e-01, -3.0908169128046581e-01,
          -1.7065657797646769e-01, 6.1818633829388880e-01,
          -2.2987514695610597e-02, -4.7865044903924803e-01,
          -5.4202334168352873e-01, 4.5627364796658759e-01,
          -8.8168838737351624e-02, 2.3815597326820970e-01,
          -3.8775013592941820e-01, -6.8007487641940634e-01,
          -7.5040087024823765e-01, -6.5784326615525790e-01,
          3.1442175030307273e-01, 1.5432818701172895e+00,
          -5.6295111715819646e-01, -5.3264489338138699e-01,
          -3.7460504928328342e-01, 2.3937145761379375e-01,
          -3.5072223312839096e-01, 5.3167233537748648e-01,
          -1.8456960614520629e-01, -1.2651003681549164e-01,
          1.1223417061533754e-01, -2.7017960711319955e-01,
          7.5084359988026705e-01, -3.6603689908266396e-01,
          9.6803088633609113e-01, 2.1083992790288969e-01,
          3.7967882426665478e-01, -1.0724097300345703e-01,
          5.3709397410707860e-01, 4.1064881220508271e-03,
          -4.7498809381970269e-01, -4.1096490379996659e-01,
          1.1458053700670538e-01, 1.7158645092063593e-01,
          4.1811357431926482e-01, 1.6029188048213142e-01,
          6.5614472167309934e-01, -4.6199386662409109e-01,
          -1.6124598039153812e-01, -4.2925307299651649e-01,
          1.6121304351755761e-01, 2.3042806263737084e-01,
          3.3814157432087238e-01, -2.1087096546481852e-02,
          4.9609251173251115e-02, 5.9332976853483588e-01,
          2.3458911907665045e-01, -2.7219961981700624e-01,
          -5.6333290231821864e-01, -6.8038090500530238e-02,
          5.0154559628523665e-02, -5.4433181455810664e-02,
          -3.7773256299176505e-01, 4.1109527476784424e-01,
          3.9437647281947269e-01, 4.1649162247167387e-01,
          8.3939033098440696e-01, -1.2591389271292983e-01,
          -1.0453916396284547e-01, -3.5080461877695912e-01,
          4.7690741277298621e-01, -2.0373026356920437e-01,
          -3.3544296851662136e-01, -3.3502974328458413e-01,
          -1.0233414473786812e-01, -7.2506923536290824e-01,
          -2.9455259440906950e-01, -2.3207894154418898e-01,
          -2.4010974518272671e-01, -9.4536009890896396e-03,
          2.2744125531890214e-01, 9.1697258178039798e-01,
          -1.3977280428752648e-01, 1.9022010780941867e-01,
          4.6453478793379074e-03, 2.1861415618529501e-01,
          1.2038436539900917e-01, 1.3272792272759967e-01,
          -1.0161067761126973e-01, -8.2223061778739434e-02,
          -3.6300239895721687e-01, -3.0831962774150884e-01,
          -3.9096897268992697e-01, 1.7854936166165863e-01,
          -8.7794950064229493e-02, 2.5939223833099645e-01,
          1.2699272877177936e-01, 1.8009261440019347e-01,
          2.9035658578670631e-01, 3.8193706902576408e-01,
          1.0233241829316521e-01, 3.6364450986984820e-01,
          1.9400655101412223e-01, 4.8173175929814149e-01,
          5.2315694297919446e-01, -3.8990792127569190e-01,
          -1.9168565671380172e-01, 4.0252135328923000e-01,
          4.1406815199982566e-01, 2.0751525561000653e-01,
          -3.3840971445852203e-01, -4.2142632850602707e-01,
          2.7634407322183757e-01, -9.4480756186407375e-02,
          -7.3105417374446466e-02, -3.3497133482593716e-01,
          1.2749324473303701e-02, -3.2325023587070240e-01,
          4.0470524077523454e-02, -3.4125522888140886e-01,
          4.0063701797150381e-01, -8.2387602892881684e-01,
          5.1574774120311834e-02, 3.1777456854276731e-01,
          -1.1044171833103154e-02, 5.8852819126112461e-04,
          1.4401249320167403e-01, -3.1825288525577089e-01,
          -1.7750000264495611e-02, -4.1398214235083353e-01,
          -1.6236822545455770e-01, 2.1275917744035117e-01,
          -1.4353121280397269e-01, 6.3566321377886065e-02,
          -3.6181624911961813e-01, -5.1396607074860143e-02,
          3.9601373088812736e-01, -3.6408984935668470e-01,
          -5.4696668770373533e-02, 1.0798824996126986e+00,
          5.3965543775795238e-02, 4.0210985704701180e-01,
          6.7151865899230237e-02, 4.8081532725303411e-01,
          6.9030321366004774e-03, -3.4888390936791552e-01,
          -6.1218794876600049e-02, 3.2943551986846004e-01,
          -3.2843187096405208e-01, 6.4253306840717742e-02,
          -2.6037353509034528e-01, -3.8073215143906958e-01,
          -3.7904430091549912e-01, 4.6021270479404186e-01,
          2.2043778027882005e-01, -3.3732525570350530e-01,
          -2.8183397723899589e-01, -3.4984452923461834e-01,
          -9.8512783182372790e-02, -3.1737892343391327e-01,
          -2.3966279195038220e-01, -3.8895932899277630e-01,
          1.3198572504781125e-01, 4.7941812524777544e-01,
          1.4930577003586548e-02, -2.1801845158342353e-01,
          4.2061472014799167e-01, 2.4859345128696808e-01,
          3.5496848844354706e-01, -5.7552354676239637e-01,
          5.8663761030040684e-01, -2.1775669013855431e-01,
          8.4649851333510134e-02, 1.7733423566126394e-01,
          2.5637577888628560e-03, -2.8759595600473137e-01,
          6.5020100863818076e-01, -1.8793556761693991e-01 ]
      - [ -2.1962747656943249e-01, -4.7435683387161631e-01,
          1.0547506773698154e+00, 2.9268819512966067e-02,
          -1.4208069297368731e-01, 4.0147351265211045e-02,
          1.4058301087737325e-02, -8.0097195666884657e-01,
          -7.2043127462469403e-01, 9.1458925948272887e-02,
          -2.8647514326845092e-01, 1.5782807177470390e-01,
          -9.8988386861469368e-01, -1.7636470249828434e-01,
          -4.0403152564217426e-01, -8.1924405582004345e-01,
          3.4264554631645344e-01, 7.1078171259035650e-02,
          4.0629674508780705e-01, -5.0032597422783809e-01,
          -5.4739112609347396e-01, -9.9079563253581571e-01,
          3.9098994441899471e-01, -2.9087142027196494e-01,
          2.9878450692353536e-01, 3.5323046619439935e-01,
          9.8274025057555547e-01, -9.4842546760135649e-01,
          1.9648830066819944e-02, 8.4011392453950717e-01,
          -3.0211237449223621e-01, 9.9507853743120656e-01,
          8.3518523333243749e-02, -5.1284544021261846e-01,
          4.7276830728141322e-01, 7.8510592826518039e-02,
          -1.1938104019288111e-01, 3.6731146694512351e-01,
          -9.8855168391772985e-01, 3.2593503754244990e-01,
          -9.8036000806197926e-02, -6.4835220117904713e-01,
          5.1797344234596876e-01, 4.9350726808028506e-01,
          -1.2951533127145312e+00, 6.2290549237689097e-01,
          9.0419781776542429e-01, -9.3451667924382298e-01,
          1.3459820554043322e-01, -6.2865063391174481e-01,
          2.2797477982544231e-01, 7.7981926418904934e-01,
          1.4046319821138009e+00, -5.7551691508921099e-01,
          2.5074821831169808e-01, 7.6966724888631866e-01,
          -7.0324551337964419e-02, -4.0996798623640313e-01,
          1.3696410297692660e+00, 5.1968368971939038e-01,
          -1.8330283645211348e-01, -3.6468261084009690e-01,
          1.4298025608390744e-01, 6.2648219776464709e-01,
          3.4591856418562567e-01, 5.3900856902996386e-01,
          -3.2550833109524197e-01, 2.5529322856578045e-02,
          -2.5903026387576658e+00, 5.2620305447095717e-01,
          2.2027603181389139e+00, -3.9835619004008083e-01,
          -3.0043426012561020e-01, -8.9742896178521092e-01,
          -6.5726520256172094e-01, 9.0085933975450472e-01,
          8.0511389970312752e-01, -5.3996061800717599e-01,
          -2.3455550150951446e-01, -1.0429906128773208e+00,
          5.5084736247972110e-01, -1.3700959194939621e+00,
          -2.0875242052029647e-01, -6.7384849917568956e-01,
          -2.6890308307766726e+00, 3.5226833856899668e-02,
          -4.4104083487381840e-01, -8.5898323587708281e-01,
          -7.1044471301272794e-01, -3.7358357821598487e-01,
          -1.1530536153319910e-01, 6.9489340753981932e-01,
          -4.7164971389255328e-01, -5.3767634163394673e-01,
          -3.7892973097380339e-01, 5.0217799123283846e-01,
          5.7339846311960774e-01, -3.6962395637608603e-01,
          -6.0239927785154712e-01, 4.7414113166986011e-01,
          -3.6930879564917019e-01, -3.2742949034483665e-01,
          -8.9860621871994506e-01, -4.3970434872602304e-01,
          -9.9281120375751641e-01, -5.3571899308834625e-01,
          6.8286167439094225e-01, -4.6706204016686576e-01,
          8.9556682140279242e-01, -1.2601637162940738e-01,
          2.6444261222323995e-01, 2.9844577955921175e-01,
          -2.1258779307385317e-01, 8.0316306433275164e-01,
          7.7354107643575520e-01, -3.0523802809064621e-01,
          -2.4513215684422762e-01, -5.2499595990355841e-01,
          -7.5039435978519486e-01, -2.3558672893427074e-01,
          -5.9530062900801495e-01, -3.8097222794725283e-01,
          1.4652546755023962e-01, -5.2152326085007350e-01,
          -1.7516681871214257e+00, -6.3890409128925116e-02,
          3.2974439765655439e-01, -7.4053458241643222e-01,
          2.8084269941229201e-02, 8.9796443684686211e-01,
          5.2148318717545117e-01, 4.8573798550470526e-01,
          1.0529391022418897e+00, 4.9880850531471688e-01,
          -4.3283327833845253e-01, 5.4316706640198897e-01,
          -8.9591090729473921e-01, 8.3567451969738082e-02,
          -9.0041731480081844e-01, -7.5994700013333638e-01,
          -4.7235143707917093e-01, -1.2074167259157143e-01,
          2.8941739786621135e+00, -5.5674663581546080e-01,
          -4.9336826809693181e-02, 4.3664336273443133e-01,
          4.0385965878223357e-01, -1.0936602782141751e+00,
          1.7784418486545944e-01, -5.4610340612099062e-01,
          1.9459329590808630e-01, 4.8430812915407107e-01,
          -8.3886546606858181e-01, 1.1876668084234270e+00,
          7.0266939369988207e-02, 6.8660810607422706e-01,
          6.0845023070491626e+00, 1.1064411141893746e+00,
          -9.4376458296584398e-01, 4.0077970857913359e-01,
          8.1825733045183846e-01, -3.4537414141647194e-01,
          -1.3088220640296568e+00, 3.7667490471562182e-01,
          7.6411712108537411e-01, 1.0173673962505072e+00,
          4.2656415796071723e-01, -3.8494788825687562e-02,
          -1.9097397812303127e+00, -1.0392775251590185e+00,
          -1.8358712173057279e-01, -4.0928592276203118e-01,
          6.9168129855686378e-01, -3.7837134244465065e-01,
          -2.2626184295508531e-01, 7.2600596570795017e-01,
          8.9492102181384758e-01, 9.6342332953930920e-01,
          -1.2602321525275417e+00, -4.8025827773289764e-01,
          2.0593361839565688e-01, -1.3065830440057882e-01,
          -1.2791137696680885e+00, -8.1131923842953568e-01,
          8.7296061097277700e-01, -6.6114937097081017e-01,
          -6.5820357014290687e-01, -4.7152323734782908e-01,
          2.7158507247091679e-01, -5.6666567522678890e-01,
          4.8547667897740354e-01, -3.0283507372632751e-01,
          1.2558496846164380e-01, 1.6960376926436138e-01,
          -8.9531076552627054e-01, 1.1003962519842856e+00,
          3.0675249326502546e-01, -3.4155991201801100e-01,
          6.8776257067029012e-01, 1.0576394680411232e+00,
          -8.2122213234069785e-01, -9.8578427161944249e-01,
          6.6993297239953220e-01, 6.0718610726432898e-01,
          9.1351666085499594e-01, 6.4838712022914011e+00,
          4.3962803004406725e-01, -1.5639944103527906e-01,
          -2.5007450293993899e-01, 1.6005261147727207e-01,
          5.5003147801482688e-02, 6.2907039244911422e-01,
          3.7568918778988530e-01, -4.0287922507032344e-02,
          1.1241645986729623e-03, -4.2494371349306653e-01,
          -6.9062676172864557e-01, 5.9413564006551167e-01,
          1.1886071442941972e+00, 6.3774372873412255e-01,
          9.7036027700371219e-01, -1.7068329246263642e-01,
          -2.7841436136399640e+00, 4.6658691046932328e-02,
          6.5366594245766005e-02, -2.7884552426133224e-01,
          9.6081431724740562e-01, 7.1885784806384401e-01,
          -9.3621208368535280e-01, 4.4664292844250031e-01,
          1.2145729001501373e+00, 2.4524766529806191e-01,
          -8.9485935724730925e-01, -3.6723446581887942e-01,
          9.2372479219194836e-01, -4.2797429053839847e-01,
          4.6036275517867958e-01, 4.5578986750631106e-01,
          4.7226670823014599e-01, 7.4363394273055894e-01,
          -3.6243385389388644e-01, 4.9112099415826804e-01,
          1.5638141670169525e+00, 3.9806206314741693e-01,
          4.0166164442345537e-01, -3.1570485066449494e-01,
          -8.2320124375148251e-01, -9.8963864316122852e-01,
          5.0130954802901595e-01, 3.9587873269433149e-01,
          -3.1945507952075185e+00, -4.6967863543682778e-02,
          -2.4339537726325727e-01, 2.4931324833836233e-01,
          -1.5507882315481201e+00, -6.9769151633504656e-01,
          -5.8846793051105117e-01, 3.3157101165417491e-01,
          6.2209496600212044e-01, 3.3380125569649775e-02,
          -7.5701035219809953e-01, -9.6686223049677200e-01,
          5.7463473375858087e-01, -6.9484930373007570e-01,
          -3.0692244600249369e-01, -7.5870701017093561e-02,
          5.1499359733968975e-01, 1.2114389250320727e+00,
          3.7717364044742935e-01, 4.5974180099523815e-01,
          -3.3797832344450218e-01, 5.3331862683985176e-01,
          -8.8613578940589266e-01, -7.7473399837337253e-01,
          1.1866047033110489e+00, -5.9960677396402362e-01,
          -5.7772400456552020e-01, 9.1304785512058617e-01,
          -9.3984041045111566e-01, -7.9537259776728292e-02,
          9.3952165585621372e-01, 9.4192983846881551e-01,
          -1.9376263073779096e-01, -4.7917689396777458e-01,
          -7.1592005291177541e-02, -4.6452932292972265e-01,
          -5.5656179067760370e-01, 2.1927654079145736e-01,
          6.0539279864806872e-01, -1.0832787132425324e-01,
          2.0257297104621619e-01, 8.8569920084128628e-01,
          3.4378706155538691e-01, 2.4163917568325644e-02,
          1.5852828083501075e-01, 4.1380633425415864e-01,
          7.9721404040712229e-01, 3.7083464632426505e-01,
          9.4117959082408043e-01, 8.5702994606457306e-01,
          -9.0048666625285080e-03, -8.9958995364941152e-01,
          -8.6218124267245955e-01, -9.3831184267699841e-01,
          -7.6768560775912220e-01, 9.5431410093571667e-01,
          -5.5059601283538717e-01, -1.7176100007328007e-01,
          -1.3611953317492878e-01, -2.5754938388503473e-01,
          1.3900586471198184e+00, 2.7958469097206440e-01,
          2.8964316640148491e-01, -4.3008559460909612e-01,
          2.4436975042281328e+00, 7.8307639895077297e-01,
          8.1375145384678516e-01, 1.4946945542439943e-01,
          -2.1359399009604801e-01, -4.7265560754352964e-01,
          8.3106712207632938e-01, 9.6773508969697086e-01,
          -2.9985535372124211e-01, -8.8086247128763329e-01,
          8.0926272271856048e-01, 4.9634873245265659e-01,
          1.4374198131568242e-01, -4.5943780204248291e-01,
          3.9596703638385283e-01, -4.5995647871348355e-01,
          1.1134218970255936e+00, -3.6447717250166800e-01,
          5.4326073227791460e-01, 3.4514857450392611e-01,
          6.3482205823186783e-02, 3.3533133958463707e-01,
          -1.8108423249312311e-01, -2.5874449773322677e-02,
          -4.3066105550433548e-01, -8.5064403887403528e-01,
          -2.3322852262646956e+00, -8.9184985950798323e-01,
          9.6469343403705743e-01, -7.4195886626827068e-01,
          -5.2567225697003683e-01, -1.5041148882808730e-01,
          1.5261799000296148e+00, 4.5242061415905288e-01,
          -6.8592190122702501e-01, -1.8995513194927871e-01,
          8.4232388656990753e-01, 5.7057977738208443e-01,
          -6.5898418418285687e-01, -2.4880176828594974e-01,
          3.2916010798140843e-01, 4.6117034115269068e-01,
          -1.9817696760044723e-01, -2.5944673696861653e-01,
          1.8139668643895751e-01, 4.2541730054898819e-01,
          -6.0802110923985675e-01, -1.2818267710291348e-01,
          -5.2806997851309556e-01, 6.0697835702622560e-01,
          1.9309753942316088e+00, -2.9411656832419580e-01,
          -5.2336050123049246e-02, 7.5183947755292080e-01,
          -1.2206782702266332e+00, -1.0989521398550548e+00,
          6.6039962824441056e-01, -6.2304694356424317e-01,
          -9.1616373081953706e-01, 9.6710458080017692e-01,
          6.5175869356702842e-01, -7.1132944835988032e-01,
          8.3603577082745939e-01, -1.6017098501842902e-01,
          -8.6990500095497814e-01, 3.6191084760331266e-01,
          8.4862220667181187e-01, -1.5679175767178246e+00,
          -3.4738894369941409e-01, 5.3354975662015758e-01,
          1.0974884044469660e-01, 2.7405612749926884e-02,
          9.2119417478561449e-01, -8.4052714133702500e-01,
          9.7976552058600219e-01, 5.7578070436672313e-01,
          7.1263443759154124e-02, -5.7039302283511184e-01,
          3.3891842374119902e-01, 7.3451043047597031e-01,
          -6.2171284044023456e-01, -6.9848941667847153e-01,
          2.7223695594678538e-01, -4.6676562419535428e-01,
          1.0311755453315785e+00, -8.6472378196992383e-01,
          -1.1395044096279150e+00, -1.2097601919617267e+00,
          5.1376969597044103e-02, 6.3583673826665443e-01 ]
   class_labels: !!opencv-matrix
      rows: 1
      cols: 4
      dt: i
      data: [ 1, 2, 3, 4 ]
