%YAML:1.0
my_nb: !!opencv-ml-bayesian
   var_count: 4
   var_all: 4
   cls_labels: !!opencv-matrix
      rows: 1
      cols: 4
      dt: i
      data: [ 1, 2, 3, 4 ]
   count:
      - !!opencv-matrix
         rows: 1
         cols: 4
         dt: i
         data: [ 47, 47, 47, 47 ]
      - !!opencv-matrix
         rows: 1
         cols: 4
         dt: i
         data: [ 47, 47, 47, 47 ]
      - !!opencv-matrix
         rows: 1
         cols: 4
         dt: i
         data: [ 48, 48, 48, 48 ]
      - !!opencv-matrix
         rows: 1
         cols: 4
         dt: i
         data: [ 48, 48, 48, 48 ]
   sum:
      - !!opencv-matrix
         rows: 1
         cols: 4
         dt: d
         data: [ -2.3473902791738510e+01, -3.0323668360710144e+01,
             -4.2541913688182831e+01, -7.9244920969009399e+01 ]
      - !!opencv-matrix
         rows: 1
         cols: 4
         dt: d
         data: [ 9.1196119915693998e+00, -2.1711264792829752e+00,
             -5.4627887428505346e+00, -4.9243706107139587e+01 ]
      - !!opencv-matrix
         rows: 1
         cols: 4
         dt: d
         data: [ -2.7620003059506416e+01, -2.0816284868866205e+01,
             -2.4456272359937429e+01, 5.4971578538417816e+01 ]
      - !!opencv-matrix
         rows: 1
         cols: 4
         dt: d
         data: [ 3.3961365759372711e+01, 6.4625852644443512e+01,
             1.2001485157012939e+02, 3.0364417094737291e+01 ]
   productsum:
      - !!opencv-matrix
         rows: 4
         cols: 4
         dt: d
         data: [ 1.1937147260490086e+01, 1.5246693474841967e+01,
             2.1281725563295090e+01, 3.9580101477439641e+01,
             1.5246693474841967e+01, 1.9698604960736596e+01,
             2.7504867870523640e+01, 5.1138217277558397e+01,
             2.1281725563295090e+01, 2.7504867870523640e+01,
             3.8670435431275891e+01, 7.1768753252382183e+01,
             3.9580101477439641e+01, 5.1138217277558397e+01,
             7.1768753252382183e+01, 1.3364993035064549e+02 ]
      - !!opencv-matrix
         rows: 4
         cols: 4
         dt: d
         data: [ 6.2197436305277183e+00, 3.6228058186095278e+00,
             2.7555156466433779e+00, -7.8171147987713390e+00,
             3.6228058186095278e+00, 4.1250263462747663e+00,
             3.9254907853287793e+00, 4.2833196796138608e+00,
             2.7555156466433779e+00, 3.9254907853287793e+00,
             4.2674480773937109e+00, 7.5573961589614100e+00,
             -7.8171147987713390e+00, 4.2833196796138608e+00,
             7.5573961589614100e+00, 5.3833849914754886e+01 ]
      - !!opencv-matrix
         rows: 4
         cols: 4
         dt: d
         data: [ 1.7752563924528936e+01, 1.4191282924719090e+01,
             1.6442883356110933e+01, -3.1572121338658711e+01,
             1.4191282924719090e+01, 1.2090023549394374e+01,
             1.3625696282015008e+01, -2.2483328409325765e+01,
             1.6442883356110933e+01, 1.3625696282015008e+01,
             1.6056808878042570e+01, -2.9278262041327210e+01,
             -3.1572121338658711e+01, -2.2483328409325765e+01,
             -2.9278262041327210e+01, 8.3221871572734784e+01 ]
      - !!opencv-matrix
         rows: 4
         cols: 4
         dt: d
         data: [ 2.6674412258329671e+01, 4.9577405993609851e+01,
             8.9993826339769541e+01, 2.5040326656405480e+01,
             4.9577405993609851e+01, 9.3387788378467945e+01,
             1.7025250480580263e+02, 4.6875569232435495e+01,
             8.9993826339769541e+01, 1.7025250480580263e+02,
             3.1324659700365629e+02, 8.4481112576546295e+01,
             2.5040326656405480e+01, 4.6875569232435495e+01,
             8.4481112576546295e+01, 2.5318304713699810e+01 ]
   avg:
      - !!opencv-matrix
         rows: 1
         cols: 4
         dt: d
         data: [ -4.9944474024975555e-01, -6.4518443320659880e-01,
             -9.0514709974857088e-01, -1.6860621482767957e+00 ]
      - !!opencv-matrix
         rows: 1
         cols: 4
         dt: d
         data: [ 1.9403429769296596e-01, -4.6194180410276071e-02,
             -1.1622954772022415e-01, -1.0477384278114805e+00 ]
      - !!opencv-matrix
         rows: 1
         cols: 4
         dt: d
         data: [ -5.7541673040638364e-01, -4.3367260143471259e-01,
             -5.0950567416536308e-01, 1.1452412195503712e+00 ]
      - !!opencv-matrix
         rows: 1
         cols: 4
         dt: d
         data: [ 7.0752845332026482e-01, 1.3463719300925732e+00,
             2.5003094077110291e+00, 6.3259202280702687e-01 ]
   inv_eigen_values:
      - !!opencv-matrix
         rows: 1
         cols: 4
         dt: d
         data: [ 1.4795102089271975e+02, 2.9451232966609564e+02,
             8.1459151488100986e+02, 1.7887470644643311e+03 ]
      - !!opencv-matrix
         rows: 1
         cols: 4
         dt: d
         data: [ 3.6131693752767822e+00, 3.5011222207413866e+01,
             2.6753572294785971e+02, 3.5442611320707834e+02 ]
      - !!opencv-matrix
         rows: 1
         cols: 4
         dt: d
         data: [ 2.2996638432508552e+00, 5.8330580758154849e+00,
             2.7116717907662127e+02, 4.0566583839278837e+02 ]
      - !!opencv-matrix
         rows: 1
         cols: 4
         dt: d
         data: [ 1.7358887822886779e+00, 6.0905726939165532e+01,
             1.4873837566047533e+02, 3.3018946914616322e+02 ]
   cov_rotate_mats:
      - !!opencv-matrix
         rows: 4
         cols: 4
         dt: d
         data: [ 7.2103534460472940e-01, 5.5311395271679809e-01,
             4.0829767170451764e-01, 8.6406009174182022e-02,
             -4.9557784314233383e-01, -5.1100046208098528e-03,
             8.2394579943987922e-01, 2.7475408791234723e-01,
             4.8378139277662291e-01, -8.3172882606717946e-01,
             2.4906806095790543e-01, 1.1021717154187670e-01,
             2.1591600687356941e-02, 4.7602552995471184e-02,
             -3.0392668832584813e-01, 9.5126041011457729e-01 ]
      - !!opencv-matrix
         rows: 4
         cols: 4
         dt: d
         data: [ 5.7457350710242261e-01, 5.5577054484865873e-01,
             5.2440748807983839e-01, 2.9322546420875811e-01,
             -3.5257178277166190e-01, -4.1505880934612265e-02,
             -9.0017719445738248e-02, 9.3051986009264853e-01,
             -5.5714367381766450e-01, -1.1614066115203135e-01,
             8.1061467495541006e-01, -1.3786269364501627e-01,
             4.8492200368120042e-01, -8.2213606547434470e-01,
             2.4453516184491195e-01, 1.7072051667464141e-01 ]
      - !!opencv-matrix
         rows: 4
         cols: 4
         dt: d
         data: [ 3.2163471953727319e-03, 6.7266450365969579e-02,
             -6.2571763243516682e-02, 9.9576586314779791e-01,
             -4.6358687670051785e-01, -5.9954843222522203e-01,
             -6.5240162431124382e-01, 1.0028775536795047e-03,
             -7.9934213607408167e-01, -3.3077215114094199e-02,
             5.9846334948225777e-01, 4.2422478278588770e-02,
             3.8226824659955988e-01, -7.9682043140957215e-01,
             4.6075862918357263e-01, 8.1545529385959131e-02 ]
      - !!opencv-matrix
         rows: 4
         cols: 4
         dt: d
         data: [ 2.8614003216620315e-01, 4.7649871169817376e-01,
             6.8848884877697702e-01, 4.6589265378588823e-01,
             -6.5224940259521358e-01, -4.3619606947491313e-01,
             6.1656522578318929e-01, -6.4428473082546789e-02,
             -4.1921340502108040e-01, -2.0835289960162623e-02,
             -3.7168764287408829e-01, 8.2805453194678680e-01,
             -5.6298731766953924e-01, 7.6305167414592123e-01,
             -8.7628326466856032e-02, -3.0515356646610264e-01 ]
   c: !!opencv-matrix
      rows: 1
      cols: 4
      dt: d
      data: [ -2.4874159616349033e+01, -1.6300006975093567e+01,
          -1.4204569651486297e+01, -1.5462702290568066e+01 ]
