svm_type c_svc
kernel_type linear
nr_class 4
total_sv 90
rho 4.27939 0.122228 1.2531 -0.169231 0.553566 0.460584
label 1 2 3 4
nr_sv 30 40 5 15
SV
0.5743491774985174 0 0 1:-0.5527311 2:-0.71119171 3:-0.9356842 4:-1.572986 
0.3014948073955147 0 0 1:-0.66939306 2:-0.7327165 3:-0.99456751 4:-1.5589794 
0 0.05907233675621406 0.02134659106700538 1:-0.79266918 2:-0.82808834 3:-1.0326058 4:-1.6116033 
0.5743491774985174 0 0 1:-0.52851999 2:-0.7248047 3:-0.89450872 4:-1.554498 
0.5743491774985174 0 0 1:-0.66707683 2:-0.79667652 3:-1.0005472 4:-1.5737145 
0 0.5743491774985174 0 1:-0.74830914 2:-0.80915654 3:-1.1161188 4:-1.5739897 
0 0.5743491774985174 0 1:-0.73652756 2:-0.85266995 3:-1.1629286 4:-1.5789444 
0.5743491774985174 0 0 1:-0.060766492 2:-0.28593051 3:-0.62628275 4:-1.4408576 
0.3076172249047996 0 0 1:-0.13689494 2:-0.33971238 3:-0.66888112 4:-1.4880733 
0.5743491774985174 0 0 1:-0.078917287 2:-0.29128045 3:-0.59534281 4:-1.4827925 
0.5743491774985174 0 0 1:0.096260466 2:0.017071007 3:-0.44773793 4:-1.3386989 
0.5743491774985174 0 0 1:0.13137758 2:0.044556931 3:-0.40732619 4:-1.2217354 
0.5743491774985174 0 0.5743491774985174 1:-0.045538872 2:0.096604757 3:-0.43240517 4:-1.2270304 
0.5743491774985174 0 0 1:0.058677878 2:0.042418178 3:-0.42686448 4:-1.2596498 
0.5743491774985174 0 0 1:0.12714244 2:0.040312305 3:-0.44515952 4:-1.2565471 
0.5743491774985174 0 0 1:-0.0096197724 2:0.10353182 3:-0.51351237 4:-1.2052898 
0.5743491774985174 0 0.2981118117950253 1:-0.049784072 2:0.034717262 3:-0.49746314 4:-1.2260991 
0.5743491774985174 0 0 1:-0.064210109 2:-0.017741395 3:-0.47584277 4:-1.3068986 
0.5743491774985174 0 0 1:-0.07287024 2:0.011659233 3:-0.49059877 4:-1.2925873 
0.3756613783356146 0 0 1:-0.13264088 2:-0.016565038 3:-0.52145767 4:-1.3074447 
0.5743491774985174 0 0 1:0.070265204 2:0.12729311 3:-0.41372731 4:-1.2452054 
0.5743491774985174 0 0 1:-0.018603669 2:0.064747505 3:-0.44500133 4:-1.2832747 
0.5743491774985174 0 0 1:0.027393708 2:0.029534794 3:-0.46982732 4:-1.3047371 
0.5743491774985174 0 0 1:0.14261499 2:0.15482815 3:-0.37545007 4:-1.2820784 
0.5743491774985174 0 0.5743491774985174 1:0.090137407 2:0.24377671 3:-0.27395958 4:-1.1896384 
0.5743491774985174 0 0.5743491774985174 1:0.12426028 2:0.24664679 3:-0.33151942 4:-1.1543422 
0.5292615900612329 0 0 1:0.065728813 2:0.15069269 3:-0.41661677 4:-1.2495577 
0.5743491774985174 0 0 1:0.13558941 2:0.27330974 3:-0.29284889 4:-1.1746862 
0.5743491774985174 0 0 1:0.14832982 2:0.30064309 3:-0.25774312 4:-1.2081553 
0.5743491774985174 0 0 1:0.10389539 2:0.14633057 3:-0.42611098 4:-1.2196103 
-0 0.5743491774985174 0.5743491774985174 1:-0.61642319 2:-0.45735043 3:-0.77222061 4:-0.11901999 
-0.5743491774985174 0.1674289672470612 0 1:-1.1289706 2:-1.3331528 3:-1.3352091 4:-1.6744163 
-0.5743491774985174 0.5743491774985174 0 1:-1.2537909 2:-1.4151521 3:-1.3563626 4:-1.6596311 
-0 0.5743491774985174 0.5743491774985174 1:0.3063643 2:-0.056419164 3:0.034269813 4:-0.33340254 
-0 0 0.5743491774985174 1:0.37619513 2:0.15308706 3:0.19582453 4:-0.56406683 
-0.5743491774985174 0 0 1:0.063455991 2:-0.11668134 3:-0.27113101 4:-0.98448277 
-0.3653366457001269 0 0 1:0.1838218 2:-0.0016332221 3:-0.19184734 4:-0.92472434 
-0.5743491774985174 0 0 1:0.34921005 2:0.1733456 3:-0.12847096 4:-0.90718222 
-0.5743491774985174 0 0 1:0.11627384 2:-0.21424411 3:-0.33232638 4:-1.0339711 
-0.5743491774985174 0 0 1:0.1139797 2:-0.13627736 3:-0.27384439 4:-1.0081445 
-0.5743491774985174 0 0 1:0.094870873 2:-0.037380837 3:-0.2590746 4:-0.98530173 
-0.5743491774985174 0 0 1:0.018374015 2:-0.16704728 3:-0.40352899 4:-0.97737223 
-0.5743491774985174 0 0 1:-0.055668227 2:-0.27905473 3:-0.48041052 4:-1.1397383 
-0 0.1838507797428669 0.559401492202959 1:0.22228238 2:0.053117208 3:-0.13047509 4:-0.49321476 
-0 0 0.5743491774985174 1:-0.61889029 2:-0.58952522 3:-0.42297348 4:-1.1387221 
-0 0 0.5743491774985174 1:0.15126668 2:0.07046926 3:0.21658528 4:-0.70980954 
-0 0 0.5743491774985174 1:-0.24084824 2:-0.37187788 3:-0.17411797 4:-0.89685041 
-0.5743491774985174 0 0 1:0.069630936 2:-0.054463685 3:-0.13624905 4:-1.0192267 
-0.5743491774985174 0 0 1:0.066776134 2:-0.17631653 3:-0.19703919 4:-1.0723068 
-0 0 0.5743491774985174 1:-0.089285947 2:-0.14015895 3:0.16172811 4:-0.79697949 
-0 0 0.5743491774985174 1:0.21601975 2:0.16905932 3:0.25720131 4:-0.67502129 
-0.5743491774985174 0 0 1:0.021917379 2:-0.26734772 3:-0.31259802 4:-1.0972742 
-0.5743491774985174 0 0 1:-0.86677337 2:-0.94400501 3:-0.90753764 4:-1.4190406 
-0.5743491774985174 0 0 1:-0.011116753 2:-0.1561413 3:-0.24673763 4:-1.0592813 
-0.5743491774985174 0 0 1:0.19335951 2:-0.092417136 3:-0.16582935 4:-1.0445218 
-0.5743491774985174 0 0 1:0.032610215 2:-0.14060573 3:-0.20154953 4:-1.0463521 
-0.5743491774985174 0 0 1:-0.061585769 2:-0.18950814 3:-0.2530573 4:-1.0854486 
-0 0 0.5743491774985174 1:0.26740336 2:0.0071532936 3:0.24159659 4:-0.73409945 
-0.5743491774985174 0 0 1:0.016295053 2:-0.25580642 3:-0.35475433 4:-1.1687409 
-0.5743491774985174 0 0 1:0.42475086 2:0.34090629 3:-0.10206337 4:-0.86329937 
-0.5743491774985174 0 0 1:-0.15638143 2:-0.24632892 3:-0.25904766 4:-1.0967695 
-0 0 0.5743491774985174 1:-0.018191818 2:-0.12720586 3:0.31774995 4:-0.72612953 
-0.5743491774985174 0 0 1:0.019532345 2:-0.25436306 3:-0.22787239 4:-1.1225847 
-0.5743491774985174 0 0 1:0.082499258 2:-0.10971 3:-0.14159475 4:-1.0623432 
-0.5743491774985174 0 0 1:0.27457899 2:-0.11426811 3:-0.20902936 4:-1.0834093 
-0.5743491774985174 0 0 1:0.30921146 2:-0.025739143 3:-0.11132619 4:-1.0229812 
-0 0 0.5743491774985174 1:0.022083487 2:-0.045904282 3:0.11326057 4:-0.77119511 
-0.5743491774985174 0 0 1:0.17132591 2:0.0033317732 3:-0.11930379 4:-1.0302356 
-0 0 0.5743491774985174 1:1.2934358 2:1.32941 3:1.2462822 4:-0.0073392787 
-0 0 0.08404619991349563 1:0.83162647 2:0.79052728 3:0.50927705 4:-0.24405251 
-0 -0 0.2725829277507473 1:-0.32974526 2:-0.13592003 3:-0.24122511 4:0.75702155 
-0 -0.351279746989928 0.5743491774985174 1:-0.39681903 2:-0.21549281 3:-0.21502362 4:0.57847351 
-0.5743491774985174 -0.5743491774985174 0.5743491774985174 1:-1.2537868 2:-1.2841572 3:-1.2360648 4:-0.75985318 
-0.5743491774985174 -0.5743491774985174 0 1:-1.2366813 2:-1.2427571 3:-1.1890073 4:-0.47192827 
-0.059072336756214 -0.5743491774985174 0.5743491774985174 1:-0.38624203 2:-0.18966116 3:-0.18265179 4:0.46547773 
-0 -0 -0.2793230724162217 1:-0.36476827 2:-0.18571292 3:0.47029549 4:-0.14059788 
-0.5743491774985174 -0.5743491774985174 -0.5676090328330431 1:-0.55144489 2:-0.45057026 3:0.027445553 4:-0.67627001 
-0 -0.5743491774985174 -0.5743491774985174 1:-0.65101343 2:-0.4474805 3:0.0077710906 4:-0.53350985 
-0 -0.5743491774985174 -0 1:-0.3799814 2:-0.1664089 3:0.3434847 4:-0.41973686 
-0 -0.5743491774985174 -0 1:0.23058937 2:0.25040519 3:0.64290917 4:-0.3213177 
-0 -0.06909851461793703 -0 1:-0.20428804 2:-0.072367743 3:0.52327979 4:-0.3539871 
-0.5743491774985174 -0.5743491774985174 -0 1:-0.097642422 2:-0.086396791 3:0.080156662 4:-0.41418549 
-0.5743491774985174 -0.5743491774985174 -0 1:-0.09508203 2:-0.11071054 3:0.074971408 4:-0.4128373 
-0.3194584028620306 -0.5743491774985174 -0.5743491774985174 1:-0.10658288 2:-0.18695198 3:0.088806704 4:-0.36086762 
-0 -0.5743491774985174 -0 1:-0.055250347 2:-0.0055832081 3:0.26172319 4:-0.33298036 
-0 -0.5743491774985174 -0 1:0.0022386343 2:-0.015180854 3:0.25994185 4:-0.33736694 
-0 -0.5743491774985174 -0 1:-0.016865771 2:0.057965573 3:0.27163765 4:-0.31340316 
-0 -0.5743491774985174 -0 1:-0.016860543 2:0.14726052 3:0.55772316 4:-0.17257231 
-0 -0.5743491774985174 -0 1:0.037969906 2:0.17344074 3:0.56448573 4:-0.15598723 
-0 -0.5743491774985174 -0 1:0.064240679 2:0.19013248 3:0.59118956 4:-0.12082953 
