svm_type c_svc
kernel_type linear
nr_class 4
total_sv 65
rho -1.80202 -3.6917 -6.41538 -0.10199 -7.07451 -1.98722
label 3 2 4 1
nr_sv 21 24 17 3
SV
0 12.12573253208319 0 1:0.98388118 2:1.273388 3:1.5671661 4:0.31169242 
12.12573253208319 0 0 1:0.39333487 2:0.39169022 3:0.35815561 4:-0.56743455 
12.12573253208319 12.12573253208319 0 1:0.051439654 2:-0.087829612 3:-0.067745797 4:-0.93024886 
12.12573253208319 12.12573253208319 0 1:0.26900935 2:0.11325935 3:0.2070293 4:-0.70000136 
0 12.12573253208319 0 1:0.76631147 2:1.0104256 3:1.2099584 4:0.11633085 
12.12573253208319 12.12573253208319 0 1:-0.13504866 2:-0.22704506 3:-0.20513335 4:-1.0418841 
0 12.12573253208319 0 1:0.64198595 2:0.90214688 3:1.0588322 4:-0.051121902 
12.12573253208319 12.12573253208319 0 1:0.39333487 2:0.48450053 3:0.56423694 4:-0.4627766 
12.12573253208319 0 0 1:0.14468381 2:0.066854209 3:0.014686733 4:-0.83256811 
12.12573253208319 1.96317259886493 9.535717992454922 1:-0.0418045 2:-0.16517152 3:-0.2188721 4:-1.0558385 
0 12.12573253208319 0 1:0.61090457 2:0.82480496 3:1.003877 4:-0.01623591 
12.12573253208319 0 0 1:-0.010723116 2:-0.072361231 3:-0.10896207 4:-0.96513486 
12.12573253208319 0 0 1:-0.0418045 2:-0.041424468 3:-0.067745797 4:-0.88838571 
12.12573253208319 12.12573253208319 0 1:0.42441627 2:0.48450053 3:0.60545319 4:-0.39300463 
8.808613675618794 12.12573253208319 0 1:0.67306733 2:0.88667846 3:1.0588322 4:-0.0022815149 
0 12.12573253208319 0 1:0.54874182 2:0.79386818 3:0.93518335 4:-0.11391669 
12.12573253208319 12.09156136213568 0 1:0.73523009 2:0.91761523 3:1.003877 4:-0.051121902 
1.304886907517122 0 0 1:0.11360242 2:-0.010487703 3:-0.16391708 4:0.12330806 
12.12573253208319 0 0 1:0.39333487 2:0.36075348 3:0.26198432 4:-0.24648345 
12.12573253208319 0 2.259809954990463 1:-0.88100189 2:-1.155148 3:-1.0706749 4:-1.2930632 
3.939117920670838 0 12.12573253208319 1:-0.91208327 2:-1.0623378 3:-1.0157199 4:-1.3628352 
-12.12573253208319 0 0 1:-0.2593742 2:-0.35079211 3:-0.54860222 4:-0.96513486 
-12.12573253208319 0 0 1:-0.19721141 2:-0.30438697 3:-0.49364722 4:-0.7139557 
-0 12.12573253208319 0 1:2.0406482 2:1.8147814 3:1.5259498 4:0.17912564 
-0 4.475900722853247 0 1:1.3879392 2:0.77839977 3:0.68788576 4:-0.51859421 
-12.12573253208319 0 0 1:0.30009073 2:0.3298167 3:0.23450682 4:-0.59534335 
-8.31573258955299 0 0 1:0.20684658 2:0.0049806791 3:-0.012790778 4:-0.7697733 
-12.12573253208319 7.685808286383661 0 1:-0.010723116 2:-0.35079211 3:-0.27382714 4:-0.95815766 
-12.12573253208319 0 0 1:-0.19721141 2:-0.47453916 3:-0.45243093 4:-1.0558385 
-0 12.12573253208319 0 1:0.70414871 2:0.34528509 3:0.3032006 4:-0.59534335 
-0 12.12573253208319 0 1:0.54874182 2:0.34528509 3:0.38563311 4:-0.7627961 
-0 0 10.05578496195527 1:0.23792796 2:0.0049806791 3:-0.26008838 4:-1.216314 
-12.12573253208319 0 0 1:0.23792796 2:0.17513289 3:0.097119264 4:-0.67906976 
-12.12573253208319 11.02225427887173 0 1:0.11360242 2:0.14419612 3:0.13833553 4:-0.67209256 
-12.12573253208319 12.12573253208319 0 1:0.30009073 2:0.40715861 3:0.44058815 4:-0.4139362 
-0 12.12573253208319 0 1:0.42441627 2:0.34528509 3:0.4543269 4:-0.81861371 
-12.12573253208319 12.12573253208319 0 1:1.0149626 2:1.3971351 3:1.5122111 4:-0.099962287 
-12.12573253208319 12.12573253208319 0 1:0.23792796 2:-0.14970315 3:0.083380505 4:-0.78372771 
-0 12.12573253208319 0 1:0.76631147 2:0.54637408 3:0.68788576 4:-0.64418375 
-0 5.030246830705171 0 1:0.33117211 2:0.12872773 3:0.22076806 4:-1.0558385 
-12.12573253208319 12.12573253208319 0 1:0.23792796 2:0.19060126 3:0.44058815 4:-0.53952575 
-5.73688591425377 0 0 1:0.051439654 2:0.22153804 3:-0.054007042 4:-0.91629446 
-12.12573253208319 0 0 1:-0.010723116 2:-0.087829612 3:-0.067745797 4:-1.0488613 
-12.12573253208319 0 0 1:0.36225349 2:0.43809539 3:0.34441686 4:-0.56045735 
-0 0 12.12573253208319 1:-0.13504866 2:-0.47453916 3:-0.35625964 4:-1.3279492 
-12.12573253208319 -12.12573253208319 0 1:0.051439654 2:0.051385827 3:0.22076806 4:-0.7279101 
-12.12573253208319 -12.12573253208319 0 1:0.33117211 2:0.20606965 3:0.38563311 4:-0.54650295 
-0 -12.12573253208319 0 1:0.26900935 2:0.12872773 3:0.46806565 4:-0.66511536 
-0 -12.12573253208319 0 1:0.5798232 2:0.34528509 3:0.60545319 4:-0.35811862 
-12.12573253208319 -12.12573253208319 0.9182818198235263 1:0.051439654 2:-0.05689285 3:0.19329055 4:-0.7558189 
-7.109512076804505 -0 0 1:0.45549765 2:0.8712101 3:1.3336072 4:-0.099962287 
-12.12573253208319 -12.12573253208319 0 1:-0.0418045 2:0.0049806791 3:0.26198432 4:-0.70697856 
-12.12573253208319 -12.12573253208319 0 1:0.30009073 2:0.3298167 3:0.6329307 4:-0.4627766 
-12.12573253208319 -12.12573253208319 0 1:0.17576519 2:0.035917442 3:0.24824557 4:-0.26741505 
-12.12573253208319 -3.962745054647415 0 1:0.48657903 2:0.79386818 3:1.0725709 4:-0.24648345 
-12.12573253208319 -0 0 1:0.54874182 2:0.76293141 3:1.1137872 4:-0.18368867 
-12.12573253208319 -0 0 1:0.26900935 2:0.37622187 3:0.85275078 4:-0.030190308 
-8.909484611084711 -0 0 1:-0.16613004 2:0.14419612 3:0.86648953 4:0.032604475 
-12.12573253208319 -0 0 1:0.020358268 2:0.3298167 3:1.0725709 4:0.27680641 
-0 -12.12573253208319 0 1:0.33117211 2:0.14419612 3:0.37189436 4:-0.7209329 
-0 -12.12573253208319 1.256629899328451 1:0.11360242 2:-0.11876638 3:0.31693935 4:-0.85349971 
-10.1614698051946 -12.12573253208319 0 1:4.7136474 2:3.7637975 3:2.4739239 4:-0.0720535 
-12.12573253208319 -10.82728540158931 -0.5817209329288489 1:-0.38369972 2:-0.4590708 3:-0.63103473 4:-1.3349264 
-11.79552794744539 -0 -0 1:-0.72559494 2:-0.79937518 3:-0.87833238 4:-1.5721511 
-0 -11.35423209244914 -1.593190786223128 1:0.26900935 2:0.051385827 3:-0.2188721 4:-1.6489003 
