svm_type c_svc
kernel_type linear
nr_class 4
total_sv 15
rho 11.8528 0.38943 0.130676 -0.523713 -0.864654 -0.796017
label 1 2 3 4
nr_sv 5 6 3 1
SV
0 0 0.164458314039524 1:-0.487829 2:-0.57446957 3:-0.73710972 4:-1.6678729 
5.55203126552468 0 0 1:-0.6609112 2:-0.7401582 3:-0.89841986 4:-1.6815109 
27.85761802547597 0 0.04936719381059149 1:-0.40524244 2:-0.63745117 3:-0.75872761 4:-1.6307409 
27.85761802547597 0 0 1:-0.53935093 2:-0.70892179 3:-0.865991 4:-1.6478255 
4.896698084368571 2.07587518567815 0 1:-0.60657197 2:-0.7646026 3:-1.0302482 4:-1.6524754 
-0 25.09680121540538 0 1:-0.49032354 2:-0.37149021 3:-0.63502693 4:-0.35451496 
-27.85761802547597 0 0 1:-0.98641586 2:-1.2424027 3:-1.2045187 4:-1.7373554 
-8.06004034587966 0.8455433688922848 0 1:-1.1072288 2:-1.3239442 3:-1.2259166 4:-1.7242105 
-0 0 1.023044034810008 1:0.47042716 2:0.23553902 3:0.34420043 4:-0.75018823 
-2.388689004013593 0 0 1:0.4443084 2:0.25568444 3:0.016158879 4:-1.0552384 
-27.85761802547597 0 0 1:0.052428599 2:-0.19419001 3:-0.33984604 4:-1.2619947 
-0 -0 0.104247863435671 1:-0.17853612 2:-0.046375673 3:0.073664717 4:0.86913705 
-1.99073863707607 -11.07576926157822 0 1:-1.1072248 2:-1.1936806 3:-1.1042291 4:-0.92425406 
-0.08513654860207952 -14.86657532271943 0.5334544044689934 1:-0.26753226 2:-0.10529552 3:-0.038647808 4:0.16513851 
-0.2138255078501155 -1.023044034810008 -0.6377022679046644 1:0.25587705 2:0.51532906 3:1.5201298 4:-0.0809903 
