svm_type c_svc
kernel_type linear
nr_class 2
total_sv 224
rho -0.898435
label 1 0
nr_sv 111 113
SV
1 1:0.69109237 2:-0.20162838 3:-0.65376578 4:-0.43547766 
1 1:0.372286 2:0.014274367 3:-1.1031219 4:-0.43038233 
1 1:0.46324437 2:-0.079541522 3:-0.72899212 4:-0.45271813 
1 1:0.75094097 2:-0.19616619 3:-0.33190814 4:-0.30877904 
1 1:0.70365619 2:0.01759753 3:-0.6909989 4:-0.41240323 
1 1:-0.97853178 2:-0.42895003 3:0.48181126 4:-0.26463967 
1 1:-0.49667527 2:-0.14551467 3:0.02117055 4:-0.4017121 
1 1:-0.88133649 2:-0.035018372 3:1.7800309 4:0.74981121 
1 1:-0.11959717 2:-0.071099793 3:-0.68969274 4:-0.53344103 
1 1:-0.84875076 2:-0.33219283 3:0.13992409 4:-0.41925118 
1 1:-0.78710927 2:-0.21299915 3:0.62594993 4:-0.22865958 
1 1:0.17328549 2:-0.026583638 3:-0.95232954 4:-0.48307589 
1 1:0.55389122 2:-0.022533338 3:-0.40316594 4:-0.45013169 
1 1:-0.60848895 2:-0.07361427 3:1.1913011 4:0.17146374 
1 1:0.49940573 2:-0.23194414 3:-1.4055887 4:-0.323277 
1 1:-0.82937399 2:-0.11821296 3:1.6883694 4:0.6160756 
1 1:-0.22614497 2:-0.035118228 3:0.095960618 4:-0.39662361 
1 1:0.35976138 2:-0.26508256 3:-0.79837598 4:-0.44047181 
1 1:1.512446 2:-0.18200812 3:-0.88196447 4:-0.38624303 
1 1:1.4136505 2:-0.22623662 3:-0.80293519 4:-0.37971557 
1 1:0.48918021 2:-0.0012251123 3:-0.97430606 4:-0.46020262 
1 1:2.0860009 2:-0.0063752669 3:-0.68361571 4:-0.42379254 
1 1:-0.87208013 2:-0.4150814 3:0.50629156 4:-0.1761484 
1 1:-0.057883661 2:-0.074718622 3:-0.22316161 4:-0.45417397 
1 1:0.34142508 2:-0.16644706 3:-0.89833509 4:-0.43656116 
1 1:0.20811258 2:-0.17127593 3:-0.80754391 4:-0.43693097 
1 1:0.56352464 2:-0.078147148 3:-0.73359259 4:-0.43729587 
1 1:-0.068562106 2:-0.068225633 3:-0.28849653 4:-0.38850409 
1 1:1.7266081 2:-0.03750803 3:-0.85200042 4:-0.40133951 
1 1:-0.86171966 2:-0.10027429 3:1.219222 4:0.19381764 
1 1:-0.77921774 2:-0.10009336 3:1.1271584 4:0.20730184 
1 1:1.9339253 2:0.016708231 3:-0.75966763 4:-0.41751742 
1 1:0.33212738 2:0.009098241 3:0.98020011 4:0.13148285 
1 1:0.56523315 2:-0.1044057 3:0.65940812 4:0.20014864 
1 1:-0.92273872 2:-0.39317803 3:0.50638368 4:-0.20743168 
1 1:-0.92370021 2:-0.44687694 3:0.86164992 4:0.029039189 
1 1:1.5727291 2:0.092365881 3:-0.97327116 4:-0.36244619 
1 1:0.13733606 2:-0.073301928 3:-0.44568539 4:-0.42804072 
1 1:-0.032415082 2:-0.37652828 3:-0.52366102 4:-0.42556547 
1 1:1.3565879 2:-0.28580341 3:-0.77616578 4:-0.39223145 
1 1:1.4539944 2:-0.17492955 3:-1.0562497 4:-0.3780657 
1 1:1.0409292 2:-0.10301682 3:0.04371679 4:-0.38037114 
1 1:1.286188 2:-0.15582611 3:-0.79700877 4:-0.48019886 
1 1:1.1851067 2:-0.047089841 3:-0.92608619 4:-0.45080471 
1 1:2.2866981 2:-0.34545889 3:-0.12254126 4:-0.15527653 
1 1:1.8973903 2:-0.280334 3:-1.3076557 4:-0.28408126 
1 1:0.90751355 2:-0.2106515 3:-0.84041874 4:-0.45697936 
1 1:2.668085 2:0.094488919 3:-0.48645964 4:-0.41309118 
1 1:-0.021307331 2:-0.056257295 3:-0.16943256 4:-0.40388938 
1 1:0.16879578 2:-0.06757977 3:-0.48014022 4:-0.44416969 
1 1:-0.2215064 2:-0.24241052 3:-0.58856 4:-0.45861151 
1 1:-0.032415082 2:-0.37652828 3:-0.52366102 4:-0.42556547 
1 1:1.5295631 2:0.062467254 3:-1.2455611 4:-0.31239908 
1 1:1.3467356 2:-0.075583702 3:-0.57949293 4:-0.29200399 
1 1:-0.77288794 2:-0.10532933 3:0.43846003 4:-0.2389637 
1 1:0.74359 2:-0.27485327 3:0.13326728 4:-0.11390012 
1 1:0.056304597 2:-0.094894655 3:0.23959198 4:-0.28954645 
1 1:1.4549764 2:-0.32147401 3:-0.85853111 4:-0.38362505 
1 1:1.2986204 2:-0.2546904 3:-0.76302084 4:-0.43112508 
1 1:1.0353747 2:-0.10637342 3:-0.71608318 4:-0.43852742 
1 1:1.2953587 2:-0.093156666 3:-0.41319252 4:-0.43514228 
1 1:1.3127638 2:-0.024176066 3:-0.4492193 4:-0.45765616 
1 1:0.86088155 2:-0.13058913 3:0.39216167 4:-0.2669108 
1 1:1.1979613 2:0.067102152 3:-0.55743443 4:-0.45871979 
1 1:1.4008246 2:-0.21219721 3:-0.7547644 4:-0.46573774 
1 1:1.5851317 2:0.095144665 3:0.16600064 4:-0.16255216 
1 1:0.38117004 2:-0.063339724 3:0.31259805 4:-0.22152706 
1 1:0.53653398 2:-0.042885446 3:0.10098396 4:-0.068918142 
1 1:1.7621595 2:0.097137499 3:-0.7358019 4:-0.35727314 
1 1:1.9913826 2:-0.21983291 3:-0.87068772 4:-0.27983657 
1 1:2.101546 2:-0.21067344 3:-0.93514116 4:-0.14310347 
1 1:1.5732366 2:-0.01661684 3:-0.99798455 4:-0.36599303 
1 1:0.82059321 2:-0.23681127 3:-0.75534324 4:-0.45190902 
1 1:1.0234628 2:-0.2309679 3:-0.82208803 4:-0.45548031 
1 1:1.5116328 2:-0.031742743 3:0.055790594 4:-0.17368776 
1 1:1.6078525 2:-0.079505937 3:0.13048795 4:-0.17886508 
1 1:2.1981257 2:-0.053697485 3:0.12310795 4:-0.15823516 
1 1:2.4741225 2:-0.062043755 3:0.30332224 4:-0.28796509 
1 1:3.4447302 2:0.10728527 3:-1.0337478 4:-0.27979557 
1 1:-0.8317382 2:-0.25498416 3:1.4472377 4:0.43160469 
1 1:3.376198 2:0.28636335 3:-1.514457 4:-0.19848459 
1 1:-0.87909265 2:-0.095235953 3:1.1700185 4:0.12621143 
1 1:0.46456664 2:-0.092642951 3:-0.97513248 4:-0.41183384 
1 1:1.418123 2:-0.052881491 3:-0.3952341 4:-0.28615214 
1 1:0.36637428 2:-0.025712765 3:0.11964145 4:-0.35096155 
1 1:-0.61527688 2:-0.23027023 3:0.73808236 4:-0.078835402 
1 1:0.91841614 2:-0.42982468 3:-1.4218277 4:-0.10252584 
1 1:-0.24582847 2:-0.14703666 3:-0.19214692 4:-0.40034545 
1 1:0.39742377 2:-0.15935885 3:-0.51431281 4:-0.32850083 
1 1:1.6873039 2:0.087223584 3:-0.19831611 4:-0.38294477 
1 1:0.77797033 2:-0.33225323 3:-0.79382982 4:-0.24158934 
0.8863690227343468 1:2.319659 2:0.1835753 3:-0.81275531 4:-0.33161499 
1 1:0.57472058 2:-0.351176 3:-0.97077936 4:-0.17494202 
1 1:0.66835373 2:-0.26328208 3:0.74398001 4:0.19273866 
1 1:-0.77759166 2:-0.24478352 3:1.1078669 4:0.26451484 
1 1:-0.37974709 2:-0.1697171 3:-0.48055168 4:-0.46475615 
1 1:-0.8369749 2:-0.28360645 3:0.77113861 4:-0.12923923 
1 1:-0.67565832 2:-0.17790374 3:0.30715305 4:-0.25359594 
1 1:0.97404423 2:0.03397514 3:-0.39503505 4:-0.4174832 
1 1:2.7039442 2:0.1760433 3:-0.68652624 4:-0.30001531 
1 1:0.28447999 2:-0.22341078 3:-0.7124288 4:-0.45325616 
1 1:-0.45488195 2:-0.12311357 3:-0.046863915 4:-0.46652937 
1 1:0.20590504 2:0.014672613 3:-0.0095125754 4:-0.24407214 
1 1:0.67158288 2:-0.41662505 3:0.96301587 4:0.23337737 
1 1:0.90320409 2:-0.14556563 3:-0.021405682 4:-0.018686568 
1 1:-0.64995648 2:-0.048705093 3:1.255384 4:0.26387963 
1 1:-0.55692325 2:-0.10408914 3:1.1965585 4:0.2553477 
1 1:0.97137365 2:-0.13957271 3:-0.026196808 4:-0.3261752 
1 1:1.8365334 2:-0.017767553 3:-0.76198391 4:-0.36599264 
1 1:0.015677252 2:-0.12770387 3:-0.52724684 4:-0.49440128 
1 1:-0.070136805 2:-0.11621001 3:-0.42720804 4:-0.48520764 
-1 1:0.67905954 2:-0.32198607 3:-0.10361163 4:-0.26307534 
-1 1:0.40977245 2:-0.24329323 3:-1.1700738 4:-0.45960816 
-1 1:0.20237853 2:-0.30559202 3:-0.54458161 4:-0.56373692 
-1 1:0.063805304 2:-0.48046644 3:-0.26975819 4:-0.4274501 
-1 1:0.84341609 2:-0.26485617 3:-1.1488738 4:-0.16304561 
-1 1:1.0009787 2:-0.28952698 3:-0.060632821 4:-0.38263647 
-1 1:0.38612517 2:-0.41797433 3:-0.43981481 4:-0.53603847 
-1 1:0.22236172 2:-0.36681128 3:-0.74264232 4:-0.54649243 
-1 1:0.40591592 2:-0.13843111 3:-1.0256277 4:-0.48199669 
-1 1:-0.028194286 2:-0.45655737 3:-0.67568004 4:-0.45637164 
-1 1:0.086757566 2:-0.44096704 3:-1.4310455 4:-0.35315115 
-1 1:0.49647867 2:-0.34652513 3:-1.5867846 4:-0.29243194 
-1 1:0.96341375 2:-0.24809227 3:0.72880266 4:0.045645918 
-1 1:0.6412277 2:-0.090061224 3:0.27456083 4:0.047593754 
-1 1:0.85440682 2:-0.35026828 3:1.4090375 4:0.81042355 
-1 1:0.15985446 2:-0.35801858 3:-0.47844024 4:-0.4587022 
-1 1:0.5246276 2:-0.089883916 3:0.070256213 4:-0.30750328 
-1 1:0.36915589 2:-0.22653022 3:-0.62629283 4:-0.44174838 
-1 1:0.40565836 2:-0.3815908 3:-1.2144396 4:-0.32684519 
-1 1:0.57637087 2:-0.34075732 3:1.0465222 4:0.38072802 
-1 1:0.62383165 2:-0.022326182 3:-0.17094881 4:-0.26699698 
-1 1:0.75002174 2:-0.43089801 3:0.59142388 4:-0.14180762 
-1 1:-0.053832104 2:-0.35684063 3:-0.56691524 4:-0.48508529 
-1 1:1.107728 2:-0.35826441 3:-0.24832036 4:-0.4491882 
-1 1:0.53064122 2:0.089574585 3:1.79279 4:0.76032869 
-1 1:0.32847691 2:-0.20085814 3:1.1787359 4:0.34540129 
-1 1:0.77755258 2:0.30043325 3:0.75576467 4:-0.0019102279 
-1 1:1.2735135 2:-0.030869051 3:-0.22330967 4:-0.44458663 
-1 1:0.13599429 2:0.36237528 3:-0.10859952 4:-0.42109448 
-1 1:0.74681935 2:0.26293238 3:0.76392239 4:-0.087439117 
-1 1:0.59492399 2:-0.2158359 3:0.86146666 4:0.12649503 
-1 1:-0.089461801 2:-0.45549616 3:-0.72593266 4:-0.30518351 
-1 1:0.8184493 2:0.23290742 3:0.84804676 4:0.062307258 
-1 1:0.92511845 2:0.14706418 3:1.0348556 4:0.39331142 
-1 1:0.7281503 2:-0.41664704 3:-0.024347992 4:-0.37974868 
-1 1:1.6609121 2:0.17963063 3:1.2427246 4:0.303052 
-1 1:-0.076010771 2:-0.31201704 3:0.76220674 4:0.45782572 
-1 1:0.69879267 2:0.62585375 3:0.70186956 4:-0.072852815 
-0.127906883094633 1:0.17675613 2:-0.45930231 3:0.1313935 4:-0.075258066 
-1 1:1.0989463 2:-0.39513995 3:-0.61316319 4:-0.49446711 
-1 1:-0.10816998 2:-0.47443976 3:-0.79639366 4:-0.51077326 
-1 1:0.79214127 2:0.17098995 3:1.2664871 4:0.48574072 
-1 1:0.14827523 2:-0.094726896 3:0.47203635 4:0.0013064268 
-1 1:1.2431048 2:-0.043847913 3:-0.24449396 4:-0.42600401 
-1 1:0.22462991 2:-0.39176543 3:1.7181466 4:0.67122043 
-1 1:0.43074908 2:-0.29091281 3:0.23671211 4:-0.024399796 
-1 1:0.16798276 2:-0.37313523 3:0.1820774 4:0.034538256 
-1 1:0.94235843 2:-0.29938736 3:-0.71633522 4:-0.45122958 
-1 1:-0.12051732 2:-0.32739602 3:-0.64349613 4:-0.38607614 
-1 1:0.36424492 2:-0.19876865 3:2.0557255 4:1.0987078 
-1 1:0.12511024 2:-0.2850475 3:-0.81436075 4:-0.4777417 
-1 1:0.5102292 2:-0.20064496 3:0.21188252 4:-0.11019956 
-1 1:-0.40001266 2:-0.44883638 3:0.25831088 4:-0.16642447 
-1 1:0.56333716 2:-0.23080413 3:0.18054123 4:-0.06591376 
-1 1:0.61769663 2:-0.43835494 3:-0.25921368 4:-0.36702427 
-1 1:0.27469223 2:-0.18248259 3:0.90116534 4:0.17224712 
-1 1:0.25631333 2:-0.19409265 3:1.7638615 4:0.86122914 
-0.3451287109572377 1:-0.21107832 2:-0.49353693 3:-1.0471541 4:-0.40473992 
-1 1:0.96032043 2:-0.34357237 3:-0.29004457 4:-0.42554627 
-1 1:0.58743595 2:-0.24557672 3:0.10999064 4:-0.33849341 
-1 1:-0.03708779 2:-0.14113016 3:-0.70068839 4:-0.53246066 
-1 1:0.50197341 2:-0.35708826 3:0.14271648 4:-0.3238136 
-1 1:0.32478169 2:-0.40850575 3:-1.7684244 4:-0.1281177 
-1 1:0.055769624 2:-0.28429312 3:-0.6738572 4:-0.49463315 
-1 1:0.28141871 2:-0.3932208 3:-0.42573926 4:-0.14238624 
-1 1:1.6493723 2:-0.25029374 3:-1.1010529 4:-0.31200023 
-1 1:2.138692 2:-0.27719065 3:-0.52919492 4:-0.52248088 
-1 1:-0.02930289 2:-0.26346287 3:-0.58111883 4:-0.5279823 
-1 1:2.6557568 2:-0.19778546 3:-1.1322828 4:-0.40811028 
-1 1:0.41080693 2:-0.27225805 3:-0.2746303 4:-0.3400428 
-1 1:1.8314785 2:0.18826773 3:-0.22258378 4:-0.4976845 
-1 1:1.0547766 2:-0.20354031 3:-0.35549573 4:-0.52403621 
-1 1:-0.038473041 2:-0.27665462 3:-0.61568444 4:-0.51650441 
-1 1:0.28778834 2:-0.24565165 3:-0.53932509 4:-0.37536204 
-1 1:0.56630351 2:-0.27310961 3:-1.5259696 4:-0.2810355 
-1 1:1.7688056 2:-0.15710732 3:-0.2632662 4:-0.48774699 
-1 1:1.4659046 2:1.113788 3:0.086161524 4:-0.3867731 
-1 1:1.0465847 2:-0.38005255 3:-1.2094317 4:-0.451302 
-1 1:-0.18938881 2:-0.096969262 3:-0.41679385 4:-0.52956321 
-1 1:1.3109916 2:0.56040034 3:-0.60909088 4:-0.50444415 
-1 1:1.2183418 2:0.22683989 3:0.26285983 4:-0.27844331 
-1 1:1.2839872 2:-0.077736632 3:-0.16254052 4:-0.45129981 
-1 1:1.0877119 2:1.0018544 3:-0.50406188 4:-0.5144821 
-1 1:1.0313572 2:-0.39820351 3:0.14001203 4:-0.14989309 
-1 1:1.1161328 2:-0.25623105 3:-0.34168012 4:-0.51619477 
-1 1:0.59750888 2:0.35904153 3:0.10987952 4:-0.3967108 
-1 1:0.068990155 2:-0.33918935 3:-0.51638461 4:-0.4230581 
-1 1:1.3298706 2:1.1804648 3:-0.71850716 4:-0.52034533 
-1 1:1.5906871 2:-0.26492985 3:-1.2958511 4:-0.43931484 
-1 1:1.2612796 2:0.20760424 3:0.22700797 4:-0.28788431 
-1 1:0.99994562 2:-0.39915208 3:-0.61018 4:-0.4574368 
-1 1:0.19645885 2:-0.10587959 3:-0.95303352 4:-0.48941085 
-1 1:1.0432105 2:-0.27877234 3:-0.65607653 4:-0.38990796 
-1 1:1.6708124 2:-0.16621109 3:-0.50956753 4:-0.52117133 
-1 1:0.84517848 2:-0.42287191 3:0.16916266 4:-0.26409466 
-1 1:1.2560159 2:0.58984576 3:-0.11065066 4:-0.42997574 
-1 1:0.6365864 2:-0.3159853 3:-0.43575745 4:-0.24918789 
-1 1:0.3423789 2:-0.45147406 3:-1.020062 4:-0.40505505 
-1 1:-0.27554846 2:-0.38153805 3:-0.65796797 4:-0.51900905 
-1 1:-0.19232176 2:-0.27815867 3:-0.60753037 4:-0.52076717 
-1 1:1.4989444 2:0.48249017 3:-0.89881716 4:-0.51387248 
-0.4133334286824741 1:0.70487226 2:-0.39552501 3:-0.35274026 4:0.076316467 
-1 1:1.4518186 2:-0.24860617 3:-1.3214617 4:-0.27026562 
-1 1:0.015804563 2:-0.19853049 3:-0.79780762 4:-0.55885602 
-1 1:1.3231804 2:-0.16938208 3:-0.22403075 4:-0.4627119 
-1 1:0.0026969903 2:-0.41855948 3:-0.87497128 4:-0.40635496 
-1 1:0.43957179 2:-0.16440573 3:-0.38929989 4:-0.49034286 
-1 1:-0.2690738 2:-0.27153781 3:-0.66845649 4:-0.52137948 
-1 1:0.90394036 2:-0.28053002 3:-0.99614087 4:-0.46659073 
-1 1:1.0337892 2:-0.28248027 3:-1.2491535 4:-0.35818484 
-1 1:0.29457572 2:-0.42802317 3:-0.92568876 4:-0.40083456 
-1 1:0.30987783 2:-0.4243198 3:-0.89973376 4:-0.433091 
-1 1:0.67069754 2:-0.19985884 3:-0.71810461 4:-0.50012774 
