svm_type c_svc
kernel_type linear
nr_class 2
total_sv 5
rho 22.3117
label 1 -1
probA -0.541009
probB -0.687381
nr_sv 3 2
SV
0.01303757768646678 1:89 2:123 3:134 
1 1:80 2:113 3:120 
0.3424874763830311 1:75 2:108 3:105 
-1 1:34 2:60 3:67 
-0.3555250540694994 1:208 2:255 3:255 
