%YAML:1.0
my_random_trees: !!opencv-ml-random-trees
   nclasses: 0
   nsamples: 19812
   nactive_vars: 1
   oob_error: 4.4932849149660180e-04
   ntrees: 40
   is_classifier: 0
   var_all: 1
   var_count: 1
   ord_var_count: 1
   cat_var_count: 0
   training_params:
      use_surrogates: 0
      regression_accuracy: 9.9999997473787516e-05
      max_depth: 6
      min_sample_count: 10
      cross_validation_folds: 0
   var_type: [ 0 ]
   trees:
      -
         best_tree_idx: -1
         nodes:
            -
               depth: 0
               sample_count: 19812
               value: 1.2152665469083012e-02
               Tn: 0
               complexity: 0
               alpha: 0.
               node_risk: 4.5572212227945260e+04
               tree_risk: 0.
               tree_error: 0.
               splits:
                  - { var:0, quality:2.2692355468750000e+04,
                      le:8.0903309583663940e-01 }
            -
               depth: 1
               sample_count: 14723
               value: -6.1701400036032494e-01
               Tn: 0
               complexity: 0
               alpha: 0.
               node_risk: 7.6943692688022084e+03
               tree_risk: 0.
               tree_error: 0.
               splits:
                  - { var:0, quality:1.1856429687500000e+04,
                      le:-5.9983205795288086e-01 }
            -
               depth: 2
               sample_count: 6806
               value: -1.3197967144292557e+00
               Tn: 0
               complexity: 0
               alpha: 0.
               node_risk: 5.5020655793809237e+02
               tree_risk: 0.
               tree_error: 0.
               splits:
                  - { var:0, quality:1.2276381835937500e+04,
                      le:-1.3825349807739258e+00 }
            -
               depth: 3
               sample_count: 4561
               value: -1.4943415275191927e+00
               Tn: 0
               complexity: 0
               alpha: 0.
               node_risk: 6.6260825999292138e+01
               tree_risk: 0.
               tree_error: 0.
               splits:
                  - { var:0, quality:1.0233873046875000e+04,
                      le:-1.7582323551177979e+00 }
            -
               depth: 4
               sample_count: 2854
               value: -1.5744209363482260e+00
               Tn: 0
               complexity: 0
               alpha: 0.
               node_risk: 9.7303017188141894e+00
               tree_risk: 0.
               tree_error: 0.
               splits:
                  - { var:0, quality:7.0813974609375000e+03,
                      le:-1.9460809230804443e+00 }
            -
               depth: 5
               sample_count: 1365
               value: -1.6257700272968838e+00
               Tn: 0
               complexity: 0
               alpha: 0.
               node_risk: 1.3975745766856562e+00
               tree_risk: 0.
               tree_error: 0.
               splits:
                  - { var:0, quality:3.6088613281250000e+03,
                      le:-2.0400052070617676e+00 }
            -
               depth: 6
               sample_count: 589
               value: -1.6567031412254165e+00
               Tn: 0
               complexity: 0
               alpha: 0.
               node_risk: 2.3972232245114355e-01
               tree_risk: 0.
               tree_error: 0.
            -
               depth: 6
               sample_count: 776
               value: -1.6022911560289639e+00
               Tn: 0
               complexity: 0
               alpha: 0.
               node_risk: 1.6648742544361994e-01
               tree_risk: 0.
               tree_error: 0.
            -
               depth: 5
               sample_count: 1489
               value: -1.5273480625101350e+00
               Tn: 0
               complexity: 0
               alpha: 0.
               node_risk: 1.4341830969979128e+00
               tree_risk: 0.
               tree_error: 0.
               splits:
                  - { var:0, quality:3.4746081542968750e+03,
                      le:-1.8521566390991211e+00 }
            -
               depth: 6
               sample_count: 840
               value: -1.5510292149725415e+00
               Tn: 0
               complexity: 0
               alpha: 0.
               node_risk: 1.9209507643563484e-01
               tree_risk: 0.
               tree_error: 0.
            -
               depth: 6
               sample_count: 649
               value: -1.4966975724201173e+00
               Tn: 0
               complexity: 0
               alpha: 0.
               node_risk: 1.6131385547214450e-01
               tree_risk: 0.
               tree_error: 0.
            -
               depth: 4
               sample_count: 1707
               value: -1.3604536348431167e+00
               Tn: 0
               complexity: 0
               alpha: 0.
               node_risk: 7.6290179925658776e+00
               tree_risk: 0.
               tree_error: 0.
               splits:
                  - { var:0, quality:3.1650434570312500e+03,
                      le:-1.5703835487365723e+00 }
            -
               depth: 5
               sample_count: 947
               value: -1.4120831733772092e+00
               Tn: 0
               complexity: 0
               alpha: 0.
               node_risk: 1.0478391172796364e+00
               tree_risk: 0.
               tree_error: 0.
               splits:
                  - { var:0, quality:1.8890947265625000e+03,
                      le:-1.6643079519271851e+00 }
            -
               depth: 6
               sample_count: 505
               value: -1.4392180230357858e+00
               Tn: 0
               complexity: 0
               alpha: 0.
               node_risk: 1.2632285495556062e-01
               tree_risk: 0.
               tree_error: 0.
            -
               depth: 6
               sample_count: 442
               value: -1.3810806867763468e+00
               Tn: 0
               complexity: 0
               alpha: 0.
               node_risk: 1.2485458345508960e-01
               tree_risk: 0.
               tree_error: 0.
            -
               depth: 5
               sample_count: 760
               value: -1.2961205124855042e+00
               Tn: 0
               complexity: 0
               alpha: 0.
               node_risk: 9.1139643570841145e-01
               tree_risk: 0.
               tree_error: 0.
               splits:
                  - { var:0, quality:1.2774357910156250e+03,
                      le:-1.4764592647552490e+00 }
            -
               depth: 6
               sample_count: 433
               value: -1.3223097338136844e+00
               Tn: 0
               complexity: 0
               alpha: 0.
               node_risk: 1.1667215762611249e-01
               tree_risk: 0.
               tree_error: 0.
            -
               depth: 6
               sample_count: 327
               value: -1.2614418188001766e+00
               Tn: 0
               complexity: 0
               alpha: 0.
               node_risk: 1.0448621002001346e-01
               tree_risk: 0.
               tree_error: 0.
            -
               depth: 3
               sample_count: 2245
               value: -9.6518696275745042e-01
               Tn: 0
               complexity: 0
               alpha: 0.
               node_risk: 6.2686368969072191e+01
               tree_risk: 0.
               tree_error: 0.
               splits:
                  - { var:0, quality:2.1388041992187500e+03,
                      le:-9.7552943229675293e-01 }
            -
               depth: 4
               sample_count: 1240
               value: -1.0959920908174208e+00
               Tn: 0
               complexity: 0
               alpha: 0.
               node_risk: 8.0869798334983898e+00
               tree_risk: 0.
               tree_error: 0.
               splits:
                  - { var:0, quality:1.4955020751953125e+03,
                      le:-1.1790322065353394e+00 }
            -
               depth: 5
               sample_count: 650
               value: -1.1623518687028151e+00
               Tn: 0
               complexity: 0
               alpha: 0.
               node_risk: 9.9932925825066832e-01
               tree_risk: 0.
               tree_error: 0.
               splits:
                  - { var:0, quality:8.7891882324218750e+02,
                      le:-1.2886105775833130e+00 }
            -
               depth: 6
               sample_count: 301
               value: -1.1984036899484274e+00
               Tn: 0
               complexity: 0
               alpha: 0.
               node_risk: 9.9550476934894050e-02
               tree_risk: 0.
               tree_error: 0.
            -
               depth: 6
               sample_count: 349
               value: -1.1312584641328172e+00
               Tn: 0
               complexity: 0
               alpha: 0.
               node_risk: 1.7114577006378795e-01
               tree_risk: 0.
               tree_error: 0.
            -
               depth: 5
               sample_count: 590
               value: -1.0228838609436810e+00
               Tn: 0
               complexity: 0
               alpha: 0.
               node_risk: 1.0718576641870641e+00
               tree_risk: 0.
               tree_error: 0.
               splits:
                  - { var:0, quality:6.1812640380859375e+02,
                      le:-1.0694537162780762e+00 }
            -
               depth: 6
               sample_count: 332
               value: -1.0556369172521385e+00
               Tn: 0
               complexity: 0
               alpha: 0.
               node_risk: 1.5869494125729489e-01
               tree_risk: 0.
               tree_error: 0.
            -
               depth: 6
               sample_count: 258
               value: -9.8073651716690657e-01
               Tn: 0
               complexity: 0
               alpha: 0.
               node_risk: 9.8694671785636956e-02
               tree_risk: 0.
               tree_error: 0.
            -
               depth: 4
               sample_count: 1005
               value: -8.0379556097201443e-01
               Tn: 0
               complexity: 0
               alpha: 0.
               node_risk: 7.2055915492229587e+00
               tree_risk: 0.
               tree_error: 0.
               splits:
                  - { var:0, quality:6.5481604003906250e+02,
                      le:-7.7202665805816650e-01 }
            -
               depth: 5
               sample_count: 523
               value: -8.7480292459290976e-01
               Tn: 0
               complexity: 0
               alpha: 0.
               node_risk: 9.1682815278994667e-01
               tree_risk: 0.
               tree_error: 0.
               splits:
                  - { var:0, quality:4.0092001342773438e+02,
                      le:-8.6595106124877930e-01 }
            -
               depth: 6
               sample_count: 293
               value: -9.0671506107056909e-01
               Tn: 0
               complexity: 0
               alpha: 0.
               node_risk: 1.5411292472947480e-01
               tree_risk: 0.
               tree_error: 0.
            -
               depth: 6
               sample_count: 230
               value: -8.3414963768876116e-01
               Tn: 0
               complexity: 0
               alpha: 0.
               node_risk: 8.4209943566605716e-02
               tree_risk: 0.
               tree_error: 0.
            -
               depth: 5
               sample_count: 482
               value: -7.2674815189788944e-01
               Tn: 0
               complexity: 0
               alpha: 0.
               node_risk: 7.9047533729840325e-01
               tree_risk: 0.
               tree_error: 0.
               splits:
                  - { var:0, quality:2.5519151306152344e+02,
                      le:-6.7810237407684326e-01 }
            -
               depth: 6
               sample_count: 222
               value: -7.6546801425315236e-01
               Tn: 0
               complexity: 0
               alpha: 0.
               node_risk: 9.6547058260853191e-02
               tree_risk: 0.
               tree_error: 0.
            -
               depth: 6
               sample_count: 260
               value: -6.9368734634839568e-01
               Tn: 0
               complexity: 0
               alpha: 0.
               node_risk: 7.6915336046866400e-02
               tree_risk: 0.
               tree_error: 0.
            -
               depth: 2
               sample_count: 7917
               value: -1.2853440558235518e-02
               Tn: 0
               complexity: 0
               alpha: 0.
               node_risk: 8.9287116822995392e+02
               tree_risk: 0.
               tree_error: 0.
               splits:
                  - { var:0, quality:6.3550891113281250e+02,
                      le:1.5156269073486328e-01 }
            -
               depth: 3
               sample_count: 3743
               value: -3.1173520667800414e-01
               Tn: 0
               complexity: 0
               alpha: 0.
               node_risk: 1.2171836216246101e+02
               tree_risk: 0.
               tree_error: 0.
               splits:
                  - { var:0, quality:4.5377264404296875e+02,
                      le:-1.9282656908035278e-01 }
            -
               depth: 4
               sample_count: 1651
               value: -4.8631598864953351e-01
               Tn: 0
               complexity: 0
               alpha: 0.
               node_risk: 1.4822156458127210e+01
               tree_risk: 0.
               tree_error: 0.
               splits:
                  - { var:0, quality:4.0144757080078125e+02,
                      le:-3.8067525625228882e-01 }
            -
               depth: 5
               sample_count: 801
               value: -5.7032679666889441e-01
               Tn: 0
               complexity: 0
               alpha: 0.
               node_risk: 2.0760407371384986e+00
               tree_risk: 0.
               tree_error: 0.
               splits:
                  - { var:0, quality:2.6210906982421875e+02,
                      le:-4.9025368690490723e-01 }
            -
               depth: 6
               sample_count: 344
               value: -6.2128501420104232e-01
               Tn: 0
               complexity: 0
               alpha: 0.
               node_risk: 2.0872871546214355e-01
               tree_risk: 0.
               tree_error: 0.
            -
               depth: 6
               sample_count: 457
               value: -5.3196875108670871e-01
               Tn: 0
               complexity: 0
               alpha: 0.
               node_risk: 3.0163125933881929e-01
               tree_risk: 0.
               tree_error: 0.
            -
               depth: 5
               sample_count: 850
               value: -4.0714815662187687e-01
               Tn: 0
               complexity: 0
               alpha: 0.
               node_risk: 1.7653914301036480e+00
               tree_risk: 0.
               tree_error: 0.
               splits:
                  - { var:0, quality:1.4219805908203125e+02,
                      le:-2.8675091266632080e-01 }
            -
               depth: 6
               sample_count: 412
               value: -4.4737590755363110e-01
               Tn: 0
               complexity: 0
               alpha: 0.
               node_risk: 2.2124434349639444e-01
               tree_risk: 0.
               tree_error: 0.
            -
               depth: 6
               sample_count: 438
               value: -3.6930835437556925e-01
               Tn: 0
               complexity: 0
               alpha: 0.
               node_risk: 2.5026846754653320e-01
               tree_risk: 0.
               tree_error: 0.
            -
               depth: 4
               sample_count: 2092
               value: -1.7395658763641950e-01
               Tn: 0
               complexity: 0
               alpha: 0.
               node_risk: 1.6863958755551515e+01
               tree_risk: 0.
               tree_error: 0.
               splits:
                  - { var:0, quality:7.6144432067871094e+01,
                      le:-2.0631941035389900e-02 }
            -
               depth: 5
               sample_count: 951
               value: -2.5976528496835011e-01
               Tn: 0
               complexity: 0
               alpha: 0.
               node_risk: 1.7580495678685395e+00
               tree_risk: 0.
               tree_error: 0.
               splits:
                  - { var:0, quality:6.5499038696289062e+01,
                      le:-9.8902225494384766e-02 }
            -
               depth: 6
               sample_count: 558
               value: -2.9111974405986007e-01
               Tn: 0
               complexity: 0
               alpha: 0.
               node_risk: 2.8166533547390316e-01
               tree_risk: 0.
               tree_error: 0.
            -
               depth: 6
               sample_count: 393
               value: -2.1524673999872523e-01
               Tn: 0
               complexity: 0
               alpha: 0.
               node_risk: 1.4892622528680377e-01
               tree_risk: 0.
               tree_error: 0.
            -
               depth: 5
               sample_count: 1141
               value: -1.0243680572347826e-01
               Tn: 0
               complexity: 0
               alpha: 0.
               node_risk: 2.2672647714702734e+00
               tree_risk: 0.
               tree_error: 0.
               splits:
                  - { var:0, quality:1.3676072120666504e+01,
                      le:7.3292404413223267e-02 }
            -
               depth: 6
               sample_count: 604
               value: -1.3886695414386838e-01
               Tn: 0
               complexity: 0
               alpha: 0.
               node_risk: 3.4427439793248737e-01
               tree_risk: 0.
               tree_error: 0.
            -
               depth: 6
               sample_count: 537
               value: -6.1461368766465886e-02
               Tn: 0
               complexity: 0
               alpha: 0.
               node_risk: 2.1977260736267024e-01
               tree_risk: 0.
               tree_error: 0.
            -
               depth: 3
               sample_count: 4174
               value: 2.5516631281653540e-01
               Tn: 0
               complexity: 0
               alpha: 0.
               node_risk: 1.3695188414960808e+02
               tree_risk: 0.
               tree_error: 0.
               splits:
                  - { var:0, quality:3.7440484619140625e+02,
                      le:4.6464383602142334e-01 }
            -
               depth: 4
               sample_count: 2253
               value: 1.1037002189442040e-01
               Tn: 0
               complexity: 0
               alpha: 0.
               node_risk: 1.6400244813156810e+01
               tree_risk: 0.
               tree_error: 0.
               splits:
                  - { var:0, quality:3.9861194610595703e+01,
                      le:3.0810326337814331e-01 }
            -
               depth: 5
               sample_count: 1231
               value: 4.2729054116526700e-02
               Tn: 0
               complexity: 0
               alpha: 0.
               node_risk: 2.0471771774221086e+00
               tree_risk: 0.
               tree_error: 0.
               splits:
                  - { var:0, quality:3.7841706275939941e+00,
                      le:2.2983297705650330e-01 }
            -
               depth: 6
               sample_count: 649
               value: 9.2712887261458925e-03
               Tn: 0
               complexity: 0
               alpha: 0.
               node_risk: 2.5573320500038854e-01
               tree_risk: 0.
               tree_error: 0.
            -
               depth: 6
               sample_count: 582
               value: 8.0038486656659247e-02
               Tn: 0
               complexity: 0
               alpha: 0.
               node_risk: 2.5479868602643840e-01
               tree_risk: 0.
               tree_error: 0.
            -
               depth: 5
               sample_count: 1022
               value: 1.9184363376779331e-01
               Tn: 0
               complexity: 0
               alpha: 0.
               node_risk: 1.9368883740484932e+00
               tree_risk: 0.
               tree_error: 0.
               splits:
                  - { var:0, quality:3.9093940734863281e+01,
                      le:3.8637351989746094e-01 }
            -
               depth: 6
               sample_count: 514
               value: 1.5400843765833033e-01
               Tn: 0
               complexity: 0
               alpha: 0.
               node_risk: 2.2236584214648403e-01
               tree_risk: 0.
               tree_error: 0.
            -
               depth: 6
               sample_count: 508
               value: 2.3012570227224996e-01
               Tn: 0
               complexity: 0
               alpha: 0.
               node_risk: 2.3424795203417403e-01
               tree_risk: 0.
               tree_error: 0.
            -
               depth: 4
               sample_count: 1921
               value: 4.2498726203440379e-01
               Tn: 0
               complexity: 0
               alpha: 0.
               node_risk: 1.7915301885202268e+01
               tree_risk: 0.
               tree_error: 0.
               splits:
                  - { var:0, quality:3.6033383178710938e+02,
                      le:6.3683843612670898e-01 }
            -
               depth: 5
               sample_count: 1028
               value: 3.4722005868700229e-01
               Tn: 0
               complexity: 0
               alpha: 0.
               node_risk: 2.4814766446350802e+00
               tree_risk: 0.
               tree_error: 0.
               splits:
                  - { var:0, quality:1.2583566284179688e+02,
                      le:5.5856817960739136e-01 }
            -
               depth: 6
               sample_count: 572
               value: 3.0885331082594142e-01
               Tn: 0
               complexity: 0
               alpha: 0.
               node_risk: 3.7241700782326603e-01
               tree_risk: 0.
               tree_error: 0.
            -
               depth: 6
               sample_count: 456
               value: 3.9534676872324526e-01
               Tn: 0
               complexity: 0
               alpha: 0.
               node_risk: 2.1089325768713252e-01
               tree_risk: 0.
               tree_error: 0.
            -
               depth: 5
               sample_count: 893
               value: 5.1451098548471597e-01
               Tn: 0
               complexity: 0
               alpha: 0.
               node_risk: 2.0598047874856036e+00
               tree_risk: 0.
               tree_error: 0.
               splits:
                  - { var:0, quality:2.3791302490234375e+02,
                      le:7.1510875225067139e-01 }
            -
               depth: 6
               sample_count: 433
               value: 4.7203385712918727e-01
               Tn: 0
               complexity: 0
               alpha: 0.
               node_risk: 1.9403514110346975e-01
               tree_risk: 0.
               tree_error: 0.
            -
               depth: 6
               sample_count: 460
               value: 5.5449489108894179e-01
               Tn: 0
               complexity: 0
               alpha: 0.
               node_risk: 3.4909711536141685e-01
               tree_risk: 0.
               tree_error: 0.
            -
               depth: 1
               sample_count: 5089
               value: 1.8323964896008129e+00
               Tn: 0
               complexity: 0
               alpha: 0.
               node_risk: 1.5188412709341406e+04
               tree_risk: 0.
               tree_error: 0.
               splits:
                  - { var:0, quality:2.3681689453125000e+04,
                      le:1.1281597137451172e+01 }
            -
               depth: 2
               sample_count: 5084
               value: 1.7966974929127517e+00
               Tn: 0
               complexity: 0
               alpha: 0.
               node_risk: 7.9372392415407994e+03
               tree_risk: 0.
               tree_error: 0.
               splits:
                  - { var:0, quality:2.0977132812500000e+04,
                      le:2.4840171337127686e+00 }
            -
               depth: 3
               sample_count: 4111
               value: 1.3356798784311192e+00
               Tn: 0
               complexity: 0
               alpha: 0.
               node_risk: 1.1980005405360189e+03
               tree_risk: 0.
               tree_error: 0.
               splits:
                  - { var:0, quality:8.2221572265625000e+03,
                      le:1.5917359590530396e+00 }
            -
               depth: 4
               sample_count: 2549
               value: 9.7186548960540942e-01
               Tn: 0
               complexity: 0
               alpha: 0.
               node_risk: 1.4966416983966565e+02
               tree_risk: 0.
               tree_error: 0.
               splits:
                  - { var:0, quality:2.5221264648437500e+03,
                      le:1.1847305297851562e+00 }
            -
               depth: 5
               sample_count: 1444
               value: 7.8643191958728587e-01
               Tn: 0
               complexity: 0
               alpha: 0.
               node_risk: 1.7481142264535038e+01
               tree_risk: 0.
               tree_error: 0.
               splits:
                  - { var:0, quality:9.0600860595703125e+02,
                      le:9.9688172340393066e-01 }
            -
               depth: 6
               sample_count: 816
               value: 7.0341668168411531e-01
               Tn: 0
               complexity: 0
               alpha: 0.
               node_risk: 2.6449249650293609e+00
               tree_risk: 0.
               tree_error: 0.
            -
               depth: 6
               sample_count: 628
               value: 8.9429885291369859e-01
               Tn: 0
               complexity: 0
               alpha: 0.
               node_risk: 1.9057761529309118e+00
               tree_risk: 0.
               tree_error: 0.
            -
               depth: 5
               sample_count: 1105
               value: 1.2141877295204957e+00
               Tn: 0
               complexity: 0
               alpha: 0.
               node_risk: 1.7644533245445245e+01
               tree_risk: 0.
               tree_error: 0.
               splits:
                  - { var:0, quality:1.6421055908203125e+03,
                      le:1.3882331848144531e+00 }
            -
               depth: 6
               sample_count: 590
               value: 1.1126273985636437e+00
               Tn: 0
               complexity: 0
               alpha: 0.
               node_risk: 2.3715920841112847e+00
               tree_risk: 0.
               tree_error: 0.
            -
               depth: 6
               sample_count: 515
               value: 1.3305383999370834e+00
               Tn: 0
               complexity: 0
               alpha: 0.
               node_risk: 2.2155842443379470e+00
               tree_risk: 0.
               tree_error: 0.
            -
               depth: 4
               sample_count: 1562
               value: 1.9293821044981709e+00
               Tn: 0
               complexity: 0
               alpha: 0.
               node_risk: 1.6037100782231664e+02
               tree_risk: 0.
               tree_error: 0.
               splits:
                  - { var:0, quality:5.9366147460937500e+03,
                      le:2.0300495624542236e+00 }
            -
               depth: 5
               sample_count: 876
               value: 1.6820213114289932e+00
               Tn: 0
               complexity: 0
               alpha: 0.
               node_risk: 1.9288336412095305e+01
               tree_risk: 0.
               tree_error: 0.
               splits:
                  - { var:0, quality:2.4934824218750000e+03,
                      le:1.8108928203582764e+00 }
            -
               depth: 6
               sample_count: 505
               value: 1.5694630287661411e+00
               Tn: 0
               complexity: 0
               alpha: 0.
               node_risk: 2.3073253052439213e+00
               tree_risk: 0.
               tree_error: 0.
            -
               depth: 6
               sample_count: 371
               value: 1.8352340681533608e+00
               Tn: 0
               complexity: 0
               alpha: 0.
               node_risk: 1.8740715605094920e+00
               tree_risk: 0.
               tree_error: 0.
            -
               depth: 5
               sample_count: 686
               value: 2.2452539043940885e+00
               Tn: 0
               complexity: 0
               alpha: 0.
               node_risk: 1.9036896480851738e+01
               tree_risk: 0.
               tree_error: 0.
               splits:
                  - { var:0, quality:3.4729772949218750e+03,
                      le:2.2648603916168213e+00 }
            -
               depth: 6
               sample_count: 362
               value: 2.1065854759506100e+00
               Tn: 0
               complexity: 0
               alpha: 0.
               node_risk: 2.1555598598465622e+00
               tree_risk: 0.
               tree_error: 0.
            -
               depth: 6
               sample_count: 324
               value: 2.4001859139513084e+00
               Tn: 0
               complexity: 0
               alpha: 0.
               node_risk: 2.1431903203251750e+00
               tree_risk: 0.
               tree_error: 0.
            -
               depth: 3
               sample_count: 973
               value: 3.7445324498849928e+00
               Tn: 0
               complexity: 0
               alpha: 0.
               node_risk: 2.1738767317457878e+03
               tree_risk: 0.
               tree_error: 0.
               splits:
                  - { var:0, quality:1.4993353515625000e+04,
                      le:4.5425257682800293e+00 }
            -
               depth: 4
               sample_count: 891
               value: 3.3871406010371934e+00
               Tn: 0
               complexity: 0
               alpha: 0.
               node_risk: 4.7392615858325007e+02
               tree_risk: 0.
               tree_error: 0.
               splits:
                  - { var:0, quality:1.0565585937500000e+04,
                      le:3.3606443405151367e+00 }
            -
               depth: 5
               sample_count: 662
               value: 3.0220129464688257e+00
               Tn: 0
               complexity: 0
               alpha: 0.
               node_risk: 7.3517425210420697e+01
               tree_risk: 0.
               tree_error: 0.
               splits:
                  - { var:0, quality:6.1022050781250000e+03,
                      le:2.8910226821899414e+00 }
            -
               depth: 6
               sample_count: 391
               value: 2.7789078856368201e+00
               Tn: 0
               complexity: 0
               alpha: 0.
               node_risk: 8.2897917914101527e+00
               tree_risk: 0.
               tree_error: 0.
            -
               depth: 6
               sample_count: 271
               value: 3.3727660047172181e+00
               Tn: 0
               complexity: 0
               alpha: 0.
               node_risk: 8.7789969806449335e+00
               tree_risk: 0.
               tree_error: 0.
            -
               depth: 5
               sample_count: 229
               value: 4.4426624670819947e+00
               Tn: 0
               complexity: 0
               alpha: 0.
               node_risk: 5.7017134417379566e+01
               tree_risk: 0.
               tree_error: 0.
               splits:
                  - { var:0, quality:4.5631928710937500e+03,
                      le:3.9085364341735840e+00 }
            -
               depth: 6
               sample_count: 140
               value: 4.0957091314452034e+00
               Tn: 0
               complexity: 0
               alpha: 0.
               node_risk: 7.6406006811553198e+00
               tree_risk: 0.
               tree_error: 0.
            -
               depth: 6
               sample_count: 89
               value: 4.9884317590949241e+00
               Tn: 0
               complexity: 0
               alpha: 0.
               node_risk: 6.0139006516228619e+00
               tree_risk: 0.
               tree_error: 0.
            -
               depth: 4
               sample_count: 82
               value: 7.6278999782190091e+00
               Tn: 0
               complexity: 0
               alpha: 0.
               node_risk: 3.4953953777484276e+02
               tree_risk: 0.
               tree_error: 0.
               splits:
                  - { var:0, quality:4.9899301757812500e+03,
                      le:5.9592180252075195e+00 }
            -
               depth: 5
               sample_count: 52
               value: 6.3872547057958746e+00
               Tn: 0
               complexity: 0
               alpha: 0.
               node_risk: 2.2574408709836462e+01
               tree_risk: 0.
               tree_error: 0.
               splits:
                  - { var:0, quality:2.1390527343750000e+03,
                      le:5.3174018859863281e+00 }
            -
               depth: 6
               sample_count: 40
               value: 6.0685361146926882e+00
               Tn: 0
               complexity: 0
               alpha: 0.
               node_risk: 4.3731267985269824e+00
               tree_risk: 0.
               tree_error: 0.
            -
               depth: 6
               sample_count: 12
               value: 7.4496500094731646e+00
               Tn: 0
               complexity: 0
               alpha: 0.
               node_risk: 5.9381492341094599e-01
               tree_risk: 0.
               tree_error: 0.
            -
               depth: 5
               sample_count: 30
               value: 9.7783517837524414e+00
               Tn: 0
               complexity: 0
               alpha: 0.
               node_risk: 1.0819340404408285e+02
               tree_risk: 0.
               tree_error: 0.
               splits:
                  - { var:0, quality:2.9584306640625000e+03,
                      le:8.0646886825561523e+00 }
            -
               depth: 6
               sample_count: 27
               value: 9.2011757250185369e+00
               Tn: 0
               complexity: 0
               alpha: 0.
               node_risk: 1.7713995898379835e+01
               tree_risk: 0.
               tree_error: 0.
            -
               depth: 6
               sample_count: 3
               value: 1.4972936312357584e+01
               Tn: 0
               complexity: 0
               alpha: 0.
               node_risk: 5.3371339629006798e-01
               tree_risk: 0.
               tree_error: 0.
            -
               depth: 2
               sample_count: 5
               value: 3.8131136322021483e+01
               Tn: 0
               complexity: 0
               alpha: 0.
               node_risk: 6.5670175772650964e+02
               tree_risk: 0.
               tree_error: 0.
      -
         best_tree_idx: -1
         nodes:
            -
               depth: 0
               sample_count: 19812
               value: -1.7183855776264197e-02
               Tn: 0
               complexity: 0
               alpha: 0.
               node_risk: 3.8296420148265628e+04
               tree_risk: 0.
               tree_error: 0.
               splits:
                  - { var:0, quality:2.1232521484375000e+04,
                      le:6.8380063772201538e-01 }
            -
               depth: 1
               sample_count: 14194
               value: -6.6838514176850206e-01
               Tn: 0
               complexity: 0
               alpha: 0.
               node_risk: 6.9188136708631000e+03
               tree_risk: 0.
               tree_error: 0.
               splits:
                  - { var:0, quality:1.2016434570312500e+04,
                      le:-6.4679419994354248e-01 }
            -
               depth: 2
               sample_count: 6726
               value: -1.3346862289085297e+00
               Tn: 0
               complexity: 0
               alpha: 0.
               node_risk: 4.9276934393077499e+02
               tree_risk: 0.
               tree_error: 0.
               splits:
                  - { var:0, quality:1.2356306640625000e+04,
                      le:-1.3981889486312866e+00 }
            -
               depth: 3
               sample_count: 4578
               value: -1.4963602085673897e+00
               Tn: 0
               complexity: 0
               alpha: 0.
               node_risk: 6.4637715840997771e+01
               tree_risk: 0.
               tree_error: 0.
               splits:
                  - { var:0, quality:1.0298134765625000e+04,
                      le:-1.7738863229751587e+00 }
            -
               depth: 4
               sample_count: 2780
               value: -1.5783328748864236e+00
               Tn: 0
               complexity: 0
               alpha: 0.
               node_risk: 8.9962454411170256e+00
               tree_risk: 0.
               tree_error: 0.
               splits:
                  - { var:0, quality:6.9317514648437500e+03,
                      le:-1.9460809230804443e+00 }
            -
               depth: 5
               sample_count: 1419
               value: -1.6253120805109951e+00
               Tn: 0
               complexity: 0
               alpha: 0.
               node_risk: 1.5045109126799616e+00
               tree_risk: 0.
               tree_error: 0.
               splits:
                  - { var:0, quality:3.7495280761718750e+03,
                      le:-2.0400052070617676e+00 }
            -
               depth: 6
               sample_count: 619
               value: -1.6561149626440685e+00
               Tn: 0
               complexity: 0
               alpha: 0.
               node_risk: 2.8477955087805640e-01
               tree_risk: 0.
               tree_error: 0.
            -
               depth: 6
               sample_count: 800
               value: -1.6014783504605292e+00
               Tn: 0
               complexity: 0
               alpha: 0.
               node_risk: 1.7797594927060345e-01
               tree_risk: 0.
               tree_error: 0.
            -
               depth: 5
               sample_count: 1361
               value: -1.5293516164137808e+00
               Tn: 0
               complexity: 0
               alpha: 0.
               node_risk: 1.0946748226283489e+00
               tree_risk: 0.
               tree_error: 0.
               splits:
                  - { var:0, quality:3.1840834960937500e+03,
                      le:-1.8678107261657715e+00 }
            -
               depth: 6
               sample_count: 677
               value: -1.5539984741802582e+00
               Tn: 0
               complexity: 0
               alpha: 0.
               node_risk: 1.1594887112187280e-01
               tree_risk: 0.
               tree_error: 0.
            -
               depth: 6
               sample_count: 684
               value: -1.5049569925718140e+00
               Tn: 0
               complexity: 0
               alpha: 0.
               node_risk: 1.6042357990386336e-01
               tree_risk: 0.
               tree_error: 0.
            -
               depth: 4
               sample_count: 1798
               value: -1.3696171538583164e+00
               Tn: 0
               complexity: 0
               alpha: 0.
               node_risk: 8.0784944479537444e+00
               tree_risk: 0.
               tree_error: 0.
               splits:
                  - { var:0, quality:3.3788295898437500e+03,
                      le:-1.5860376358032227e+00 }
            -
               depth: 5
               sample_count: 1009
               value: -1.4209085350821111e+00
               Tn: 0
               complexity: 0
               alpha: 0.
               node_risk: 1.0912367704729604e+00
               tree_risk: 0.
               tree_error: 0.
               splits:
                  - { var:0, quality:2.0379672851562500e+03,
                      le:-1.6799620389938354e+00 }
            -
               depth: 6
               sample_count: 532
               value: -1.4478273739043932e+00
               Tn: 0
               complexity: 0
               alpha: 0.
               node_risk: 1.3494522107498597e-01
               tree_risk: 0.
               tree_error: 0.
            -
               depth: 6
               sample_count: 477
               value: -1.3908858469197336e+00
               Tn: 0
               complexity: 0
               alpha: 0.
               node_risk: 1.4084206261236432e-01
               tree_risk: 0.
               tree_error: 0.
            -
               depth: 5
               sample_count: 789
               value: -1.3040239933325763e+00
               Tn: 0
               complexity: 0
               alpha: 0.
               node_risk: 9.3813156111218632e-01
               tree_risk: 0.
               tree_error: 0.
               splits:
                  - { var:0, quality:1.3423704833984375e+03,
                      le:-1.4921133518218994e+00 }
            -
               depth: 6
               sample_count: 408
               value: -1.3326602697956795e+00
               Tn: 0
               complexity: 0
               alpha: 0.
               node_risk: 1.2723719642247033e-01
               tree_risk: 0.
               tree_error: 0.
            -
               depth: 6
               sample_count: 381
               value: -1.2733583744429540e+00
               Tn: 0
               complexity: 0
               alpha: 0.
               node_risk: 1.1803469288543056e-01
               tree_risk: 0.
               tree_error: 0.
            -
               depth: 3
               sample_count: 2148
               value: -9.9011291471939511e-01
               Tn: 0
               complexity: 0
               alpha: 0.
               node_risk: 5.3435994848462997e+01
               tree_risk: 0.
               tree_error: 0.
               splits:
                  - { var:0, quality:2.1460405273437500e+03,
                      le:-1.0068374872207642e+00 }
            -
               depth: 4
               sample_count: 1198
               value: -1.1120956804796134e+00
               Tn: 0
               complexity: 0
               alpha: 0.
               node_risk: 7.2678665054895646e+00
               tree_risk: 0.
               tree_error: 0.
               splits:
                  - { var:0, quality:1.4870853271484375e+03,
                      le:-1.1946861743927002e+00 }
            -
               depth: 5
               sample_count: 648
               value: -1.1742382121306878e+00
               Tn: 0
               complexity: 0
               alpha: 0.
               node_risk: 9.5868609924036718e-01
               tree_risk: 0.
               tree_error: 0.
               splits:
                  - { var:0, quality:8.9419299316406250e+02,
                      le:-1.2886105775833130e+00 }
            -
               depth: 6
               sample_count: 356
               value: -1.2041673017351815e+00
               Tn: 0
               complexity: 0
               alpha: 0.
               node_risk: 1.5748621306113364e-01
               tree_risk: 0.
               tree_error: 0.
            -
               depth: 6
               sample_count: 292
               value: -1.1377493220649353e+00
               Tn: 0
               complexity: 0
               alpha: 0.
               node_risk: 9.3532525482146411e-02
               tree_risk: 0.
               tree_error: 0.
            -
               depth: 5
               sample_count: 550
               value: -1.0388804795525290e+00
               Tn: 0
               complexity: 0
               alpha: 0.
               node_risk: 8.5854643299092004e-01
               tree_risk: 0.
               tree_error: 0.
               splits:
                  - { var:0, quality:5.9426507568359375e+02,
                      le:-1.1007618904113770e+00 }
            -
               depth: 6
               sample_count: 284
               value: -1.0725361872726762e+00
               Tn: 0
               complexity: 0
               alpha: 0.
               node_risk: 1.0215135376216722e-01
               tree_risk: 0.
               tree_error: 0.
            -
               depth: 6
               sample_count: 266
               value: -1.0029473179265072e+00
               Tn: 0
               complexity: 0
               alpha: 0.
               node_risk: 9.1249287399762125e-02
               tree_risk: 0.
               tree_error: 0.
            -
               depth: 4
               sample_count: 950
               value: -8.3628622695019372e-01
               Tn: 0
               complexity: 0
               alpha: 0.
               node_risk: 5.8626163856883977e+00
               tree_risk: 0.
               tree_error: 0.
               splits:
                  - { var:0, quality:6.6880505371093750e+02,
                      le:-8.1898885965347290e-01 }
            -
               depth: 5
               sample_count: 495
               value: -9.0152798951274216e-01
               Tn: 0
               complexity: 0
               alpha: 0.
               node_risk: 8.0528203016888256e-01
               tree_risk: 0.
               tree_error: 0.
               splits:
                  - { var:0, quality:4.0293313598632812e+02,
                      le:-9.1291320323944092e-01 }
            -
               depth: 6
               sample_count: 240
               value: -9.3802430133024850e-01
               Tn: 0
               complexity: 0
               alpha: 0.
               node_risk: 8.3365124153317538e-02
               tree_risk: 0.
               tree_error: 0.
            -
               depth: 6
               sample_count: 255
               value: -8.6717851956685388e-01
               Tn: 0
               complexity: 0
               alpha: 0.
               node_risk: 1.0137056788883569e-01
               tree_risk: 0.
               tree_error: 0.
            -
               depth: 5
               sample_count: 455
               value: -7.6530892482170687e-01
               Tn: 0
               complexity: 0
               alpha: 0.
               node_risk: 6.5818427736121521e-01
               tree_risk: 0.
               tree_error: 0.
               splits:
                  - { var:0, quality:2.6698571777343750e+02,
                      le:-7.2506451606750488e-01 }
            -
               depth: 6
               sample_count: 233
               value: -7.9744684645034725e-01
               Tn: 0
               complexity: 0
               alpha: 0.
               node_risk: 9.5646860316833227e-02
               tree_risk: 0.
               tree_error: 0.
            -
               depth: 6
               sample_count: 222
               value: -7.3157858365290873e-01
               Tn: 0
               complexity: 0
               alpha: 0.
               node_risk: 6.9306924294139094e-02
               tree_risk: 0.
               tree_error: 0.
            -
               depth: 2
               sample_count: 7468
               value: -6.8285903404304682e-02
               Tn: 0
               complexity: 0
               alpha: 0.
               node_risk: 7.5061920380361744e+02
               tree_risk: 0.
               tree_error: 0.
               splits:
                  - { var:0, quality:5.7775665283203125e+02,
                      le:7.3292404413223267e-02 }
            -
               depth: 3
               sample_count: 3334
               value: -3.6852942700997826e-01
               Tn: 0
               complexity: 0
               alpha: 0.
               node_risk: 1.0005558138612633e+02
               tree_risk: 0.
               tree_error: 0.
               splits:
                  - { var:0, quality:5.2744396972656250e+02,
                      le:-2.5544279813766479e-01 }
            -
               depth: 4
               sample_count: 1500
               value: -5.3397607610623044e-01
               Tn: 0
               complexity: 0
               alpha: 0.
               node_risk: 1.2804731902680601e+01
               tree_risk: 0.
               tree_error: 0.
               splits:
                  - { var:0, quality:4.3729592895507812e+02,
                      le:-4.4329148530960083e-01 }
            -
               depth: 5
               sample_count: 709
               value: -6.1847688827259084e-01
               Tn: 0
               complexity: 0
               alpha: 0.
               node_risk: 1.6148261635511290e+00
               tree_risk: 0.
               tree_error: 0.
               splits:
                  - { var:0, quality:2.7244552612304688e+02,
                      le:-5.5286991596221924e-01 }
            -
               depth: 6
               sample_count: 309
               value: -6.6612263231215740e-01
               Tn: 0
               complexity: 0
               alpha: 0.
               node_risk: 1.3460850926597345e-01
               tree_risk: 0.
               tree_error: 0.
            -
               depth: 6
               sample_count: 400
               value: -5.8167055100202558e-01
               Tn: 0
               complexity: 0
               alpha: 0.
               node_risk: 2.3686893912523033e-01
               tree_risk: 0.
               tree_error: 0.
            -
               depth: 5
               sample_count: 791
               value: -4.5823514585850667e-01
               Tn: 0
               complexity: 0
               alpha: 0.
               node_risk: 1.5896505588736431e+00
               tree_risk: 0.
               tree_error: 0.
               splits:
                  - { var:0, quality:1.6727813720703125e+02,
                      le:-3.4936714172363281e-01 }
            -
               depth: 6
               sample_count: 371
               value: -4.9940667729172100e-01
               Tn: 0
               complexity: 0
               alpha: 0.
               node_risk: 1.9428851535737124e-01
               tree_risk: 0.
               tree_error: 0.
            -
               depth: 6
               sample_count: 420
               value: -4.2186695975916727e-01
               Tn: 0
               complexity: 0
               alpha: 0.
               node_risk: 2.1097091504458376e-01
               tree_risk: 0.
               tree_error: 0.
            -
               depth: 4
               sample_count: 1834
               value: -2.3321319274368696e-01
               Tn: 0
               complexity: 0
               alpha: 0.
               node_risk: 1.2610532646154411e+01
               tree_risk: 0.
               tree_error: 0.
               splits:
                  - { var:0, quality:1.0935103607177734e+02,
                      le:-8.3248168230056763e-02 }
            -
               depth: 5
               sample_count: 893
               value: -3.0749228503242187e-01
               Tn: 0
               complexity: 0
               alpha: 0.
               node_risk: 1.4931753991793215e+00
               tree_risk: 0.
               tree_error: 0.
               splits:
                  - { var:0, quality:8.5547172546386719e+01,
                      le:-1.6151845455169678e-01 }
            -
               depth: 6
               sample_count: 465
               value: -3.4135755685067948e-01
               Tn: 0
               complexity: 0
               alpha: 0.
               node_risk: 2.4149252856170023e-01
               tree_risk: 0.
               tree_error: 0.
            -
               depth: 6
               sample_count: 428
               value: -2.7069940794015601e-01
               Tn: 0
               complexity: 0
               alpha: 0.
               node_risk: 1.3900417076841265e-01
               tree_risk: 0.
               tree_error: 0.
            -
               depth: 5
               sample_count: 941
               value: -1.6272304458870265e-01
               Tn: 0
               complexity: 0
               alpha: 0.
               node_risk: 1.5146355470345831e+00
               tree_risk: 0.
               tree_error: 0.
               splits:
                  - { var:0, quality:2.6047054290771484e+01,
                      le:-4.9778828397393227e-03 }
            -
               depth: 6
               sample_count: 422
               value: -2.0116190439293169e-01
               Tn: 0
               complexity: 0
               alpha: 0.
               node_risk: 1.7286642587864876e-01
               tree_risk: 0.
               tree_error: 0.
            -
               depth: 6
               sample_count: 519
               value: -1.3146832621223895e-01
               Tn: 0
               complexity: 0
               alpha: 0.
               node_risk: 2.1125573179818957e-01
               tree_risk: 0.
               tree_error: 0.
            -
               depth: 3
               sample_count: 4134
               value: 1.7385534180646350e-01
               Tn: 0
               complexity: 0
               alpha: 0.
               node_risk: 1.0763001027639922e+02
               tree_risk: 0.
               tree_error: 0.
               splits:
                  - { var:0, quality:2.0471737670898438e+02,
                      le:3.7071949243545532e-01 }
            -
               depth: 4
               sample_count: 2160
               value: 4.1065127577598171e-02
               Tn: 0
               complexity: 0
               alpha: 0.
               node_risk: 1.2728063688253906e+01
               tree_risk: 0.
               tree_error: 0.
               splits:
                  - { var:0, quality:1.3061984062194824e+01,
                      le:2.2983297705650330e-01 }
            -
               depth: 5
               sample_count: 1095
               value: -2.4060859114407949e-02
               Tn: 0
               complexity: 0
               alpha: 0.
               node_risk: 1.8132052750430760e+00
               tree_risk: 0.
               tree_error: 0.
               splits:
                  - { var:0, quality:2.0149629116058350e+00,
                      le:1.5156269073486328e-01 }
            -
               depth: 6
               sample_count: 505
               value: -6.2447172536118194e-02
               Tn: 0
               complexity: 0
               alpha: 0.
               node_risk: 2.0996352247850236e-01
               tree_risk: 0.
               tree_error: 0.
            -
               depth: 6
               sample_count: 590
               value: 8.7952227126491273e-03
               Tn: 0
               complexity: 0
               alpha: 0.
               node_risk: 2.2220163153362371e-01
               tree_risk: 0.
               tree_error: 0.
            -
               depth: 5
               sample_count: 1065
               value: 1.0802564910599884e-01
               Tn: 0
               complexity: 0
               alpha: 0.
               node_risk: 1.4953791398821448e+00
               tree_risk: 0.
               tree_error: 0.
               splits:
                  - { var:0, quality:1.3542501449584961e+01,
                      le:2.9244917631149292e-01 }
            -
               depth: 6
               sample_count: 500
               value: 7.3638757526874543e-02
               Tn: 0
               complexity: 0
               alpha: 0.
               node_risk: 1.5141617423280840e-01
               tree_risk: 0.
               tree_error: 0.
            -
               depth: 6
               sample_count: 565
               value: 1.3845652660964863e-01
               Tn: 0
               complexity: 0
               alpha: 0.
               node_risk: 2.2952216672442738e-01
               tree_risk: 0.
               tree_error: 0.
            -
               depth: 4
               sample_count: 1974
               value: 3.1915770388060188e-01
               Tn: 0
               complexity: 0
               alpha: 0.
               node_risk: 1.5137525377443893e+01
               tree_risk: 0.
               tree_error: 0.
               splits:
                  - { var:0, quality:2.1257733154296875e+02,
                      le:5.2726006507873535e-01 }
            -
               depth: 5
               sample_count: 1085
               value: 2.5006093709699567e-01
               Tn: 0
               complexity: 0
               alpha: 0.
               node_risk: 2.0408018244823296e+00
               tree_risk: 0.
               tree_error: 0.
               splits:
                  - { var:0, quality:6.9412521362304688e+01,
                      le:4.4898974895477295e-01 }
            -
               depth: 6
               sample_count: 541
               value: 2.1195304239523388e-01
               Tn: 0
               complexity: 0
               alpha: 0.
               node_risk: 2.2811595259531003e-01
               tree_risk: 0.
               tree_error: 0.
            -
               depth: 6
               sample_count: 544
               value: 2.8795867796768160e-01
               Tn: 0
               complexity: 0
               alpha: 0.
               node_risk: 2.4572548827621432e-01
               tree_risk: 0.
               tree_error: 0.
            -
               depth: 5
               sample_count: 889
               value: 4.0348840349838894e-01
               Tn: 0
               complexity: 0
               alpha: 0.
               node_risk: 1.5942676303726273e+00
               tree_risk: 0.
               tree_error: 0.
               splits:
                  - { var:0, quality:1.4588648986816406e+02,
                      le:6.0553038120269775e-01 }
            -
               depth: 6
               sample_count: 444
               value: 3.6740774567331280e-01
               Tn: 0
               complexity: 0
               alpha: 0.
               node_risk: 2.1123526784634805e-01
               tree_risk: 0.
               tree_error: 0.
            -
               depth: 6
               sample_count: 445
               value: 4.3948798119352106e-01
               Tn: 0
               complexity: 0
               alpha: 0.
               node_risk: 2.2832053521884177e-01
               tree_risk: 0.
               tree_error: 0.
            -
               depth: 1
               sample_count: 5618
               value: 1.6280904506270510e+00
               Tn: 0
               complexity: 0
               alpha: 0.
               node_risk: 1.0150935686503048e+04
               tree_risk: 0.
               tree_error: 0.
               splits:
                  - { var:0, quality:1.9892320312500000e+04,
                      le:2.2961685657501221e+00 }
            -
               depth: 2
               sample_count: 4438
               value: 1.1415974383098471e+00
               Tn: 0
               complexity: 0
               alpha: 0.
               node_risk: 1.0771908182150983e+03
               tree_risk: 0.
               tree_error: 0.
               splits:
                  - { var:0, quality:6.5826118164062500e+03,
                      le:1.4195413589477539e+00 }
            -
               depth: 3
               sample_count: 2808
               value: 8.1835840005650484e-01
               Tn: 0
               complexity: 0
               alpha: 0.
               node_risk: 1.3824717405003776e+02
               tree_risk: 0.
               tree_error: 0.
               splits:
                  - { var:0, quality:1.9840889892578125e+03,
                      le:1.0438439846038818e+00 }
            -
               depth: 4
               sample_count: 1609
               value: 6.5259395948176502e-01
               Tn: 0
               complexity: 0
               alpha: 0.
               node_risk: 1.7851828409787458e+01
               tree_risk: 0.
               tree_error: 0.
               splits:
                  - { var:0, quality:6.9874114990234375e+02,
                      le:8.5599529743194580e-01 }
            -
               depth: 5
               sample_count: 826
               value: 5.6340462698197535e-01
               Tn: 0
               complexity: 0
               alpha: 0.
               node_risk: 2.1256683454892027e+00
               tree_risk: 0.
               tree_error: 0.
               splits:
                  - { var:0, quality:2.6382843017578125e+02,
                      le:7.6207089424133301e-01 }
            -
               depth: 6
               sample_count: 401
               value: 5.1759404523711550e-01
               Tn: 0
               complexity: 0
               alpha: 0.
               node_risk: 1.8760748434550578e-01
               tree_risk: 0.
               tree_error: 0.
            -
               depth: 6
               sample_count: 425
               value: 6.0662825822830202e-01
               Tn: 0
               complexity: 0
               alpha: 0.
               node_risk: 3.0249851512451187e-01
               tree_risk: 0.
               tree_error: 0.
            -
               depth: 5
               sample_count: 783
               value: 7.4668130130146659e-01
               Tn: 0
               complexity: 0
               alpha: 0.
               node_risk: 2.2240962376488937e+00
               tree_risk: 0.
               tree_error: 0.
               splits:
                  - { var:0, quality:4.3822662353515625e+02,
                      le:9.4991958141326904e-01 }
            -
               depth: 6
               sample_count: 403
               value: 7.0172437485630990e-01
               Tn: 0
               complexity: 0
               alpha: 0.
               node_risk: 2.8190376839717146e-01
               tree_risk: 0.
               tree_error: 0.
            -
               depth: 6
               sample_count: 380
               value: 7.9435930487356687e-01
               Tn: 0
               complexity: 0
               alpha: 0.
               node_risk: 2.6386603003103914e-01
               tree_risk: 0.
               tree_error: 0.
            -
               depth: 4
               sample_count: 1199
               value: 1.0408062606776527e+00
               Tn: 0
               complexity: 0
               alpha: 0.
               node_risk: 1.6853307594703665e+01
               tree_risk: 0.
               tree_error: 0.
               splits:
                  - { var:0, quality:1.3114150390625000e+03,
                      le:1.2316926717758179e+00 }
            -
               depth: 5
               sample_count: 650
               value: 9.4672522709919860e-01
               Tn: 0
               complexity: 0
               alpha: 0.
               node_risk: 2.4255800094840652e+00
               tree_risk: 0.
               tree_error: 0.
               splits:
                  - { var:0, quality:5.8449597167968750e+02,
                      le:1.1377682685852051e+00 }
            -
               depth: 6
               sample_count: 347
               value: 8.9609278553844529e-01
               Tn: 0
               complexity: 0
               alpha: 0.
               node_risk: 2.5102979310935325e-01
               tree_risk: 0.
               tree_error: 0.
            -
               depth: 6
               sample_count: 303
               value: 1.0047102344311503e+00
               Tn: 0
               complexity: 0
               alpha: 0.
               node_risk: 2.6620059453591693e-01
               tree_risk: 0.
               tree_error: 0.
            -
               depth: 5
               sample_count: 549
               value: 1.1521954625464963e+00
               Tn: 0
               complexity: 0
               alpha: 0.
               node_risk: 1.8626737069022283e+00
               tree_risk: 0.
               tree_error: 0.
               splits:
                  - { var:0, quality:7.3021661376953125e+02,
                      le:1.3256169557571411e+00 }
            -
               depth: 6
               sample_count: 284
               value: 1.1036031527418486e+00
               Tn: 0
               complexity: 0
               alpha: 0.
               node_risk: 2.5077253565376623e-01
               tree_risk: 0.
               tree_error: 0.
            -
               depth: 6
               sample_count: 265
               value: 1.2042717492805337e+00
               Tn: 0
               complexity: 0
               alpha: 0.
               node_risk: 2.2265279615737654e-01
               tree_risk: 0.
               tree_error: 0.
            -
               depth: 3
               sample_count: 1630
               value: 1.6984411312027212e+00
               Tn: 0
               complexity: 0
               alpha: 0.
               node_risk: 1.4013195972280482e+02
               tree_risk: 0.
               tree_error: 0.
               splits:
                  - { var:0, quality:4.8079482421875000e+03,
                      le:1.8422008752822876e+00 }
            -
               depth: 4
               sample_count: 945
               value: 1.4814462240410859e+00
               Tn: 0
               complexity: 0
               alpha: 0.
               node_risk: 1.6075394621327632e+01
               tree_risk: 0.
               tree_error: 0.
               splits:
                  - { var:0, quality:2.0859306640625000e+03,
                      le:1.6230440139770508e+00 }
            -
               depth: 5
               sample_count: 493
               value: 1.3737472199039575e+00
               Tn: 0
               complexity: 0
               alpha: 0.
               node_risk: 2.0195426924481126e+00
               tree_risk: 0.
               tree_error: 0.
               splits:
                  - { var:0, quality:9.3189575195312500e+02,
                      le:1.5291197299957275e+00 }
            -
               depth: 6
               sample_count: 261
               value: 1.3214770276884467e+00
               Tn: 0
               complexity: 0
               alpha: 0.
               node_risk: 3.1251752128872567e-01
               tree_risk: 0.
               tree_error: 0.
            -
               depth: 6
               sample_count: 232
               value: 1.4325511861464073e+00
               Tn: 0
               complexity: 0
               alpha: 0.
               node_risk: 1.9169372422646802e-01
               tree_risk: 0.
               tree_error: 0.
            -
               depth: 5
               sample_count: 452
               value: 1.5989143856331312e+00
               Tn: 0
               complexity: 0
               alpha: 0.
               node_risk: 2.1004641287577215e+00
               tree_risk: 0.
               tree_error: 0.
               splits:
                  - { var:0, quality:1.1571087646484375e+03,
                      le:1.7326225042343140e+00 }
            -
               depth: 6
               sample_count: 274
               value: 1.5515866688568227e+00
               Tn: 0
               complexity: 0
               alpha: 0.
               node_risk: 2.9844506652693781e-01
               tree_risk: 0.
               tree_error: 0.
            -
               depth: 6
               sample_count: 178
               value: 1.6717671631427293e+00
               Tn: 0
               complexity: 0
               alpha: 0.
               node_risk: 2.4354312183788807e-01
               tree_risk: 0.
               tree_error: 0.
            -
               depth: 4
               sample_count: 685
               value: 1.9977990688198675e+00
               Tn: 0
               complexity: 0
               alpha: 0.
               node_risk: 1.8173154054948554e+01
               tree_risk: 0.
               tree_error: 0.
               splits:
                  - { var:0, quality:2.7473444824218750e+03,
                      le:2.0613577365875244e+00 }
            -
               depth: 5
               sample_count: 372
               value: 1.8696395604200260e+00
               Tn: 0
               complexity: 0
               alpha: 0.
               node_risk: 2.3476435802233482e+00
               tree_risk: 0.
               tree_error: 0.
               splits:
                  - { var:0, quality:1.3021583251953125e+03,
                      le:1.9517792463302612e+00 }
            -
               depth: 6
               sample_count: 197
               value: 1.8038417839156795e+00
               Tn: 0
               complexity: 0
               alpha: 0.
               node_risk: 2.7907113798175942e-01
               tree_risk: 0.
               tree_error: 0.
            -
               depth: 6
               sample_count: 175
               value: 1.9437090573992049e+00
               Tn: 0
               complexity: 0
               alpha: 0.
               node_risk: 2.5559018885246587e-01
               tree_risk: 0.
               tree_error: 0.
            -
               depth: 5
               sample_count: 313
               value: 2.1501164398254295e+00
               Tn: 0
               complexity: 0
               alpha: 0.
               node_risk: 2.4536806933886055e+00
               tree_risk: 0.
               tree_error: 0.
               splits:
                  - { var:0, quality:1.4489838867187500e+03,
                      le:2.1865901947021484e+00 }
            -
               depth: 6
               sample_count: 171
               value: 2.0775527828618099e+00
               Tn: 0
               complexity: 0
               alpha: 0.
               node_risk: 2.8222507929604035e-01
               tree_risk: 0.
               tree_error: 0.
            -
               depth: 6
               sample_count: 142
               value: 2.2374994351830280e+00
               Tn: 0
               complexity: 0
               alpha: 0.
               node_risk: 1.8677591812650007e-01
               tree_risk: 0.
               tree_error: 0.
            -
               depth: 2
               sample_count: 1180
               value: 3.4577989155963316e+00
               Tn: 0
               complexity: 0
               alpha: 0.
               node_risk: 4.0729361978004599e+03
               tree_risk: 0.
               tree_error: 0.
               splits:
                  - { var:0, quality:1.6238211914062500e+04,
                      le:8.2055749893188477e+00 }
            -
               depth: 3
               sample_count: 1173
               value: 3.3540180379878937e+00
               Tn: 0
               complexity: 0
               alpha: 0.
               node_risk: 1.5886477317680492e+03
               tree_risk: 0.
               tree_error: 0.
               splits:
                  - { var:0, quality:1.4199207031250000e+04,
                      le:3.7363417148590088e+00 }
            -
               depth: 4
               sample_count: 1003
               value: 2.9732074335826595e+00
               Tn: 0
               complexity: 0
               alpha: 0.
               node_risk: 2.6908655711080610e+02
               tree_risk: 0.
               tree_error: 0.
               splits:
                  - { var:0, quality:9.0641796875000000e+03,
                      le:2.9223308563232422e+00 }
            -
               depth: 5
               sample_count: 656
               value: 2.6503113846226438e+00
               Tn: 0
               complexity: 0
               alpha: 0.
               node_risk: 3.3726349821582517e+01
               tree_risk: 0.
               tree_error: 0.
               splits:
                  - { var:0, quality:4.6337368164062500e+03,
                      le:2.5779416561126709e+00 }
            -
               depth: 6
               sample_count: 342
               value: 2.4599406726179067e+00
               Tn: 0
               complexity: 0
               alpha: 0.
               node_risk: 3.2498808173922953e+00
               tree_risk: 0.
               tree_error: 0.
            -
               depth: 6
               sample_count: 314
               value: 2.8576578289080579e+00
               Tn: 0
               complexity: 0
               alpha: 0.
               node_risk: 4.5823842131417223e+00
               tree_risk: 0.
               tree_error: 0.
            -
               depth: 5
               sample_count: 347
               value: 3.5836391572649955e+00
               Tn: 0
               complexity: 0
               alpha: 0.
               node_risk: 3.7662897577116382e+01
               tree_risk: 0.
               tree_error: 0.
               splits:
                  - { var:0, quality:4.4850200195312500e+03,
                      le:3.2980282306671143e+00 }
            -
               depth: 6
               sample_count: 207
               value: 3.3471961735527298e+00
               Tn: 0
               complexity: 0
               alpha: 0.
               node_risk: 4.3847423208858345e+00
               tree_risk: 0.
               tree_error: 0.
            -
               depth: 6
               sample_count: 140
               value: 3.9332369974681307e+00
               Tn: 0
               complexity: 0
               alpha: 0.
               node_risk: 4.5951503726028022e+00
               tree_risk: 0.
               tree_error: 0.
            -
               depth: 4
               sample_count: 170
               value: 5.6008006039787741e+00
               Tn: 0
               complexity: 0
               alpha: 0.
               node_risk: 3.1594398527757585e+02
               tree_risk: 0.
               tree_error: 0.
               splits:
                  - { var:0, quality:5.5486381835937500e+03,
                      le:5.2782664299011230e+00 }
            -
               depth: 5
               sample_count: 146
               value: 5.1438755074592484e+00
               Tn: 0
               complexity: 0
               alpha: 0.
               node_risk: 6.9351474069141204e+01
               tree_risk: 0.
               tree_error: 0.
               splits:
                  - { var:0, quality:3.9153703613281250e+03,
                      le:4.4329471588134766e+00 }
            -
               depth: 6
               sample_count: 102
               value: 4.7508157141068406e+00
               Tn: 0
               complexity: 0
               alpha: 0.
               node_risk: 1.0660939802685789e+01
               tree_risk: 0.
               tree_error: 0.
            -
               depth: 6
               sample_count: 44
               value: 6.0550595738671040e+00
               Tn: 0
               complexity: 0
               alpha: 0.
               node_risk: 6.4006604226121908e+00
               tree_risk: 0.
               tree_error: 0.
            -
               depth: 5
               sample_count: 24
               value: 8.3804282744725551e+00
               Tn: 0
               complexity: 0
               alpha: 0.
               node_risk: 3.0678632131554650e+01
               tree_risk: 0.
               tree_error: 0.
               splits:
                  - { var:0, quality:1.7085102539062500e+03,
                      le:6.4523210525512695e+00 }
            -
               depth: 6
               sample_count: 17
               value: 7.7529011333689972e+00
               Tn: 0
               complexity: 0
               alpha: 0.
               node_risk: 5.9356864394893591e+00
               tree_risk: 0.
               tree_error: 0.
            -
               depth: 6
               sample_count: 7
               value: 9.9044227600097656e+00
               Tn: 0
               complexity: 0
               alpha: 0.
               node_risk: 1.7905960304633481e+00
               tree_risk: 0.
               tree_error: 0.
            -
               depth: 3
               sample_count: 7
               value: 2.0848508834838867e+01
               Tn: 0
               complexity: 0
               alpha: 0.
               node_risk: 3.5459716360214043e+02
               tree_risk: 0.
               tree_error: 0.
      -
         best_tree_idx: -1
         nodes:
            -
               depth: 0
               sample_count: 19812
               value: -8.7828535871746095e-03
               Tn: 0
               complexity: 0
               alpha: 0.
               node_risk: 4.2432692823769001e+04
               tree_risk: 0.
               tree_error: 0.
               splits:
                  - { var:0, quality:2.2232701171875000e+04,
                      le:8.0903309583663940e-01 }
            -
               depth: 1
               sample_count: 14868
               value: -6.1962638669577119e-01
               Tn: 0
               complexity: 0
               alpha: 0.
               node_risk: 7.7141270002483925e+03
               tree_risk: 0.
               tree_error: 0.
               splits:
                  - { var:0, quality:1.1956651367187500e+04,
                      le:-5.8417797088623047e-01 }
            -
               depth: 2
               sample_count: 7023
               value: -1.3047816982453286e+00
               Tn: 0
               complexity: 0
               alpha: 0.
               node_risk: 6.0134175511013200e+02
               tree_risk: 0.
               tree_error: 0.
               splits:
                  - { var:0, quality:1.2423828125000000e+04,
                      le:-1.3668808937072754e+00 }
            -
               depth: 3
               sample_count: 4619
               value: -1.4909114438131481e+00
               Tn: 0
               complexity: 0
               alpha: 0.
               node_risk: 6.6523175341530077e+01
               tree_risk: 0.
               tree_error: 0.
               splits:
                  - { var:0, quality:1.0315863281250000e+04,
                      le:-1.7582323551177979e+00 }
            -
               depth: 4
               sample_count: 2812
               value: -1.5731990813021979e+00
               Tn: 0
               complexity: 0
               alpha: 0.
               node_risk: 9.1922657942377555e+00
               tree_risk: 0.
               tree_error: 0.
               splits:
                  - { var:0, quality:6.9661162109375000e+03,
                      le:-1.9460809230804443e+00 }
            -
               depth: 5
               sample_count: 1362
               value: -1.6229662680765955e+00
               Tn: 0
               complexity: 0
               alpha: 0.
               node_risk: 1.2366300665180461e+00
               tree_risk: 0.
               tree_error: 0.
               splits:
                  - { var:0, quality:3.5883891601562500e+03,
                      le:-2.0400052070617676e+00 }
            -
               depth: 6
               sample_count: 564
               value: -1.6527627277458814e+00
               Tn: 0
               complexity: 0
               alpha: 0.
               node_risk: 2.0522834132498247e-01
               tree_risk: 0.
               tree_error: 0.
            -
               depth: 6
               sample_count: 798
               value: -1.6019071161298823e+00
               Tn: 0
               complexity: 0
               alpha: 0.
               node_risk: 1.7676283539367432e-01
               tree_risk: 0.
               tree_error: 0.
            -
               depth: 5
               sample_count: 1450
               value: -1.5264522479320395e+00
               Tn: 0
               complexity: 0
               alpha: 0.
               node_risk: 1.4136347420449056e+00
               tree_risk: 0.
               tree_error: 0.
               splits:
                  - { var:0, quality:3.3796579589843750e+03,
                      le:-1.8521566390991211e+00 }
            -
               depth: 6
               sample_count: 799
               value: -1.5510413415440929e+00
               Tn: 0
               complexity: 0
               alpha: 0.
               node_risk: 1.7681938174359857e-01
               tree_risk: 0.
               tree_error: 0.
            -
               depth: 6
               sample_count: 651
               value: -1.4962730070779218e+00
               Tn: 0
               complexity: 0
               alpha: 0.
               node_risk: 1.6079910147118426e-01
               tree_risk: 0.
               tree_error: 0.
            -
               depth: 4
               sample_count: 1807
               value: -1.3628578540958221e+00
               Tn: 0
               complexity: 0
               alpha: 0.
               node_risk: 8.6594563260186987e+00
               tree_risk: 0.
               tree_error: 0.
               splits:
                  - { var:0, quality:3.3627934570312500e+03,
                      le:-1.5703835487365723e+00 }
            -
               depth: 5
               sample_count: 1050
               value: -1.4138029997689383e+00
               Tn: 0
               complexity: 0
               alpha: 0.
               node_risk: 1.1236604334303593e+00
               tree_risk: 0.
               tree_error: 0.
               splits:
                  - { var:0, quality:2.0996296386718750e+03,
                      le:-1.6643079519271851e+00 }
            -
               depth: 6
               sample_count: 578
               value: -1.4394952038167670e+00
               Tn: 0
               complexity: 0
               alpha: 0.
               node_risk: 1.4787836112441255e-01
               tree_risk: 0.
               tree_error: 0.
            -
               depth: 6
               sample_count: 472
               value: -1.3823409363374872e+00
               Tn: 0
               complexity: 0
               alpha: 0.
               node_risk: 1.2703583118809547e-01
               tree_risk: 0.
               tree_error: 0.
            -
               depth: 5
               sample_count: 757
               value: -1.2921941777988972e+00
               Tn: 0
               complexity: 0
               alpha: 0.
               node_risk: 1.0306477846543203e+00
               tree_risk: 0.
               tree_error: 0.
               splits:
                  - { var:0, quality:1.2647735595703125e+03,
                      le:-1.4608051776885986e+00 }
            -
               depth: 6
               sample_count: 476
               value: -1.3165518936990690e+00
               Tn: 0
               complexity: 0
               alpha: 0.
               node_risk: 1.8040976874954140e-01
               tree_risk: 0.
               tree_error: 0.
            -
               depth: 6
               sample_count: 281
               value: -1.2509334206156884e+00
               Tn: 0
               complexity: 0
               alpha: 0.
               node_risk: 8.9439540329806277e-02
               tree_risk: 0.
               tree_error: 0.
            -
               depth: 3
               sample_count: 2404
               value: -9.4715553569218480e-01
               Tn: 0
               complexity: 0
               alpha: 0.
               node_risk: 6.7333521325019774e+01
               tree_risk: 0.
               tree_error: 0.
               splits:
                  - { var:0, quality:2.2080517578125000e+03,
                      le:-9.5987534523010254e-01 }
            -
               depth: 4
               sample_count: 1306
               value: -1.0812485235847338e+00
               Tn: 0
               complexity: 0
               alpha: 0.
               node_risk: 8.7631585833182726e+00
               tree_risk: 0.
               tree_error: 0.
               splits:
                  - { var:0, quality:1.5334656982421875e+03,
                      le:-1.1633781194686890e+00 }
            -
               depth: 5
               sample_count: 658
               value: -1.1519187627230010e+00
               Tn: 0
               complexity: 0
               alpha: 0.
               node_risk: 1.0003826603258403e+00
               tree_risk: 0.
               tree_error: 0.
               splits:
                  - { var:0, quality:8.7383575439453125e+02,
                      le:-1.2573025226593018e+00 }
            -
               depth: 6
               sample_count: 368
               value: -1.1813748158190562e+00
               Tn: 0
               complexity: 0
               alpha: 0.
               node_risk: 1.7515664840846057e-01
               tree_risk: 0.
               tree_error: 0.
            -
               depth: 6
               sample_count: 290
               value: -1.1145400470700757e+00
               Tn: 0
               complexity: 0
               alpha: 0.
               node_risk: 1.0074864505190817e-01
               tree_risk: 0.
               tree_error: 0.
            -
               depth: 5
               sample_count: 648
               value: -1.0094876943363085e+00
               Tn: 0
               complexity: 0
               alpha: 0.
               node_risk: 1.1395863403338353e+00
               tree_risk: 0.
               tree_error: 0.
               splits:
                  - { var:0, quality:6.6121264648437500e+02,
                      le:-1.0694537162780762e+00 }
            -
               depth: 6
               sample_count: 291
               value: -1.0497968078069262e+00
               Tn: 0
               complexity: 0
               alpha: 0.
               node_risk: 9.1984449415974723e-02
               tree_risk: 0.
               tree_error: 0.
            -
               depth: 6
               sample_count: 357
               value: -9.7663068587706536e-01
               Tn: 0
               complexity: 0
               alpha: 0.
               node_risk: 1.8936679119576638e-01
               tree_risk: 0.
               tree_error: 0.
            -
               depth: 4
               sample_count: 1098
               value: -7.8766059745204908e-01
               Tn: 0
               complexity: 0
               alpha: 0.
               node_risk: 7.1556473567410421e+00
               tree_risk: 0.
               tree_error: 0.
               splits:
                  - { var:0, quality:6.8655609130859375e+02,
                      le:-7.5637263059616089e-01 }
            -
               depth: 5
               sample_count: 555
               value: -8.5668427890485477e-01
               Tn: 0
               complexity: 0
               alpha: 0.
               node_risk: 9.8878987682201114e-01
               tree_risk: 0.
               tree_error: 0.
               splits:
                  - { var:0, quality:4.0806274414062500e+02,
                      le:-8.5029697418212891e-01 }
            -
               depth: 6
               sample_count: 267
               value: -8.9470600032627801e-01
               Tn: 0
               complexity: 0
               alpha: 0.
               node_risk: 1.3114193928416285e-01
               tree_risk: 0.
               tree_error: 0.
            -
               depth: 6
               sample_count: 288
               value: -8.2143497467041016e-01
               Tn: 0
               complexity: 0
               alpha: 0.
               node_risk: 1.1381516716261331e-01
               tree_risk: 0.
               tree_error: 0.
            -
               depth: 5
               sample_count: 543
               value: -7.1711153077376699e-01
               Tn: 0
               complexity: 0
               alpha: 0.
               node_risk: 8.2008465681388998e-01
               tree_risk: 0.
               tree_error: 0.
               splits:
                  - { var:0, quality:2.7987438964843750e+02,
                      le:-6.6244828701019287e-01 }
            -
               depth: 6
               sample_count: 274
               value: -7.5105381229498092e-01
               Tn: 0
               complexity: 0
               alpha: 0.
               node_risk: 1.0648670595656995e-01
               tree_risk: 0.
               tree_error: 0.
            -
               depth: 6
               sample_count: 269
               value: -6.8253835182650824e-01
               Tn: 0
               complexity: 0
               alpha: 0.
               node_risk: 7.6391483766769852e-02
               tree_risk: 0.
               tree_error: 0.
            -
               depth: 2
               sample_count: 7845
               value: -6.2617272932801830e-03
               Tn: 0
               complexity: 0
               alpha: 0.
               node_risk: 8.6450743771073417e+02
               tree_risk: 0.
               tree_error: 0.
               splits:
                  - { var:0, quality:6.0952606201171875e+02,
                      le:1.5156269073486328e-01 }
            -
               depth: 3
               sample_count: 3628
               value: -3.0670205274516721e-01
               Tn: 0
               complexity: 0
               alpha: 0.
               node_risk: 1.1651343265469291e+02
               tree_risk: 0.
               tree_error: 0.
               splits:
                  - { var:0, quality:4.2790689086914062e+02,
                      le:-1.9282656908035278e-01 }
            -
               depth: 4
               sample_count: 1581
               value: -4.8253724159959144e-01
               Tn: 0
               complexity: 0
               alpha: 0.
               node_risk: 1.4160330383664245e+01
               tree_risk: 0.
               tree_error: 0.
               splits:
                  - { var:0, quality:3.7881857299804688e+02,
                      le:-3.8067525625228882e-01 }
            -
               depth: 5
               sample_count: 741
               value: -5.7010743162731736e-01
               Tn: 0
               complexity: 0
               alpha: 0.
               node_risk: 1.7583101737344293e+00
               tree_risk: 0.
               tree_error: 0.
               splits:
                  - { var:0, quality:2.4217382812500000e+02,
                      le:-4.9025368690490723e-01 }
            -
               depth: 6
               sample_count: 325
               value: -6.1807797468625580e-01
               Tn: 0
               complexity: 0
               alpha: 0.
               node_risk: 1.3567402802995332e-01
               tree_risk: 0.
               tree_error: 0.
            -
               depth: 6
               sample_count: 416
               value: -5.3263044486252165e-01
               Tn: 0
               complexity: 0
               alpha: 0.
               node_risk: 2.9047271288153809e-01
               tree_risk: 0.
               tree_error: 0.
            -
               depth: 5
               sample_count: 840
               value: -4.0528782396799040e-01
               Tn: 0
               complexity: 0
               alpha: 0.
               node_risk: 1.7069564969293936e+00
               tree_risk: 0.
               tree_error: 0.
               splits:
                  - { var:0, quality:1.3925112915039062e+02,
                      le:-2.8675091266632080e-01 }
            -
               depth: 6
               sample_count: 388
               value: -4.4732528295099122e-01
               Tn: 0
               complexity: 0
               alpha: 0.
               node_risk: 1.9066121219076138e-01
               tree_risk: 0.
               tree_error: 0.
            -
               depth: 6
               sample_count: 452
               value: -3.6920257156665348e-01
               Tn: 0
               complexity: 0
               alpha: 0.
               node_risk: 2.4207213786017689e-01
               tree_risk: 0.
               tree_error: 0.
            -
               depth: 4
               sample_count: 2047
               value: -1.7089578328798849e-01
               Tn: 0
               complexity: 0
               alpha: 0.
               node_risk: 1.5718199946548459e+01
               tree_risk: 0.
               tree_error: 0.
               splits:
                  - { var:0, quality:7.1637374877929688e+01,
                      le:-2.0631941035389900e-02 }
            -
               depth: 5
               sample_count: 924
               value: -2.5478907150430080e-01
               Tn: 0
               complexity: 0
               alpha: 0.
               node_risk: 1.7217787321347373e+00
               tree_risk: 0.
               tree_error: 0.
               splits:
                  - { var:0, quality:6.1303562164306641e+01,
                      le:-9.8902225494384766e-02 }
            -
               depth: 6
               sample_count: 495
               value: -2.8997322447372204e-01
               Tn: 0
               complexity: 0
               alpha: 0.
               node_risk: 2.3813841227799060e-01
               tree_risk: 0.
               tree_error: 0.
            -
               depth: 6
               sample_count: 429
               value: -2.1419197192419936e-01
               Tn: 0
               complexity: 0
               alpha: 0.
               node_risk: 1.6382222480768149e-01
               tree_risk: 0.
               tree_error: 0.
            -
               depth: 5
               sample_count: 1123
               value: -1.0186871444393457e-01
               Tn: 0
               complexity: 0
               alpha: 0.
               node_risk: 2.1424329861716647e+00
               tree_risk: 0.
               tree_error: 0.
               splits:
                  - { var:0, quality:1.3261698722839355e+01,
                      le:7.3292404413223267e-02 }
            -
               depth: 6
               sample_count: 584
               value: -1.3822250223833404e-01
               Tn: 0
               complexity: 0
               alpha: 0.
               node_risk: 2.9673535717314437e-01
               tree_risk: 0.
               tree_error: 0.
            -
               depth: 6
               sample_count: 539
               value: -6.2479823772451655e-02
               Tn: 0
               complexity: 0
               alpha: 0.
               node_risk: 2.3763420520042899e-01
               tree_risk: 0.
               tree_error: 0.
            -
               depth: 3
               sample_count: 4217
               value: 2.5221527074785000e-01
               Tn: 0
               complexity: 0
               alpha: 0.
               node_risk: 1.3877551932865850e+02
               tree_risk: 0.
               tree_error: 0.
               splits:
                  - { var:0, quality:3.7312216186523438e+02,
                      le:4.6464383602142334e-01 }
            -
               depth: 4
               sample_count: 2354
               value: 1.1192646068888784e-01
               Tn: 0
               complexity: 0
               alpha: 0.
               node_risk: 1.6820738008241062e+01
               tree_risk: 0.
               tree_error: 0.
               splits:
                  - { var:0, quality:4.2213275909423828e+01,
                      le:3.0810326337814331e-01 }
            -
               depth: 5
               sample_count: 1269
               value: 4.3946096051992206e-02
               Tn: 0
               complexity: 0
               alpha: 0.
               node_risk: 2.1562098385027744e+00
               tree_risk: 0.
               tree_error: 0.
               splits:
                  - { var:0, quality:4.0910644531250000e+00,
                      le:2.2983297705650330e-01 }
            -
               depth: 6
               sample_count: 655
               value: 9.1369096260830642e-03
               Tn: 0
               complexity: 0
               alpha: 0.
               node_risk: 2.4254916572354582e-01
               tree_risk: 0.
               tree_error: 0.
            -
               depth: 6
               sample_count: 614
               value: 8.1079674405364344e-02
               Tn: 0
               complexity: 0
               alpha: 0.
               node_risk: 2.7336440494494330e-01
               tree_risk: 0.
               tree_error: 0.
            -
               depth: 5
               sample_count: 1085
               value: 1.9143529269277776e-01
               Tn: 0
               complexity: 0
               alpha: 0.
               node_risk: 1.9410654421988269e+00
               tree_risk: 0.
               tree_error: 0.
               splits:
                  - { var:0, quality:4.1227951049804688e+01,
                      le:3.8637351989746094e-01 }
            -
               depth: 6
               sample_count: 553
               value: 1.5538881067018182e-01
               Tn: 0
               complexity: 0
               alpha: 0.
               node_risk: 2.3258032816601215e-01
               tree_risk: 0.
               tree_error: 0.
            -
               depth: 6
               sample_count: 532
               value: 2.2890466216363406e-01
               Tn: 0
               complexity: 0
               alpha: 0.
               node_risk: 2.4304184999565948e-01
               tree_risk: 0.
               tree_error: 0.
            -
               depth: 4
               sample_count: 1863
               value: 4.2947767486958754e-01
               Tn: 0
               complexity: 0
               alpha: 0.
               node_risk: 1.7086713162590684e+01
               tree_risk: 0.
               tree_error: 0.
               splits:
                  - { var:0, quality:3.5619198608398438e+02,
                      le:6.3683843612670898e-01 }
            -
               depth: 5
               sample_count: 979
               value: 3.5145572458029523e-01
               Tn: 0
               complexity: 0
               alpha: 0.
               node_risk: 2.3128548219122678e+00
               tree_risk: 0.
               tree_error: 0.
               splits:
                  - { var:0, quality:1.2268648529052734e+02,
                      le:5.5856817960739136e-01 }
            -
               depth: 6
               sample_count: 515
               value: 3.1121788314245280e-01
               Tn: 0
               complexity: 0
               alpha: 0.
               node_risk: 3.1678435277017769e-01
               tree_risk: 0.
               tree_error: 0.
            -
               depth: 6
               sample_count: 464
               value: 3.9611625979686604e-01
               Tn: 0
               complexity: 0
               alpha: 0.
               node_risk: 2.3676484879459281e-01
               tree_risk: 0.
