%YAML:1.0
---
opencv_ml_rtrees:
   format: 3
   is_classifier: 0
   var_all: 4
   var_count: 3
   ord_var_count: 4
   cat_var_count: 0
   training_params:
      use_surrogates: 0
      max_categories: 10
      regression_accuracy: 0.
      max_depth: 5
      min_sample_count: 10
      cross_validation_folds: 0
      nactive_vars: 0
   global_var_idx: 1
   var_idx: [ 0, 1, 2 ]
   var_type: [ 0, 0, 0, 0 ]
   cat_ofs: [ 0, 0, 0, 0, 0, 0 ]
   missing_subst: [ 0., 0., 0., 0. ]
   oob_error: 3.9933939020562989e+03
   ntrees: 100
   trees:
      -
         nodes:
            -
               depth: 0
               value: 3.5197918520899259e+02
               splits:
                  - { var:2, quality:181231600.,
                      le:1.5068298339843750e+02 }
            -
               depth: 1
               value: 1.6411531399165358e+02
               splits:
                  - { var:1, quality:16896052., le:2.8023547363281250e+02 }
            -
               depth: 2
               value: 3.4128173142585200e+02
               splits:
                  - { var:0, quality:9211022., le:2.1112304687500000e+02 }
            -
               depth: 3
               value: 4.1878662677839691e+02
               splits:
                  - { var:0, quality:9575524., le:2.0162780761718750e+02 }
            -
               depth: 4
               value: 3.0080448913574219e+02
               splits:
                  - { var:1, quality:2.2728152500000000e+06,
                      le:2.4340859985351562e+02 }
            -
               depth: 5
               value: 2.1696638658311633e+02
            -
               depth: 5
               value: 3.5110735066731769e+02
            -
               depth: 4
               value: 5.2365963801631221e+02
               splits:
                  - { var:2, quality:7572092., le:1.4874826049804688e+02 }
            -
               depth: 5
               value: 4.9575705401102704e+02
            -
               depth: 5
               value: 7.4688031005859375e+02
            -
               depth: 3
               value: 1.2168452792697482e+02
               splits:
                  - { var:2, quality:2.6708734375000000e+05,
                      le:1.4554928588867188e+02 }
            -
               depth: 4
               value: 1.1971408081054688e+02
               splits:
                  - { var:0, quality:2.2951145312500000e+05,
                      le:2.1829576110839844e+02 }
            -
               depth: 5
               value: 1.2214542319557883e+02
            -
               depth: 5
               value: 1.1436512756347656e+02
            -
               depth: 4
               value: 1.3744810485839844e+02
            -
               depth: 2
               value: 1.3788251827714780e+02
               splits:
                  - { var:0, quality:13086821., le:2.1042127990722656e+02 }
            -
               depth: 3
               value: 7.0012312199519226e+02
               splits:
                  - { var:1, quality:6469344., le:2.8335272216796875e+02 }
            -
               depth: 4
               value: 4.9743603515625000e+02
            -
               depth: 4
               value: 7.3697531960227275e+02
               splits:
                  - { var:2, quality:5985831., le:1.4963171386718750e+02 }
            -
               depth: 5
               value: 7.5213248697916663e+02
            -
               depth: 5
               value: 6.6876806640625000e+02
            -
               depth: 3
               value: 1.2174757821459907e+02
               splits:
                  - { var:0, quality:6.8340605000000000e+06,
                      le:2.1394296264648438e+02 }
            -
               depth: 4
               value: 3.2065198008219403e+02
            -
               depth: 4
               value: 1.2042154886881511e+02
               splits:
                  - { var:0, quality:6526205., le:2.2419586181640625e+02 }
            -
               depth: 5
               value: 1.2009734392051789e+02
            -
               depth: 5
               value: 1.2451832048820727e+02
            -
               depth: 1
               value: 5.0660560228787938e+02
               splits:
                  - { var:0, quality:173911344.,
                      le:2.1999468994140625e+02 }
            -
               depth: 2
               value: 6.0787521763132577e+02
               splits:
                  - { var:0, quality:124214824.,
                      le:2.1759114074707031e+02 }
            -
               depth: 3
               value: 6.3003871388080688e+02
               splits:
                  - { var:1, quality:96646840., le:2.8464611816406250e+02 }
            -
               depth: 4
               value: 4.1474477386474609e+02
               splits:
                  - { var:2, quality:2.2054102500000000e+06,
                      le:1.5309274291992188e+02 }
            -
               depth: 5
               value: 6.5734478759765625e+02
            -
               depth: 5
               value: 3.6622477111816409e+02
            -
               depth: 4
               value: 6.4127144118599267e+02
               splits:
                  - { var:2, quality:94983144., le:1.6799603271484375e+02 }
            -
               depth: 5
               value: 6.6830553398603274e+02
            -
               depth: 5
               value: 5.7686669069177970e+02
            -
               depth: 3
               value: 5.5020246394988033e+02
               splits:
                  - { var:1, quality:29515148., le:2.9254315185546875e+02 }
            -
               depth: 4
               value: 1.2603581673758370e+02
            -
               depth: 4
               value: 5.8472765616483468e+02
               splits:
                  - { var:1, quality:29455346., le:3.0620581054687500e+02 }
            -
               depth: 5
               value: 6.0647832552591956e+02
            -
               depth: 5
               value: 5.5725312644556948e+02
            -
               depth: 2
               value: 3.9890617009722996e+02
               splits:
                  - { var:2, quality:51631796., le:1.6092968750000000e+02 }
            -
               depth: 3
               value: 1.2589544316342003e+02
               splits:
                  - { var:2, quality:3.0118625000000000e+05,
                      le:1.5714997863769531e+02 }
            -
               depth: 4
               value: 1.2512154490152994e+02
               splits:
                  - { var:0, quality:2.3484937500000000e+05,
                      le:2.2250047302246094e+02 }
            -
               depth: 5
               value: 1.2456844647725423e+02
            -
               depth: 5
               value: 1.2733393859863281e+02
            -
               depth: 4
               value: 1.2879756164550781e+02
            -
               depth: 3
               value: 4.1643050729906236e+02
               splits:
                  - { var:0, quality:53300760., le:2.3602838134765625e+02 }
            -
               depth: 4
               value: 5.2099852234976629e+02
               splits:
                  - { var:0, quality:30520246., le:2.2319242858886719e+02 }
            -
               depth: 5
               value: 5.5864143625895179e+02
            -
               depth: 5
               value: 4.9276633691787720e+02
            -
               depth: 4
               value: 3.5278041118124258e+02
               splits:
                  - { var:1, quality:25643086., le:3.6126699829101562e+02 }
            -
               depth: 5
               value: 2.3839164656035754e+02
            -
               depth: 5
               value: 4.8313039877248366e+02
      -
         nodes:
            -
               depth: 0
               value: 3.3859951558817289e+02
               splits:
                  - { var:2, quality:166134944.,
                      le:1.5269180297851562e+02 }
            -
               depth: 1
               value: 1.6916552443145423e+02
               splits:
                  - { var:0, quality:23595712., le:2.1241384887695312e+02 }
            -
               depth: 2
               value: 4.5705549042134345e+02
               splits:
                  - { var:1, quality:18836688., le:2.7212420654296875e+02 }
            -
               depth: 3
               value: 3.0766126335991754e+02
               splits:
                  - { var:1, quality:4351706., le:2.6374887084960938e+02 }
            -
               depth: 4
               value: 2.8823264553672391e+02
               splits:
                  - { var:2, quality:3.2070437500000000e+06,
                      le:1.2556064605712891e+02 }
            -
               depth: 5
               value: 2.1183824593680245e+02
            -
               depth: 5
               value: 3.0548299383348035e+02
            -
               depth: 4
               value: 4.1313090297154019e+02
            -
               depth: 3
               value: 6.5478314388499541e+02
               splits:
                  - { var:0, quality:14767135., le:2.0667193603515625e+02 }
            -
               depth: 4
               value: 5.5978629713792066e+02
               splits:
                  - { var:1, quality:4.1323027500000000e+06,
                      le:2.8447576904296875e+02 }
            -
               depth: 5
               value: 5.3115462424538350e+02
            -
               depth: 5
               value: 7.1726049804687500e+02
            -
               depth: 4
               value: 7.1359071568080356e+02
               splits:
                  - { var:2, quality:10715758., le:1.4878604125976562e+02 }
            -
               depth: 5
               value: 7.5968783133370539e+02
            -
               depth: 5
               value: 6.9054215785435269e+02
            -
               depth: 2
               value: 1.2168471584439527e+02
               splits:
                  - { var:0, quality:7.1516225000000000e+06,
                      le:2.1388552856445312e+02 }
            -
               depth: 3
               value: 2.2021488571166992e+02
            -
               depth: 3
               value: 1.2043486168117403e+02
               splits:
                  - { var:2, quality:6864647., le:1.4298851013183594e+02 }
            -
               depth: 4
               value: 1.1696619665683845e+02
               splits:
                  - { var:2, quality:2667937., le:1.4107037353515625e+02 }
            -
               depth: 5
               value: 1.1623475718948076e+02
            -
               depth: 5
               value: 1.1783734928088242e+02
            -
               depth: 4
               value: 1.2286791808313603e+02
               splits:
                  - { var:2, quality:4197324., le:1.4759193420410156e+02 }
            -
               depth: 5
               value: 1.2200900147885693e+02
            -
               depth: 5
               value: 1.2492093825921779e+02
            -
               depth: 1
               value: 4.8938766082812344e+02
               splits:
                  - { var:0, quality:157136976.,
                      le:2.2459130859375000e+02 }
            -
               depth: 2
               value: 5.7989405822753906e+02
               splits:
                  - { var:0, quality:122081288.,
                      le:2.1881233215332031e+02 }
            -
               depth: 3
               value: 6.0911403793886484e+02
               splits:
                  - { var:1, quality:93073104., le:2.8476605224609375e+02 }
            -
               depth: 4
               value: 3.5192280273437501e+02
            -
               depth: 4
               value: 6.1987517748716982e+02
               splits:
                  - { var:0, quality:92013688., le:2.1386535644531250e+02 }
            -
               depth: 5
               value: 6.5605659607635152e+02
            -
               depth: 5
               value: 5.9916607605783565e+02
            -
               depth: 3
               value: 5.1493178190503806e+02
               splits:
                  - { var:1, quality:31177056., le:2.9592657470703125e+02 }
            -
               depth: 4
               value: 1.2608458624945746e+02
            -
               depth: 4
               value: 5.4890872133125379e+02
               splits:
                  - { var:2, quality:31215398., le:1.9279574584960938e+02 }
            -
               depth: 5
               value: 5.7204073285452932e+02
            -
               depth: 5
               value: 4.7276585006713867e+02
            -
               depth: 2
               value: 3.6655755007177368e+02
               splits:
                  - { var:2, quality:37442016., le:2.2023022460937500e+02 }
            -
               depth: 3
               value: 3.0197687449958755e+02
               splits:
                  - { var:0, quality:16573522., le:2.3812664794921875e+02 }
            -
               depth: 4
               value: 4.4262186381022133e+02
               splits:
                  - { var:1, quality:11883089., le:3.1123773193359375e+02 }
            -
               depth: 5
               value: 3.4504638394442469e+02
            -
               depth: 5
               value: 4.6452656337193082e+02
            -
               depth: 4
               value: 2.1842539570119121e+02
               splits:
                  - { var:0, quality:4.8248165000000000e+06,
                      le:2.5124578857421875e+02 }
            -
               depth: 5
               value: 2.1419101226024139e+02
            -
               depth: 5
               value: 2.3278547867484716e+02
            -
               depth: 3
               value: 4.6558125261579244e+02
               splits:
                  - { var:1, quality:22980174., le:4.1980389404296875e+02 }
            -
               depth: 4
               value: 4.2518629326254637e+02
               splits:
                  - { var:2, quality:10698289., le:2.2090185546875000e+02 }
            -
               depth: 5
               value: 5.4964929199218750e+02
            -
               depth: 5
               value: 4.2081917050010281e+02
            -
               depth: 4
               value: 5.1739217874278188e+02
               splits:
                  - { var:2, quality:12357088., le:4.0918838500976562e+02 }
            -
               depth: 5
               value: 4.8247823181152341e+02
            -
               depth: 5
               value: 5.4424906099759619e+02
      -
         nodes:
            -
               depth: 0
               value: 3.3963200502033476e+02
               splits:
                  - { var:2, quality:169545680.,
                      le:1.5241720581054688e+02 }
            -
               depth: 1
               value: 1.6490713591609440e+02
               splits:
                  - { var:0, quality:23477802., le:2.1241384887695312e+02 }
            -
               depth: 2
               value: 5.0070078134536743e+02
               splits:
                  - { var:1, quality:18616612., le:2.6389404296875000e+02 }
            -
               depth: 3
               value: 2.8729722391764324e+02
               splits:
                  - { var:1, quality:2.5402342500000000e+06,
                      le:2.4340859985351562e+02 }
            -
               depth: 4
               value: 2.1671990627712674e+02
            -
               depth: 4
               value: 3.1754464576357884e+02
               splits:
                  - { var:0, quality:2133240., le:1.9553338623046875e+02 }
            -
               depth: 5
               value: 2.6115254211425781e+02
            -
               depth: 5
               value: 3.3081337603400738e+02
            -
               depth: 3
               value: 6.8899803789924169e+02
               splits:
                  - { var:1, quality:16326621., le:2.7665069580078125e+02 }
            -
               depth: 4
               value: 5.4365894426618308e+02
            -
               depth: 4
               value: 7.2667854365596065e+02
               splits:
                  - { var:0, quality:14276164., le:2.0682489013671875e+02 }
            -
               depth: 5
               value: 6.8243538120814731e+02
            -
               depth: 5
               value: 7.4216365051269531e+02
            -
               depth: 2
               value: 1.2192554930114746e+02
               splits:
                  - { var:0, quality:7479007., le:2.1388523864746094e+02 }
            -
               depth: 3
               value: 1.9721635150909424e+02
            -
               depth: 3
               value: 1.2070130861483938e+02
               splits:
                  - { var:2, quality:7.1713895000000000e+06,
                      le:1.4323596191406250e+02 }
            -
               depth: 4
               value: 1.1768298730103102e+02
               splits:
                  - { var:2, quality:3.0055257500000000e+06,
                      le:1.4109289550781250e+02 }
            -
               depth: 5
               value: 1.1675561466217042e+02
            -
               depth: 5
               value: 1.1883025242127094e+02
            -
               depth: 4
               value: 1.2308303852428089e+02
               splits:
                  - { var:2, quality:4166624., le:1.4650874328613281e+02 }
            -
               depth: 5
               value: 1.2187092570769481e+02
            -
               depth: 5
               value: 1.2467202675442736e+02
            -
               depth: 1
               value: 4.9831932575268831e+02
               splits:
                  - { var:0, quality:160612864.,
                      le:2.3197660827636719e+02 }
            -
               depth: 2
               value: 5.6780094132299405e+02
               splits:
                  - { var:2, quality:137284608.,
                      le:1.8268106079101562e+02 }
            -
               depth: 3
               value: 5.9445742123681794e+02
               splits:
                  - { var:2, quality:113324456.,
                      le:1.5503298950195312e+02 }
            -
               depth: 4
               value: 3.8893612961542038e+02
               splits:
                  - { var:0, quality:4343422., le:2.0996231079101562e+02 }
            -
               depth: 5
               value: 6.3614885864257815e+02
            -
               depth: 5
               value: 1.6419728504527700e+02
            -
               depth: 4
               value: 6.0898922973530057e+02
               splits:
                  - { var:1, quality:110471992.,
                      le:2.9153680419921875e+02 }
            -
               depth: 5
               value: 4.4051401172984731e+02
            -
               depth: 5
               value: 6.1546904581243336e+02
            -
               depth: 3
               value: 4.8706988786969868e+02
               splits:
                  - { var:1, quality:24939120., le:3.0488394165039062e+02 }
            -
               depth: 4
               value: 4.3258026462131079e+02
            -
               depth: 4
               value: 4.9217829004923504e+02
               splits:
                  - { var:2, quality:23323598., le:1.9216030883789062e+02 }
            -
               depth: 5
               value: 5.2593664138381541e+02
            -
               depth: 5
               value: 4.7100779853432863e+02
            -
               depth: 2
               value: 3.4988132885248973e+02
               splits:
                  - { var:2, quality:26546974., le:2.1998645019531250e+02 }
            -
               depth: 3
               value: 2.4618392351761605e+02
               splits:
                  - { var:0, quality:6698471., le:2.3837232971191406e+02 }
            -
               depth: 4
               value: 4.0133788871765137e+02
               splits:
                  - { var:2, quality:2676594., le:1.9538603210449219e+02 }
            -
               depth: 5
               value: 1.9275883483886719e+02
            -
               depth: 5
               value: 4.3113489641462053e+02
            -
               depth: 4
               value: 2.1764986095209233e+02
               splits:
                  - { var:2, quality:4.1240485000000000e+06,
                      le:2.0484484863281250e+02 }
            -
               depth: 5
               value: 2.1271559267627950e+02
            -
               depth: 5
               value: 2.2401247004458779e+02
            -
               depth: 3
               value: 4.6231114726819493e+02
               splits:
                  - { var:1, quality:20542078., le:4.1984191894531250e+02 }
            -
               depth: 4
               value: 4.2411680857340497e+02
               splits:
                  - { var:0, quality:10837463., le:2.5290286254882812e+02 }
            -
               depth: 5
               value: 3.8540462951660157e+02
            -
               depth: 5
               value: 4.4347289810180666e+02
            -
               depth: 4
               value: 5.2778715645926343e+02
               splits:
                  - { var:2, quality:9783270., le:4.1158871459960938e+02 }
            -
               depth: 5
               value: 4.8742380934495191e+02
            -
               depth: 5
               value: 5.5163822520862925e+02
      -
         nodes:
            -
               depth: 0
               value: 3.2653008926327220e+02
               splits:
                  - { var:2, quality:155557696.,
                      le:1.5365975952148438e+02 }
            -
               depth: 1
               value: 1.6617756644939553e+02
               splits:
                  - { var:0, quality:24651798., le:2.1388523864746094e+02 }
            -
               depth: 2
               value: 4.9287793140680020e+02
               splits:
                  - { var:1, quality:19076660., le:2.7212420654296875e+02 }
            -
               depth: 3
               value: 3.2065943353826350e+02
               splits:
                  - { var:1, quality:3.4310647500000000e+06,
                      le:2.6256817626953125e+02 }
            -
               depth: 4
               value: 3.0467900198477287e+02
               splits:
                  - { var:1, quality:2.5311082500000000e+06,
                      le:2.4340859985351562e+02 }
            -
               depth: 5
               value: 2.1910076904296875e+02
            -
               depth: 5
               value: 3.1537628110249835e+02
            -
               depth: 4
               value: 3.9257137552897137e+02
            -
               depth: 3
               value: 6.4243610060842411e+02
               splits:
                  - { var:2, quality:16867530., le:1.4016424560546875e+02 }
            -
               depth: 4
               value: 1.2780514144897461e+02
            -
               depth: 4
               value: 7.0298091933306523e+02
               splits:
                  - { var:1, quality:16959884., le:2.7665069580078125e+02 }
            -
               depth: 5
               value: 5.3896882324218745e+02
            -
               depth: 5
               value: 7.3125886693494078e+02
            -
               depth: 2
               value: 1.2060639569895207e+02
               splits:
                  - { var:2, quality:7.4084675000000000e+06,
                      le:1.4291394042968750e+02 }
            -
               depth: 3
               value: 1.1694434218988187e+02
               splits:
                  - { var:2, quality:2.8039092500000000e+06,
                      le:1.4117907714843750e+02 }
            -
               depth: 4
               value: 1.1584913021022990e+02
               splits:
                  - { var:0, quality:1.5838672500000000e+06,
                      le:2.1638166809082031e+02 }
            -
               depth: 5
               value: 1.1998385314941406e+02
            -
               depth: 5
               value: 1.1546628549363878e+02
            -
               depth: 4
               value: 1.1842980211630635e+02
               splits:
                  - { var:0, quality:1.2203412500000000e+06,
                      le:2.1869033813476562e+02 }
            -
               depth: 5
               value: 1.1658722178141277e+02
            -
               depth: 5
               value: 1.1913173748198010e+02
            -
               depth: 3
               value: 1.2307587257184480e+02
               splits:
                  - { var:2, quality:4605520., le:1.4649925231933594e+02 }
            -
               depth: 4
               value: 1.2185810671014301e+02
               splits:
                  - { var:1, quality:2.6286145000000000e+06,
                      le:2.8294912719726562e+02 }
            -
               depth: 5
               value: 1.2498228995005290e+02
            -
               depth: 5
               value: 1.2136803875094145e+02
            -
               depth: 4
               value: 1.2477307381216936e+02
               splits:
                  - { var:1, quality:1.9774215000000000e+06,
                      le:2.8214849853515625e+02 }
            -
               depth: 5
               value: 1.3012788772583008e+02
            -
               depth: 5
               value: 1.2441308632217536e+02
            -
               depth: 1
               value: 4.8025647477079031e+02
               splits:
                  - { var:0, quality:146241168.,
                      le:2.3553402709960938e+02 }
            -
               depth: 2
               value: 5.5503903224812223e+02
               splits:
                  - { var:2, quality:124545576.,
                      le:1.5583474731445312e+02 }
            -
               depth: 3
               value: 4.0230124964032854e+02
               splits:
                  - { var:0, quality:5.7273555000000000e+06,
                      le:2.1755303955078125e+02 }
            -
               depth: 4
               value: 5.5632525973849829e+02
               splits:
                  - { var:2, quality:5.6480315000000000e+06,
                      le:1.5490640258789062e+02 }
            -
               depth: 5
               value: 6.0259470621744788e+02
            -
               depth: 5
               value: 4.6378636678059894e+02
            -
               depth: 4
               value: 1.2505803146362305e+02
            -
               depth: 3
               value: 5.6647394645405325e+02
               splits:
                  - { var:0, quality:120880280.,
                      le:2.1964680480957031e+02 }
            -
               depth: 4
               value: 6.0222919967461428e+02
               splits:
                  - { var:1, quality:87725368., le:2.8843203735351562e+02 }
            -
               depth: 5
               value: 4.0573444366455078e+02
            -
               depth: 5
               value: 6.0897580073933750e+02
            -
               depth: 4
               value: 5.0168435227243526e+02
               splits:
                  - { var:1, quality:33978836., le:2.9839956665039062e+02 }
            -
               depth: 5
               value: 1.5194576072692871e+02
            -
               depth: 5
               value: 5.1252895976221839e+02
            -
               depth: 2
               value: 3.3216490774671433e+02
               splits:
                  - { var:2, quality:25248682., le:2.3894128417968750e+02 }
            -
               depth: 3
               value: 2.2745412605687193e+02
               splits:
                  - { var:0, quality:5983099., le:2.3814205932617188e+02 }
            -
               depth: 4
               value: 3.4348442840576172e+02
            -
               depth: 4
               value: 2.2100799814860025e+02
               splits:
                  - { var:2, quality:5.2941425000000000e+06,
                      le:2.2626960754394531e+02 }
            -
               depth: 5
               value: 2.1876999279203869e+02
            -
               depth: 5
               value: 2.9933818562825519e+02
            -
               depth: 3
               value: 4.6628883036066975e+02
               splits:
                  - { var:1, quality:19500336., le:4.1984191894531250e+02 }
            -
               depth: 4
               value: 4.3091239360734528e+02
               splits:
                  - { var:1, quality:9496387., le:3.9491137695312500e+02 }
            -
               depth: 5
               value: 4.0257215576171876e+02
            -
               depth: 5
               value: 4.4919641802387855e+02
            -
               depth: 4
               value: 5.1376773231907896e+02
               splits:
                  - { var:2, quality:10071969., le:4.1019281005859375e+02 }
            -
               depth: 5
               value: 4.8400127011253721e+02
            -
               depth: 5
               value: 5.5053806798598350e+02
      -
         nodes:
            -
               depth: 0
               value: 3.3461190247354631e+02
               splits:
                  - { var:2, quality:163288224.,
                      le:1.5328201293945312e+02 }
            -
               depth: 1
               value: 1.6766844548007899e+02
               splits:
                  - { var:0, quality:25422996., le:2.1164558410644531e+02 }
            -
               depth: 2
               value: 5.1950767471541224e+02
               splits:
                  - { var:1, quality:20577716., le:2.7212420654296875e+02 }
            -
               depth: 3
               value: 2.9860114946036504e+02
               splits:
                  - { var:1, quality:2679475., le:2.6091735839843750e+02 }
            -
               depth: 4
               value: 2.4366930847167970e+02
               splits:
                  - { var:1, quality:9.1680168750000000e+05,
                      le:2.5910568237304688e+02 }
            -
               depth: 5
               value: 2.7321062316894529e+02
            -
               depth: 5
               value: 1.8458667907714843e+02
            -
               depth: 4
               value: 3.5745669337681363e+02
               splits:
                  - { var:0, quality:1821714., le:2.0490808105468750e+02 }
            -
               depth: 5
               value: 3.9356719292534723e+02
            -
               depth: 5
               value: 2.9245779418945312e+02
            -
               depth: 3
               value: 6.8809423346268500e+02
               splits:
                  - { var:1, quality:18137232., le:2.7665069580078125e+02 }
            -
               depth: 4
               value: 5.2927200927734373e+02
            -
               depth: 4
               value: 7.1215820682410038e+02
               splits:
                  - { var:2, quality:16751860., le:1.4650903320312500e+02 }
            -
               depth: 5
               value: 7.5779475911458337e+02
            -
               depth: 5
               value: 7.0201675075954859e+02
            -
               depth: 2
               value: 1.2080318035330498e+02
               splits:
                  - { var:2, quality:7343923., le:1.4280310058593750e+02 }
            -
               depth: 3
               value: 1.1746136766204035e+02
               splits:
                  - { var:0, quality:2.6355792500000000e+06,
                      le:2.1665469360351562e+02 }
            -
               depth: 4
               value: 1.2045675506591797e+02
               splits:
                  - { var:1, quality:4.3533946875000000e+05,
                      le:2.7885223388671875e+02 }
            -
               depth: 5
               value: 1.1680054728190105e+02
            -
               depth: 5
               value: 1.2086300037525318e+02
            -
               depth: 4
               value: 1.1690322094082092e+02
               splits:
                  - { var:2, quality:2.2006072500000000e+06,
                      le:1.4117733764648438e+02 }
            -
               depth: 5
               value: 1.1570781285712060e+02
            -
               depth: 5
               value: 1.1858036064034077e+02
            -
               depth: 3
               value: 1.2284896953289325e+02
               splits:
                  - { var:2, quality:4.7091595000000000e+06,
                      le:1.4816654968261719e+02 }
            -
               depth: 4
               value: 1.2212088227883363e+02
               splits:
                  - { var:1, quality:3.4902982500000000e+06,
                      le:2.8358175659179688e+02 }
            -
               depth: 5
               value: 1.2670940730882728e+02
            -
               depth: 5
               value: 1.2162071130400021e+02
            -
               depth: 4
               value: 1.2503323129507211e+02
               splits:
                  - { var:2, quality:1.2194455000000000e+06,
                      le:1.5300024414062500e+02 }
            -
               depth: 5
               value: 1.2485190407005516e+02
            -
               depth: 5
               value: 1.2838778495788574e+02
            -
               depth: 1
               value: 4.8933998456505253e+02
               splits:
                  - { var:0, quality:153225456.,
                      le:2.3553402709960938e+02 }
            -
               depth: 2
               value: 5.5972396260104540e+02
               splits:
                  - { var:2, quality:128367232.,
                      le:1.7890780639648438e+02 }
            -
               depth: 3
               value: 5.9686460854755182e+02
               splits:
                  - { var:0, quality:88616952., le:2.1985183715820312e+02 }
            -
               depth: 4
               value: 6.1664589902332852e+02
               splits:
                  - { var:1, quality:85945696., le:2.8828643798828125e+02 }
            -
               depth: 5
               value: 3.4556086425781251e+02
            -
               depth: 5
               value: 6.2931342401237134e+02
            -
               depth: 4
               value: 3.9545510552146220e+02
               splits:
                  - { var:1, quality:4552716., le:2.9961547851562500e+02 }
            -
               depth: 5
               value: 1.2522070227728949e+02
            -
               depth: 5
               value: 5.8254046161358178e+02
            -
               depth: 3
               value: 5.0297490109271882e+02
               splits:
                  - { var:2, quality:40843904., le:1.9610865783691406e+02 }
            -
               depth: 4
               value: 5.1874996076311379e+02
               splits:
                  - { var:2, quality:32057436., le:1.8630520629882812e+02 }
            -
               depth: 5
               value: 5.3588459079548466e+02
            -
               depth: 5
               value: 5.0190090789794920e+02
            -
               depth: 4
               value: 4.5827889869326634e+02
               splits:
                  - { var:0, quality:8849562., le:2.3451269531250000e+02 }
            -
               depth: 5
               value: 4.4866251682590791e+02
            -
               depth: 5
               value: 5.2944012451171875e+02
            -
               depth: 2
               value: 3.5161748908116266e+02
               splits:
                  - { var:2, quality:28443756., le:2.2097767639160156e+02 }
            -
               depth: 3
               value: 2.3145670711632931e+02
               splits:
                  - { var:0, quality:5.4728715000000000e+06,
                      le:2.3764819335937500e+02 }
            -
               depth: 4
               value: 3.7089683341979980e+02
            -
               depth: 4
               value: 2.1919823447426597e+02
               splits:
                  - { var:1, quality:4376871., le:3.3544259643554688e+02 }
            -
               depth: 5
               value: 2.1413502171834310e+02
            -
               depth: 5
               value: 2.2899800109863281e+02
            -
               depth: 3
               value: 4.6075434609509387e+02
               splits:
                  - { var:1, quality:23287072., le:4.0997836303710938e+02 }
            -
               depth: 4
               value: 4.0621812797995176e+02
               splits:
                  - { var:2, quality:5.6290585000000000e+06,
                      le:3.3883001708984375e+02 }
            -
               depth: 5
               value: 3.8543005210474917e+02
            -
               depth: 5
               value: 4.3254969075520836e+02
            -
               depth: 4
               value: 4.8547743164062501e+02
               splits:
                  - { var:2, quality:17731488., le:4.1019281005859375e+02 }
            -
               depth: 5
               value: 4.7252030369492826e+02
            -
               depth: 5
               value: 5.4193348911830356e+02
      -
         nodes:
            -
               depth: 0
               value: 3.4070513057789219e+02
               splits:
                  - { var:2, quality:167461424.,
                      le:1.5360060119628906e+02 }
            -
               depth: 1
               value: 1.6379663316694234e+02
               splits:
                  - { var:0, quality:22060348., le:2.1241384887695312e+02 }
            -
               depth: 2
               value: 5.0800150518902279e+02
               splits:
                  - { var:1, quality:17016250., le:2.7212420654296875e+02 }
            -
               depth: 3
               value: 3.1835703757957174e+02
               splits:
                  - { var:1, quality:2.8320657500000000e+06,
                      le:2.6389404296875000e+02 }
            -
               depth: 4
               value: 2.9354429162066918e+02
               splits:
                  - { var:2, quality:2023220., le:1.2541056060791016e+02 }
            -
               depth: 5
               value: 2.1309425659179686e+02
            -
               depth: 5
               value: 3.1589152357313367e+02
            -
               depth: 4
               value: 4.6103032684326172e+02
            -
               depth: 3
               value: 6.6801402473449707e+02
               splits:
                  - { var:1, quality:14446695., le:2.7665069580078125e+02 }
            -
               depth: 4
               value: 5.3152131870814731e+02
            -
               depth: 4
               value: 7.0623198242187505e+02
               splits:
                  - { var:2, quality:12817586., le:1.4015982055664062e+02 }
            -
               depth: 5
               value: 1.2782415771484375e+02
            -
               depth: 5
               value: 7.3033230845133460e+02
            -
               depth: 2
               value: 1.2058793646629820e+02
               splits:
                  - { var:0, quality:6834889., le:2.2036587524414062e+02 }
            -
               depth: 3
               value: 1.1984462764620366e+02
               splits:
                  - { var:2, quality:4.1241365000000000e+06,
                      le:1.4279388427734375e+02 }
            -
               depth: 4
               value: 1.1681575616455078e+02
               splits:
                  - { var:2, quality:1.7058358750000000e+06,
                      le:1.4200405883789062e+02 }
            -
               depth: 5
               value: 1.1642253552950345e+02
            -
               depth: 5
               value: 1.1876313454764230e+02
            -
               depth: 4
               value: 1.2218171983883704e+02
               splits:
                  - { var:2, quality:2418927., le:1.4670187377929688e+02 }
            -
               depth: 5
               value: 1.2093743272261186e+02
            -
               depth: 5
               value: 1.2481386566162109e+02
            -
               depth: 3
               value: 1.2175367215682900e+02
               splits:
                  - { var:2, quality:2.7140755000000000e+06,
                      le:1.4298851013183594e+02 }
            -
               depth: 4
               value: 1.1747994426652497e+02
               splits:
                  - { var:0, quality:7.0396731250000000e+05,
                      le:2.2116278076171875e+02 }
            -
               depth: 5
               value: 1.1522254533034105e+02
            -
               depth: 5
               value: 1.1825221232364052e+02
            -
               depth: 4
               value: 1.2340488520535555e+02
               splits:
                  - { var:2, quality:2.0104832500000000e+06,
                      le:1.4881155395507812e+02 }
            -
               depth: 5
               value: 1.2260628045773974e+02
            -
               depth: 5
               value: 1.2612014134724934e+02
            -
               depth: 1
               value: 4.8336457437422217e+02
               splits:
                  - { var:0, quality:160590976.,
                      le:2.3602838134765625e+02 }
            -
               depth: 2
               value: 5.5789994106554002e+02
               splits:
                  - { var:0, quality:137069536.,
                      le:2.1729385375976562e+02 }
            -
               depth: 3
               value: 6.0297599846154606e+02
               splits:
                  - { var:2, quality:72677952., le:1.7556954956054688e+02 }
            -
               depth: 4
               value: 6.2483899381563265e+02
               splits:
                  - { var:1, quality:60882032., le:2.8586004638671875e+02 }
            -
               depth: 5
               value: 3.4346436903211804e+02
            -
               depth: 5
               value: 6.4230362569874728e+02
            -
               depth: 4
               value: 5.2815596991644964e+02
               splits:
                  - { var:0, quality:12593356., le:2.1538806152343750e+02 }
            -
               depth: 5
               value: 4.9875650820524794e+02
            -
               depth: 5
               value: 5.5889177079634237e+02
            -
               depth: 3
               value: 5.2036799369397022e+02
               splits:
                  - { var:2, quality:65509956., le:1.5803623962402344e+02 }
            -
               depth: 4
               value: 1.2634575653076172e+02
            -
               depth: 4
               value: 5.2878727226583362e+02
               splits:
                  - { var:2, quality:66149512., le:1.8063256835937500e+02 }
            -
               depth: 5
               value: 6.0645165629326539e+02
            -
               depth: 5
               value: 4.8920348943894908e+02
            -
               depth: 2
               value: 3.3361003028799632e+02
               splits:
                  - { var:2, quality:27289920., le:2.2097767639160156e+02 }
            -
               depth: 3
               value: 2.2208272267217222e+02
               splits:
                  - { var:0, quality:5747803., le:2.3837232971191406e+02 }
            -
               depth: 4
               value: 3.7907315063476562e+02
            -
               depth: 4
               value: 2.1787762192317419e+02
               splits:
                  - { var:1, quality:5.3221225000000000e+06,
                      le:3.3232971191406250e+02 }
            -
               depth: 5
               value: 2.1207595778956556e+02
            -
               depth: 5
               value: 2.2620174872356912e+02
            -
               depth: 3
               value: 4.5813081063576112e+02
               splits:
                  - { var:2, quality:21789612., le:4.1376959228515625e+02 }
            -
               depth: 4
               value: 4.4128023372996938e+02
               splits:
                  - { var:1, quality:17225548., le:3.8359814453125000e+02 }
            -
               depth: 5
               value: 3.6797529711042131e+02
            -
               depth: 5
               value: 4.5514873525258656e+02
            -
               depth: 4
               value: 5.5698752848307288e+02
               splits:
                  - { var:1, quality:4.6649915000000000e+06,
                      le:4.6360693359375000e+02 }
            -
               depth: 5
               value: 5.4031613436612213e+02
            -
               depth: 5
               value: 6.0283386230468750e+02
      -
         nodes:
            -
               depth: 0
               value: 3.3985998643963649e+02
               splits:
                  - { var:2, quality:167776448.,
                      le:1.5365975952148438e+02 }
            -
               depth: 1
               value: 1.6983264185949577e+02
               splits:
                  - { var:0, quality:24096672., le:2.1214562988281250e+02 }
            -
               depth: 2
               value: 4.6492542403783551e+02
               splits:
                  - { var:1, quality:19700202., le:2.7226287841796875e+02 }
            -
               depth: 3
               value: 2.9277175051666967e+02
               splits:
                  - { var:1, quality:3.7925145000000000e+06,
                      le:2.4340859985351562e+02 }
            -
               depth: 4
               value: 2.2105872235979353e+02
               splits:
                  - { var:0, quality:6.8858537500000000e+05,
                      le:1.9597558593750000e+02 }
            -
               depth: 5
               value: 2.0562227249145508e+02
            -
               depth: 5
               value: 2.4164065551757812e+02
            -
               depth: 4
               value: 3.2739183307516163e+02
               splits:
                  - { var:1, quality:3.1250032500000000e+06,
                      le:2.6231408691406250e+02 }
            -
               depth: 5
               value: 3.1388557434082031e+02
            -
               depth: 5
               value: 3.6984007481166293e+02
            -
               depth: 3
               value: 6.7642850864955358e+02
               splits:
                  - { var:2, quality:16324262., le:1.3915295410156250e+02 }
            -
               depth: 4
               value: 1.2782415771484375e+02
            -
               depth: 4
               value: 6.9256393073586855e+02
               splits:
                  - { var:1, quality:16419943., le:2.7712939453125000e+02 }
            -
               depth: 5
               value: 5.7983346993582586e+02
            -
               depth: 5
               value: 7.2179034649884261e+02
            -
               depth: 2
               value: 1.2227636704563109e+02
               splits:
                  - { var:1, quality:7290397., le:2.9595111083984375e+02 }
            -
               depth: 3
               value: 1.2099838557533248e+02
               splits:
                  - { var:2, quality:6986870., le:1.4292764282226562e+02 }
            -
               depth: 4
               value: 1.1779406889279683e+02
               splits:
                  - { var:0, quality:2664273., le:2.1599371337890625e+02 }
            -
               depth: 5
               value: 1.2078052721525493e+02
            -
               depth: 5
               value: 1.1746607636027254e+02
            -
               depth: 4
               value: 1.2315708312988281e+02
               splits:
                  - { var:2, quality:4.3232925000000000e+06,
                      le:1.4762390136718750e+02 }
            -
               depth: 5
               value: 1.2232377617068407e+02
            -
               depth: 5
               value: 1.2529243221282960e+02
            -
               depth: 3
               value: 2.0936167580740792e+02
            -
               depth: 1
               value: 4.9323938877356761e+02
               splits:
                  - { var:2, quality:158410096.,
                      le:1.9273632812500000e+02 }
            -
               depth: 2
               value: 5.9010419995444158e+02
               splits:
                  - { var:0, quality:117518600.,
                      le:2.1964680480957031e+02 }
            -
               depth: 3
               value: 6.1218403344247861e+02
               splits:
                  - { var:2, quality:95994248., le:1.6857238769531250e+02 }
            -
               depth: 4
               value: 6.4931856362479073e+02
               splits:
                  - { var:1, quality:59506808., le:2.8598419189453125e+02 }
            -
               depth: 5
               value: 3.4482057495117186e+02
            -
               depth: 5
               value: 6.6059626690899881e+02
            -
               depth: 4
               value: 5.6697677930748978e+02
               splits:
                  - { var:1, quality:37158696., le:2.9514526367187500e+02 }
            -
               depth: 5
               value: 3.9350686645507812e+02
            -
               depth: 5
               value: 5.7652558184982445e+02
            -
               depth: 3
               value: 5.2059361304765866e+02
               splits:
                  - { var:1, quality:22779440., le:2.9961547851562500e+02 }
            -
               depth: 4
               value: 1.2665072326660156e+02
            -
               depth: 4
               value: 5.4651090842799135e+02
               splits:
                  - { var:0, quality:22956282., le:2.3380288696289062e+02 }
            -
               depth: 5
               value: 5.5607177528175146e+02
            -
               depth: 5
               value: 1.9275883483886719e+02
            -
               depth: 2
               value: 3.7983668300083707e+02
               splits:
                  - { var:0, quality:42622084., le:2.3837232971191406e+02 }
            -
               depth: 3
               value: 4.7455904123057491e+02
               splits:
                  - { var:0, quality:20733368., le:2.2887786865234375e+02 }
            -
               depth: 4
               value: 4.8198896430520449e+02
               splits:
                  - { var:1, quality:15891420., le:3.2105947875976562e+02 }
            -
               depth: 5
               value: 4.6304656925907841e+02
            -
               depth: 5
               value: 5.5505248805454801e+02
            -
               depth: 4
               value: 4.5350759251912433e+02
               splits:
                  - { var:0, quality:4947266., le:2.2974853515625000e+02 }
            -
               depth: 5
               value: 4.3001596346768468e+02
            -
               depth: 5
               value: 4.7338512479341949e+02
            -
               depth: 3
               value: 3.3514716014372999e+02
               splits:
                  - { var:2, quality:24833460., le:2.7396954345703125e+02 }
            -
               depth: 4
               value: 2.2281999667185659e+02
               splits:
                  - { var:2, quality:5290640., le:2.2463601684570312e+02 }
            -
               depth: 5
               value: 2.2005256904676122e+02
            -
               depth: 5
               value: 3.1783501180013019e+02
            -
               depth: 4
               value: 4.6893007394169155e+02
               splits:
                  - { var:2, quality:19708882., le:4.1019281005859375e+02 }
            -
               depth: 5
               value: 4.4840095258440289e+02
            -
               depth: 5
               value: 5.4456367894222865e+02
      -
         nodes:
            -
               depth: 0
               value: 3.3597583611725753e+02
               splits:
                  - { var:2, quality:163507184.,
                      le:1.5250073242187500e+02 }
            -
               depth: 1
               value: 1.7001064562502160e+02
               splits:
                  - { var:0, quality:25044592., le:2.1241384887695312e+02 }
            -
               depth: 2
               value: 4.8744443013509112e+02
               splits:
                  - { var:1, quality:20374818., le:2.6953521728515625e+02 }
            -
               depth: 3
               value: 3.0532961032265109e+02
               splits:
                  - { var:0, quality:3.5976312500000000e+06,
                      le:2.0688844299316406e+02 }
            -
               depth: 4
               value: 3.1647155020577566e+02
               splits:
                  - { var:1, quality:3557308., le:2.4340859985351562e+02 }
            -
               depth: 5
               value: 2.2213825988769531e+02
            -
               depth: 5
               value: 3.3219376525878909e+02
            -
               depth: 4
               value: 1.7534031168619791e+02
            -
               depth: 3
               value: 6.7448127210462417e+02
               splits:
                  - { var:2, quality:17139360., le:1.3915295410156250e+02 }
            -
               depth: 4
               value: 1.2782415771484375e+02
            -
               depth: 4
               value: 6.8966619194878467e+02
               splits:
                  - { var:1, quality:17178916., le:2.7433135986328125e+02 }
            -
               depth: 5
               value: 5.5897778320312500e+02
            -
               depth: 5
               value: 7.0154695638020837e+02
            -
               depth: 2
               value: 1.2142384187348036e+02
               splits:
                  - { var:1, quality:7.2650055000000000e+06,
                      le:2.9581439208984375e+02 }
            -
               depth: 3
               value: 1.2011051081021627e+02
               splits:
                  - { var:0, quality:6925026., le:2.1882087707519531e+02 }
            -
               depth: 4
               value: 1.1909903794192196e+02
               splits:
                  - { var:2, quality:2.5260505000000000e+06,
                      le:1.4455938720703125e+02 }
            -
               depth: 5
               value: 1.1747955042123795e+02
            -
               depth: 5
               value: 1.2324492599487304e+02
            -
               depth: 4
               value: 1.2070667693788643e+02
               splits:
                  - { var:0, quality:4.4003665000000000e+06,
                      le:2.2419586181640625e+02 }
            -
               depth: 5
               value: 1.2047549793968064e+02
            -
               depth: 5
               value: 1.2351097869873047e+02
            -
               depth: 3
               value: 1.8446373291015624e+02
            -
               depth: 1
               value: 4.8721830809808546e+02
               splits:
                  - { var:0, quality:155276560.,
                      le:2.3553402709960938e+02 }
            -
               depth: 2
               value: 5.6960983076282571e+02
               splits:
                  - { var:0, quality:133989104.,
                      le:2.1881707763671875e+02 }
            -
               depth: 3
               value: 6.1652208057432688e+02
               splits:
                  - { var:1, quality:100102728.,
                      le:2.8516390991210938e+02 }
            -
               depth: 4
               value: 3.6629909515380859e+02
            -
               depth: 4
               value: 6.2440311948520934e+02
               splits:
                  - { var:2, quality:99706712., le:1.7684951782226562e+02 }
            -
               depth: 5
               value: 6.4965074142828223e+02
            -
               depth: 5
               value: 5.1877531339684310e+02
            -
               depth: 3
               value: 4.8542483452574845e+02
               splits:
                  - { var:2, quality:35794552., le:1.6087353515625000e+02 }
            -
               depth: 4
               value: 1.2539706649780274e+02
            -
               depth: 4
               value: 5.1189746452780332e+02
               splits:
                  - { var:2, quality:35916676., le:1.9281063842773438e+02 }
            -
               depth: 5
               value: 5.5216813539203849e+02
            -
               depth: 5
               value: 4.6088794809977213e+02
            -
               depth: 2
               value: 3.2865349089424564e+02
               splits:
                  - { var:2, quality:25930686., le:2.2888739013671875e+02 }
            -
               depth: 3
               value: 2.2790922570997668e+02
               splits:
                  - { var:2, quality:6553562., le:2.1575935363769531e+02 }
            -
               depth: 4
               value: 2.1898119916413961e+02
               splits:
                  - { var:1, quality:5476143., le:3.4229138183593750e+02 }
            -
               depth: 5
               value: 2.1528730820636360e+02
            -
               depth: 5
               value: 2.4160628128051758e+02
            -
               depth: 4
               value: 3.2968872833251953e+02
            -
               depth: 3
               value: 4.7061131910844284e+02
               splits:
                  - { var:1, quality:19675984., le:4.3880480957031250e+02 }
            -
               depth: 4
               value: 4.4566603312772861e+02
               splits:
                  - { var:1, quality:13561873., le:4.0842370605468750e+02 }
            -
               depth: 5
               value: 4.1141717529296875e+02
            -
               depth: 5
               value: 4.6964023361206057e+02
            -
               depth: 4
               value: 5.5542529144287107e+02
               splits:
                  - { var:1, quality:6.1929495000000000e+06,
                      le:4.6425988769531250e+02 }
            -
               depth: 5
               value: 5.3322268894740512e+02
            -
               depth: 5
               value: 6.0723136393229163e+02
      -
         nodes:
            -
               depth: 0
               value: 3.4214212765593066e+02
               splits:
                  - { var:2, quality:172557888.,
                      le:1.5087548828125000e+02 }
            -
               depth: 1
               value: 1.5427931423547133e+02
               splits:
                  - { var:0, quality:17638936., le:2.1018627929687500e+02 }
            -
               depth: 2
               value: 4.3474013425592790e+02
               splits:
                  - { var:1, quality:12674219., le:2.7212420654296875e+02 }
            -
               depth: 3
               value: 2.9524994150797528e+02
               splits:
                  - { var:2, quality:3.1812612500000000e+06,
                      le:1.2803286743164062e+02 }
            -
               depth: 4
               value: 2.5658729553222656e+02
               splits:
                  - { var:0, quality:1.0908832500000000e+06,
                      le:2.0316320800781250e+02 }
            -
               depth: 5
               value: 2.7488311549595426e+02
            -
               depth: 5
               value: 1.2851655578613281e+02
            -
               depth: 4
               value: 3.2618005828857423e+02
               splits:
                  - { var:0, quality:2.1401865000000000e+06,
                      le:2.0074058532714844e+02 }
            -
               depth: 5
               value: 3.5099725646972655e+02
            -
               depth: 5
               value: 3.0136286010742185e+02
            -
               depth: 3
               value: 6.7386617896670384e+02
               splits:
                  - { var:0, quality:9620453., le:2.0665232849121094e+02 }
            -
               depth: 4
               value: 5.7360177612304688e+02
            -
               depth: 4
               value: 7.1397194010416672e+02
               splits:
                  - { var:0, quality:7.6796895000000000e+06,
                      le:2.0858993530273438e+02 }
            -
               depth: 5
               value: 7.5807918548583984e+02
            -
               depth: 5
               value: 6.6356365966796875e+02
            -
               depth: 2
               value: 1.2048171013152624e+02
               splits:
                  - { var:2, quality:6.8692785000000000e+06,
                      le:1.4281134033203125e+02 }
            -
               depth: 3
               value: 1.1730749159896929e+02
               splits:
                  - { var:0, quality:2656222., le:2.1599371337890625e+02 }
            -
               depth: 4
               value: 1.2091545702063519e+02
               splits:
                  - { var:0, quality:3.3633765625000000e+05,
                      le:2.1379533386230469e+02 }
            -
               depth: 5
               value: 1.2525746917724609e+02
            -
               depth: 5
               value: 1.2026415519714355e+02
            -
               depth: 4
               value: 1.1681935510074391e+02
               splits:
                  - { var:0, quality:2.3200592500000000e+06,
                      le:2.2154187011718750e+02 }
            -
               depth: 5
               value: 1.1641004175256799e+02
            -
               depth: 5
               value: 1.1839813515799386e+02
            -
               depth: 3
               value: 1.2266965362003872e+02
               splits:
                  - { var:2, quality:4.2136085000000000e+06,
                      le:1.4759193420410156e+02 }
            -
               depth: 4
               value: 1.2226887066333325e+02
               splits:
                  - { var:0, quality:3.4535012500000000e+06,
                      le:2.1599551391601562e+02 }
            -
               depth: 5
               value: 1.2443826166788737e+02
            -
               depth: 5
               value: 1.2201734706860233e+02
            -
               depth: 4
               value: 1.2455905898736448e+02
               splits:
                  - { var:0, quality:7.6032475000000000e+05,
                      le:2.2530728149414062e+02 }
            -
               depth: 5
               value: 1.2420966438625170e+02
            -
               depth: 5
               value: 1.2991644287109375e+02
            -
               depth: 1
               value: 4.9415325912592067e+02
               splits:
                  - { var:0, quality:168231424.,
                      le:2.1984463500976562e+02 }
            -
               depth: 2
               value: 6.0613106068434320e+02
               splits:
                  - { var:2, quality:121471040.,
                      le:1.7675354003906250e+02 }
            -
               depth: 3
               value: 6.2889999166131020e+02
               splits:
                  - { var:2, quality:101423856.,
                      le:1.5503298950195312e+02 }
            -
               depth: 4
               value: 5.6682180324353669e+02
               splits:
                  - { var:0, quality:13088134., le:2.1450115966796875e+02 }
            -
               depth: 5
               value: 6.3268761539459229e+02
            -
               depth: 5
               value: 2.1553747177124023e+02
            -
               depth: 4
               value: 6.3972096028459180e+02
               splits:
                  - { var:1, quality:89514064., le:2.8929852294921875e+02 }
            -
               depth: 5
               value: 3.6878634643554688e+02
            -
               depth: 5
               value: 6.4478515867429360e+02
            -
               depth: 3
               value: 5.2628385068292482e+02
               splits:
                  - { var:2, quality:20342700., le:1.8298056030273438e+02 }
            -
               depth: 4
               value: 5.6365046157836912e+02
               splits:
                  - { var:1, quality:12766393., le:2.9853179931640625e+02 }
            -
               depth: 5
               value: 4.9751438598632814e+02
            -
               depth: 5
               value: 5.8569582010904946e+02
            -
               depth: 4
               value: 4.8099098899147725e+02
               splits:
                  - { var:2, quality:7.6561315000000000e+06,
                      le:1.8373149108886719e+02 }
            -
               depth: 5
               value: 4.3179289027622769e+02
            -
               depth: 5
               value: 4.9423663095327527e+02
            -
               depth: 2
               value: 3.8114498700100950e+02
               splits:
                  - { var:2, quality:48895056., le:1.6106336975097656e+02 }
            -
               depth: 3
               value: 1.2593993447043680e+02
               splits:
                  - { var:1, quality:3.4895721875000000e+05,
                      le:2.8956243896484375e+02 }
            -
               depth: 4
               value: 1.2726902444022042e+02
            -
               depth: 4
               value: 1.2531969248453775e+02
               splits:
                  - { var:2, quality:2.3562073437500000e+05,
                      le:1.5714997863769531e+02 }
            -
               depth: 5
               value: 1.2445022519429524e+02
            -
               depth: 5
               value: 1.2879756164550781e+02
            -
               depth: 3
               value: 3.9961377369730099e+02
               splits:
                  - { var:0, quality:50546704., le:2.3529100036621094e+02 }
            -
               depth: 4
               value: 5.0217189769255810e+02
               splits:
                  - { var:2, quality:29646298., le:1.8988240051269531e+02 }
            -
               depth: 5
               value: 5.4781458584097925e+02
            -
               depth: 5
               value: 4.7564979511982688e+02
            -
               depth: 4
               value: 3.3544639130454652e+02
               splits:
                  - { var:1, quality:23776412., le:3.6175338745117188e+02 }
            -
               depth: 5
               value: 2.3202518985889577e+02
            -
               depth: 5
               value: 4.7683233758467662e+02
      -
         nodes:
            -
               depth: 0
               value: 3.4177224298147212e+02
               splits:
                  - { var:1, quality:159168912.,
                      le:2.9278649902343750e+02 }
            -
               depth: 1
               value: 1.9690057092783402e+02
               splits:
                  - { var:2, quality:26618160., le:1.5087548828125000e+02 }
            -
               depth: 2
               value: 1.6009607485846993e+02
               splits:
                  - { var:1, quality:14161421., le:2.8022869873046875e+02 }
            -
               depth: 3
               value: 3.1943142195481522e+02
               splits:
                  - { var:0, quality:7.6855035000000000e+06,
                      le:2.1129727172851562e+02 }
            -
               depth: 4
               value: 4.0123707215682322e+02
               splits:
                  - { var:1, quality:8390891., le:2.7038568115234375e+02 }
            -
               depth: 5
               value: 3.0937858026677912e+02
            -
               depth: 5
               value: 6.3441632080078125e+02
            -
               depth: 4
               value: 1.2137563725521690e+02
               splits:
                  - { var:2, quality:2.8006053125000000e+05,
                      le:1.4358935546875000e+02 }
            -
               depth: 5
               value: 1.1968719373430524e+02
            -
               depth: 5
               value: 1.2610327911376953e+02
            -
               depth: 3
               value: 1.3501908318471101e+02
               splits:
                  - { var:0, quality:10974858., le:2.1024676513671875e+02 }
            -
               depth: 4
               value: 7.1487869873046873e+02
            -
               depth: 4
               value: 1.2063050711657806e+02
               splits:
                  - { var:2, quality:5866887., le:1.4322734069824219e+02 }
            -
               depth: 5
               value: 1.1780564186010469e+02
            -
               depth: 5
               value: 1.2286528940836588e+02
            -
               depth: 2
               value: 4.8530301553694926e+02
               splits:
                  - { var:1, quality:14821231., le:2.8832690429687500e+02 }
            -
               depth: 3
               value: 3.7811869335174561e+02
               splits:
                  - { var:0, quality:4063721., le:2.1764843750000000e+02 }
            -
               depth: 4
               value: 4.8227799359489887e+02
               splits:
                  - { var:1, quality:4154254., le:2.8504397583007812e+02 }
            -
               depth: 5
               value: 3.6717889785766602e+02
            -
               depth: 5
               value: 5.8458830091688367e+02
            -
               depth: 4
               value: 1.2516039276123047e+02
            -
               depth: 3
               value: 5.5482798127870296e+02
               splits:
                  - { var:0, quality:12721089., le:2.1675689697265625e+02 }
            -
               depth: 4
               value: 6.3827678163589974e+02
               splits:
                  - { var:2, quality:12666805., le:1.5255754089355469e+02 }
            -
               depth: 5
               value: 7.0266942487444192e+02
            -
               depth: 5
               value: 6.1949559402465820e+02
            -
               depth: 4
               value: 1.2367584609985352e+02
            -
               depth: 1
               value: 4.6264814272901219e+02
               splits:
                  - { var:0, quality:145959984.,
                      le:2.1855606079101562e+02 }
            -
               depth: 2
               value: 6.1497706990699248e+02
               splits:
                  - { var:2, quality:83369576., le:1.5304098510742188e+02 }
            -
               depth: 3
               value: 3.5890400028228760e+02
            -
               depth: 3
               value: 6.2468600145674429e+02
               splits:
                  - { var:2, quality:82634576., le:1.7586820983886719e+02 }
            -
               depth: 4
               value: 6.4137434265830302e+02
               splits:
                  - { var:2, quality:72520936., le:1.6469161987304688e+02 }
            -
               depth: 5
               value: 6.6854848776424637e+02
            -
               depth: 5
               value: 6.1599189942747682e+02
            -
               depth: 4
               value: 5.4076748570033487e+02
               splits:
                  - { var:2, quality:10281992., le:1.8291577148437500e+02 }
            -
               depth: 5
               value: 5.5742877407731680e+02
            -
               depth: 5
               value: 4.6023792521158856e+02
            -
               depth: 2
               value: 3.8452159693983737e+02
               splits:
                  - { var:2, quality:66511128., le:1.5980220031738281e+02 }
            -
               depth: 3
               value: 1.2217449014837092e+02
               splits:
                  - { var:2, quality:6.5714281250000000e+05,
                      le:1.4572682189941406e+02 }
            -
               depth: 4
               value: 1.1898861465454101e+02
               splits:
                  - { var:0, quality:2.8319253125000000e+05,
                      le:2.2249348449707031e+02 }
            -
               depth: 5
               value: 1.1974551991053990e+02
            -
               depth: 5
               value: 1.1722250239054362e+02
            -
               depth: 4
               value: 1.2482938639322917e+02
               splits:
                  - { var:1, quality:3.7401396875000000e+05,
                      le:2.9554693603515625e+02 }
            -
               depth: 5
               value: 1.2403323902803309e+02
            -
               depth: 5
               value: 1.2676288713727679e+02
            -
               depth: 3
               value: 4.1466069014825649e+02
               splits:
                  - { var:0, quality:69320896., le:2.3544366455078125e+02 }
            -
               depth: 4
               value: 5.2401479954575052e+02
               splits:
                  - { var:1, quality:45571356., le:3.0826498413085938e+02 }
            -
               depth: 5
               value: 5.8213536676370870e+02
            -
               depth: 5
               value: 4.9651131684439525e+02
            -
               depth: 4
               value: 3.3189267156758439e+02
               splits:
                  - { var:2, quality:26975082., le:2.3894128417968750e+02 }
            -
               depth: 5
               value: 2.3040775065268241e+02
            -
               depth: 5
               value: 4.6576639702979554e+02
      -
         nodes:
            -
               depth: 0
               value: 3.3958402849672211e+02
               splits:
                  - { var:2, quality:168805200.,
                      le:1.5115063476562500e+02 }
            -
               depth: 1
               value: 1.5520588164819057e+02
               splits:
                  - { var:1, quality:15186727., le:2.7843231201171875e+02 }
            -
               depth: 2
               value: 3.6627406610227098e+02
               splits:
                  - { var:1, quality:7151634., le:2.6374887084960938e+02 }
            -
               depth: 3
               value: 2.9840721077754580e+02
               splits:
                  - { var:0, quality:2633038., le:2.0688844299316406e+02 }
            -
               depth: 4
               value: 3.1260723759577826e+02
               splits:
                  - { var:1, quality:2564618., le:2.4340859985351562e+02 }
            -
               depth: 5
               value: 2.2881197102864584e+02
            -
               depth: 5
               value: 3.2353705497409987e+02
            -
               depth: 4
               value: 1.7534031168619791e+02
            -
               depth: 3
               value: 4.5573492084849966e+02
               splits:
                  - { var:0, quality:5485048., le:2.1278219604492188e+02 }
            -
               depth: 4
               value: 5.8067396163940430e+02
               splits:
                  - { var:1, quality:5.4936705000000000e+06,
                      le:2.7665069580078125e+02 }
            -
               depth: 5
               value: 5.2770677046342325e+02
            -
               depth: 5
               value: 6.9720178222656250e+02
            -
               depth: 4
               value: 1.2256414540608723e+02
            -
               depth: 2
               value: 1.3254382394891036e+02
               splits:
                  - { var:0, quality:11525959., le:2.1042127990722656e+02 }
            -
               depth: 3
               value: 6.9059849243164058e+02
            -
               depth: 3
               value: 1.2054264828261509e+02
               splits:
                  - { var:2, quality:6.7601365000000000e+06,
                      le:1.4298851013183594e+02 }
            -
               depth: 4
               value: 1.1729946760336558e+02
               splits:
                  - { var:0, quality:2.6421397500000000e+06,
                      le:2.1595968627929688e+02 }
            -
               depth: 5
               value: 1.2154535273501747e+02
            -
               depth: 5
               value: 1.1683315651954254e+02
            -
               depth: 4
               value: 1.2282356656252684e+02
               splits:
                  - { var:1, quality:4118531., le:2.8408764648437500e+02 }
            -
               depth: 5
               value: 1.2451621771918403e+02
            -
               depth: 5
               value: 1.2248949067634449e+02
            -
               depth: 1
               value: 4.8675080428174124e+02
               splits:
                  - { var:0, quality:163090160.,
                      le:2.3553402709960938e+02 }
            -
               depth: 2
               value: 5.5505470060519633e+02
               splits:
                  - { var:0, quality:142532704.,
                      le:2.1845243835449219e+02 }
            -
               depth: 3
               value: 6.1066867222861640e+02
               splits:
                  - { var:1, quality:94417736., le:2.8476605224609375e+02 }
            -
               depth: 4
               value: 3.9284284125434027e+02
            -
               depth: 4
               value: 6.1873629559803396e+02
               splits:
                  - { var:2, quality:93565088., le:1.7002200317382812e+02 }
            -
               depth: 5
               value: 6.5444946824110946e+02
            -
               depth: 5
               value: 5.5694046877743153e+02
            -
               depth: 3
               value: 4.8669020865835796e+02
               splits:
                  - { var:1, quality:51472236., le:2.9793634033203125e+02 }
            -
               depth: 4
               value: 1.5924908606211343e+02
               splits:
                  - { var:0, quality:8.1644687500000000e+05,
                      le:2.1887258911132812e+02 }
            -
               depth: 5
               value: 6.0550238037109375e+02
            -
               depth: 5
               value: 1.3984676891824475e+02
            -
               depth: 4
               value: 5.3010781607443460e+02
               splits:
                  - { var:2, quality:51223576., le:1.9281063842773438e+02 }
            -
               depth: 5
               value: 5.6804958147321429e+02
            -
               depth: 5
               value: 4.7768827177348891e+02
            -
               depth: 2
               value: 3.3222169230243946e+02
               splits:
                  - { var:2, quality:24873364., le:2.1758969116210938e+02 }
            -
               depth: 3
               value: 2.1811870040893555e+02
               splits:
                  - { var:2, quality:4762177., le:2.0484484863281250e+02 }
            -
               depth: 4
               value: 2.1105939579010010e+02
               splits:
                  - { var:2, quality:2.1394132500000000e+06,
                      le:1.9512120056152344e+02 }
            -
               depth: 5
               value: 2.0064215596516928e+02
            -
               depth: 5
               value: 2.1346337421123798e+02
            -
               depth: 4
               value: 2.2463498159555289e+02
               splits:
                  - { var:2, quality:2624962., le:2.1025598144531250e+02 }
            -
               depth: 5
               value: 2.2058215059552873e+02
            -
               depth: 5
               value: 2.2936328442891440e+02
            -
               depth: 3
               value: 4.4408737062940412e+02
               splits:
                  - { var:2, quality:20376400., le:3.7278698730468750e+02 }
            -
               depth: 4
               value: 3.9548482527822819e+02
               splits:
                  - { var:2, quality:8.3529565000000000e+06,
                      le:3.2889276123046875e+02 }
            -
               depth: 5
               value: 3.6156644467954283e+02
            -
               depth: 5
               value: 4.3070775897686298e+02
            -
               depth: 4
               value: 4.9665747070312500e+02
               splits:
                  - { var:2, quality:12167462., le:4.1081591796875000e+02 }
            -
               depth: 5
               value: 4.6970231897690718e+02
            -
               depth: 5
               value: 5.5775581461588547e+02
      -
         nodes:
            -
               depth: 0
               value: 3.4303761588953716e+02
               splits:
                  - { var:1, quality:166780912.,
                      le:2.9415344238281250e+02 }
            -
               depth: 1
               value: 1.9128231341923268e+02
               splits:
                  - { var:0, quality:32123420., le:2.1520825195312500e+02 }
            -
               depth: 2
               value: 4.4276005820340890e+02
               splits:
                  - { var:2, quality:29262910., le:1.4736190795898438e+02 }
            -
               depth: 3
               value: 2.6029828065441501e+02
               splits:
                  - { var:1, quality:4866859., le:2.7967578125000000e+02 }
            -
               depth: 4
               value: 3.3716434059143069e+02
               splits:
                  - { var:1, quality:5556845., le:2.7779071044921875e+02 }
            -
               depth: 5
               value: 2.7711515110560828e+02
            -
               depth: 5
               value: 7.5750866699218750e+02
            -
               depth: 4
               value: 1.2054180804165927e+02
               splits:
                  - { var:1, quality:3.1977078125000000e+05,
                      le:2.8129248046875000e+02 }
            -
               depth: 5
               value: 1.1736573682512555e+02
            -
               depth: 5
               value: 1.2202397460937500e+02
            -
               depth: 3
               value: 6.1160528518904505e+02
               splits:
                  - { var:1, quality:25822380., le:2.8181030273437500e+02 }
            -
               depth: 4
               value: 3.8354845937093097e+02
               splits:
                  - { var:2, quality:1.8827605000000000e+06,
                      le:1.4854614257812500e+02 }
            -
               depth: 5
               value: 6.0476428222656250e+02
            -
               depth: 5
               value: 3.3930529479980470e+02
            -
               depth: 4
               value: 6.6136313809481533e+02
               splits:
                  - { var:2, quality:24195574., le:1.6607949829101562e+02 }
            -
               depth: 5
               value: 6.7111152044332255e+02
            -
               depth: 5
               value: 4.0303100585937500e+02
            -
               depth: 2
               value: 1.2136716454604576e+02
               splits:
                  - { var:2, quality:6989765., le:1.6899887084960938e+02 }
            -
               depth: 3
               value: 1.2016442507789249e+02
               splits:
                  - { var:0, quality:6671510., le:2.1999600219726562e+02 }
            -
               depth: 4
               value: 1.1930991565647410e+02
               splits:
                  - { var:0, quality:3.8151262500000000e+06,
                      le:2.1734440612792969e+02 }
            -
               depth: 5
               value: 1.2061831387606534e+02
            -
               depth: 5
               value: 1.1878244621716244e+02
            -
               depth: 4
               value: 1.2134488139201686e+02
               splits:
                  - { var:2, quality:2.8576617500000000e+06,
                      le:1.4321643066406250e+02 }
            -
               depth: 5
               value: 1.1796152853965759e+02
            -
               depth: 5
               value: 1.2301053202702450e+02
            -
               depth: 3
               value: 3.9919998168945312e+02
            -
               depth: 1
               value: 4.9504926177617665e+02
               splits:
                  - { var:0, quality:151284576.,
                      le:2.2192443847656250e+02 }
            -
               depth: 2
               value: 5.9399317438462197e+02
               splits:
                  - { var:2, quality:109572440.,
                      le:1.4960833740234375e+02 }
            -
               depth: 3
               value: 1.2035395921979632e+02
            -
               depth: 3
               value: 6.0508171788346408e+02
               splits:
                  - { var:0, quality:109832240.,
                      le:2.1703137207031250e+02 }
            -
               depth: 4
               value: 6.3556543817463717e+02
               splits:
                  - { var:0, quality:68353488., le:2.1176434326171875e+02 }
            -
               depth: 5
               value: 6.9274517556895375e+02
            -
               depth: 5
               value: 6.2655767132484755e+02
            -
               depth: 4
               value: 5.6545288150493911e+02
               splits:
                  - { var:2, quality:41793356., le:1.8270893859863281e+02 }
            -
               depth: 5
               value: 6.0071891774629296e+02
            -
               depth: 5
               value: 5.1581920086895980e+02
            -
               depth: 2
               value: 3.8918619443986802e+02
               splits:
                  - { var:1, quality:44084880., le:3.8792211914062500e+02 }
            -
               depth: 3
               value: 3.5806010854811893e+02
               splits:
                  - { var:0, quality:28894574., le:2.3814205932617188e+02 }
            -
               depth: 4
               value: 4.4443601957141846e+02
               splits:
                  - { var:2, quality:24272916., le:1.7562118530273438e+02 }
            -
               depth: 5
               value: 1.3498363494873047e+02
            -
               depth: 5
               value: 4.7654900288132001e+02
            -
               depth: 4
               value: 2.4939363984138734e+02
               splits:
                  - { var:2, quality:6149963., le:2.2626960754394531e+02 }
            -
               depth: 5
               value: 2.1867643168131511e+02
            -
               depth: 5
               value: 3.7738200717502173e+02
            -
               depth: 3
               value: 4.7519248440391141e+02
               splits:
                  - { var:2, quality:17279248., le:4.1019281005859375e+02 }
            -
               depth: 4
               value: 4.5566548982213754e+02
               splits:
                  - { var:2, quality:12691638., le:3.5948852539062500e+02 }
            -
               depth: 5
               value: 4.2709330676850817e+02
            -
               depth: 5
               value: 4.7066588592529297e+02
            -
               depth: 4
               value: 5.5460226236979167e+02
               splits:
                  - { var:0, quality:4626935., le:2.8158502197265625e+02 }
            -
               depth: 5
               value: 5.3364220581054690e+02
            -
               depth: 5
               value: 5.9652237548828123e+02
      -
         nodes:
            -
               depth: 0
               value: 3.3550770699545302e+02
               splits:
                  - { var:2, quality:165000192.,
                      le:1.5241720581054688e+02 }
            -
               depth: 1
               value: 1.6756866562366486e+02
               splits:
                  - { var:0, quality:25035698., le:2.1241384887695312e+02 }
            -
               depth: 2
               value: 5.0379766292848450e+02
               splits:
                  - { var:1, quality:19788570., le:2.7226287841796875e+02 }
            -
               depth: 3
               value: 3.0852420568466187e+02
               splits:
                  - { var:2, quality:3.0812295000000000e+06,
                      le:1.2574939727783203e+02 }
            -
               depth: 4
               value: 2.3140956115722656e+02
            -
               depth: 4
               value: 3.2280469541196470e+02
               splits:
                  - { var:2, quality:2.8804342500000000e+06,
                      le:1.2984936523437500e+02 }
            -
               depth: 5
               value: 4.6365571085611981e+02
            -
               depth: 5
               value: 3.0519831848144531e+02
            -
               depth: 3
               value: 6.7268281513935813e+02
               splits:
                  - { var:1, quality:16844502., le:2.7712939453125000e+02 }
            -
               depth: 4
               value: 5.7275500488281250e+02
            -
               depth: 4
               value: 7.0024910762392244e+02
               splits:
                  - { var:0, quality:14277556., le:2.0655004882812500e+02 }
            -
               depth: 5
               value: 6.0274306640625002e+02
            -
               depth: 5
               value: 7.2056286621093750e+02
            -
               depth: 2
               value: 1.2180968965910360e+02
               splits:
                  - { var:0, quality:7.5802185000000000e+06,
                      le:2.1388552856445312e+02 }
            -
               depth: 3
               value: 2.1916988754272461e+02
            -
               depth: 3
               value: 1.2064369926528778e+02
               splits:
                  - { var:2, quality:7.2959785000000000e+06,
                      le:1.4280310058593750e+02 }
            -
               depth: 4
               value: 1.1696360465384818e+02
               splits:
                  - { var:0, quality:2.5311207500000000e+06,
                      le:2.1402871704101562e+02 }
            -
               depth: 5
               value: 1.2765634918212891e+02
            -
               depth: 5
               value: 1.1684674405791068e+02
            -
               depth: 4
               value: 1.2279818503464324e+02
               splits:
                  - { var:1, quality:4.7652535000000000e+06,
                      le:2.8242675781250000e+02 }
            -
               depth: 5
               value: 1.2526355468750000e+02
            -
               depth: 5
               value: 1.2258638351807480e+02
            -
               depth: 1
               value: 4.9434660326827725e+02
               splits:
                  - { var:0, quality:155942304.,
                      le:2.3202186584472656e+02 }
            -
               depth: 2
               value: 5.6464075220411064e+02
               splits:
                  - { var:0, quality:138417040.,
                      le:2.1768600463867188e+02 }
            -
               depth: 3
               value: 6.2956403224243707e+02
               splits:
                  - { var:2, quality:88714280., le:1.6799603271484375e+02 }
            -
               depth: 4
               value: 6.5604804972465467e+02
               splits:
                  - { var:1, quality:65415144., le:2.8454357910156250e+02 }
            -
               depth: 5
               value: 3.3447576141357422e+02
            -
               depth: 5
               value: 6.6479831607325548e+02
            -
               depth: 4
               value: 5.7402116224500867e+02
               splits:
                  - { var:2, quality:23792214., le:1.7675601196289062e+02 }
            -
               depth: 5
               value: 5.9646647416784413e+02
            -
               depth: 5
               value: 5.3182397583007810e+02
            -
               depth: 3
               value: 4.9401689147949219e+02
               splits:
                  - { var:2, quality:51761316., le:1.5919723510742188e+02 }
            -
               depth: 4
               value: 1.2554958724975586e+02
               splits:
                  - { var:2, quality:1.8916389062500000e+05,
                      le:1.5714997863769531e+02 }
            -
               depth: 5
               value: 1.2525431685014205e+02
            -
               depth: 5
               value: 1.2879756164550781e+02
            -
               depth: 4
               value: 5.1692677568030479e+02
               splits:
                  - { var:1, quality:51740900., le:3.0604583740234375e+02 }
            -
               depth: 5
               value: 5.7299105980282741e+02
            -
               depth: 5
               value: 5.0133273638794753e+02
            -
               depth: 2
               value: 3.2812618479017397e+02
               splits:
                  - { var:2, quality:21735432., le:2.1998645019531250e+02 }
            -
               depth: 3
               value: 2.2783181274414062e+02
               splits:
                  - { var:0, quality:5330543., le:2.3491799926757812e+02 }
            -
               depth: 4
               value: 4.4044669596354169e+02
            -
               depth: 4
               value: 2.2125609470642718e+02
               splits:
                  - { var:0, quality:4763378., le:2.3915411376953125e+02 }
            -
               depth: 5
               value: 3.0643042755126953e+02
            -
               depth: 5
               value: 2.1946295085706208e+02
            -
               depth: 3
               value: 4.5194639719268423e+02
               splits:
                  - { var:1, quality:16782762., le:4.0703771972656250e+02 }
            -
               depth: 4
               value: 3.9133447180853949e+02
               splits:
                  - { var:1, quality:5.5343945000000000e+06,
                      le:3.7822467041015625e+02 }
            -
               depth: 5
               value: 3.7194941156560725e+02
            -
               depth: 5
               value: 4.2179670933314731e+02
            -
               depth: 4
               value: 5.0043593750000002e+02
               splits:
                  - { var:1, quality:11331974., le:4.3030651855468750e+02 }
            -
               depth: 5
               value: 4.6403167724609375e+02
            -
               depth: 5
               value: 5.3849493685635650e+02
      -
         nodes:
            -
               depth: 0
               value: 3.4313050947873398e+02
               splits:
                  - { var:2, quality:170121584.,
                      le:1.5241720581054688e+02 }
            -
               depth: 1
               value: 1.6869249924491433e+02
               splits:
                  - { var:1, quality:17587942., le:2.8022155761718750e+02 }
            -
               depth: 2
               value: 3.4885416991135168e+02
               splits:
                  - { var:0, quality:8540773., le:2.1134356689453125e+02 }
            -
               depth: 3
               value: 4.6043420253655847e+02
               splits:
                  - { var:2, quality:9451706., le:1.3961904907226562e+02 }
            -
               depth: 4
               value: 2.9913999575660341e+02
               splits:
                  - { var:2, quality:1.9713572500000000e+06,
                      le:1.2803286743164062e+02 }
            -
               depth: 5
               value: 2.2965359802246093e+02
            -
               depth: 5
               value: 3.6230944824218750e+02
            -
               depth: 4
               value: 6.4861077711317273e+02
               splits:
                  - { var:1, quality:7.9549455000000000e+06,
                      le:2.7228485107421875e+02 }
            -
               depth: 5
               value: 3.2268527221679688e+02
            -
               depth: 5
               value: 7.1379587809244788e+02
            -
               depth: 3
               value: 1.1982147136487458e+02
               splits:
                  - { var:0, quality:2.7304271875000000e+05,
                      le:2.1829576110839844e+02 }
            -
               depth: 4
               value: 1.2262605539957683e+02
               splits:
                  - { var:1, quality:1.8058154687500000e+05,
                      le:2.7799645996093750e+02 }
            -
               depth: 5
               value: 1.1680054728190105e+02
            -
               depth: 5
               value: 1.2456789143880208e+02
            -
               depth: 4
               value: 1.1501361301967076e+02
            -
               depth: 2
               value: 1.4719172373328189e+02
               splits:
                  - { var:2, quality:12031904., le:1.4763357543945312e+02 }
            -
               depth: 3
               value: 1.1924770610848653e+02
               splits:
                  - { var:1, quality:5.5178805000000000e+06,
                      le:2.8452929687500000e+02 }
            -
               depth: 4
               value: 1.2154395440908579e+02
               splits:
                  - { var:2, quality:1152895., le:1.4243579101562500e+02 }
            -
               depth: 5
               value: 1.1882676982879639e+02
            -
               depth: 5
               value: 1.2440414870412727e+02
            -
               depth: 4
               value: 1.1866994040704543e+02
               splits:
                  - { var:0, quality:4365860., le:2.2120056152343750e+02 }
            -
               depth: 5
               value: 1.1799514902049097e+02
            -
               depth: 5
               value: 1.1995015210303191e+02
            -
               depth: 3
               value: 2.5782722208451253e+02
               splits:
                  - { var:0, quality:12490806., le:2.1493405151367188e+02 }
            -
               depth: 4
               value: 7.1681113225763499e+02
               splits:
                  - { var:0, quality:11330361., le:2.0674354553222656e+02 }
            -
               depth: 5
               value: 6.0734826660156250e+02
            -
               depth: 5
               value: 7.2775741882324223e+02
            -
               depth: 4
               value: 1.2496345861334549e+02
               splits:
                  - { var:2, quality:1.1869565000000000e+06,
                      le:1.4768345642089844e+02 }
            -
               depth: 5
               value: 1.3190846252441406e+02
            -
               depth: 5
               value: 1.2467804749371254e+02
            -
               depth: 1
               value: 4.9117150412334854e+02
               splits:
                  - { var:0, quality:162321232.,
                      le:2.3577648925781250e+02 }
            -
               depth: 2
               value: 5.6381706097206370e+02
               splits:
                  - { var:0, quality:143031904.,
                      le:2.1881707763671875e+02 }
            -
               depth: 3
               value: 6.0877143309899861e+02
