%YAML:1.0
---
opencv_ml_rtrees:
   format: 3
   is_classifier: 0
   var_all: 2
   var_count: 1
   ord_var_count: 2
   cat_var_count: 0
   training_params:
      use_surrogates: 0
      max_categories: 10
      regression_accuracy: 9.9999997473787516e-05
      max_depth: 6
      min_sample_count: 10
      cross_validation_folds: 0
      nactive_vars: 0
   global_var_idx: 1
   var_idx: [ 0 ]
   var_type: [ 0, 0 ]
   cat_ofs: [ 0, 0 ]
   missing_subst: [ 0., 0. ]
   oob_error: 4.7263560933933968e-04
   ntrees: 52
   trees:
      -
         nodes:
            -
               depth: 0
               value: -1.4435034640166851e-02
               splits:
                  - { var:0, quality:2.1224556640625000e+04,
                      le:6.9945466518402100e-01 }
            -
               depth: 1
               value: -6.5802392740073257e-01
               splits:
                  - { var:0, quality:1.1951352539062500e+04,
                      le:-6.3114017248153687e-01 }
            -
               depth: 2
               value: -1.3266370431111956e+00
               splits:
                  - { var:0, quality:1.2327794921875000e+04,
                      le:-1.3825349807739258e+00 }
            -
               depth: 3
               value: -1.4931386546196430e+00
               splits:
                  - { var:0, quality:1.0319081054687500e+04,
                      le:-1.7738863229751587e+00 }
            -
               depth: 4
               value: -1.5774239463645929e+00
               splits:
                  - { var:0, quality:6.8190419921875000e+03,
                      le:-1.9460809230804443e+00 }
            -
               depth: 5
               value: -1.6252379232333634e+00
               splits:
                  - { var:0, quality:3.5906450195312500e+03,
                      le:-2.0400052070617676e+00 }
            -
               depth: 6
               value: -1.6568140595942944e+00
            -
               depth: 6
               value: -1.6022880503001329e+00
            -
               depth: 5
               value: -1.5303034281886254e+00
               splits:
                  - { var:0, quality:3.2302294921875000e+03,
                      le:-1.8678107261657715e+00 }
            -
               depth: 6
               value: -1.5549379269396537e+00
            -
               depth: 6
               value: -1.5053452644905034e+00
            -
               depth: 4
               value: -1.3696645354127552e+00
               splits:
                  - { var:0, quality:3.5129953613281250e+03,
                      le:-1.5860376358032227e+00 }
            -
               depth: 5
               value: -1.4217944103942171e+00
               splits:
                  - { var:0, quality:2.1618422851562500e+03,
                      le:-1.6799620389938354e+00 }
            -
               depth: 6
               value: -1.4479791549917318e+00
            -
               depth: 6
               value: -1.3910858786203029e+00
            -
               depth: 5
               value: -1.3000059899687768e+00
               splits:
                  - { var:0, quality:1.3528551025390625e+03,
                      le:-1.4921133518218994e+00 }
            -
               depth: 6
               value: -1.3330333797076277e+00
            -
               depth: 6
               value: -1.2681146775182401e+00
            -
               depth: 3
               value: -9.7331003978580777e-01
               splits:
                  - { var:0, quality:2.0998723144531250e+03,
                      le:-9.9118351936340332e-01 }
            -
               depth: 4
               value: -1.1041716690643690e+00
               splits:
                  - { var:0, quality:1.4280971679687500e+03,
                      le:-1.1946861743927002e+00 }
            -
               depth: 5
               value: -1.1694376470638668e+00
               splits:
                  - { var:0, quality:8.2385046386718750e+02,
                      le:-1.2886105775833130e+00 }
            -
               depth: 6
               value: -1.1990626479268458e+00
            -
               depth: 6
               value: -1.1377765636673498e+00
            -
               depth: 5
               value: -1.0346316358684438e+00
               splits:
                  - { var:0, quality:6.0562579345703125e+02,
                      le:-1.1007618904113770e+00 }
            -
               depth: 6
               value: -1.0725313677804631e+00
            -
               depth: 6
               value: -9.9659750774397071e-01
            -
               depth: 4
               value: -8.2120294678971117e-01
               splits:
                  - { var:0, quality:6.8141613769531250e+02,
                      le:-8.0333483219146729e-01 }
            -
               depth: 5
               value: -8.8698323967447323e-01
               splits:
                  - { var:0, quality:3.9555001831054688e+02,
                      le:-8.9725911617279053e-01 }
            -
               depth: 6
               value: -9.2650893425832603e-01
            -
               depth: 6
               value: -8.5639621807071431e-01
            -
               depth: 5
               value: -7.5542265390494900e-01
               splits:
                  - { var:0, quality:2.8705725097656250e+02,
                      le:-7.0941042900085449e-01 }
            -
               depth: 6
               value: -7.8604504165889544e-01
            -
               depth: 6
               value: -7.1741808338889057e-01
            -
               depth: 2
               value: -5.4500196106882712e-02
               splits:
                  - { var:0, quality:5.6712072753906250e+02,
                      le:8.8946461677551270e-02 }
            -
               depth: 3
               value: -3.5446634984003972e-01
               splits:
                  - { var:0, quality:4.9309201049804688e+02,
                      le:-2.3978874087333679e-01 }
            -
               depth: 4
               value: -5.1802026220764619e-01
               splits:
                  - { var:0, quality:4.0922552490234375e+02,
                      le:-4.2763745784759521e-01 }
            -
               depth: 5
               value: -6.0152481144440761e-01
               splits:
                  - { var:0, quality:2.4938786315917969e+02,
                      le:-5.2156174182891846e-01 }
            -
               depth: 6
               value: -6.4320428722044998e-01
            -
               depth: 6
               value: -5.6056810114425037e-01
            -
               depth: 5
               value: -4.4694815206320648e-01
               splits:
                  - { var:0, quality:1.6211161804199219e+02,
                      le:-3.3371311426162720e-01 }
            -
               depth: 6
               value: -4.8621249647127923e-01
            -
               depth: 6
               value: -4.1209759812723556e-01
            -
               depth: 4
               value: -2.2327149110215325e-01
               splits:
                  - { var:0, quality:1.0249066925048828e+02,
                      le:-6.7594110965728760e-02 }
            -
               depth: 5
               value: -2.9812139754494033e-01
               splits:
                  - { var:0, quality:8.1144386291503906e+01,
                      le:-1.4586439728736877e-01 }
            -
               depth: 6
               value: -3.2903387178053228e-01
            -
               depth: 6
               value: -2.5658276029086363e-01
            -
               depth: 5
               value: -1.5309970381204038e-01
               splits:
                  - { var:0, quality:2.3621492385864258e+01,
                      le:1.0676173493266106e-02 }
            -
               depth: 6
               value: -1.8818714768013556e-01
            -
               depth: 6
               value: -1.1986271337309426e-01
            -
               depth: 3
               value: 1.8737773204167207e-01
               splits:
                  - { var:0, quality:2.3043482971191406e+02,
                      le:4.0202760696411133e-01 }
            -
               depth: 4
               value: 5.8658483985193299e-02
               splits:
                  - { var:0, quality:1.9321983337402344e+01,
                      le:2.4548703432083130e-01 }
            -
               depth: 5
               value: -9.4820139866884055e-03
               splits:
                  - { var:0, quality:1.6745134592056274e+00,
                      le:1.6721674799919128e-01 }
            -
               depth: 6
               value: -4.9262869461543027e-02
            -
               depth: 6
               value: 2.3719936486915144e-02
            -
               depth: 5
               value: 1.3198828551975683e-01
               splits:
                  - { var:0, quality:2.0619678497314453e+01,
                      le:3.2375729084014893e-01 }
            -
               depth: 6
               value: 9.7231534378793977e-02
            -
               depth: 6
               value: 1.6862203067019443e-01
            -
               depth: 4
               value: 3.4526047336429472e-01
               splits:
                  - { var:0, quality:2.3261196899414062e+02,
                      le:5.4291415214538574e-01 }
            -
               depth: 5
               value: 2.7103742002988818e-01
               splits:
                  - { var:0, quality:6.8731529235839844e+01,
                      le:4.6464383602142334e-01 }
            -
               depth: 6
               value: 2.3681129525664826e-01
            -
               depth: 6
               value: 3.0037409840695095e-01
            -
               depth: 5
               value: 4.1783237826647396e-01
               splits:
                  - { var:0, quality:1.6616325378417969e+02,
                      le:6.2118440866470337e-01 }
            -
               depth: 6
               value: 3.8103923189296646e-01
            -
               depth: 6
               value: 4.5687488730037057e-01
            -
               depth: 1
               value: 1.6498101256983313e+00
               splits:
                  - { var:0, quality:1.9967441406250000e+04,
                      le:2.3118226528167725e+00 }
            -
               depth: 2
               value: 1.1628940616822872e+00
               splits:
                  - { var:0, quality:6.7030908203125000e+03,
                      le:1.4508494138717651e+00 }
            -
               depth: 3
               value: 8.4215584834331436e-01
               splits:
                  - { var:0, quality:2.0931499023437500e+03,
                      le:1.0594980716705322e+00 }
            -
               depth: 4
               value: 6.6802835532381566e-01
               splits:
                  - { var:0, quality:7.1841790771484375e+02,
                      le:8.7164932489395142e-01 }
            -
               depth: 5
               value: 5.7984435783105470e-01
               splits:
                  - { var:0, quality:2.7784545898437500e+02,
                      le:7.7772498130798340e-01 }
            -
               depth: 6
               value: 5.3373934582192850e-01
            -
               depth: 6
               value: 6.1871315719300857e-01
            -
               depth: 5
               value: 7.6365796738060920e-01
               splits:
                  - { var:0, quality:4.4354751586914062e+02,
                      le:9.6557366847991943e-01 }
            -
               depth: 6
               value: 7.2064492684237813e-01
            -
               depth: 6
               value: 8.0972657910461632e-01
            -
               depth: 4
               value: 1.0684070317074656e+00
               splits:
                  - { var:0, quality:1.4023187255859375e+03,
                      le:1.2473466396331787e+00 }
            -
               depth: 5
               value: 9.6309341897964473e-01
               splits:
                  - { var:0, quality:5.8154034423828125e+02,
                      le:1.1534223556518555e+00 }
            -
               depth: 6
               value: 9.1020823608745227e-01
            -
               depth: 6
               value: 1.0182253580077800e+00
            -
               depth: 5
               value: 1.1797792955905249e+00
               splits:
                  - { var:0, quality:8.2439764404296875e+02,
                      le:1.3412710428237915e+00 }
            -
               depth: 6
               value: 1.1186182152550175e+00
            -
               depth: 6
               value: 1.2294961246976093e+00
            -
               depth: 3
               value: 1.7344581435788886e+00
               splits:
                  - { var:0, quality:4.8228364257812500e+03,
                      le:1.8578549623489380e+00 }
            -
               depth: 4
               value: 1.5056758088256241e+00
               splits:
                  - { var:0, quality:1.9876835937500000e+03,
                      le:1.6386981010437012e+00 }
            -
               depth: 5
               value: 1.3956170322673391e+00
               splits:
                  - { var:0, quality:8.6028131103515625e+02,
                      le:1.5447738170623779e+00 }
            -
               depth: 6
               value: 1.3419127358330620e+00
            -
               depth: 6
               value: 1.4515590077197109e+00
            -
               depth: 5
               value: 1.6182881532854934e+00
               splits:
                  - { var:0, quality:1.1306109619140625e+03,
                      le:1.7326225042343140e+00 }
            -
               depth: 6
               value: 1.5529398278358879e+00
            -
               depth: 6
               value: 1.6851704769850897e+00
            -
               depth: 4
               value: 2.0206822410033456e+00
               splits:
                  - { var:0, quality:2.8584980468750000e+03,
                      le:2.0770118236541748e+00 }
            -
               depth: 5
               value: 1.8938682808176330e+00
               splits:
                  - { var:0, quality:1.3215834960937500e+03,
                      le:1.9674333333969116e+00 }
            -
               depth: 6
               value: 1.8287775510235837e+00
            -
               depth: 6
               value: 1.9633471496989219e+00
            -
               depth: 5
               value: 2.1625288590834133e+00
               splits:
                  - { var:0, quality:1.5405728759765625e+03,
                      le:2.1865901947021484e+00 }
            -
               depth: 6
               value: 2.0853813010525992e+00
            -
               depth: 6
               value: 2.2410963108203164e+00
            -
               depth: 2
               value: 3.4820416941724974e+00
               splits:
                  - { var:0, quality:1.7070906250000000e+04,
                      le:9.1682996749877930e+00 }
            -
               depth: 3
               value: 3.3873434147207795e+00
               splits:
                  - { var:0, quality:1.4338244140625000e+04,
                      le:3.7754769325256348e+00 }
            -
               depth: 4
               value: 2.9815729103845880e+00
               splits:
                  - { var:0, quality:8.9147128906250000e+03,
                      le:2.9066767692565918e+00 }
            -
               depth: 5
               value: 2.6535778751373291e+00
               splits:
                  - { var:0, quality:4.4217036132812500e+03,
                      le:2.5779416561126709e+00 }
            -
               depth: 6
               value: 2.4822766867028663e+00
            -
               depth: 6
               value: 2.8476802456500994e+00
            -
               depth: 5
               value: 3.5557939104673242e+00
               splits:
                  - { var:0, quality:4.5414111328125000e+03,
                      le:3.2667200565338135e+00 }
            -
               depth: 6
               value: 3.3217266621201804e+00
            -
               depth: 6
               value: 3.8863348219845748e+00
            -
               depth: 4
               value: 5.6773815483882508e+00
               splits:
                  - { var:0, quality:5.8905000000000000e+03,
                      le:5.3643636703491211e+00 }
            -
               depth: 5
               value: 5.1317666858231936e+00
               splits:
                  - { var:0, quality:3.9157846679687500e+03,
                      le:4.3546772003173828e+00 }
            -
               depth: 6
               value: 4.6810766187581150e+00
            -
               depth: 6
               value: 5.8039823790728038e+00
            -
               depth: 5
               value: 8.6479513556868941e+00
               splits:
                  - { var:0, quality:2.0489125976562500e+03,
                      le:6.5305910110473633e+00 }
            -
               depth: 6
               value: 7.8440674893996292e+00
            -
               depth: 6
               value: 1.0014553928375244e+01
            -
               depth: 3
               value: 3.0849844455718994e+01
      -
         nodes:
            -
               depth: 0
               value: -2.0511111530602991e-02
               splits:
                  - { var:0, quality:2.1270292968750000e+04,
                      le:6.9945466518402100e-01 }
            -
               depth: 1
               value: -6.6125413434975111e-01
               splits:
                  - { var:0, quality:1.1940504882812500e+04,
                      le:-6.3114017248153687e-01 }
            -
               depth: 2
               value: -1.3204022594833207e+00
               splits:
                  - { var:0, quality:1.2322304687500000e+04,
                      le:-1.3981889486312866e+00 }
            -
               depth: 3
               value: -1.4967832782678347e+00
               splits:
                  - { var:0, quality:1.0120011718750000e+04,
                      le:-1.7738863229751587e+00 }
            -
               depth: 4
               value: -1.5766876073556870e+00
               splits:
                  - { var:0, quality:6.8376298828125000e+03,
                      le:-1.9460809230804443e+00 }
            -
               depth: 5
               value: -1.6254905590084356e+00
               splits:
                  - { var:0, quality:3.5494472656250000e+03,
                      le:-2.0400052070617676e+00 }
            -
               depth: 6
               value: -1.6563112664889623e+00
            -
               depth: 6
               value: -1.6026248720060217e+00
            -
               depth: 5
               value: -1.5300382379111022e+00
               splits:
                  - { var:0, quality:3.2899931640625000e+03,
                      le:-1.8678107261657715e+00 }
            -
               depth: 6
               value: -1.5542298800415464e+00
            -
               depth: 6
               value: -1.5046105264747229e+00
            -
               depth: 4
               value: -1.3712389121538167e+00
               splits:
                  - { var:0, quality:3.2944316406250000e+03,
                      le:-1.5860376358032227e+00 }
            -
               depth: 5
               value: -1.4197815165594365e+00
               splits:
                  - { var:0, quality:2.0609509277343750e+03,
                      le:-1.6799620389938354e+00 }
            -
               depth: 6
               value: -1.4480698629197089e+00
            -
               depth: 6
               value: -1.3912708649232486e+00
            -
               depth: 5
               value: -1.3029988272809916e+00
               splits:
                  - { var:0, quality:1.2349299316406250e+03,
                      le:-1.4921133518218994e+00 }
            -
               depth: 6
               value: -1.3314061431884765e+00
            -
               depth: 6
               value: -1.2727353515272790e+00
            -
               depth: 3
               value: -9.8085369720850901e-01
               splits:
                  - { var:0, quality:2.2951645507812500e+03,
                      le:-1.0068374872207642e+00 }
            -
               depth: 4
               value: -1.1141304806709289e+00
               splits:
                  - { var:0, quality:1.5571374511718750e+03,
                      le:-1.2103402614593506e+00 }
            -
               depth: 5
               value: -1.1798974566067322e+00
               splits:
                  - { var:0, quality:8.8044610595703125e+02,
                      le:-1.3042646646499634e+00 }
            -
               depth: 6
               value: -1.2102824950886664e+00
            -
               depth: 6
               value: -1.1485354072411345e+00
            -
               depth: 5
               value: -1.0468736379663535e+00
               splits:
                  - { var:0, quality:6.7807153320312500e+02,
                      le:-1.1007618904113770e+00 }
            -
               depth: 6
               value: -1.0767086879324519e+00
            -
               depth: 6
               value: -1.0046850126236677e+00
            -
               depth: 4
               value: -8.2745040132634984e-01
               splits:
                  - { var:0, quality:7.4888500976562500e+02,
                      le:-8.1898885965347290e-01 }
            -
               depth: 5
               value: -9.0012879706705506e-01
               splits:
                  - { var:0, quality:4.2446246337890625e+02,
                      le:-9.1291320323944092e-01 }
            -
               depth: 6
               value: -9.3986524776978930e-01
            -
               depth: 6
               value: -8.6590736977146188e-01
            -
               depth: 5
               value: -7.5993565714803935e-01
               splits:
                  - { var:0, quality:3.2596157836914062e+02,
                      le:-7.2506451606750488e-01 }
            -
               depth: 6
               value: -7.9862331681781340e-01
            -
               depth: 6
               value: -7.2192911824709938e-01
            -
               depth: 2
               value: -6.0485941867734275e-02
               splits:
                  - { var:0, quality:5.6670104980468750e+02,
                      le:8.8946461677551270e-02 }
            -
               depth: 3
               value: -3.5696543675858944e-01
               splits:
                  - { var:0, quality:5.0738137817382812e+02,
                      le:-2.3978874087333679e-01 }
            -
               depth: 4
               value: -5.2449678734671301e-01
               splits:
                  - { var:0, quality:4.2726284790039062e+02,
                      le:-4.2763745784759521e-01 }
            -
               depth: 5
               value: -6.0610077283131791e-01
               splits:
                  - { var:0, quality:2.7381582641601562e+02,
                      le:-5.2156174182891846e-01 }
            -
               depth: 6
               value: -6.4435583700107624e-01
            -
               depth: 6
               value: -5.6255394185997909e-01
            -
               depth: 5
               value: -4.4646823421581505e-01
               splits:
                  - { var:0, quality:1.5581539916992188e+02,
                      le:-3.3371311426162720e-01 }
            -
               depth: 6
               value: -4.8700271297807562e-01
            -
               depth: 6
               value: -4.1047046110577828e-01
            -
               depth: 4
               value: -2.1994356704265650e-01
               splits:
                  - { var:0, quality:9.9480285644531250e+01,
                      le:-6.7594110965728760e-02 }
            -
               depth: 5
               value: -2.9581575860118542e-01
               splits:
                  - { var:0, quality:7.8429817199707031e+01,
                      le:-1.4586439728736877e-01 }
            -
               depth: 6
               value: -3.2950103132030634e-01
            -
               depth: 6
               value: -2.5677708068220423e-01
            -
               depth: 5
               value: -1.5108935825932554e-01
               splits:
                  - { var:0, quality:2.3332908630371094e+01,
                      le:1.0676173493266106e-02 }
            -
               depth: 6
               value: -1.8776192932590877e-01
            -
               depth: 6
               value: -1.1966572389120364e-01
            -
               depth: 3
               value: 1.8213395038590272e-01
               splits:
                  - { var:0, quality:2.1622532653808594e+02,
                      le:3.8637351989746094e-01 }
            -
               depth: 4
               value: 5.2284224582696270e-02
               splits:
                  - { var:0, quality:1.6299846649169922e+01,
                      le:2.4548703432083130e-01 }
            -
               depth: 5
               value: -1.1746194243030590e-02
               splits:
                  - { var:0, quality:1.5469459295272827e+00,
                      le:1.6721674799919128e-01 }
            -
               depth: 6
               value: -4.6896979307030927e-02
            -
               depth: 6
               value: 2.1878847228876237e-02
            -
               depth: 5
               value: 1.2535496544321417e-01
               splits:
                  - { var:0, quality:1.7197950363159180e+01,
                      le:3.2375729084014893e-01 }
            -
               depth: 6
               value: 9.6647643257460947e-02
            -
               depth: 6
               value: 1.6130207282932182e-01
            -
               depth: 4
               value: 3.3054327836992092e-01
               splits:
                  - { var:0, quality:2.2126538085937500e+02,
                      le:5.4291415214538574e-01 }
            -
               depth: 5
               value: 2.6459929919950492e-01
               splits:
                  - { var:0, quality:7.8218368530273438e+01,
                      le:4.6464383602142334e-01 }
            -
               depth: 6
               value: 2.2743550300061166e-01
            -
               depth: 6
               value: 3.0279542307058971e-01
            -
               depth: 5
               value: 4.1764660429465611e-01
               splits:
                  - { var:0, quality:1.4579731750488281e+02,
                      le:6.2118440866470337e-01 }
            -
               depth: 6
               value: 3.8025568032774393e-01
            -
               depth: 6
               value: 4.5622890574090619e-01
            -
               depth: 1
               value: 1.6543972279437482e+00
               splits:
                  - { var:0, quality:1.9607539062500000e+04,
                      le:2.2805144786834717e+00 }
            -
               depth: 2
               value: 1.1700808189991891e+00
               splits:
                  - { var:0, quality:6.6481967773437500e+03,
                      le:1.4508494138717651e+00 }
            -
               depth: 3
               value: 8.4627491226970863e-01
               splits:
                  - { var:0, quality:2.0594211425781250e+03,
                      le:1.0594980716705322e+00 }
            -
               depth: 4
               value: 6.6348980217573628e-01
               splits:
                  - { var:0, quality:6.7072283935546875e+02,
                      le:8.7164932489395142e-01 }
            -
               depth: 5
               value: 5.7695430317031804e-01
               splits:
                  - { var:0, quality:2.6906143188476562e+02,
                      le:7.9337906837463379e-01 }
            -
               depth: 6
               value: 5.4294166183080028e-01
            -
               depth: 6
               value: 6.2920716226288953e-01
            -
               depth: 5
               value: 7.6432247058204983e-01
               splits:
                  - { var:0, quality:4.0446920776367188e+02,
                      le:9.6557366847991943e-01 }
            -
               depth: 6
               value: 7.2176996976631125e-01
            -
               depth: 6
               value: 8.1128590136039547e-01
            -
               depth: 4
               value: 1.0688347773719047e+00
               splits:
                  - { var:0, quality:1.4153947753906250e+03,
                      le:1.2473466396331787e+00 }
            -
               depth: 5
               value: 9.6662275768569295e-01
               splits:
                  - { var:0, quality:5.9313439941406250e+02,
                      le:1.1534223556518555e+00 }
            -
               depth: 6
               value: 9.1429299708360279e-01
            -
               depth: 6
               value: 1.0174853287381918e+00
            -
               depth: 5
               value: 1.1777576872395346e+00
               splits:
                  - { var:0, quality:8.2581970214843750e+02,
                      le:1.3569251298904419e+00 }
            -
               depth: 6
               value: 1.1268240820410793e+00
            -
               depth: 6
               value: 1.2397142368466108e+00
            -
               depth: 3
               value: 1.7334285633795707e+00
               splits:
                  - { var:0, quality:4.7919628906250000e+03,
                      le:1.8578549623489380e+00 }
            -
               depth: 4
               value: 1.5148171539251516e+00
               splits:
                  - { var:0, quality:1.9954020996093750e+03,
                      le:1.6543521881103516e+00 }
            -
               depth: 5
               value: 1.4099301491014757e+00
               splits:
                  - { var:0, quality:9.0413269042968750e+02,
                      le:1.5604279041290283e+00 }
            -
               depth: 6
               value: 1.3524352761648468e+00
            -
               depth: 6
               value: 1.4721723051246154e+00
            -
               depth: 5
               value: 1.6306777383289197e+00
               splits:
                  - { var:0, quality:1.0943286132812500e+03,
                      le:1.7482764720916748e+00 }
            -
               depth: 6
               value: 1.5756305331533604e+00
            -
               depth: 6
               value: 1.6940828961227576e+00
            -
               depth: 4
               value: 2.0039562732194454e+00
               splits:
                  - { var:0, quality:2.8181604003906250e+03,
                      le:2.0613577365875244e+00 }
            -
               depth: 5
               value: 1.8806857014236664e+00
               splits:
                  - { var:0, quality:1.2639091796875000e+03,
                      le:1.9674333333969116e+00 }
            -
               depth: 6
               value: 1.8317389493924008e+00
            -
               depth: 6
               value: 1.9498064526029535e+00
            -
               depth: 5
               value: 2.1326334490413554e+00
               splits:
                  - { var:0, quality:1.5569696044921875e+03,
                      le:2.1709361076354980e+00 }
            -
               depth: 6
               value: 2.0745825030140042e+00
            -
               depth: 6
               value: 2.2087272566718026e+00
            -
               depth: 2
               value: 3.3881447737477877e+00
               splits:
                  - { var:0, quality:1.5089104492187500e+04,
                      le:3.9789795875549316e+00 }
            -
               depth: 3
               value: 3.0034816213276074e+00
               splits:
                  - { var:0, quality:9.8037197265625000e+03,
                      le:2.9692931175231934e+00 }
            -
               depth: 4
               value: 2.6603915944799676e+00
               splits:
                  - { var:0, quality:5.0933403320312500e+03,
                      le:2.5935955047607422e+00 }
            -
               depth: 5
               value: 2.4697931840605007e+00
               splits:
                  - { var:0, quality:2.4374848632812500e+03,
                      le:2.4370551109313965e+00 }
            -
               depth: 6
               value: 2.3828405852711527e+00
            -
               depth: 6
               value: 2.5745206234863449e+00
            -
               depth: 5
               value: 2.9010522456108769e+00
               splits:
                  - { var:0, quality:2.6635751953125000e+03,
                      le:2.7814443111419678e+00 }
            -
               depth: 6
               value: 2.8096654638648033e+00
            -
               depth: 6
               value: 3.0425543592822168e+00
            -
               depth: 4
               value: 3.7186692866222506e+00
               splits:
                  - { var:0, quality:4.7818559570312500e+03,
                      le:3.4076066017150879e+00 }
            -
               depth: 5
               value: 3.4514220453443980e+00
               splits:
                  - { var:0, quality:2.5064145507812500e+03,
                      le:3.1806228160858154e+00 }
            -
               depth: 6
               value: 3.3251420797840243e+00
            -
               depth: 6
               value: 3.6335001352221465e+00
            -
               depth: 5
               value: 4.1406386149557015e+00
               splits:
                  - { var:0, quality:2.2856979980468750e+03,
                      le:3.6502444744110107e+00 }
            -
               depth: 6
               value: 3.9629848384857178e+00
            -
               depth: 6
               value: 4.3703633259082659e+00
            -
               depth: 3
               value: 6.3160125094352004e+00
               splits:
                  - { var:0, quality:6.3087402343750000e+03,
                      le:1.1093749046325684e+01 }
            -
               depth: 4
               value: 6.0327931111746462e+00
               splits:
                  - { var:0, quality:5.1993232421875000e+03,
                      le:5.4739418029785156e+00 }
            -
               depth: 5
               value: 5.4723779946042779e+00
               splits:
                  - { var:0, quality:3.4442753906250000e+03,
                      le:4.6364498138427734e+00 }
            -
               depth: 6
               value: 5.1290740061409865e+00
            -
               depth: 6
               value: 6.2472641399928506e+00
            -
               depth: 5
               value: 8.8105028193929922e+00
               splits:
                  - { var:0, quality:1.8198555908203125e+03,
                      le:6.6793045997619629e+00 }
            -
               depth: 6
               value: 8.0006273686885834e+00
            -
               depth: 6
               value: 1.0661646706717354e+01
            -
               depth: 4
               value: 2.5716541290283203e+01
      -
         nodes:
            -
               depth: 0
               value: 7.4808392924753594e-03
               splits:
                  - { var:0, quality:2.1536646484375000e+04,
                      le:7.1510875225067139e-01 }
            -
               depth: 1
               value: -6.4697465039289026e-01
               splits:
                  - { var:0, quality:1.1683065429687500e+04,
                      le:-6.4679419994354248e-01 }
            -
               depth: 2
               value: -1.3342741129415461e+00
               splits:
                  - { var:0, quality:1.2016212890625000e+04,
                      le:-1.4138430356979370e+00 }
            -
               depth: 3
               value: -1.4984563287005195e+00
               splits:
                  - { var:0, quality:9.9124882812500000e+03,
                      le:-1.7738863229751587e+00 }
            -
               depth: 4
               value: -1.5766293895213426e+00
               splits:
                  - { var:0, quality:6.6604663085937500e+03,
                      le:-1.9460809230804443e+00 }
            -
               depth: 5
               value: -1.6250473896722692e+00
               splits:
                  - { var:0, quality:3.4814838867187500e+03,
                      le:-2.0400052070617676e+00 }
            -
               depth: 6
               value: -1.6565563765439120e+00
            -
               depth: 6
               value: -1.6024823600115876e+00
            -
               depth: 5
               value: -1.5296721237384721e+00
               splits:
                  - { var:0, quality:3.1807678222656250e+03,
                      le:-1.8678107261657715e+00 }
            -
               depth: 6
               value: -1.5548553070611699e+00
            -
               depth: 6
               value: -1.5048933418997883e+00
            -
               depth: 4
               value: -1.3767173619655899e+00
               splits:
                  - { var:0, quality:3.2634321289062500e+03,
                      le:-1.6016917228698730e+00 }
            -
               depth: 5
               value: -1.4256797480263330e+00
               splits:
                  - { var:0, quality:1.9701998291015625e+03,
                      le:-1.6799620389938354e+00 }
            -
               depth: 6
               value: -1.4483208118999091e+00
            -
               depth: 6
               value: -1.3962087195163102e+00
            -
               depth: 5
               value: -1.3134579591751099e+00
               splits:
                  - { var:0, quality:1.2945584716796875e+03,
                      le:-1.5077674388885498e+00 }
            -
               depth: 6
               value: -1.3430821595229501e+00
            -
               depth: 6
               value: -1.2828703701980715e+00
            -
               depth: 3
               value: -9.9873481936811681e-01
               splits:
                  - { var:0, quality:2.1873581542968750e+03,
                      le:-1.0224915742874146e+00 }
            -
               depth: 4
               value: -1.1245939697394391e+00
               splits:
                  - { var:0, quality:1.5036600341796875e+03,
                      le:-1.2259943485260010e+00 }
            -
               depth: 5
               value: -1.1874074797388379e+00
               splits:
                  - { var:0, quality:8.6203948974609375e+02,
                      le:-1.3199186325073242e+00 }
            -
               depth: 6
               value: -1.2193872523062008e+00
            -
               depth: 6
               value: -1.1583258740603923e+00
            -
               depth: 5
               value: -1.0577315052627272e+00
               splits:
                  - { var:0, quality:6.4289489746093750e+02,
                      le:-1.1320700645446777e+00 }
            -
               depth: 6
               value: -1.0917200836780909e+00
            -
               depth: 6
               value: -1.0215422275255053e+00
            -
               depth: 4
               value: -8.4434238335360656e-01
               splits:
                  - { var:0, quality:6.9346392822265625e+02,
                      le:-8.3464288711547852e-01 }
            -
               depth: 5
               value: -9.1316630084987593e-01
               splits:
                  - { var:0, quality:4.1257153320312500e+02,
                      le:-9.2856729030609131e-01 }
            -
               depth: 6
               value: -9.5014897038539248e-01
            -
               depth: 6
               value: -8.7822204617064770e-01
            -
               depth: 5
               value: -7.7231057139776516e-01
               splits:
                  - { var:0, quality:2.8207052612304688e+02,
                      le:-7.4071860313415527e-01 }
            -
               depth: 6
               value: -8.0699639968250114e-01
            -
               depth: 6
               value: -7.3934470154037157e-01
            -
               depth: 2
               value: -5.9923172075075415e-02
               splits:
                  - { var:0, quality:6.0029565429687500e+02,
                      le:8.8946461677551270e-02 }
            -
               depth: 3
               value: -3.5851598235542681e-01
               splits:
                  - { var:0, quality:5.2975848388671875e+02,
                      le:-2.3978874087333679e-01 }
            -
               depth: 4
               value: -5.2611604815437685e-01
               splits:
                  - { var:0, quality:4.4687500000000000e+02,
                      le:-4.2763745784759521e-01 }
            -
               depth: 5
               value: -6.1146284158652031e-01
               splits:
                  - { var:0, quality:2.8864642333984375e+02,
                      le:-5.3721582889556885e-01 }
            -
               depth: 6
               value: -6.5660783188774230e-01
            -
               depth: 6
               value: -5.6816050395065421e-01
            -
               depth: 5
               value: -4.4489382094757857e-01
               splits:
                  - { var:0, quality:1.6086773681640625e+02,
                      le:-3.3371311426162720e-01 }
            -
               depth: 6
               value: -4.8673474623097313e-01
            -
               depth: 6
               value: -4.1119643145759632e-01
            -
               depth: 4
               value: -2.2103155337972566e-01
               splits:
                  - { var:0, quality:1.0397253417968750e+02,
                      le:-6.7594110965728760e-02 }
            -
               depth: 5
               value: -2.9596962157812751e-01
               splits:
                  - { var:0, quality:8.2760543823242188e+01,
                      le:-1.4586439728736877e-01 }
            -
               depth: 6
               value: -3.2628191584213212e-01
            -
               depth: 6
               value: -2.5635355382715119e-01
            -
               depth: 5
               value: -1.5034098702252877e-01
               splits:
                  - { var:0, quality:2.3429798126220703e+01,
                      le:1.0676173493266106e-02 }
            -
               depth: 6
               value: -1.8584956048503035e-01
            -
               depth: 6
               value: -1.1902580699750355e-01
            -
               depth: 3
               value: 1.9033626963471550e-01
               splits:
                  - { var:0, quality:2.3839071655273438e+02,
                      le:4.0202760696411133e-01 }
            -
               depth: 4
               value: 5.7690521278841930e-02
               splits:
                  - { var:0, quality:1.8270683288574219e+01,
                      le:2.4548703432083130e-01 }
            -
               depth: 5
               value: -7.6823897744231016e-03
               splits:
                  - { var:0, quality:1.5611239671707153e+00,
                      le:1.6721674799919128e-01 }
            -
               depth: 6
               value: -4.7328291954754881e-02
            -
               depth: 6
               value: 2.3890817391813968e-02
            -
               depth: 5
               value: 1.3011762552483136e-01
               splits:
                  - { var:0, quality:1.9595432281494141e+01,
                      le:3.2375729084014893e-01 }
            -
               depth: 6
               value: 9.6209992206933201e-02
            -
               depth: 6
               value: 1.6838960768562733e-01
            -
               depth: 4
               value: 3.4820143023051886e-01
               splits:
                  - { var:0, quality:2.4175593566894531e+02,
                      le:5.5856817960739136e-01 }
            -
               depth: 5
               value: 2.7818645172358486e-01
               splits:
                  - { var:0, quality:8.0712135314941406e+01,
                      le:4.8029786348342896e-01 }
            -
               depth: 6
               value: 2.4530404765936112e-01
            -
               depth: 6
               value: 3.1708563610594326e-01
            -
               depth: 5
               value: 4.3001847800741433e-01
               splits:
                  - { var:0, quality:1.6357122802734375e+02,
                      le:6.3683843612670898e-01 }
            -
               depth: 6
               value: 3.9691510376881578e-01
            -
               depth: 6
               value: 4.7182428567987128e-01
            -
               depth: 1
               value: 1.6683953784725496e+00
               splits:
                  - { var:0, quality:2.0269828125000000e+04,
                      le:2.2805144786834717e+00 }
            -
               depth: 2
               value: 1.1810199275281390e+00
               splits:
                  - { var:0, quality:6.8685488281250000e+03,
                      le:1.4508494138717651e+00 }
            -
               depth: 3
               value: 8.5436447946726735e-01
               splits:
                  - { var:0, quality:2.1057124023437500e+03,
                      le:1.0594980716705322e+00 }
            -
               depth: 4
               value: 6.7337137721428797e-01
               splits:
                  - { var:0, quality:6.8484906005859375e+02,
                      le:8.8730335235595703e-01 }
            -
               depth: 5
               value: 5.9511429254262727e-01
               splits:
                  - { var:0, quality:2.9004190063476562e+02,
                      le:8.0903309583663940e-01 }
            -
               depth: 6
               value: 5.5950683495129094e-01
            -
               depth: 6
               value: 6.4337989257250217e-01
            -
               depth: 5
               value: 7.6842282879015023e-01
               splits:
                  - { var:0, quality:3.9750076293945312e+02,
                      le:9.6557366847991943e-01 }
            -
               depth: 6
               value: 7.2675926033565752e-01
            -
               depth: 6
               value: 8.1467201012485435e-01
            -
               depth: 4
               value: 1.0690139207664910e+00
               splits:
                  - { var:0, quality:1.4459776611328125e+03,
                      le:1.2630007266998291e+00 }
            -
               depth: 5
               value: 9.7576995240392495e-01
               splits:
                  - { var:0, quality:6.7440075683593750e+02,
                      le:1.1534223556518555e+00 }
            -
               depth: 6
               value: 9.1516902417312429e-01
            -
               depth: 6
               value: 1.0271696925787401e+00
            -
               depth: 5
               value: 1.1893617117426731e+00
               splits:
                  - { var:0, quality:7.7510693359375000e+02,
                      le:1.3569251298904419e+00 }
            -
               depth: 6
               value: 1.1388476073518674e+00
            -
               depth: 6
               value: 1.2375305184296199e+00
            -
               depth: 3
               value: 1.7326286033843212e+00
               splits:
                  - { var:0, quality:4.9672915039062500e+03,
                      le:1.8422008752822876e+00 }
            -
               depth: 4
               value: 1.5020594822020548e+00
               splits:
                  - { var:0, quality:1.9562169189453125e+03,
                      le:1.6386981010437012e+00 }
            -
               depth: 5
               value: 1.4014365370311435e+00
               splits:
                  - { var:0, quality:8.6745727539062500e+02,
                      le:1.5447738170623779e+00 }
            -
               depth: 6
               value: 1.3450354593936529e+00
            -
               depth: 6
               value: 1.4546075970065750e+00
            -
               depth: 5
               value: 1.6072128443356375e+00
               splits:
                  - { var:0, quality:1.0915292968750000e+03,
                      le:1.7326225042343140e+00 }
            -
               depth: 6
               value: 1.5557239125756657e+00
            -
               depth: 6
               value: 1.6738126582425574e+00
            -
               depth: 4
               value: 1.9947908584308247e+00
               splits:
                  - { var:0, quality:3.0327490234375000e+03,
                      le:2.0613577365875244e+00 }
            -
               depth: 5
               value: 1.8746029700761959e+00
               splits:
                  - { var:0, quality:1.4249122314453125e+03,
                      le:1.9517792463302612e+00 }
            -
               depth: 6
               value: 1.8127161942387080e+00
            -
               depth: 6
               value: 1.9419128138994433e+00
            -
               depth: 5
               value: 2.1322939510399337e+00
               splits:
                  - { var:0, quality:1.6111977539062500e+03,
                      le:2.1709361076354980e+00 }
            -
               depth: 6
               value: 2.0753511848903838e+00
            -
               depth: 6
               value: 2.2153354850080280e+00
            -
               depth: 2
               value: 3.3838468244520286e+00
               splits:
                  - { var:0, quality:1.5586416015625000e+04,
                      le:3.9789795875549316e+00 }
            -
               depth: 3
               value: 3.0014909506930803e+00
               splits:
                  - { var:0, quality:1.0122686523437500e+04,
                      le:2.9536390304565430e+00 }
            -
               depth: 4
               value: 2.6678964452205696e+00
               splits:
                  - { var:0, quality:5.2070917968750000e+03,
                      le:2.6092495918273926e+00 }
            -
               depth: 5
               value: 2.4823742353713136e+00
               splits:
                  - { var:0, quality:2.5367980957031250e+03,
                      le:2.4527091979980469e+00 }
            -
               depth: 6
               value: 2.3919983088707610e+00
            -
               depth: 6
               value: 2.5938706229562345e+00
            -
               depth: 5
               value: 2.9091927371447599e+00
               splits:
                  - { var:0, quality:2.6782111816406250e+03,
                      le:2.7657902240753174e+00 }
            -
               depth: 6
               value: 2.8012543275952337e+00
            -
               depth: 6
               value: 3.0198987982211967e+00
            -
               depth: 4
               value: 3.6569590736079860e+00
               splits:
                  - { var:0, quality:4.9862885742187500e+03,
                      le:3.3606443405151367e+00 }
            -
               depth: 5
               value: 3.3977235087326596e+00
               splits:
                  - { var:0, quality:2.5900979003906250e+03,
                      le:3.1414875984191895e+00 }
            -
               depth: 6
               value: 3.2812807171843774e+00
            -
               depth: 6
               value: 3.5558405625192742e+00
            -
               depth: 5
               value: 4.0546903512249255e+00
               splits:
                  - { var:0, quality:2.4060791015625000e+03,
                      le:3.5876283645629883e+00 }
            -
               depth: 6
               value: 3.8691697365198379e+00
            -
               depth: 6
               value: 4.2674934092689965e+00
            -
               depth: 3
               value: 6.3376805815898196e+00
               splits:
                  - { var:0, quality:5.9877856445312500e+03,
                      le:5.6617908477783203e+00 }
            -
               depth: 4
               value: 5.6210143798220473e+00
               splits:
                  - { var:0, quality:3.6076252441406250e+03,
                      le:4.6521043777465820e+00 }
            -
               depth: 5
               value: 5.1449629442015690e+00
               splits:
                  - { var:0, quality:1.7775729980468750e+03,
                      le:4.3077149391174316e+00 }
            -
               depth: 6
               value: 4.9238529978571712e+00
            -
               depth: 6
               value: 5.4176652113596599e+00
            -
               depth: 5
               value: 6.3143936447475264e+00
               splits:
                  - { var:0, quality:1.8393189697265625e+03,
                      le:5.2547855377197266e+00 }
            -
               depth: 6
               value: 6.1715826865954275e+00
            -
               depth: 6
               value: 7.1100546973092218e+00
            -
               depth: 4
               value: 9.1302075057194152e+00
               splits:
                  - { var:0, quality:2.4447587890625000e+03,
                      le:6.6793045997619629e+00 }
            -
               depth: 5
               value: 8.3150541361640489e+00
               splits:
                  - { var:0, quality:1.1764566650390625e+03,
                      le:6.1940288543701172e+00 }
            -
               depth: 6
               value: 8.1755935595585747e+00
            -
               depth: 6
               value: 8.7683010101318359e+00
            -
               depth: 5
               value: 1.0285008112589518e+01
               splits:
                  - { var:0, quality:1.2860349121093750e+03,
                      le:8.0255537033081055e+00 }
            -
               depth: 6
               value: 9.9297637072476466e+00
            -
               depth: 6
               value: 1.4192696571350098e+01
      -
         nodes:
            -
               depth: 0
               value: -7.7639910393027299e-03
               splits:
                  - { var:0, quality:2.2512103515625000e+04,
                      le:8.2468712329864502e-01 }
            -
               depth: 1
               value: -6.1514885554886711e-01
               splits:
                  - { var:0, quality:1.2014806640625000e+04,
                      le:-5.9983205795288086e-01 }
            -
               depth: 2
               value: -1.3157334926664315e+00
               splits:
                  - { var:0, quality:1.2448397460937500e+04,
                      le:-1.3668808937072754e+00 }
            -
               depth: 3
               value: -1.4897772452329550e+00
               splits:
                  - { var:0, quality:10429., le:-1.7582323551177979e+00 }
            -
               depth: 4
               value: -1.5746597212175995e+00
               splits:
                  - { var:0, quality:6.9839218750000000e+03,
                      le:-1.9460809230804443e+00 }
            -
               depth: 5
               value: -1.6233585056541973e+00
               splits:
                  - { var:0, quality:3.6481972656250000e+03,
                      le:-2.0400052070617676e+00 }
            -
               depth: 6
               value: -1.6553151932824235e+00
            -
               depth: 6
               value: -1.6018350775902044e+00
            -
               depth: 5
               value: -1.5275274711055356e+00
               splits:
                  - { var:0, quality:3.3376804199218750e+03,
                      le:-1.8521566390991211e+00 }
            -
               depth: 6
               value: -1.5506097969827031e+00
            -
               depth: 6
               value: -1.4971126721782468e+00
            -
               depth: 4
               value: -1.3614962100982666e+00
               splits:
                  - { var:0, quality:3.4583942871093750e+03,
                      le:-1.5703835487365723e+00 }
            -
               depth: 5
               value: -1.4126810397514526e+00
               splits:
                  - { var:0, quality:2.1721542968750000e+03,
                      le:-1.6643079519271851e+00 }
            -
               depth: 6
               value: -1.4380577246216049e+00
            -
               depth: 6
               value: -1.3812473683690829e+00
            -
               depth: 5
               value: -1.2895464753919794e+00
               splits:
                  - { var:0, quality:1.2880006103515625e+03,
                      le:-1.4608051776885986e+00 }
            -
               depth: 6
               value: -1.3185173645615578e+00
            -
               depth: 6
               value: -1.2497337197233562e+00
            -
               depth: 3
               value: -9.5626856907938895e-01
               splits:
                  - { var:0, quality:2.1156833496093750e+03,
                      le:-9.7552943229675293e-01 }
            -
               depth: 4
               value: -1.0895668496191502e+00
               splits:
                  - { var:0, quality:1.4299439697265625e+03,
                      le:-1.1633781194686890e+00 }
            -
               depth: 5
               value: -1.1503078228081016e+00
               splits:
                  - { var:0, quality:8.7002526855468750e+02,
                      le:-1.2573025226593018e+00 }
            -
               depth: 6
               value: -1.1793869535678643e+00
            -
               depth: 6
               value: -1.1148430721179858e+00
            -
               depth: 5
               value: -1.0160736279153912e+00
               splits:
                  - { var:0, quality:5.6120019531250000e+02,
                      le:-1.0694537162780762e+00 }
            -
               depth: 6
               value: -1.0496086023471973e+00
            -
               depth: 6
               value: -9.8290716968613234e-01
            -
               depth: 4
               value: -8.0593216245559818e-01
               splits:
                  - { var:0, quality:6.9679467773437500e+02,
                      le:-7.7202665805816650e-01 }
            -
               depth: 5
               value: -8.7341979731684150e-01
               splits:
                  - { var:0, quality:4.3947680664062500e+02,
                      le:-8.6595106124877930e-01 }
            -
               depth: 6
               value: -9.0969214249290897e-01
            -
               depth: 6
               value: -8.3357316995189135e-01
            -
               depth: 5
               value: -7.2657553659626306e-01
               splits:
                  - { var:0, quality:2.5871194458007812e+02,
                      le:-6.7810237407684326e-01 }
            -
               depth: 6
               value: -7.6272972910685310e-01
            -
               depth: 6
               value: -6.9473203626962809e-01
            -
               depth: 2
               value: -8.6047710184409404e-03
               splits:
                  - { var:0, quality:6.6491845703125000e+02,
                      le:1.5156269073486328e-01 }
            -
               depth: 3
               value: -3.1282116418420591e-01
               splits:
                  - { var:0, quality:4.6237460327148438e+02,
                      le:-1.9282656908035278e-01 }
            -
               depth: 4
               value: -4.8680074438629695e-01
               splits:
                  - { var:0, quality:4.1029812622070312e+02,
                      le:-3.9632934331893921e-01 }
            -
               depth: 5
               value: -5.8245704879223459e-01
               splits:
                  - { var:0, quality:2.4205369567871094e+02,
                      le:-5.0590771436691284e-01 }
            -
               depth: 6
               value: -6.2801292425469513e-01
            -
               depth: 6
               value: -5.4591984918274861e-01
            -
               depth: 5
               value: -4.1707181612324173e-01
               splits:
                  - { var:0, quality:1.7103562927246094e+02,
                      le:-2.8675091266632080e-01 }
            -
               depth: 6
               value: -4.5321181334336014e-01
            -
               depth: 6
               value: -3.7135051731453383e-01
            -
               depth: 4
               value: -1.7350513324729613e-01
               splits:
                  - { var:0, quality:7.5932167053222656e+01,
                      le:-2.0631941035389900e-02 }
            -
               depth: 5
               value: -2.5861323026770183e-01
               splits:
                  - { var:0, quality:6.5113983154296875e+01,
                      le:-9.8902225494384766e-02 }
            -
               depth: 6
               value: -2.9059002027716690e-01
            -
               depth: 6
               value: -2.1344095476066011e-01
            -
               depth: 5
               value: -1.0297642328169035e-01
               splits:
                  - { var:0, quality:1.3816434860229492e+01,
                      le:7.3292404413223267e-02 }
            -
               depth: 6
               value: -1.3745369072048327e-01
            -
               depth: 6
               value: -6.2075634533008239e-02
            -
               depth: 3
               value: 2.6381600952512774e-01
               splits:
                  - { var:0, quality:4.0117205810546875e+02,
                      le:4.8029786348342896e-01 }
            -
               depth: 4
               value: 1.2168977584135025e-01
               splits:
                  - { var:0, quality:4.8640865325927734e+01,
                      le:3.2375729084014893e-01 }
            -
               depth: 5
               value: 5.1280722854115932e-02
               splits:
                  - { var:0, quality:5.2501168251037598e+00,
                      le:2.4548703432083130e-01 }
            -
               depth: 6
               value: 1.8696814490061615e-02
            -
               depth: 6
               value: 9.6849196205349791e-02
            -
               depth: 5
               value: 2.0534149987460071e-01
               splits:
                  - { var:0, quality:4.6831184387207031e+01,
                      le:4.0202760696411133e-01 }
            -
               depth: 6
               value: 1.6782464635855146e-01
            -
               depth: 6
               value: 2.4370619188818779e-01
            -
               depth: 4
               value: 4.4156835074752110e-01
               splits:
                  - { var:0, quality:3.7897662353515625e+02,
                      le:6.5249252319335938e-01 }
            -
               depth: 5
               value: 3.6616522240779392e-01
               splits:
                  - { var:0, quality:1.3818153381347656e+02,
                      le:5.7422220706939697e-01 }
            -
               depth: 6
               value: 3.2595385708541513e-01
            -
               depth: 6
               value: 4.1079816939425173e-01
            -
               depth: 5
               value: 5.3053004624810407e-01
               splits:
                  - { var:0, quality:2.4429098510742188e+02,
                      le:7.3076283931732178e-01 }
            -
               depth: 6
               value: 4.8568142482011312e-01
            -
               depth: 6
               value: 5.7374409377439151e-01
            -
               depth: 1
               value: 1.8629213536075351e+00
               splits:
                  - { var:0, quality:2.3232667968750000e+04,
                      le:8.1664400100708008e+00 }
            -
               depth: 2
               value: 1.7991169965038170e+00
               splits:
                  - { var:0, quality:1.9849445312500000e+04,
                      le:2.3744387626647949e+00 }
            -
               depth: 3
               value: 1.2916868762216800e+00
               splits:
                  - { var:0, quality:6.8834394531250000e+03,
                      le:1.5447738170623779e+00 }
            -
               depth: 4
               value: 9.6338822782553479e-01
               splits:
                  - { var:0, quality:2.2393488769531250e+03,
                      le:1.1690764427185059e+00 }
            -
               depth: 5
               value: 7.9032713801504295e-01
               splits:
                  - { var:0, quality:8.1190423583984375e+02,
                      le:9.9688172340393066e-01 }
            -
               depth: 6
               value: 7.1114222595920673e-01
            -
               depth: 6
               value: 8.8765859241700840e-01
            -
               depth: 5
               value: 1.1778770688647928e+00
               splits:
                  - { var:0, quality:1.4480659179687500e+03,
                      le:1.3569251298904419e+00 }
            -
               depth: 6
               value: 1.0831547734973668e+00
            -
               depth: 6
               value: 1.2871720250579770e+00
            -
               depth: 4
               value: 1.8322495904012805e+00
               splits:
                  - { var:0, quality:4.8143457031250000e+03,
                      le:1.9361252784729004e+00 }
            -
               depth: 5
               value: 1.6073995152119729e+00
               splits:
                  - { var:0, quality:1.9815391845703125e+03,
                      le:1.7326225042343140e+00 }
            -
               depth: 6
               value: 1.4998099967545153e+00
            -
               depth: 6
               value: 1.7310516941715295e+00
            -
               depth: 5
               value: 2.0978232860196115e+00
               splits:
                  - { var:0, quality:2.8536992187500000e+03,
                      le:2.1552820205688477e+00 }
            -
               depth: 6
               value: 1.9940230143921716e+00
            -
               depth: 6
               value: 2.2580189808147160e+00
            -
               depth: 3
               value: 3.5007419232413066e+00
               splits:
                  - { var:0, quality:1.4669045898437500e+04,
                      le:3.7519958019256592e+00 }
            -
               depth: 4
               value: 3.0448264763905453e+00
               splits:
                  - { var:0, quality:8.6075908203125000e+03,
                      le:2.9536390304565430e+00 }
            -
               depth: 5
               value: 2.7123760919088262e+00
               splits:
                  - { var:0, quality:4.2353447265625000e+03,
                      le:2.6249036788940430e+00 }
            -
               depth: 6
               value: 2.5387668648576427e+00
            -
               depth: 6
               value: 2.9113439701023172e+00
            -
               depth: 5
               value: 3.6100907799751893e+00
               splits:
                  - { var:0, quality:4.4171074218750000e+03,
                      le:3.2980282306671143e+00 }
            -
               depth: 6
               value: 3.3687390133186623e+00
            -
               depth: 6
               value: 3.9183035090162948e+00
            -
               depth: 4
               value: 5.5546184412323605e+00
               splits:
                  - { var:0, quality:6.4233383789062500e+03,
                      le:5.1295528411865234e+00 }
            -
               depth: 5
               value: 5.1646750658407976e+00
               splits:
                  - { var:0, quality:4.6881284179687500e+03,
                      le:4.4251203536987305e+00 }
            -
               depth: 6
               value: 4.7976608358580490e+00
            -
               depth: 6
               value: 5.8987035258062956e+00
            -
               depth: 5
               value: 7.9778379883084982e+00
               splits:
                  - { var:0, quality:1.8081810302734375e+03,
                      le:6.2018556594848633e+00 }
            -
               depth: 6
               value: 7.3672654867172245e+00
            -
               depth: 6
               value: 9.5042692422866821e+00
            -
               depth: 2
               value: 2.2454714202880858e+01
               splits:
                  - { var:0, quality:8.5418447265625000e+03,
                      le:1.3950614929199219e+01 }
            -
               depth: 3
               value: 1.7583942760120738e+01
               splits:
                  - { var:0, quality:3.5152316894531250e+03,
                      le:1.0279737472534180e+01 }
            -
               depth: 4
               value: 1.4644063949584961e+01
            -
               depth: 4
               value: 2.1111797332763672e+01
            -
               depth: 3
               value: 3.5849335670471191e+01
      -
         nodes:
            -
               depth: 0
               value: -1.7035769886366743e-02
               splits:
                  - { var:0, quality:2.1495369140625000e+04,
                      le:6.9945466518402100e-01 }
            -
               depth: 1
               value: -6.6331236175471353e-01
               splits:
                  - { var:0, quality:1.2015975585937500e+04,
                      le:-6.4679419994354248e-01 }
            -
               depth: 2
               value: -1.3306441041316921e+00
               splits:
                  - { var:0, quality:1.2373708007812500e+04,
                      le:-1.3981889486312866e+00 }
            -
               depth: 3
               value: -1.4968113095546447e+00
               splits:
                  - { var:0, quality:1.0285454101562500e+04,
                      le:-1.7738863229751587e+00 }
            -
               depth: 4
               value: -1.5776386448400790e+00
               splits:
                  - { var:0, quality:6.9405024414062500e+03,
                      le:-1.9460809230804443e+00 }
            -
               depth: 5
               value: -1.6249736333744866e+00
               splits:
                  - { var:0, quality:3.6977568359375000e+03,
                      le:-2.0400052070617676e+00 }
            -
               depth: 6
               value: -1.6559507212909967e+00
            -
               depth: 6
               value: -1.6018760042297573e+00
            -
               depth: 5
               value: -1.5298255251083539e+00
               splits:
                  - { var:0, quality:3.2446174316406250e+03,
                      le:-1.8521566390991211e+00 }
            -
               depth: 6
               value: -1.5507951122120114e+00
            -
               depth: 6
               value: -1.4998952037607518e+00
            -
               depth: 4
               value: -1.3705865583745889e+00
               splits:
                  - { var:0, quality:3.3570563964843750e+03,
                      le:-1.5860376358032227e+00 }
            -
               depth: 5
               value: -1.4199290884476081e+00
               splits:
                  - { var:0, quality:2.0573510742187500e+03,
                      le:-1.6799620389938354e+00 }
            -
               depth: 6
               value: -1.4480968034544657e+00
            -
               depth: 6
               value: -1.3910907135596351e+00
            -
               depth: 5
               value: -1.3047104056593011e+00
               splits:
                  - { var:0, quality:1.3012280273437500e+03,
                      le:-1.4921133518218994e+00 }
            -
               depth: 6
               value: -1.3325016241673984e+00
            -
               depth: 6
               value: -1.2720101969873803e+00
            -
               depth: 3
               value: -9.8531253124270024e-01
               splits:
                  - { var:0, quality:2.1746232910156250e+03,
                      le:-1.0068374872207642e+00 }
            -
               depth: 4
               value: -1.1084273272134788e+00
               splits:
                  - { var:0, quality:1.4748850097656250e+03,
                      le:-1.1946861743927002e+00 }
            -
               depth: 5
               value: -1.1722910296690614e+00
               splits:
                  - { var:0, quality:8.6922320556640625e+02,
                      le:-1.2886105775833130e+00 }
            -
               depth: 6
               value: -1.2028432523503023e+00
            -
               depth: 6
               value: -1.1367165238073427e+00
            -
               depth: 5
               value: -1.0368637457384284e+00
               splits:
                  - { var:0, quality:6.0694537353515625e+02,
                      le:-1.1007618904113770e+00 }
            -
               depth: 6
               value: -1.0690441223613003e+00
            -
               depth: 6
               value: -1.0039913180053874e+00
            -
               depth: 4
               value: -8.3850764990566018e-01
               splits:
                  - { var:0, quality:7.0998840332031250e+02,
                      le:-8.1898885965347290e-01 }
            -
               depth: 5
               value: -9.0181878794223891e-01
               splits:
                  - { var:0, quality:4.4396047973632812e+02,
                      le:-9.1291320323944092e-01 }
            -
               depth: 6
               value: -9.4084292415558823e-01
            -
               depth: 6
               value: -8.6775648348110235e-01
            -
               depth: 5
               value: -7.6317016032064844e-01
               splits:
                  - { var:0, quality:2.6721859741210938e+02,
                      le:-7.2506451606750488e-01 }
            -
               depth: 6
               value: -7.9535705770164855e-01
            -
               depth: 6
               value: -7.3154061181204655e-01
            -
               depth: 2
               value: -6.3820846937226006e-02
               splits:
                  - { var:0, quality:5.9528558349609375e+02,
                      le:7.3292404413223267e-02 }
            -
               depth: 3
               value: -3.7233385557949128e-01
               splits:
                  - { var:0, quality:5.3395574951171875e+02,
                      le:-2.5544279813766479e-01 }
            -
               depth: 4
               value: -5.3312765402591966e-01
               splits:
                  - { var:0, quality:4.4589666748046875e+02,
                      le:-4.4329148530960083e-01 }
            -
               depth: 5
               value: -6.1709490146002943e-01
               splits:
                  - { var:0, quality:2.7625985717773438e+02,
                      le:-5.3721582889556885e-01 }
            -
               depth: 6
               value: -6.5934740353937016e-01
            -
               depth: 6
               value: -5.7389556460019919e-01
            -
               depth: 5
               value: -4.5855895458258972e-01
               splits:
                  - { var:0, quality:1.7221704101562500e+02,
                      le:-3.4936714172363281e-01 }
            -
               depth: 6
               value: -5.0083085500374047e-01
            -
               depth: 6
               value: -4.2182613076834841e-01
            -
               depth: 4
               value: -2.3398268931532787e-01
               splits:
                  - { var:0, quality:1.0727938842773438e+02,
                      le:-8.3248168230056763e-02 }
            -
               depth: 5
               value: -3.0920700656956640e-01
               splits:
                  - { var:0, quality:8.4268768310546875e+01,
                      le:-1.6151845455169678e-01 }
            -
               depth: 6
               value: -3.4230112631259291e-01
            -
               depth: 6
               value: -2.7138515543467895e-01
            -
               depth: 5
               value: -1.6237967398580105e-01
               splits:
                  - { var:0, quality:2.5199394226074219e+01,
                      le:-4.9778828397393227e-03 }
            -
               depth: 6
               value: -2.0075473073335171e-01
            -
               depth: 6
               value: -1.3102351429744458e-01
            -
               depth: 3
               value: 1.7905265298774520e-01
               splits:
                  - { var:0, quality:2.2204827880859375e+02,
                      le:3.8637351989746094e-01 }
            -
               depth: 4
               value: 4.6453265826944465e-02
               splits:
                  - { var:0, quality:1.6527593612670898e+01,
                      le:2.2983297705650330e-01 }
            -
               depth: 5
               value: -2.4540161590323697e-02
               splits:
                  - { var:0, quality:2.2253239154815674e+00,
                      le:1.5156269073486328e-01 }
            -
               depth: 6
               value: -6.3169844970931865e-02
            -
               depth: 6
               value: 1.0181709707005699e-02
            -
               depth: 5
               value: 1.1838908387364540e-01
               splits:
                  - { var:0, quality:1.7220251083374023e+01,
                      le:3.0810326337814331e-01 }
            -
               depth: 6
               value: 8.3538607038833479e-02
            -
               depth: 6
               value: 1.5348716622770997e-01
            -
               depth: 4
               value: 3.3446924535808092e-01
               splits:
                  - { var:0, quality:2.2851707458496094e+02,
                      le:5.4291415214538574e-01 }
            -
               depth: 5
               value: 2.6342698824542826e-01
               splits:
                  - { var:0, quality:7.3839286804199219e+01,
                      le:4.6464383602142334e-01 }
            -
               depth: 6
               value: 2.2839250605848196e-01
            -
               depth: 6
               value: 3.0342528823709586e-01
            -
               depth: 5
               value: 4.1698269098001495e-01
               splits:
                  - { var:0, quality:1.5743472290039062e+02,
                      le:6.2118440866470337e-01 }
            -
               depth: 6
               value: 3.7900252942253060e-01
            -
               depth: 6
               value: 4.5496285253749924e-01
            -
               depth: 1
               value: 1.6613121549656362e+00
               splits:
                  - { var:0, quality:2.0209224609375000e+04,
                      le:2.3587846755981445e+00 }
            -
               depth: 2
               value: 1.1844677329469258e+00
               splits:
                  - { var:0, quality:7.0417006835937500e+03,
                      le:1.4665035009384155e+00 }
            -
               depth: 3
               value: 8.4949670481715911e-01
               splits:
                  - { var:0, quality:2.1356567382812500e+03,
                      le:1.0751520395278931e+00 }
            -
               depth: 4
               value: 6.7447597372620627e-01
               splits:
                  - { var:0, quality:7.4745666503906250e+02,
                      le:8.8730335235595703e-01 }
            -
               depth: 5
               value: 5.8930298631964362e-01
               splits:
                  - { var:0, quality:3.0818820190429688e+02,
                      le:7.9337906837463379e-01 }
            -
               depth: 6
               value: 5.4406186112279109e-01
            -
               depth: 6
               value: 6.3664346767412261e-01
            -
               depth: 5
               value: 7.7738361056536842e-01
               splits:
                  - { var:0, quality:4.4288433837890625e+02,
                      le:9.8122775554656982e-01 }
            -
               depth: 6
               value: 7.3500934293471187e-01
            -
               depth: 6
               value: 8.3321002665020172e-01
            -
               depth: 4
               value: 1.0873832297063799e+00
               splits:
                  - { var:0, quality:1.4149443359375000e+03,
                      le:1.2630007266998291e+00 }
            -
               depth: 5
               value: 9.8196218805066471e-01
               splits:
                  - { var:0, quality:5.6097131347656250e+02,
                      le:1.1690764427185059e+00 }
            -
               depth: 6
               value: 9.2864803479889690e-01
            -
               depth: 6
               value: 1.0371470133463541e+00
            -
               depth: 5
               value: 1.1882812563735661e+00
               splits:
                  - { var:0, quality:8.5749658203125000e+02,
                      le:1.3569251298904419e+00 }
            -
               depth: 6
               value: 1.1344192078361264e+00
            -
               depth: 6
               value: 1.2439507562042083e+00
            -
               depth: 3
               value: 1.7673339871179998e+00
               splits:
                  - { var:0, quality:5.1371210937500000e+03,
                      le:1.8891630172729492e+00 }
            -
               depth: 4
               value: 1.5299746979583877e+00
               splits:
                  - { var:0, quality:2.1146887207031250e+03,
                      le:1.6856603622436523e+00 }
            -
               depth: 5
               value: 1.4365223362127366e+00
               splits:
                  - { var:0, quality:1.1454738769531250e+03,
                      le:1.5760818719863892e+00 }
            -
               depth: 6
               value: 1.3705751748567216e+00
            -
               depth: 6
               value: 1.4978738765683324e+00
            -
               depth: 5
               value: 1.6804764665836511e+00
               splits:
                  - { var:0, quality:9.7268743896484375e+02,
                      le:1.7952387332916260e+00 }
            -
               depth: 6
               value: 1.6256625327196987e+00
            -
               depth: 6
               value: 1.7457644005489956e+00
            -
               depth: 4
               value: 2.0675433415762137e+00
               splits:
                  - { var:0, quality:3.0492563476562500e+03,
                      le:2.1239738464355469e+00 }
            -
               depth: 5
               value: 1.9462469209960154e+00
               splits:
                  - { var:0, quality:1.5512435302734375e+03,
                      le:1.9987413883209229e+00 }
            -
               depth: 6
               value: 1.8645349630730690e+00
            -
               depth: 6
               value: 2.0061459409988531e+00
            -
               depth: 5
               value: 2.2323614014343565e+00
               splits:
                  - { var:0, quality:1.5017971191406250e+03,
                      le:2.2335522174835205e+00 }
            -
               depth: 6
               value: 2.1481663693476767e+00
            -
               depth: 6
               value: 2.3026950562872539e+00
            -
               depth: 2
               value: 3.5678244266665784e+00
               splits:
                  - { var:0, quality:1.6523529296875000e+04,
                      le:1.1093749046325684e+01 }
            -
               depth: 3
               value: 3.5036548118157822e+00
               splits:
                  - { var:0, quality:1.4616192382812500e+04,
                      le:3.9320175647735596e+00 }
            -
               depth: 4
               value: 3.1070385672965970e+00
               splits:
                  - { var:0, quality:9.4019140625000000e+03,
                      le:3.0162551403045654e+00 }
            -
               depth: 5
               value: 2.7532202285303073e+00
               splits:
                  - { var:0, quality:4.6431660156250000e+03,
                      le:2.6718659400939941e+00 }
            -
               depth: 6
               value: 2.5696755644203959e+00
            -
               depth: 6
               value: 2.9930797327648508e+00
            -
               depth: 5
               value: 3.7352466381673564e+00
               splits:
                  - { var:0, quality:4.8185849609375000e+03,
                      le:3.4232606887817383e+00 }
            -
               depth: 6
               value: 3.5032282200726597e+00
            -
               depth: 6
               value: 4.1502389306944556e+00
            -
               depth: 4
               value: 6.0548620062905387e+00
               splits:
                  - { var:0, quality:5.7666298828125000e+03,
                      le:5.8339853286743164e+00 }
            -
               depth: 5
               value: 5.3873153002031389e+00
               splits:
                  - { var:0, quality:3.6317011718750000e+03,
                      le:4.5190448760986328e+00 }
            -
               depth: 6
               value: 5.0057260572910307e+00
            -
               depth: 6
               value: 6.0811139236796983e+00
            -
               depth: 5
               value: 9.5038533210754395e+00
               splits:
                  - { var:0, quality:2.2491589355468750e+03,
                      le:8.2055749893188477e+00 }
            -
               depth: 6
               value: 8.8077696391514362e+00
            -
               depth: 6
               value: 1.4376439094543457e+01
            -
               depth: 3
               value: 3.8861112594604492e+01
      -
         nodes:
            -
               depth: 0
               value: -1.5180608011799468e-02
               splits:
                  - { var:0, quality:2.1479951171875000e+04,
                      le:6.9945466518402100e-01 }
            -
               depth: 1
               value: -6.6441201995163790e-01
               splits:
                  - { var:0, quality:1.1956843750000000e+04,
                      le:-6.4679419994354248e-01 }
            -
               depth: 2
               value: -1.3280955959353926e+00
               splits:
                  - { var:0, quality:1.2308635742187500e+04,
                      le:-1.4138430356979370e+00 }
            -
               depth: 3
               value: -1.5000018356784330e+00
               splits:
                  - { var:0, quality:1.0056481445312500e+04,
                      le:-1.7738863229751587e+00 }
            -
               depth: 4
               value: -1.5755543973854462e+00
               splits:
                  - { var:0, quality:6.8722275390625000e+03,
                      le:-1.9460809230804443e+00 }
            -
               depth: 5
               value: -1.6246409895221543e+00
               splits:
                  - { var:0, quality:3.4559804687500000e+03,
                      le:-2.0400052070617676e+00 }
            -
               depth: 6
               value: -1.6562921236891772e+00
            -
               depth: 6
               value: -1.6022042194794737e+00
            -
               depth: 5
               value: -1.5314539518762142e+00
               splits:
                  - { var:0, quality:3.4180937500000000e+03,
                      le:-1.8678107261657715e+00 }
            -
               depth: 6
               value: -1.5550860081620785e+00
            -
               depth: 6
               value: -1.5048204519452839e+00
            -
               depth: 4
               value: -1.3759790548584936e+00
               splits:
                  - { var:0, quality:3.1951303710937500e+03,
                      le:-1.6016917228698730e+00 }
            -
               depth: 5
               value: -1.4248629934859998e+00
               splits:
                  - { var:0, quality:1.8765772705078125e+03,
                      le:-1.6799620389938354e+00 }
            -
               depth: 6
               value: -1.4488985562135304e+00
            -
               depth: 6
               value: -1.3960203182129634e+00
            -
               depth: 5
               value: -1.3166245748429668e+00
               splits:
                  - { var:0, quality:1.3198603515625000e+03,
                      le:-1.5077674388885498e+00 }
            -
               depth: 6
               value: -1.3441539561631632e+00
            -
               depth: 6
               value: -1.2848059131471024e+00
            -
               depth: 3
               value: -9.9671635249828872e-01
               splits:
                  - { var:0, quality:2.3375588378906250e+03,
                      le:-1.0224915742874146e+00 }
            -
               depth: 4
               value: -1.1216911903011941e+00
               splits:
                  - { var:0, quality:1.5971580810546875e+03,
                      le:-1.2103402614593506e+00 }
            -
               depth: 5
               value: -1.1834983194368125e+00
               splits:
                  - { var:0, quality:9.4753027343750000e+02,
                      le:-1.3042646646499634e+00 }
            -
               depth: 6
               value: -1.2122240856972666e+00
            -
               depth: 6
               value: -1.1485564857232766e+00
            -
               depth: 5
               value: -1.0507546549944400e+00
               splits:
                  - { var:0, quality:6.5098461914062500e+02,
                      le:-1.1164159774780273e+00 }
            -
               depth: 6
               value: -1.0833904353621739e+00
            -
               depth: 6
               value: -1.0154664967169611e+00
            -
               depth: 4
               value: -8.4528611320645419e-01
               splits:
                  - { var:0, quality:7.5105023193359375e+02,
                      le:-8.3464288711547852e-01 }
            -
               depth: 5
               value: -9.1506770065136211e-01
               splits:
                  - { var:0, quality:4.3861569213867188e+02,
                      le:-9.2856729030609131e-01 }
            -
               depth: 6
               value: -9.5097775196394541e-01
            -
               depth: 6
               value: -8.7874330259286437e-01
            -
               depth: 5
               value: -7.7523665018594201e-01
               splits:
                  - { var:0, quality:3.1375003051757812e+02,
                      le:-7.4071860313415527e-01 }
            -
               depth: 6
               value: -8.0833847548839821e-01
            -
               depth: 6
               value: -7.3851640673301477e-01
            -
               depth: 2
               value: -6.6610424528562334e-02
               splits:
                  - { var:0, quality:5.8577929687500000e+02,
                      le:7.3292404413223267e-02 }
            -
               depth: 3
               value: -3.7338103559354469e-01
               splits:
                  - { var:0, quality:5.3282891845703125e+02,
                      le:-2.5544279813766479e-01 }
            -
               depth: 4
               value: -5.3645446730103896e-01
               splits:
                  - { var:0, quality:4.4267416381835938e+02,
                      le:-4.4329148530960083e-01 }
            -
               depth: 5
               value: -6.2100550055669645e-01
               splits:
                  - { var:0, quality:2.7845355224609375e+02,
                      le:-5.3721582889556885e-01 }
            -
               depth: 6
               value: -6.5676814509976300e-01
            -
               depth: 6
               value: -5.7539681147170973e-01
            -
               depth: 5
               value: -4.5901218333821386e-01
               splits:
                  - { var:0, quality:1.6661198425292969e+02,
                      le:-3.4936714172363281e-01 }
            -
               depth: 6
               value: -5.0095370047442289e-01
            -
               depth: 6
               value: -4.2199904591345389e-01
            -
               depth: 4
               value: -2.3636291196892381e-01
               splits:
                  - { var:0, quality:1.0983203887939453e+02,
                      le:-8.3248168230056763e-02 }
            -
               depth: 5
               value: -3.1163427404526550e-01
               splits:
                  - { var:0, quality:8.6590415954589844e+01,
                      le:-1.7717251181602478e-01 }
            -
               depth: 6
               value: -3.4898144066037229e-01
            -
               depth: 6
               value: -2.8029072294031154e-01
            -
               depth: 5
               value: -1.6341013970351456e-01
               splits:
                  - { var:0, quality:2.5310247421264648e+01,
                      le:-4.9778828397393227e-03 }
            -
               depth: 6
               value: -2.0010388998104800e-01
            -
               depth: 6
               value: -1.3230994891950754e-01
            -
               depth: 3
               value: 1.7335689744912752e-01
               splits:
                  - { var:0, quality:2.1103060913085938e+02,
                      le:3.8637351989746094e-01 }
            -
               depth: 4
               value: 4.7313196604397700e-02
               splits:
                  - { var:0, quality:1.6698146820068359e+01,
                      le:2.2983297705650330e-01 }
            -
               depth: 5
               value: -2.3107288432502766e-02
               splits:
                  - { var:0, quality:2.0887598991394043e+00,
                      le:1.5156269073486328e-01 }
            -
               depth: 6
               value: -6.1804323254111115e-02
            -
               depth: 6
               value: 9.4667978413827437e-03
            -
               depth: 5
               value: 1.1642739945680255e-01
               splits:
                  - { var:0, quality:1.7636497497558594e+01,
                      le:3.0810326337814331e-01 }
            -
               depth: 6
               value: 8.1007609871113315e-02
            -
               depth: 6
               value: 1.5356006315026258e-01
            -
               depth: 4
               value: 3.3252008766144081e-01
               splits:
                  - { var:0, quality:2.1679763793945312e+02,
                      le:5.4291415214538574e-01 }
            -
               depth: 5
               value: 2.6269779569605306e-01
               splits:
                  - { var:0, quality:7.1882041931152344e+01,
                      le:4.6464383602142334e-01 }
            -
               depth: 6
               value: 2.2767443974154211e-01
            -
               depth: 6
               value: 3.0248374189542426e-01
            -
               depth: 5
               value: 4.1738742110984667e-01
               splits:
                  - { var:0, quality:1.4753796386718750e+02,
                      le:6.2118440866470337e-01 }
            -
               depth: 6
               value: 3.8100939114159399e-01
            -
               depth: 6
               value: 4.5664687919439656e-01
            -
               depth: 1
               value: 1.6544220765603648e+00
               splits:
                  - { var:0, quality:1.9997423828125000e+04,
                      le:2.3431305885314941e+00 }
            -
               depth: 2
               value: 1.1894884581395135e+00
               splits:
                  - { var:0, quality:7.1711708984375000e+03,
                      le:1.4665035009384155e+00 }
            -
               depth: 3
               value: 8.4904084549981562e-01
               splits:
                  - { var:0, quality:2.1420332031250000e+03,
                      le:1.0751520395278931e+00 }
            -
               depth: 4
               value: 6.7850980573375075e-01
               splits:
                  - { var:0, quality:7.7306921386718750e+02,
                      le:8.8730335235595703e-01 }
            -
               depth: 5
               value: 5.8817451323072112e-01
               splits:
                  - { var:0, quality:3.0086346435546875e+02,
                      le:7.9337906837463379e-01 }
            -
               depth: 6
               value: 5.4234591650803532e-01
            -
               depth: 6
               value: 6.3775774197406077e-01
            -
               depth: 5
               value: 7.7819012849571456e-01
               splits:
                  - { var:0, quality:4.7601458740234375e+02,
                      le:9.8122775554656982e-01 }
            -
               depth: 6
               value: 7.3510224375550604e-01
            -
               depth: 6
               value: 8.3289300825284873e-01
            -
               depth: 4
               value: 1.0903334765090156e+00
               splits:
                  - { var:0, quality:1.3963338623046875e+03,
                      le:1.2630007266998291e+00 }
            -
               depth: 5
               value: 9.8272787313410304e-01
               splits:
                  - { var:0, quality:5.4330493164062500e+02,
                      le:1.1690764427185059e+00 }
            -
               depth: 6
               value: 9.2950987337279489e-01
            -
               depth: 6
               value: 1.0335353014776516e+00
            -
               depth: 5
               value: 1.1904441622359243e+00
               splits:
                  - { var:0, quality:8.5640777587890625e+02,
                      le:1.3569251298904419e+00 }
            -
               depth: 6
               value: 1.1347838454072261e+00
            -
               depth: 6
               value: 1.2459201733797591e+00
            -
               depth: 3
               value: 1.7766039422684652e+00
               splits:
                  - { var:0, quality:5.2551298828125000e+03,
                      le:1.8891630172729492e+00 }
            -
               depth: 4
               value: 1.5408405559688974e+00
               splits:
                  - { var:0, quality:2.1373178710937500e+03,
                      le:1.6856603622436523e+00 }
            -
               depth: 5
               value: 1.4398893325827842e+00
               splits:
                  - { var:0, quality:1.0718718261718750e+03,
                      le:1.5760818719863892e+00 }
            -
               depth: 6
               value: 1.3726778729888034e+00
            -
               depth: 6
