svm_type c_svc
kernel_type linear
nr_class 4
total_sv 6
rho -0.932308 -0.977248 -0.48952 -0.347214 -0.0420437 0.425626
label 2 1 4 3
nr_sv 2 1 1 2
SV
0 0.1075033775152433 0 1:0.95823148 2:0.74893581 3:0.60066596 4:-0.80827588 5:-0.12698819 6:0.00457101 7:-0.17171014 8:-0.43307105 
0.3635596387974738 0 0.1648171641197788 1:0.4464361 2:0.18073516 3:0.038798432 4:-1.1060766 5:0.16302379 6:0.34366671 7:0.19930435 8:-0.12304279 
-0.3635596387974738 0.04917350194707142 0.1036342862889728 1:-0.45673222 2:-0.57686571 3:-0.90750478 4:-1.9250287 5:-0.43311196 6:-0.59223742 7:-0.71277295 8:-0.8174036 
-0.1075033775152433 -0.04917350194707142 0.06706624993951615 1:0.29590805 2:1.0014694 3:4.0605871 4:1.4996799 5:-0.30421774 6:-0.66005656 7:0.36162319 8:-0.64829728 
-0 -0 -0.04212962308820809 1:-0.54704905 2:-0.37168214 3:-0.61178502 4:2.8844533 5:-0.20754708 6:-0.45659914 7:-0.62774879 8:1.2041856 
-0.1648171641197788 -0.1036342862889728 -0.02493662685130806 1:-0.36641539 2:-0.19806528 3:-0.2864933 4:0.68072783 5:-0.22365886 6:-0.17175875 7:-0.31857005 8:2.5877828 
