%YAML:1.0
my_nn: !!opencv-ml-ann-mlp
   layer_sizes: !!opencv-matrix
      rows: 1
      cols: 3
      dt: i
      data: [ 4, 100, 4 ]
   activation_function: SIGMOID_SYM
   f_param1: 1.
   f_param2: 1.
   min_val: -9.4999999999999996e-01
   max_val: 9.4999999999999996e-01
   min_val1: -9.7999999999999998e-01
   max_val1: 9.7999999999999998e-01
   training_params:
      train_method: RPROP
      dw0: 1.0000000149011612e-01
      dw_plus: 1.2000000000000000e+00
      dw_minus: 5.0000000000000000e-01
      dw_min: 1.0000000116860974e-07
      dw_max: 50.
      term_criteria: { epsilon:9.9999997764825821e-03, iterations:1000 }
   input_scale: [ 1.8388186572903189e+00, 8.0287455948463898e-02,
       1.3060901589467335e+00, -6.2638400982704318e-02,
       7.7304273217000563e-01, -1.6078923071422593e-01,
       8.1115121683194813e-01, 2.0428411839030297e-01 ]
   output_scale: [ 1.0526315789473684e+00, 0., 1.0526315789473684e+00,
       0., 1.0526315789473684e+00, 0., 1.0526315789473684e+00, 0. ]
   inv_output_scale: [ 9.4999999999999996e-01, 0.,
       9.4999999999999996e-01, 0., 9.4999999999999996e-01, 0.,
       9.4999999999999996e-01, 0. ]
   weights:
      - [ -5.5304366239175340e-01, 6.0301022757162204e-01,
          2.0204005851547524e-01, 4.8456040193256622e-01,
          3.0119694400106789e-01, -1.1549829103948733e-01,
          -2.5888012486814566e-01, 6.3706033214189800e-02,
          -4.3346063528416862e-01, 4.4501421433350530e-01,
          -1.2153876566485254e-01, 3.0029214373505081e-01,
          -9.7070424527059962e-01, -2.9101667998379543e-01,
          -3.2457468568907927e-01, -3.0850649020185422e-01,
          -2.6265309097247458e-01, 2.6135406666556149e-01,
          -2.3847902312250141e-01, -1.8328755994891199e+00,
          -3.9695062987681501e-01, -2.4766434694031264e-01,
          4.4877902905534528e-01, -1.1973799490706061e-01,
          -8.4825469763185990e-01, 2.1010313217921628e-01,
          -4.9275871218389528e-01, 7.0420201609870642e-02,
          4.0748278481622234e-02, 2.9999495635047979e-01,
          -3.9121166413779557e-01, 3.0492775968605262e-01,
          -7.6071075668879024e-02, 2.4723150035003683e-02,
          3.4999995769432601e-01, -3.3262801173026307e-01,
          2.6758708416395032e-02, -4.4351483118236718e-01,
          1.0869252123574387e+00, 1.2736504326882686e-01,
          -7.7386685881327910e-01, 3.5529741973158441e-01,
          -1.4421151153133277e-01, 7.3741460134400194e-02,
          -2.0734631768589307e-01, -1.9684372961176547e-01,
          -9.6943175599107456e-01, -4.2259040296166084e-01,
          3.1339262115789424e-01, -5.1902819221490093e-01,
          2.7737771697689756e-01, 5.3036954077494902e-01,
          4.5524166291262755e-02, -2.0764387002471224e-01,
          2.2384832803378441e-01, -2.1095112485993850e-01,
          -1.9649012678967362e-01, 4.3899621675886774e-01,
          -2.8105834679907332e-01, 4.1670498504646575e-01,
          -5.2795975961069344e-02, -3.9594681829840078e-01,
          3.0552799924092960e-01, 1.0219390257696781e+00,
          -3.0488838040797814e-02, 1.6724086097400975e-01,
          -3.2185635469306378e-01, 5.9391327784295989e-01,
          -4.8070221425061588e-01, 1.6115130450356356e+00,
          2.5291837417392865e-01, -6.1210786107863721e-02,
          -7.8268378365986413e-01, -9.2862888584922754e-02,
          3.6422022507423274e-01, 2.3989328319613337e-02,
          9.7601826150249105e-01, -7.0742246120192420e-01,
          -2.1067567634618162e-01, -1.0586566503036121e-01,
          -3.1532919666316894e-01, 6.6560152133088427e-02,
          -6.5927054972149035e-01, 5.0920416479957195e-02,
          -7.9729901851786411e-01, -1.1136666511798693e-01,
          -4.5907017321199833e-01, -3.1077555865358991e-01,
          -5.3562621584456724e-02, -3.7019015076084100e-01,
          2.9726845947055563e-01, -5.0961180338630652e-01,
          -4.2510727705126122e-01, 9.2610742687236236e-01,
          -1.4380182222262264e-01, -1.1255415006271912e+00,
          -3.6194857142914072e-01, -4.0719742610548126e-01,
          -3.0864820711105129e-01, -4.5938238854339469e-01,
          2.0630977776081294e-01, -3.2869559220385053e-01,
          -3.0728822377516779e-01, -1.1838073069667746e-01,
          -3.2091852208831345e-01, 2.9595999356345676e-01,
          -1.8122125660012303e-01, -3.2526112975743732e-01,
          1.2860860332714630e-01, 6.1457290836976852e-01,
          -9.3725712031171665e-02, 6.8087333227988656e-02,
          -2.9727570668086123e-01, 3.2835204283486863e-01,
          -2.0174920549171799e-01, 2.8441963390290759e-01,
          -4.7996723250896461e-01, -2.7073395419804691e-01,
          5.4281751143532164e-01, -3.2875723009828828e-01,
          2.3032407651132653e-01, -9.6171639305876661e-02,
          -1.4316463504168211e-01, -5.4409297932045450e-02,
          2.5956220343373376e-01, -2.1322032315136491e-01,
          1.7210374511148807e-01, -1.3889046367558622e-01,
          2.8563257621868371e-01, 5.4815152223284780e-01,
          5.0631762383814991e-02, 1.2256672519072026e-01,
          -5.3697569302099457e-01, 2.6911566357980959e-01,
          2.1246145305515005e-01, 1.6674656088603779e-01,
          -7.2003765746666248e-01, -8.5607172377943019e-02,
          2.0273614533093451e-01, 3.3972865672155134e-01,
          2.4104542268574763e-01, -2.0861142153997864e-01,
          4.7147675155918095e-01, 1.3856024324626615e-01,
          -2.3866776936604567e-01, 4.0566286865990925e-01,
          -8.8047943457086858e-02, 9.9663090355651018e-02,
          -1.5631832422893222e-01, -1.2080949870343156e-01,
          4.3867932744822308e-01, -1.9426452578480730e-01,
          3.4787632916499261e-01, 3.7182119213124593e-01,
          2.0733589757454213e-01, 2.9408089279229960e-01,
          -2.7900777135381072e-01, 5.6388483019858038e-01,
          8.3739637149608831e-02, 6.4517525137277065e-01,
          -3.3057100837920256e-01, 1.8652409509576082e-01,
          -1.4321940651251702e-01, -3.0268266262693250e-01,
          1.4759024821598477e-01, 3.7138940097992995e-01,
          4.1800268178829175e-01, 2.3947634189109068e-01,
          -2.6824076413440312e-01, 4.3523693279136388e-01,
          -5.4935893668058122e-01, 3.1210907016447903e-01,
          -3.9540172336608770e-01, -4.4701375535478177e-01,
          -3.5873058328922808e-01, 2.4790496473186291e-01,
          4.1293553438729175e-01, -2.3779633142783441e-01,
          -4.9331681189706050e-01, 6.1935414494618324e-01,
          -4.5849243536644796e-01, 3.9466158435868787e-01,
          -4.2197600412404662e-01, 3.2550092753600840e-01,
          -2.5873935881018401e-01, 4.4342404949599551e-01,
          2.2407989199040840e-01, -6.5197846776216012e-02,
          6.9921549344613712e-02, -2.1963368301850761e-01,
          4.4352907788114054e-01, 1.2864433674572179e-01,
          3.5642403572675579e-01, 6.5928379313652030e-02,
          -2.4149563578412472e-01, 3.7326948697763707e-01,
          -3.1578812748598467e-01, 7.9222342452015759e-02,
          4.9553719095889334e-02, -5.7333954717669711e-01,
          2.2981344519630548e-01, -2.3432255335302088e-01,
          4.8169691324088332e-01, -2.2727627786322965e-01,
          1.0470139343680340e-01, 3.0352732135473864e-01,
          -9.4826371478095889e-02, -4.5648930966631934e-01,
          2.8614836714102404e-01, 5.3918638665595497e-01,
          9.4828374877444777e-02, -3.7979999335667081e-01,
          -2.9998887376035677e-02, -5.2241657982890322e-02,
          2.1455201709810123e-01, 7.5370394198634194e-01,
          -1.8598569569284518e-01, -3.2280291648920767e-01,
          1.8190585228689987e-01, -5.2542484160470670e-01,
          2.2255607423535173e-01, 4.3327441767977114e-03,
          5.9164269502671465e-02, -6.3136167442306823e-02,
          -1.9265188457638437e-02, 3.4886178666576378e-01,
          -2.2241542281981724e-01, -1.4518960161723721e-01,
          -5.4204394795976119e-01, 4.0164683846409288e-01,
          3.8641976874451106e-01, -4.8100029496204844e-01,
          1.0122199140546917e-01, -2.0429296975523781e-01,
          1.2863805577709181e-01, -3.6296990096753251e-01,
          -1.4939553445871878e-01, 6.6391802094835739e-01,
          1.7444120150308901e-01, -3.6311509066161471e-02,
          2.1713486289235162e-01, -2.7954165004303794e-01,
          -2.0783735874673456e-02, 2.7093311304185214e-01,
          -6.8760980616964118e-01, -7.7128511510156705e-02,
          7.3609143094121504e-02, -3.9308584470341124e-01,
          5.2350182660981348e-01, 7.3094835611341524e-01,
          5.5847960627088944e-01, -6.2867869955474964e-01,
          2.0696366087158818e-01, 2.3375227200912799e-01,
          1.2242917520413565e-01, 2.9933108580425560e-01,
          -1.0026322362355670e-01, 5.4070345681609089e-01,
          -1.4812746198792409e-01, 1.7939754577064071e-01,
          1.8328904309864499e-01, -3.8827259810902309e-01,
          8.7828309355928114e-02, -1.9246342163244531e-01,
          -2.1173193198345291e-01, 1.0020618102810219e-01,
          5.0449453524868348e-01, -1.9159975254472394e-01,
          -3.6734672562724113e-01, 4.4855642471495555e-01,
          -1.2629541977788386e-02, -9.5083319206099970e-02,
          6.9525554710313975e-01, 1.2457029185644009e-01,
          -2.4746738546153713e-01, 2.0414279537312774e-01,
          -9.5634960897136440e-02, 1.9992144983946566e-01,
          3.4461839690011620e-01, -3.4555557531717501e-01,
          -1.1297953100736785e-01, -5.6203392436807642e-01,
          1.8469689123616670e-01, -4.9593630487968993e-01,
          7.1479067208998603e-02, -1.8559733979243948e-01,
          2.3522346663845856e-01, -2.3573320504963710e-01,
          -3.2788550241918418e-01, 3.5551227456942930e-01,
          -4.9538297118973777e-02, 2.9928924538776225e-01,
          5.4311279109334865e-02, 1.6633193564046170e-01,
          -4.2766321584763523e-01, 5.4375728963839731e-01,
          -1.5919856287649542e-01, 1.3026584124767246e-01,
          -6.2319548349596532e-01, -2.3645087684183283e-01,
          -1.7833114755436238e-02, -4.2116790995590764e-01,
          -8.0400196863317674e-02, 2.8840759127517690e-01,
          -2.1784186684302759e-01, 3.5921097378478983e-01,
          8.4232483399743235e-02, -1.8575559235694117e-01,
          -1.5878239435196909e-01, -2.1340691814775656e-01,
          -3.2816388896492021e-01, 2.5142052967432926e-01,
          9.0869166466789955e-02, -2.6098961819410738e-01,
          4.5872409469537323e-01, 5.4809720657082084e-01,
          -2.2556536896593310e-01, 7.9790907237466180e-01,
          1.9740931470116085e-01, -1.0600740763263097e-01,
          -5.4736922529524790e-01, 2.0370186289936426e-01,
          5.6784560690507335e-01, 3.7189153389484064e-01,
          -5.0876591995164122e-01, -1.3843975667186378e-01,
          4.8972212550253735e-01, 2.4779723847857288e-02,
          1.8027175381441929e-01, -2.3783169021875811e-01,
          -1.0237532695899779e-01, 5.8122633774314181e-01,
          -9.1268765713080485e-02, -4.3290044835751995e-01,
          -4.1889833984882324e-01, 3.9552364706134208e-01,
          8.5991627046039243e-03, 1.5475597202545283e-01,
          -2.7150013419715824e-01, -6.3432487573767815e-01,
          -6.2380086836175042e-01, -7.2612451717272775e-01,
          3.8270300132054269e-01, 1.0141148094320860e+00,
          -8.3760112125080033e-01, -3.4016489051321169e-01,
          -4.9085505101554339e-01, 1.3812145610505117e-01,
          -1.9616223082526754e-01, 6.6442233735561562e-01,
          -1.1628835512773639e-01, -1.9479128783296157e-01,
          1.6848417145352787e-01, 7.2420397991938196e-02,
          6.9309359901972489e-01, -9.3032490749121033e-01,
          4.6383887882304498e-01, 2.9855992921001950e-01,
          2.9492882300378137e-01, 8.4477779853374985e-02,
          5.9334397494526891e-01, -2.2143512269104652e-02,
          -4.2923809313797462e-01, -2.5971490154616589e-01,
          1.2943053722798764e-01, 1.2583645023890780e-01,
          1.8435357083596940e-01, 9.2010629464661514e-02,
          4.4839471857738311e-01, -3.9074386556238333e-01,
          -2.2952723140900805e-01, -3.6097182197904654e-01,
          5.8493041986910341e-02, 2.4617806287206406e-01,
          3.5389157455556564e-01, 1.0716290536459205e-01,
          1.2085925223495886e-01, 5.0857976727196230e-01,
          1.7098911812893655e-01, -4.2564962210358959e-01,
          -7.5998290524853207e-01, -1.3631934151800015e-01,
          1.7990456156194928e-01, -1.8268318336688461e-01,
          -2.4948256108069111e-01, 3.6534527408611617e-01,
          3.4862647213774461e-01, 2.8473162050829692e-01,
          5.3363032642822794e-01, -1.7166389339465796e-01,
          -1.2028916419753878e-01, -2.5105461729056833e-01,
          4.3115741209125813e-01, -8.7480261836944379e-02,
          -4.8004297067132923e-01, -2.7727974242404213e-01,
          1.1884985855803024e-01, -4.1930923080672927e-01,
          -3.9400259589098990e-01, -3.0332894260589666e-01,
          -1.3535974362183006e-01, 1.2210480097128323e-01,
          1.6319125436150256e-01, 7.1909257883175648e-01,
          4.1379198411848617e-02, 2.2650810835015200e-01,
          1.2064534960787260e-01, 1.1948615470817267e-01,
          2.1298436677885668e-01, 8.4977922016069171e-02,
          -5.8410676967539564e-02, -1.3307306253646348e-01,
          -9.6314394983255974e-02, 6.8528377873963903e-02,
          -8.9288968194544654e-02, 2.1483736220239197e-01,
          1.1008505288441228e-01, 2.2826823786721273e-01,
          1.3959272895953401e-01, 3.7834261735434871e-01,
          5.7976659009925136e-01, 6.7085867333103122e-01,
          4.7082417469876056e-02, 1.3077250639978499e-01,
          2.9425655250796368e-01, 2.4885975582807834e-01,
          3.2527694003055285e-01, -9.0442952894266104e-01,
          -2.1193565701555023e-01, 1.6964934981916685e-01,
          2.1618814905118394e-01, 7.8986086428763203e-01,
          -1.0553771098845885e-01, -2.2354632555738529e-01,
          4.7084007612005380e-01, -1.4973075700969657e-01,
          -1.0993416448905481e-02, 4.1876670789535587e-02,
          -1.1810067747651323e-01, -1.2537023292206062e-01,
          8.3770524722743725e-02, -1.0838322541134568e-01,
          2.0275701502286203e-01, -5.0239890413843447e-01,
          1.0682477494360101e-01, 1.5747856615417083e-01,
          1.4705828550601752e-02, 4.4234853477399805e-01,
          -8.7375090744783585e-03, 3.6563120031399478e-02,
          -7.3000001087784788e-02, -1.8111013888077032e-01,
          -4.5177822976710269e-01, 1.6979629680015429e-01,
          -2.5438121445576645e-01, 5.1790321202410006e-02,
          2.7991756688973669e-02, -7.7146607458565039e-02,
          1.9813372793948558e-01, -1.6620984640804293e-01,
          -4.4666796198554719e-04, 1.6390328596354536e-01,
          2.9215543406991503e-02, 1.2301851238419967e-02,
          3.4301865409727128e-02, 2.4794332378297096e-01,
          -1.2989696990187838e-01, -1.5100390641927380e-01,
          4.3531206684296581e-02, 1.6167551736864122e-01,
          -9.5559867493988898e-02, 1.5685330822056526e-01,
          -2.9214953556384454e-01, -1.0638814735102542e-01,
          -1.4617229744543592e-01, 4.9650070533477519e-01,
          -1.5641022533665272e-01, 2.7194749728266080e-02,
          1.0797402856959587e-01, -4.1571013021609221e-01,
          -4.3262782359083637e-02, -8.4506919963850097e-02,
          -9.6662789819516148e-02, -1.5608732552271315e-01,
          1.6827372558854459e-01, 2.8153812229913372e-01,
          -4.0319423819702618e-02, -2.7326845240671266e-01,
          5.6389472228303006e-01, 1.8119345028262984e-01,
          1.5708848549490528e-01, -2.5548642199347166e-01,
          3.8875760735176523e-01, -3.4860669208837131e-01,
          1.9577385298938682e-01, 3.0818423761108094e-01,
          3.1713758223231692e-02, -2.2234595503243060e-01,
          6.1391300809744742e-01, -1.1753556656789811e-01 ]
      - [ -1.7215547586204460e-01, -2.9982883127094651e-01,
          8.9965067505864504e-01, 6.7395106911947977e-01,
          -2.7859269500787459e-01, -1.8172649603824659e-02,
          -1.8941699404001019e-02, -8.1907195693855761e-01,
          -6.6864212085786190e-02, -4.9565148280035370e-01,
          -9.7544220633486001e-01, 2.4991607314692199e-01,
          -1.5620054771399703e+00, -2.3696470340129472e-01,
          -2.5595152343561034e-01, -1.0806040597146109e+00,
          4.3624554771120222e-01, 3.1355817487226922e-01,
          2.8809674332648971e-01, -5.2192597454970302e-01,
          -1.9758472088095247e-01, -1.0902456340177360e+00,
          -1.4078478350506599e-01, -1.8602141870957814e-01,
          9.5414503893086255e-02, -1.7740378171266680e-01,
          -4.9321138741783699e-01, -1.3252145544343971e-01,
          -2.1547117343674105e-01, 9.3956392602142769e-01,
          -2.0162370290853784e-02, -8.1922660166804562e-01,
          -4.7962708505827950e-01, -7.9940544448269513e-01,
          3.0112030472365875e-01, 2.6446003559738063e-01,
          -4.3461039061584938e-02, 3.1086346610398280e-01,
          -1.2705016881191122e+00, 4.0753503875838476e-01,
          4.2200560694302564e-01, -6.4835220117904713e-01,
          4.2941344102632195e-01, 4.5350726748423864e-01,
          -4.4670530007167103e-01, 5.7850549171527943e-01,
          3.2224660635103120e+00, -7.2249522328445714e-01,
          1.5499820584441687e-01, -9.5265063873972089e-01,
          2.6287478034549283e-01, 7.0271926304016996e-01,
          8.4525210817839158e-01, -8.3539691896172463e-01,
          -1.2136012435088086e+00, 7.1206724802801202e-01,
          2.8987450141899698e-02, -3.9736798604864842e-01,
          2.9184363770883404e-01, 5.9658369086528973e-01,
          7.6377167417420011e-02, -6.5109861510802780e-01,
          -1.4945494827371658e-01, 6.9533219879059183e-01,
          1.1079856068206473e-01, 6.9625657137314179e-01,
          -4.1868326868676600e-02, -5.2964376027616056e-03,
          -2.6934982473354001e+00, 1.6793104913228840e-01,
          2.4416390416984841e+00, -5.8035619275209227e-01,
          3.4536624865844884e-02, -7.8683696013726179e-01,
          -7.9003320454011849e-01, 7.3165933723322818e-01,
          5.6999389619956642e-01, -4.8351261716603527e-01,
          4.7394502691867950e-02, -1.0490386129674432e+00,
          -1.6685824821492562e-01, -1.2422239175885212e+00,
          -2.5123242115329780e-01, -7.0116049958267024e-01,
          -1.2811512977336335e+00, 3.1286993798191470e-02,
          -4.2510483463635351e-01, -8.3638323554031679e-01,
          -2.2409910576561382e-01, -1.8858357545927013e-01,
          -2.7094056385234427e-01, 6.4389340677985973e-01,
          -3.8502571260175517e-01, -5.0527634115114917e-01,
          -1.0504172689255421e-01, 5.0592799128871757e-01,
          -5.3497146221864675e-02, -5.7737395947180215e-01,
          -5.9735927777644515e-01, 1.0103568196600963e+00,
          -4.2068479641473222e-01, -3.4002949053259135e-01,
          -8.6692621824787619e-01, -6.4533635179017845e-01,
          -1.1394608059427658e+00, -8.0096699704084950e-01,
          5.6334167260995549e-01, -4.9956204065115345e-01,
          1.1902068257932708e+00, -4.0216370350887765e-02,
          2.7248261234304533e-01, 2.6384577904363149e-01,
          9.4282211498866120e-02, 8.7188181535674092e-01,
          8.5706107768030015e-01, -2.9761946797712086e-01,
          -2.4953215690979275e-01, -2.6291595599826201e-01,
          -1.0323443639865773e+00, -1.6898672794185338e-01,
          -8.3042063251157605e-01, -5.6673223071529255e-01,
          2.2990546879269841e-01, -4.6632326002752938e-01,
          -2.8074347308535725e+00, -1.5015408400630870e-02,
          5.9499240160905753e-01, -1.0476145869922808e+00,
          1.7752427216805872e-01, 7.1249243408311402e-01,
          5.3923318743994697e-01, 8.2874599061592269e-01,
          7.3222004466280355e-01, 6.4453650748623337e-01,
          -1.6367827362786969e+00, 5.7941706694215633e-01,
          -8.8087090707062587e-01, 4.7279451429004749e-02,
          -9.0750211490639021e-01, -7.8097200044663329e-01,
          -5.7595143862293130e-01, -8.4453672050838091e-02,
          8.8141475506966482e-01, -6.3834663703139560e-01,
          -2.1945682934467869e-01, 3.3488336121808920e-01,
          6.8580966298361601e-01, -1.1368602788579052e+00,
          4.7671418931896947e-01, -6.4555340760291113e-01,
          -8.7356708293296115e-02, 1.7606504201730526e+00,
          -9.7382546807964265e-01, 9.6698968513508166e-01,
          1.4226694044287178e-01, 3.6340810125817169e-01,
          1.2582641523882925e+00, 9.8392111236368462e-01,
          -1.8811700369342732e+00, 3.7917970825726843e-01,
          8.7469733129285965e-01, -3.7912414191938615e-01,
          -1.1531868617105119e+00, 7.1544290976365832e-01,
          9.9655872454902372e-01, 1.1168173977324278e+00,
          4.9510815898210242e-01, 1.9105212032619313e-02,
          -7.3080565806282582e-01, -1.1654215270387103e+00,
          5.0556881758444618e-02, -5.5003592485936970e-01,
          1.3185769078983365e+00, -2.4497134045683577e-01,
          -3.6810184506866594e-01, 8.8724452811059185e-01,
          5.9605101736033739e-01, 1.0628733310212295e+00,
          -9.6779694816991790e-01, -4.9408227793889120e-01,
          -7.2626385755210549e-02, -1.6425830490125784e-01,
          -1.2740737695929867e+00, -7.8625623805606781e-01,
          7.6784060940636678e-01, -6.0470137012966929e-01,
          -6.9420357067934857e-01, -3.9563523621700958e-01,
          -1.8956053440068804e-01, -4.8971567408014455e-01,
          1.2939347367135040e-01, -3.3373507418677334e-01,
          1.1506496830488358e-01, 2.8865977103843404e-01,
          -1.1772607697276531e+00, 1.1333962524760237e+00,
          5.2881249657397733e-01, -4.1405991309834522e-01,
          3.3187520536715520e-01, 1.4365274736869944e+00,
          -7.4530213120940170e-01, -7.2838426778388343e-01,
          3.8798296819814992e-01, 6.9233610853316285e-01,
          1.1084261037593728e+00, 1.4328548042810736e+00,
          7.9617203535698688e-01, -7.1828744940806266e-01,
          4.8795501513571038e-02, 2.4861261279691890e-01,
          -1.3003685495582817e-01, 1.3879849637578223e+00,
          2.3468918568882163e-01, -3.4512922420978143e-02,
          2.3662816810795603e-01, -4.1054371327848976e-01,
          -4.9094675875318139e-01, 4.9468563858359121e-01,
          1.0329719419750523e+00, 5.8275572791473729e-01,
          1.0690482784742779e+00, -4.2811290557195146e-02,
          -2.0305290165542318e+00, 7.9658691538670640e-02,
          2.4032659685287314e-01, -2.1012677323734308e-01,
          7.9957117884469564e-01, 7.2635784817560256e-01,
          -7.0109208018179170e-01, 5.3520292976214701e-01,
          9.3093289592357187e-01, 5.2711902949827238e-01,
          -7.7763535550053553e-01, -2.8679246462020019e-01,
          8.0420479041096160e-01, -4.6047429102268617e-01,
          6.9548275868224063e-01, 6.1454986987201943e-01,
          1.9031670402876355e-01, 1.1726259491230377e+00,
          -1.2012281063928945e+00, 6.0272099582123773e-01,
          2.4570865003277476e+00, 1.3178857412210442e-02,
          1.0279163996994534e-01, 4.9167154772521468e-02,
          -5.4125123955010024e-01, -1.1071426449121744e+00,
          6.8855755081922854e-01, 3.5959073215359816e-01,
          -1.1342715709069668e+00, -3.2717863331341232e-02,
          -2.5414737742347454e-01, 1.5018524686124002e-01,
          -6.8562116585612676e-01, -1.2349795243412618e+00,
          -6.2953993112307172e-01, 4.4371007374561344e-02,
          8.4557496933223175e-01, -1.8556131769283191e-01,
          -6.3086635031840754e-01, -6.6806222604430499e-01,
          6.9343473552883883e-01, -6.8724930361682701e-01,
          -8.0524415489836472e-03, 1.2689300302553261e-02,
          4.5095359638541938e-01, 1.5598037302231127e+00,
          6.1229364395099040e-01, 4.6109180101535469e-01,
          -4.6887832539506419e-01, 5.8913062767151536e-01,
          -2.0118422719931944e-01, -7.2921399769507167e-01,
          1.7847807122245658e+00, -6.0565477405414592e-01,
          -5.8516400467638496e-01, 6.9237073183224074e-01,
          -9.8899041118350772e-01, -1.0056226009002522e-01,
          8.1104453394175524e-01, 1.0680738403485073e+00,
          1.1581372322073027e-02, -3.3842689187043629e-01,
          -3.2615200908441710e-01, -5.1027932361145079e-01,
          -4.0092658835845846e-01, 2.7687654164976416e-01,
          7.5942480094332454e-01, -2.5856787356300370e-01,
          -1.3654703400706558e-01, 9.5827520192275295e-01,
          1.8509905919075142e-01, 4.4973192390978295e-01,
          3.9396828434334008e-01, 4.2791833446444383e-01,
          7.7996404015007748e-01, 4.3533464728538995e-01,
          6.5213958651704873e-01, 6.5830994310341440e-01,
          -3.7308487208774321e-01, -8.3518995268977680e-01,
          -5.5698123812462508e-01, -9.1571184234023240e-01,
          -7.7512560786998697e-01, 8.9786610009457579e-01,
          -2.5294800840008647e-01, -1.7828900017055485e-01,
          -2.0715953423350725e-01, -2.4494938369728003e-01,
          1.4090666474030598e+00, 3.7258469235787228e-01,
          2.1664316531370006e-01, -5.3376559615404851e-01,
          2.2559235911179143e-01, 8.7127640026505560e-01,
          4.0490439495448943e-01, 3.1773453670592394e-02,
          -2.0044998990018714e-01, -3.2894360540205408e-01,
          6.6219711955997007e-01, 1.0671850911788912e+00,
          -2.8331535347477693e-01, -8.4966247082271662e-01,
          5.0138559813083394e-01, 8.4729873768221919e-01,
          -1.0235802235149333e-01, -5.1463780286502714e-01,
          4.9352703783761004e-01, -4.4035647842142073e-01,
          9.4542189452219838e-01, -1.1046116871653479e-01,
          6.0028473312763841e-01, 4.8589857660126456e-01,
          -2.1040579825806244e-01, -1.9905666837836472e-01,
          -2.8620423405953310e-01, -6.3663445887435577e-01,
          -4.6641105603705196e-01, -8.4411603877676045e-01,
          -2.5742596042703947e+00, -8.4316285878249053e-01,
          1.3828374402678887e+00, -1.1192388718901809e+00,
          -3.6409225456230715e-01, -1.9481148948969884e-01,
          9.2960517113995866e-01, 4.0852474783355727e-03,
          -8.1148990309813407e-01, -1.7735513176152407e-01,
          7.8382388569818973e-01, 6.1497977804369597e-01,
          -6.3954418389317824e-01, -1.0804176618846234e-01,
          -5.1042169995179215e-03, 3.3017033920063865e-01,
          -4.3329697110400822e-01, -5.6519674152464661e-01,
          3.7649668934617403e-01, -3.7509759149162200e-02,
          -7.5842111148099156e-01, -2.5928027905641982e-01,
          -6.5896998046365762e-01, 5.7860335660340501e-01,
          7.4904127101941864e-01, -2.8151656813644110e-01,
          -9.0334150280401815e-01, 1.6643098911497893e+00,
          -8.9920114543625085e-01, -8.9069357675176064e-01,
          1.0784376344736621e+00, -6.9144694458348266e-01,
          -7.7760372875483219e-01, 9.1065657995903604e-01,
          3.8405868957798761e-01, -6.4825744742003422e-01,
          5.3716576637394919e-01, -2.4873098633807586e-01,
          -5.8626499672841259e-01, -1.1206182865520919e+00,
          8.1847820622263145e-01, -2.9767048489103898e+00,
          -9.2340400508270726e-01, 9.8637920336784202e-01,
          -6.0371162090288921e-02, 8.3853613591067605e-02,
          1.2031441789869970e+00, -9.2909914265685067e-01,
          1.0695255219235302e+00, 3.0423896240273682e-02,
          -9.3025081116457065e-01, -5.1939302207515237e-01,
          1.0379842023763808e-01, 7.0076042997305621e-01,
          -3.2307283599015174e-01, -1.2229719844938707e+00,
          1.6711695438037538e-01, -3.7971762289823802e-01,
          9.9542554479886181e-01, -9.8579578377403709e-01,
          -1.6060260165796292e+00, -1.2460481925024602e+00,
          9.6382498319357868e-01, 7.0092473923654108e-01 ]
   class_labels: !!opencv-matrix
      rows: 1
      cols: 4
      dt: i
      data: [ 1, 2, 3, 4 ]
