%YAML:1.0
---
opencv_ml_ann_mlp:
   format: 3
   layer_sizes: [ 4, 100, 4 ]
   activation_function: SIGMOID_SYM
   f_param1: 1.
   f_param2: 1.
   min_val: -9.4999999999999996e-01
   max_val: 9.4999999999999996e-01
   min_val1: -9.7999999999999998e-01
   max_val1: 9.7999999999999998e-01
   training_params:
      train_method: RPROP
      dw0: 1.0000000149011612e-01
      dw_plus: 1.2000000000000000e+00
      dw_minus: 5.0000000000000000e-01
      dw_min: 1.0000000116860974e-07
      dw_max: 50.
      term_criteria:
         epsilon: 9.9999997764825821e-03
         iterations: 1000
   input_scale:
      - 1.8030001919580450e+00
      - 1.1386761846056934e-01
      - 1.2934497139751282e+00
      - -3.0344959965113421e-02
      - 7.6545029923412977e-01
      - -1.5099158632255646e-01
      - 8.1018382459065363e-01
      - 2.1892713000928857e-01
   output_scale:
      - 1.
      - 0.
      - 1.
      - 0.
      - 1.
      - 0.
      - 1.
      - 0.
   inv_output_scale:
      - 1.
      - 0.
      - 1.
      - 0.
      - 1.
      - 0.
      - 1.
      - 0.
   weights:
      -
         - -6.1826196977676240e-01
         - -5.8637375078589821e-02
         - 2.9506658041130451e-01
         - -2.8456205572806692e-01
         - 2.0995493502663967e-01
         - -3.1510377444795218e-01
         - -6.3264115739728466e-01
         - -2.6122351380920789e-01
         - -4.2945798974685634e-01
         - 2.2836536663774207e-01
         - -9.0356079963983249e-01
         - 6.0849966452557233e-02
         - 5.2455297141427293e-01
         - -1.5806282266763291e-01
         - -4.6488410121338053e-01
         - -8.8825633723806391e-02
         - -6.0665180228425464e-01
         - -2.7158130392709967e-01
         - -3.5332142963457228e-02
         - -2.6808444439504864e-01
         - -3.4481818039106782e-01
         - -7.6226885520284982e-01
         - 2.0860380926263247e-01
         - -3.1433490397683556e-01
         - -6.2142899779123051e-01
         - -6.0260938865644120e-01
         - 3.9879958063442450e-01
         - 6.2663988247920677e-01
         - 2.0136920527229876e-01
         - -2.2532955549301059e-01
         - 2.3108256559296161e-01
         - -9.6817031016403043e-02
         - -3.1580838832027952e-01
         - 5.6125147365520944e-01
         - -1.1046339978268407e-01
         - 2.7509804804894489e-01
         - 1.0077568387957454e+00
         - 1.6954564171277881e-01
         - 3.7613430012555904e-01
         - 1.0932587199996111e-01
         - 6.1059388816117499e-01
         - -5.4702869251867980e-01
         - -4.9510748589247300e-01
         - 3.0244516980751798e-02
         - -5.3149108211616447e-01
         - 6.3239561063320082e-01
         - -6.2955842605635659e-01
         - -1.9493646564355438e-01
         - -1.1652979284691267e-01
         - 6.1009048938284471e-01
         - -8.1468200023177270e-02
         - -3.8637495859855436e-01
         - 2.8926779024030008e-01
         - -2.1248581284851464e-02
         - 1.5838582190621139e-01
         - -4.1979849018933696e-01
         - -9.1035278255507712e-01
         - 2.6668989064935422e-01
         - -2.7996413258921604e-01
         - 4.9386767702103496e-01
         - 4.1474801374187506e-02
         - -4.1277401444973209e-02
         - 5.9107761825107541e-01
         - 1.4892667927025954e-01
         - -3.3332919433110492e-01
         - -4.7659987828089823e-01
         - -3.5551603341897442e-01
         - -3.1487775131333312e-01
         - -2.7049665421015917e-01
         - -1.0224900941466417e-01
         - -4.2157251374943111e-01
         - 3.2448728201884491e-01
         - 4.3861306041384029e-01
         - -5.1757441804659687e-01
         - -2.6481230338982389e-02
         - -2.0518903709867767e-01
         - 1.0912421116576125e+00
         - 2.3898540853105907e-01
         - 4.9484295455816962e-01
         - 2.6968896691671645e-01
         - 3.9788258237257429e-01
         - 3.5962917369197944e-01
         - 3.5658569106698929e-01
         - -1.4001163293210320e-01
         - -3.5813458494151400e-02
         - -4.0329272367604134e-02
         - -2.7035958061512072e-01
         - -4.2579386404273584e-02
         - -6.4677425468129890e-01
         - 1.8696106308143252e+00
         - 2.2590518658239966e-01
         - 1.1522488244198973e-02
         - -1.6647347068772197e-01
         - -3.1344797715298028e-01
         - -5.6671933954967235e-01
         - 3.8427432285946850e-01
         - -1.1334077786581950e-01
         - 2.4506290362862804e-01
         - -6.3735227322864541e-01
         - -1.5069156240345874e-01
         - -6.2830835256080533e-02
         - 2.5184525209602443e-01
         - -9.9044814391190478e-02
         - -1.6889491373552182e-01
         - -4.3370748142018994e-01
         - -3.1571922025542409e-01
         - 3.9974873403704975e-01
         - -5.0158856463219867e-02
         - -4.1364520605444483e-01
         - -1.5296143824259298e-01
         - 4.1564961203352291e-01
         - -7.5238038084481138e-02
         - -2.5366459156064131e-01
         - 4.1771839881006739e-01
         - -9.3499745001592791e-02
         - 1.9971200756302032e-01
         - -3.8068550785659994e-01
         - 2.7055085729688805e-01
         - 3.5226896284364895e-01
         - -3.3220689564151817e-01
         - 2.2805320501444384e-01
         - -3.2084835827844091e-02
         - 1.7874843891779499e-02
         - 4.0480151404828851e-01
         - -1.0965014240868196e-02
         - -2.3779301404190156e-01
         - 2.6218596925135373e-01
         - 2.5083801345204909e-01
         - -1.1945520140788227e-01
         - 9.0888654014280659e-04
         - 1.3525642900401139e-01
         - -4.2368243147655726e-01
         - 9.9297996990326431e-02
         - 4.4684254996833150e-01
         - 2.4756097240065220e-01
         - -1.8363867364532310e-01
         - -3.2523057200156413e-02
         - -4.5960693251723816e-01
         - -5.4900312022985370e-02
         - -6.9234392216597634e-02
         - -1.4658755721805250e-01
         - 3.3578668805781098e-01
         - 1.3094269185858988e-02
         - -4.1987980728846208e-01
         - 4.1044359615503406e-01
         - -2.5159244934828684e-03
         - 2.1554094304250532e-01
         - -3.3300328836111664e-01
         - -2.2079067953075870e-01
         - -5.2524708394066769e-02
         - -4.9233621654950988e-01
         - 3.4140051758171047e-01
         - 2.3911370195708806e-01
         - -1.9560773066754772e-02
         - 4.5988683296736493e-01
         - 3.4116612751312497e-01
         - -1.6454129459821390e-01
         - 1.3470618555117603e-01
         - 6.2391100374224751e-01
         - -2.1284586597459895e-02
         - 1.0494761082908378e-01
         - 4.1748417981152486e-01
         - 3.3774499069336428e-01
         - 1.1312383102924986e-01
         - 5.9716164497864732e-01
         - 1.5797599903529569e-01
         - -5.5023336692358293e-01
         - 5.1780067472668811e-01
         - 1.4928054953577954e-01
         - 3.5115401698403498e-01
         - 8.2093741128048403e-02
         - -3.7576174498842457e-01
         - -9.6618505570574650e-02
         - 3.3913823175621299e-01
         - 2.9105223696107713e-01
         - -1.2828495776321955e-01
         - 2.3690354560965696e-01
         - 7.6288871533559000e-01
         - -4.5968976526996261e-02
         - -2.0503688998318251e-01
         - 1.6605925580462924e-01
         - -3.8843293396820633e-01
         - -3.1054220049815240e-01
         - 3.6391227418697891e-01
         - -1.9362439169904500e-01
         - 1.2480210103911615e-01
         - 2.9830693252490631e-01
         - 4.4055352823233140e-01
         - -5.2438464033217025e-01
         - 3.1783737993773437e-01
         - -4.6230529330957887e-01
         - 2.4359549474129868e-01
         - 2.4759706543503088e-01
         - 1.7198007865184689e-01
         - 7.4401397973628935e-02
         - -2.9263014596291403e-01
         - -2.1686101029160895e-01
         - -3.6774816447754233e-01
         - -4.6134503503903912e-01
         - 3.2196910714464666e-01
         - -2.5501376858568392e-01
         - -2.5847264064900682e-01
         - -4.4496422500612259e-01
         - 1.3547169459911235e-01
         - -5.9095479433373377e-01
         - -3.9299014469865412e-01
         - 7.0944092337774295e-02
         - 4.7996786014908693e-01
         - 2.9261875381560382e-01
         - -4.1618790808090467e-01
         - -6.5351869487432074e-02
         - -2.8359222172342047e-01
         - -4.1020843908708193e-01
         - -1.5636323323347276e-01
         - 4.4634036044551634e-01
         - -4.0648982839642228e-01
         - -1.8631492997338614e-01
         - -2.6136611739824156e-01
         - -2.2643536351224972e-01
         - 5.4377436786042489e-02
         - 3.3829202125211977e-01
         - 2.7166228136149800e-01
         - -4.6296650039328502e-01
         - 4.4453212820388938e-01
         - 3.7077451834154629e-01
         - -2.6353836350286231e-01
         - 4.9041251239439165e-01
         - 3.4127590903555372e-01
         - -5.4480711422259742e-01
         - 3.4523718499357064e-01
         - -2.3447163093813164e-01
         - -4.0116837128680743e-01
         - -4.9207208944797864e-01
         - 6.6333442318721780e-01
         - -7.9086321965947573e-02
         - -5.2894845820632819e-01
         - 1.0086142092730531e-01
         - -2.6152574207487900e-01
         - -4.9747991105698919e-01
         - 2.5719348380358303e-01
         - 3.7696205535503546e-01
         - 1.5171127806313436e-01
         - 4.8962581601926802e-01
         - -4.7749507064079211e-01
         - 1.8710734759405895e-01
         - -2.7455104835615413e-01
         - 1.5005280125926959e-02
         - 1.9822370377007614e-01
         - -2.8012386574782097e-02
         - -8.0969068746965332e-03
         - -3.2098700034329236e-01
         - -2.0609330671302311e-04
         - 5.9747056682081655e-02
         - -2.4500575537878669e-01
         - -9.8765464422286731e-02
         - 4.3202159235013121e-01
         - -5.3932615763133140e-01
         - -3.9648351122587655e-01
         - 3.5464295846367755e-01
         - 2.2688525866948978e-01
         - 2.3206384644658623e-01
         - 2.9010263239802225e-01
         - 2.1717633171454920e-01
         - -3.5138804456890504e-01
         - 9.1288602650688544e-01
         - 5.2138489000052202e-01
         - -1.9054714627215460e-01
         - 3.7228518505953456e-01
         - 3.3901420883192696e-01
         - -4.3120322644873332e-01
         - 4.5005804631895202e-01
         - -4.2894964193166929e-01
         - -4.7988659625933067e-01
         - 5.4822228050602095e-01
         - -1.9953724395006994e-01
         - -5.4073842911931611e-02
         - 3.1760245961561034e-01
         - 1.2928254529119697e-03
         - -3.1328333725227486e-01
         - 8.9971141005279320e-01
         - 1.0893597732335035e-01
         - 2.0272478623167808e-01
         - 7.0531820361538378e-02
         - -3.0971934610217400e-01
         - 3.2750205658063097e-01
         - -3.6195583793775449e-01
         - -2.4278519616932717e-01
         - -2.5682816706407302e-01
         - 2.3121849959071059e-02
         - -3.6464645288689618e-02
         - 1.9189869294565826e-01
         - -1.4309204454715740e-01
         - -4.6610789125352786e-01
         - -4.9705362945841533e-02
         - -2.2774704040667643e-02
         - -4.3566888625832528e-01
         - 2.0883295907995389e-01
         - -3.9458851209404783e-01
         - -3.3454188981240185e-01
         - 6.8275156012634439e-02
         - -1.9913109703632764e-01
         - -7.5044726871565659e-02
         - -1.1621400535576162e-01
         - 2.5768528886709746e-01
         - -1.7254279528659344e-01
         - 9.5136862370462691e-02
         - -5.5420980792943153e-01
         - 3.3474977145752177e-01
         - 1.0227805392957139e-01
         - 6.1728529321976189e-01
         - 9.5917725998922482e-02
         - -1.0478030537760111e-01
         - -3.6572600470397199e-01
         - 4.1515554748376793e-01
         - -6.1275794322986986e-02
         - 3.3592379557836344e-01
         - -1.2749976437327362e-01
         - -3.5594172375361183e-01
         - 3.0036475518238862e-02
         - 1.4825522024072954e-01
         - 2.9679294694691288e-01
         - 1.9454403149045479e-01
         - -8.0965159381799698e-02
         - -2.6043146009056911e-01
         - 3.5947665209262319e-01
         - 2.8751923963200338e-01
         - 2.3926194354111763e-01
         - -1.5792980406046142e-01
         - 4.0783888242797006e-01
         - -1.0733860518982903e-02
         - 1.9918937148466304e-01
         - 2.7208216910733218e-01
         - -5.4478476953525937e-02
         - -1.6106169617813260e-01
         - -7.1206194964850089e-01
         - 3.6912732541632459e-01
         - -3.3728131984592080e-01
         - -9.0885659776069522e-02
         - -4.6134610501365625e-01
         - 4.1661503214983120e-01
         - -1.4498050342500865e-01
         - 1.5162126184751445e-01
         - 1.8059929139142013e-02
         - 4.1719311022810085e-01
         - 3.5824201940038564e-01
         - 2.4773741885962450e-01
         - 2.7490465540579057e-01
         - -4.6941254513956221e-01
         - -9.3667132986018170e-02
         - 7.9058171573029157e-01
         - 2.8764498342094758e-01
         - -3.7143061860166310e-01
         - 5.4314245152672358e-01
         - -7.1452489027467347e-01
         - -9.7456445600310893e-01
         - -2.8601379708506297e-01
         - -4.5375690112947653e-01
         - 2.3212041302062814e-01
         - -4.6105909744110510e-02
         - -3.4496247900841648e-01
         - 7.5046334478397081e-01
         - -1.8097578530001418e-01
         - -3.8177494417232516e-01
         - 8.0724545140026560e-01
         - -1.9098474805706898e-02
         - -5.2971174290060041e-01
         - 9.2203456194156916e-02
         - 7.2571189601116759e-01
         - 2.7164188823451568e-01
         - 3.4989176642893072e-01
         - 3.9896318386853435e-01
         - 7.3386168107268002e-02
         - -4.5311885299522303e-01
         - 3.1834153387414749e-01
         - 3.3089174637309721e-01
         - -7.6209984866843250e-01
         - -1.9116901558815669e-01
         - 1.7234488722090865e-02
         - -2.8239527471960824e-01
         - -3.3691024364721145e-01
         - -4.2678218598449602e-01
         - -8.5213106644578179e-02
         - 2.0670467898571110e-01
         - 2.3015674743141473e-01
         - -3.2469991821434285e-01
         - -4.8135278878129117e-01
         - -5.9854829680012167e-01
         - -6.4802315001606894e-02
         - -2.8336326214491014e-01
         - 5.0992147539539179e-01
         - -2.4289082899520612e-01
         - -5.0197405580981125e-01
         - 6.7821571848858939e-02
         - -1.2697730062473658e-01
         - -3.6896646632830782e-01
         - -1.1687335514478271e-01
         - -4.5226525263297762e-01
         - -2.2316042323539326e-01
         - -1.7145253839323576e-01
         - 3.6811448307451472e-01
         - 5.2747623325585657e-01
         - -2.7800244737421920e-01
         - -2.3131683542246539e-01
         - 1.9725069098463541e-01
         - 1.1219664077484186e-02
         - -5.1292145235945330e-02
         - -2.8567351772805338e-01
         - 1.1162919627696161e-01
         - -1.5575673515492616e-01
         - -6.4290220171541929e-02
         - 7.6453711242597255e-01
         - -4.0539548011721979e-02
         - 1.4753738620722948e-01
         - 3.8571310757623833e-01
         - 8.1325087531082252e-02
         - 5.3392193032438820e-02
         - 8.8145171643544962e-01
         - 1.2050603059079831e-01
         - -2.8273236389697987e-01
         - 5.0103426351302216e-01
         - 4.5883500535483185e-01
         - 5.6138217265501528e-02
         - 1.8799854530910091e-02
         - -1.3026750224342276e-01
         - 2.4294883373639259e-01
         - 1.7575482631084360e-01
         - 7.7274910408835079e-02
         - 1.6882720772891241e-02
         - -4.1646529898062634e-01
         - 3.6496956097187096e-02
         - 1.4177417878943085e-01
         - -1.0111425770708762e-01
         - -2.7576797384943186e-01
         - -1.3286648642297980e-01
         - -3.0287492962411583e-01
         - -3.7009298344844865e-01
         - 1.0872193696043203e-01
         - -1.1663552864185209e-01
         - -3.5406395656802819e-01
         - 2.3260857205477811e-01
         - -7.2824763551461030e-02
         - 3.6806999616151276e-01
         - -1.1721369247011603e-02
         - -1.9038928122858351e-01
         - 2.8025073426425223e-01
         - -3.7753060734589722e-01
         - 3.5528353113499361e-01
         - -1.0844365416377835e-01
         - -4.8996174778918454e-02
         - -3.1107044056539745e-01
         - -1.9450000289827588e-01
         - 3.1015090385299549e-01
         - -6.0586536305118170e-02
         - -2.8792069663294045e-01
         - 2.2130786536941557e-01
         - 3.0381192487858838e-01
         - 1.2528547627519579e-01
         - 5.8287273020364454e-02
         - 1.6523233274749177e-01
         - -7.5658939184481022e-02
         - -1.1234119897288836e-01
         - -3.2623234207390317e-01
         - -3.8473744803772594e-02
         - 2.4841715576469167e-01
         - -4.1197899500739688e-01
         - 3.1367718472002859e-01
         - -1.0350773738233066e-01
         - -1.4000778196559777e-01
         - 2.7291673685961754e-01
         - -3.3978215217154406e-01
         - 4.5849445160328378e-01
         - -6.0588528752830317e-01
         - 1.9920824981836710e-01
         - -1.9083121831829572e-01
         - -3.0911130965465855e-01
         - -2.0112326562692684e-01
         - -4.8891612969014386e-01
         - -6.0046664620447832e-02
         - -1.9430057142472246e-02
         - -8.8307427943960215e-01
         - -3.4212283994612407e-03
         - -4.7971945996578486e-01
         - 3.0091542732075465e-02
         - -1.0022108194670218e+00
         - -3.8514522735202644e-01
         - -2.0765254823924589e-01
         - 5.3913195171039252e-01
         - 3.7586079744680795e-01
         - 5.8707843637182261e-02
         - 1.6810505689467836e-01
         - -3.1770388691584017e-01
         - 3.3911354901518850e-02
         - -3.7995546947951225e-01
         - -2.6333325597849500e-01
         - -2.5970894294174252e-01
         - 2.6353833725269249e-01
         - -4.8780597205295062e-01
         - -4.5750610016570520e-01
         - -2.3898108001212781e-02
         - 1.5168905416818099e-01
      -
         - -6.6531515619522574e-01
         - -8.1103292623725842e-01
         - -1.1952771692991862e-01
         - -4.0420832568861185e+00
         - 7.0605158661988243e-02
         - 9.7585012434103824e-01
         - 2.9346169884293610e-01
         - 5.6502415184853660e-01
         - 1.4883572503200651e-01
         - 7.7605419596874214e-01
         - -2.0573870442102554e-01
         - -4.8570921484900414e-01
         - -8.3061924550921917e-01
         - -2.0755044580494636e-01
         - 4.4513861077806149e-01
         - 5.9160979109797407e-01
         - -6.5947346796843531e-01
         - 8.1321732403923830e-01
         - -5.7827112139091891e-02
         - -6.4523607263175509e-01
         - -3.8723461017749206e-02
         - 1.9219920799881046e-01
         - 7.1059461171201344e-01
         - -4.6232424979954545e-01
         - 1.5029298934311939e+00
         - -1.7176577251181710e-01
         - -3.7848501793200751e-01
         - 4.4414169497197109e-01
         - -6.5908161573733637e-01
         - -8.1226257231185239e-01
         - 4.4361682327760310e-01
         - 9.9983845682187422e-01
         - 5.3613165436908916e-01
         - 2.4546180223886749e-01
         - 1.2227866147067676e+00
         - 5.2796499601155004e-02
         - -3.7269980152069150e-02
         - -5.0057589320096330e-01
         - 1.4770216658807964e+00
         - -1.1779163350489252e+00
         - -1.3988162560492873e-01
         - -1.0617417146799089e+00
         - -1.4176455921961661e-01
         - -1.4304540484766499e+00
         - -4.2834796201604963e-02
         - 7.2268531304551986e-01
         - -7.8132426087286722e-01
         - -6.3169721075880758e-01
         - -2.7053520535254733e-01
         - 6.3847359641462975e-01
         - -6.2060419879767337e-01
         - -1.4625013716733475e+00
         - -2.1792252097483429e+00
         - -1.0043294080086190e-01
         - -1.6130565417318080e-01
         - -2.7149825973774971e-01
         - -2.9748376601752702e-01
         - -1.7910545197562082e+00
         - 4.5555487381577453e-01
         - 1.9450489331596226e+00
         - -4.0237816407668636e-01
         - 5.8648199619950339e-02
         - 3.8889096733730284e+00
         - -1.4973915466615253e+00
         - -3.2303323596658695e-01
         - -1.5945483001838662e-01
         - -6.2252530257700125e-02
         - -4.9540587596636696e+00
         - 3.1140956495168864e-01
         - 5.4906501606304170e-01
         - -2.5711441841060723e-01
         - -7.9127238289069024e-01
         - 6.3723792304313815e-04
         - 3.0851059641846651e-01
         - 2.0415855174215500e-01
         - 1.5035133910938389e-01
         - -6.5642165847228129e-01
         - -9.9507625520555823e-02
         - 4.6390747307053565e-01
         - -1.2323119222027363e+00
         - -2.1136902241827560e+00
         - -7.8551373372551092e-01
         - 3.2021698088119321e-01
         - 2.9741377075484243e-01
         - -3.5038651171156776e-01
         - -6.9977063219684332e-01
         - 1.4017166065343143e+00
         - 5.9017104984497004e-01
         - 6.5204064234197678e-01
         - 5.4919457564531404e-01
         - -1.8931109009264005e-01
         - -2.1063656288393249e+00
         - 3.6616235290806298e-01
         - -9.1154973033204689e-01
         - 7.3851975780005186e-02
         - 4.5210014025121659e+00
         - -7.6622962471857026e-01
         - -1.0383754661394278e+00
         - 9.6561127886712095e-01
         - -3.9763832051299491e-01
         - -9.3666828003618341e-01
         - -8.0644984667330288e-01
         - -2.8341787154166803e-01
         - -1.3540554778937686e+00
         - -1.0073207326132527e+00
         - 1.6859614594230368e-02
         - -2.2325117036197200e-02
         - 7.6219403334726843e-01
         - -3.3077878168552333e-01
         - 1.0938864252362157e+00
         - -8.0521882668381839e-01
         - 2.1094315460266655e-01
         - 1.4071649084336757e-01
         - 2.9807501316722351e-01
         - 9.2676663997865893e-01
         - 4.0171566781760337e-01
         - -3.3546687939524467e-01
         - -1.0699328741787675e+00
         - 1.3284646612264115e+00
         - -3.4081662144783337e-01
         - -1.9860166087529418e+00
         - 4.3631714266625227e-01
         - 3.0413069790405034e-01
         - -1.0676569998224512e+00
         - -2.1154820993003881e-01
         - 2.6215127470322563e-01
         - 6.7031635742333351e-01
         - -9.1450163049012612e-01
         - 9.5008047743967250e-01
         - -1.0170056899997813e-01
         - 5.2795314098106294e-01
         - -2.9516779665519460e-01
         - 4.7487424600312789e-01
         - 9.6174642560090096e-01
         - -2.4722342917186971e-01
         - 2.4715979025233965e+00
         - 1.8378199458660431e+00
         - 6.1287023427463949e-01
         - -7.1267607073739636e-01
         - -2.8550269718769339e-01
         - -6.6904458598932082e-01
         - 9.8752606116425434e-01
         - 1.2833150529128396e+00
         - -8.3195781743279962e-01
         - 4.5386201181030256e-01
         - 6.3942477197086711e-01
         - -8.2875409026970581e-01
         - -6.0386899409490352e-02
         - -7.7381416768000455e-01
         - 9.4331876288783401e-01
         - 7.8245556111119774e-01
         - -1.0485185016485070e+00
         - 8.7849796067483255e-01
         - 1.1929527240475974e+00
         - -1.2011862142276974e+00
         - -5.1629280774051500e-01
         - 2.5095242132343848e-01
         - -7.8036519586367359e-01
         - 3.7983764403031195e-01
         - -3.9871622747355862e-01
         - -6.4253169600502402e-01
         - 9.9834258595599068e-01
         - -4.0272637630419567e-01
         - 4.0966948447184570e-01
         - 1.2114651490925925e-04
         - -8.4283268483318874e-01
         - -6.5214651354680270e-02
         - 3.6884084737016609e-01
         - -2.1930688073239316e-01
         - -1.4846782559182997e-01
         - 8.9464425638356504e-01
         - 3.5732601967990156e+00
         - -9.8520432394287227e-01
         - 5.1638804494534551e-01
         - 2.1836109771446117e+00
         - -5.5198500125854044e-01
         - -4.9747017721405495e-01
         - -7.9151802027727536e-01
         - -1.4403214363417632e-01
         - 3.3880662634620384e-01
         - -1.5056093282856420e-01
         - 6.3050590442922960e-01
         - 7.3552146417699016e-01
         - -2.9894016649266404e+00
         - -2.1684913740558151e-01
         - -1.8333174619548080e+00
         - 9.1023927515809644e-01
         - -6.4067702297552620e-01
         - -9.6958557399929868e-02
         - 6.9776346775476561e-01
         - -9.1603353445108970e-01
         - 7.2673411261707999e-01
         - -2.9891762030981106e-01
         - 2.5364396398132222e-01
         - -6.0573624815353347e-02
         - 6.5547097837842916e-01
         - -3.8924872345229222e-01
         - 6.6686174445178947e-01
         - 5.7181911656639783e-01
         - 1.1621997502252945e-01
         - 5.4188199926132719e-01
         - 2.8662110131511703e-01
         - 1.2126221286179231e+00
         - -7.8940260196296075e-01
         - 3.3899667747996443e-01
         - -2.7840646007363418e-01
         - -2.7646613561804728e-01
         - -4.3753495026299810e-01
         - -4.8770813366324128e-01
         - -6.9185468276690476e-01
         - 7.6117728140633223e-01
         - 5.8740479351758068e-01
         - 5.3437962734426570e-01
         - 8.4398923761179345e-01
         - -5.1909319215238792e-01
         - 6.0968882811794556e-01
         - -4.6090707375746742e-01
         - 7.0389968832006811e-01
         - -4.6386165776705859e+00
         - -3.8069898297956067e-01
         - 1.5916541551091836e+00
         - -7.5521109552157994e-01
         - -5.7292052491497480e-01
         - 6.2353620340731164e-02
         - 2.2208355819294057e-01
         - -9.9833461317588565e-02
         - -3.6377439625031627e-01
         - -1.3276770163638980e+00
         - -3.1776173150133719e-01
         - 3.5256615557144616e-01
         - 3.7233330476981225e-01
         - -3.9361691465013671e+00
         - 6.4119192953880744e-02
         - -6.7897775713054032e-01
         - -3.8606150544925133e-01
         - 9.2140253734090483e-01
         - -6.0873044992712211e-01
         - 4.3943299447207934e-01
         - -1.0751455017885276e+00
         - 1.6153273607386567e+00
         - -4.1430335954850506e-01
         - 2.6410030652710464e-01
         - -6.6812458828364604e-02
         - 4.2166649949542950e-01
         - 1.9338688843507157e-01
         - 5.3893580587802403e-01
         - -3.1756087444526920e-01
         - 3.7735906689544851e+00
         - 7.6131084364017929e-02
         - 1.0851012414846919e+00
         - -1.0480375519854201e+00
         - -3.1720437390512929e-01
         - -1.3034006112340086e+00
         - -5.3295374374115634e-02
         - 7.4935473735666924e-01
         - -6.1082361911065108e-01
         - 6.5680802927331405e-01
         - -3.0091681806075238e-01
         - -3.4356039168014335e-01
         - 4.1828930022945583e+00
         - 9.9402846606736417e-01
         - -5.4484680793129625e-01
         - -8.7362616185364173e-01
         - -1.8720458193161896e-01
         - 3.7782796566798149e-01
         - 4.0264040231902093e-01
         - 1.0619255499627702e+00
         - -5.3200750590464774e-01
         - -4.0717496080041282e-01
         - -1.8391943798070304e-01
         - 5.4728145840262876e-01
         - 1.2593632208999666e+00
         - -9.0346735684902746e-01
         - -9.1032598420813826e-01
         - -1.7269840524699936e-01
         - -8.1120022504130374e-01
         - 5.0972028263403357e-01
         - 1.0309833992147596e-01
         - 1.5034917838262607e+00
         - -3.3158696250712549e-01
         - -2.4063492737351955e+00
         - -9.2349014462665668e-01
         - 8.0407260337971376e-01
         - 1.4801265049096213e-01
         - 8.7774923091092638e-01
         - 3.1582987788212008e-01
         - 2.1317630117205905e-01
         - 1.6082456404198792e-01
         - -8.5293644721237433e-02
         - 3.9109102083144437e-01
         - -1.0814602692823796e+00
         - -1.5290280671844660e+00
         - 9.1901655812940397e-01
         - -9.2563191966456138e-01
         - -2.2588999720841337e-03
         - 2.0789926404321299e+00
         - 1.9557735978662438e-01
         - 4.3401261559100363e-01
         - 8.9841445578546886e-01
         - -5.1499456970872903e-01
         - 1.3568085887545240e+00
         - 7.1125550359590717e-01
         - -3.0503813639080007e-01
         - -7.1768558370357338e-01
         - 1.1985338810338637e-01
         - 8.2988759320637495e-01
         - -8.9689207354472084e-02
         - 2.4718344923420119e+00
         - 3.2405917757017122e-02
         - 6.7531685444360523e-01
         - 7.6658201122190139e-01
         - 7.0373725599863268e-01
         - 2.7454041425862802e-02
         - 3.1198915847589737e-01
         - -1.2188366789923906e+00
         - -2.0529202253097716e+00
         - 7.8854780248663947e-01
         - -1.6860867447511782e-01
         - -7.3241863580706634e-01
         - 2.1876100975576085e+00
         - 8.6847683010240795e-01
         - 1.0658506366685268e+00
         - -1.7135838029702319e+00
         - 9.1799381109984285e-02
         - 4.0077654475643387e-01
         - 7.9571507038718858e-01
         - -2.7510481289952504e-01
         - 1.2162634792805223e+00
         - -1.1093260721972731e+00
         - 6.0485772882306743e-01
         - 3.8492138871043602e-01
         - -7.8315961820839985e-01
         - 2.1982648782363443e-01
         - 1.3266665582924159e-01
         - 5.7148658355474702e-01
         - 1.2415205443300676e+00
         - 7.2875196263864150e-01
         - 4.0145989770970081e-01
         - -9.8183260659194516e-01
         - 1.0175944552960969e+00
         - 8.7322453087093610e-01
         - 8.7544669265039254e-01
         - -2.9555583894858967e-01
         - -6.2735660167049145e-01
         - 5.9568458197088714e-01
         - -6.8747454290001553e-01
         - -8.7114054914540351e-01
         - -8.4497543081967086e-01
         - 1.8292614139443814e-01
         - -4.4115961083627137e-01
         - -7.8493800240482403e-01
         - -5.4992669822081153e-01
         - 1.0554741584953307e+00
         - -2.5855866856560245e-01
         - 1.0525219739885638e-01
         - -9.0801664649505620e-01
         - -9.3568679186574877e-01
         - 6.4277927946082314e-01
         - 1.2263586428507368e-01
         - 4.4777137985453797e-01
         - 1.1978594860570126e+00
         - 3.7972272006192359e-01
         - -1.8495151947715363e-01
         - 5.7837693507813992e-01
         - 1.3341820787916718e+00
         - -3.3959375541580067e-01
         - -1.1911353277802010e+00
         - -3.8079031977908673e-01
         - 6.5654226322890674e-01
         - 3.8633643904478032e-01
         - 7.3447642489859144e-01
         - -3.4254967148296289e-01
         - 1.5810073128507505e+00
         - -3.1702107476528602e-01
         - 2.0264361259230396e-01
         - 1.1973816656001142e+00
         - 1.2546267747726232e+00
         - 3.3533829874829624e-01
         - 7.4007765469759637e-02
         - -3.0252101566619505e-01
         - -1.0320732220001181e+00
         - 3.5330474178073951e-01
         - -5.2303585255018470e-01
         - -4.8791516510044728e+00
         - 4.5709455026847037e+00
         - 2.7479112067318301e-01
         - -7.0501128386457945e-02
         - 4.9355943003814406e-01
         - 2.9428368269538940e-01
         - 1.1206328548257578e+00
         - 3.1234060753618198e-01
         - -1.4140526311955853e-01
         - -1.6207577900047443e-01
         - -3.8988644184499655e-01
         - 3.2840137432637961e-01
         - 1.9322403356645729e-02
         - 1.3005735309009292e-01
         - -5.2954372466716693e-01
         - -4.3694779154378449e-01
         - 5.1041008619312844e-01
         - -1.3291608748770252e+00
         - -2.6760814459777051e-02
         - 3.7343954340767010e-01
         - -4.0847290810464065e-01
   class_labels: !!opencv-matrix
      rows: 1
      cols: 4
      dt: i
      data: [ 1, 2, 3, 4 ]
