%YAML:1.0
my_nn: !!opencv-ml-ann-mlp
   layer_sizes: !!opencv-matrix
      rows: 1
      cols: 3
      dt: i
      data: [ 4, 100, 4 ]
   activation_function: SIGMOID_SYM
   f_param1: 1.
   f_param2: 1.
   min_val: -9.4999999999999996e-01
   max_val: 9.4999999999999996e-01
   min_val1: -9.7999999999999998e-01
   max_val1: 9.7999999999999998e-01
   training_params:
      train_method: RPROP
      dw0: 1.0000000149011612e-01
      dw_plus: 1.2000000000000000e+00
      dw_minus: 5.0000000000000000e-01
      dw_min: 1.0000000116860974e-07
      dw_max: 50.
      term_criteria: { epsilon:9.9999997764825821e-03, iterations:1000 }
   input_scale: [ 1.8030001919580450e+00, 1.1386761846056934e-01,
       1.2934497139751282e+00, -3.0344959965113421e-02,
       7.6545029923412977e-01, -1.5099158632255646e-01,
       8.1018382459065363e-01, 2.1892713000928857e-01 ]
   output_scale: [ 1.0526315789473684e+00, 0., 1.0526315789473684e+00,
       0., 1.0526315789473684e+00, 0., 1.0526315789473684e+00, 0. ]
   inv_output_scale: [ 9.4999999999999996e-01, 0.,
       9.4999999999999996e-01, 0., 9.4999999999999996e-01, 0.,
       9.4999999999999996e-01, 0. ]
   weights:
      - [ -9.2578766794607170e-01, 5.4451022669990423e-01,
          1.0261505703392730e-01, 2.2179139801700304e-01,
          3.0432194404763402e-01, -1.3529829133453031e-01,
          2.0471988204003266e-01, 4.2106032892324716e-02,
          -7.7510064037500137e-01, 3.8280621340653387e-01,
          -2.4033876743511048e-01, 2.4869214296615089e-01,
          -5.7585623938690600e-01, -1.5391667794084624e-01,
          -3.0297468536721417e-01, -1.2450648746004056e-01,
          -2.7345309113340710e-01, 1.3415406477013381e-01,
          -2.3472902306662205e-01, -1.1505229493212732e+00,
          -4.0595063001092546e-01, 8.2812568735739327e-03,
          4.4190402895289976e-01, -1.2661299500950610e-01,
          -6.9964669541742819e-01, 2.0322813207677079e-01,
          -8.6550271773821374e-01, 4.2550201194575303e-02,
          1.9148278159757157e-02, 1.6384995432176122e-01,
          -5.2063666606637826e-01, 1.3304935712486493e-01,
          -1.9551074826665401e-02, 3.9746715558932205e-01,
          7.1287996310165935e-01, -4.6205301365884588e-01,
          3.5758708550505482e-02, -4.8666825298673541e-02,
          9.3831721014300695e-01, 5.0010904882314522e-01,
          -5.4101885534357363e-01, 3.6217241983402992e-01,
          -1.5108651163377826e-01, -7.9378542147265585e-02,
          -7.7921315757310275e-02, -2.8059373085973766e-01,
          -8.2082375377664285e-01, -1.1587039839117680e-01,
          4.3201762292554446e-01, -1.2418018633120731e-01,
          1.4795271504831478e-01, 5.3724454087739448e-01,
          5.4524166425373208e-02, -7.9938670496954422e-03,
          7.5240325819352666e-02, -1.2220112353746050e-01,
          -5.9390124746724435e-02, 2.9038821454443597e-01,
          -4.1048334872765613e-01, 4.3650498534150878e-01,
          -4.9795975916365851e-02, -1.7354681498438260e-01,
          4.3495300116951241e-01, 7.2313902131721119e-01,
          -1.9688837879865275e-02, -2.0550314458030861e-01,
          -3.3310635486070184e-01, 6.1371327813800280e-01,
          -5.0662221463685397e-01, 1.8265038962392488e+00,
          2.5979337427637417e-01, -6.8085786210309196e-02,
          -3.8783577777617051e-01, -8.5987888482477279e-02,
          3.7109522517667826e-01, 1.4989328185502887e-02,
          8.2741025928805934e-01, -7.6444646205164801e-01,
          -1.8907567602431655e-01, 4.1559337166442473e-02,
          -3.0845419656072343e-01, 7.3435152235533901e-02,
          -5.9706254879451892e-01, 7.0720416775000197e-02,
          -8.1709901881290703e-01, -4.8411067067230529e-01,
          -4.6087017323882051e-01, -2.6765055801097737e-01,
          -7.3362621879499726e-02, -7.4293415631515947e-01,
          2.9039345936811012e-01, -5.1825180351505251e-01,
          -7.9785128260557969e-01, 7.7749942465793065e-01,
          -4.4644182673231003e-01, -9.7693349841275945e-01,
          -2.8564857029218210e-01, -2.1997420365554018e-02,
          -3.1239820716693062e-01, -8.4842239434054245e-01,
          4.1309775302121321e-02, -5.3605559529375524e-01,
          -5.6448822760774642e-01, 2.4369271430463295e-02,
          -2.4171852090814150e-01, 3.0495999369756721e-01,
          -1.8122125660012295e-01, -3.4686113007930242e-01,
          1.1960860319303585e-01, 6.2357290850387892e-01,
          -1.7437571323295031e-01, 2.1608733543336051e-01,
          -1.8127570495232653e-01, 4.2435204426538009e-01,
          -8.5749203763183290e-02, -3.7852370899319324e-02,
          -5.7608723394126427e-01, -1.2273395199267506e-01,
          5.2481751116710051e-01, -2.4715722888235347e-01,
          2.2132407637721607e-01, -1.1042163951821821e-01,
          -1.8441463565635505e-01, -7.4209298227088452e-02,
          2.7156220361254768e-01, -4.3467032645122705e-01,
          2.5853742932193224e-02, -2.6276046552139298e-01,
          1.0483257352455377e-01, 6.1415152321632449e-01,
          -5.0618239124927578e-02, 3.2893672826587284e-01,
          -4.5777569184082256e-01, 3.5011566478680362e-01,
          -1.1878855188085959e-01, 6.5496559377295246e-02,
          -6.8403765693022056e-01, 1.0999283053672407e-01,
          1.2113614411499976e-01, 4.6572865859909757e-01,
          1.2229542091623474e-01, -1.8881142124493566e-01,
          4.5167675126413792e-01, 6.1203225030154862e-01,
          -1.2741776770829147e-01, -2.7537137795273756e-02,
          -6.1047943054755499e-02, 2.6466309281434264e-01,
          2.6681678497980289e-02, 6.3590504044342536e-02,
          3.3742932593948050e-01, -2.0326452591891775e-01,
          3.5687632929910307e-01, 2.5619619040829922e-01,
          1.8033589717221071e-01, 2.3933089197646110e-01,
          -1.6300776962527602e-01, 5.3688482979624919e-01,
          -1.7510364359133716e-02, 5.4905524994047095e-01,
          -1.8257100617383071e-01, 2.3027409574768667e-01,
          -4.1969405003774489e-02, -3.1018266273869122e-01,
          3.9059025183696683e-01, 2.0638939852123842e-01,
          6.4600268518575654e-01, 3.6547634376863691e-01,
          -2.7724076426851357e-01, 3.5363693157542914e-01,
          -4.3810893502282711e-01, 2.5090906925252798e-01,
          -2.9940172193557624e-01, -3.8581375444283073e-01,
          -2.6873058194812355e-01, 2.3890496459775246e-01,
          2.1733553147262463e-01, -2.2879633129372395e-01,
          -3.7731681016852581e-01, 7.2060414645492565e-01,
          -3.7749243415945399e-01, 3.8566158422457741e-01,
          -4.0037600380218152e-01, 2.8770092697274458e-01,
          -2.6953935897111653e-01, 3.4217404798725293e-01,
          7.7829889811113551e-02, -5.2447846586226199e-02,
          6.7671549311086099e-02, -3.0063368422550163e-01,
          5.5632907956199151e-01, 1.5564433714805320e-01,
          2.3042403384920948e-01, 8.3928379581872936e-02,
          -2.5949563605234555e-01, 3.5526948670941616e-01,
          -2.5453812657328856e-01, 1.7702234390934929e-01,
          -4.6566282336410261e-02, -3.7773954426203005e-01,
          1.0381344331875914e-01, -4.4168255644292564e-01,
          2.2449690940830469e-01, -2.1452627767323990e-01,
          1.8390139461697536e-01, 3.2944732174097674e-01,
          -1.6322637249733526e-01, -4.8888931014911702e-01,
          3.4554836802615302e-01, 3.7418638419726336e-01,
          1.6394837590741301e-01, -4.7579999478718227e-01,
          2.4011131067619394e-03, -8.8241658519332133e-02,
          3.9895201984587531e-01, 3.3394393573143061e-01,
          -2.1190569607908327e-01, -3.0480291622098676e-01,
          2.0782585267313797e-01, -4.9842484120237551e-01,
          2.1175607407441918e-01, 1.0813274572353825e-01,
          3.2914269111516001e-02, -3.7216167056068727e-02,
          -5.2265188949376762e-02, 3.1646178618296611e-01,
          -3.4841542469736347e-01, -2.6905960346304397e-01,
          -5.3124394779882866e-01, 5.3604684046680895e-01,
          3.0541976753751704e-01, -2.7463029188689592e-01,
          1.1202199156640170e-01, -1.2329296854824377e-01,
          8.7238055160183750e-02, -5.0921990314682719e-01,
          -1.8179553494151637e-01, 8.2831802339810823e-01,
          1.4744120110075762e-01, -1.3243151049846105e-01,
          9.8384861122838743e-02, -3.0546165042927603e-01,
          5.1362645115646359e-03, 7.4440512009713466e-01,
          -5.3640980391658555e-01, -3.7338451592471511e-01,
          1.0060914349645289e-01, -2.6708584282586501e-01,
          6.6225182867734944e-01, 1.2044203631686976e+00,
          4.0727960401783392e-01, -6.5459869994098774e-01,
          2.1776366103252073e-01, -1.8112273417299121e-01,
          5.1179174142427904e-02, 2.1533108455255812e-01,
          1.5736778104977985e-02, 5.1370345641375970e-01,
          -2.2912746319491814e-01, 1.5347754538440261e-01,
          2.0128904336686584e-01, -5.0702259987853604e-01,
          1.6882831056292216e-01, -1.9996342174420403e-01,
          -2.0873193193874950e-01, -2.5793820849444097e-02,
          4.6324453463401061e-01, -2.8771975397702354e-01,
          -2.0234672316854957e-01, 4.2155642431262424e-01,
          -3.8549542364026482e-02, -6.9163318819861874e-02,
          9.7173555122301258e-01, 9.8650291470201990e-02,
          -2.1506738497873953e-01, 1.9334279521219519e-01,
          -2.3663496299820019e-01, 2.4792145055472140e-01,
          5.0901839934986715e-01, -3.3475557515624238e-01,
          -1.3889953139360595e-01, -5.8795392475431452e-01,
          2.0629689155803177e-01, -2.6185630139162613e-01,
          6.0679067048066068e-02, -2.6659734099943350e-01,
          1.0922346476091227e-01, -2.2298320485964734e-01,
          -3.3013550245271178e-01, 2.7451227336243528e-01,
          -7.5788297510129249e-02, 1.2128924273535557e-01,
          -7.1688722768211435e-02, 1.8433193590868255e-01,
          -4.4566321611585613e-01, 6.1935729076492518e-01,
          8.4051440748212039e-02, 1.6251584172823494e-01,
          -6.4911548388220341e-01, -4.0850873927165701e-02,
          -2.3833114844843208e-02, -2.5676790750615675e-01,
          9.7599805789089000e-02, 2.8240759118576991e-01,
          -9.5441865019125521e-02, 4.9361097578750590e-01,
          6.0832483051056110e-02, -4.1515559577526756e-01,
          -2.4382392349253049e-02, -3.6280692037399004e-01,
          -3.3191388902079955e-01, 2.2517052928317380e-01,
          1.6711916760300352e-01, -1.6973961683437644e-01,
          6.2312409714512418e-01, 4.8434720562087197e-01,
          -2.1956536887652611e-01, 6.9830907089050631e-01,
          2.0640931483527131e-01, -3.4757406570923230e-02,
          -4.9111922445705758e-01, 3.0569686441920813e-01,
          5.1684560614511421e-01, 5.4301153644472733e-01,
          -4.5251591911345090e-01, 3.2680245878022887e-02,
          4.8372212541313031e-01, -2.1786027976776040e-01,
          3.2922175603394715e-01, -1.8458168942527128e-01,
          -1.0837532704840475e-01, 4.8237633627016202e-01,
          -8.7518765657201125e-02, -4.2690044826811296e-01,
          -2.7402333769001752e-01, 4.0452364719545253e-01,
          -6.7000838421923850e-02, 1.8100597241660835e-01,
          -2.9850013459948954e-01, -6.2832487564827122e-01,
          -9.2104087279097169e-01, -7.2012451708332081e-01,
          3.7670300123113570e-01, 8.3636480678340452e-01,
          -5.1120111638706123e-01, -5.0936489303448806e-01,
          -4.6385505061321208e-01, 1.9437145694324151e-01,
          -1.7741223054587074e-01, 7.4002233848214338e-01,
          -1.2228835521714335e-01, -1.8879128774355458e-01,
          1.5723417128588979e-01, -2.2481960643728288e-01,
          6.2184359795801736e-01, -3.7563689922571514e-01,
          4.9008887921420052e-01, 2.2730992814831183e-01,
          3.2792882349551972e-01, 1.3547778061333421e-01,
          5.2209397388356138e-01, 1.3856488267337142e-02,
          -4.2323809304856763e-01, -5.0771490524165386e-01,
          2.9830535743832001e-02, 1.1983645014950081e-01,
          1.4310357022129647e-01, 9.8010629554068474e-02,
          6.0664472093549182e-01, -3.7274386529416242e-01,
          -2.2352723131960106e-01, -1.8985181942915991e-01,
          4.0493041718689421e-02, 2.5217806296147105e-01,
          3.5989157464497262e-01, 1.0341290530871269e-01,
          9.4609251843803394e-02, 5.4157976776370076e-01,
          3.3538912057868747e-01, -3.9324962162079174e-01,
          -4.3358290038479308e-01, -1.3031934142859317e-01,
          4.6690456583858259e-01, -1.3168318260692535e-01,
          -1.1508255907797511e-01, 3.5934527399670918e-01,
          3.4262647204833763e-01, 2.6745162025080488e-01,
          4.8263032566826886e-01, -1.7766389348406494e-01,
          -1.2628916428694573e-01, -2.6905461755878923e-01,
          4.2515741200185114e-01, -1.5873026289865214e-01,
          -4.5304297026899792e-01, -2.0602974136233440e-01,
          1.1796185854479802e-01, -3.7730923018088053e-01,
          -2.4280259363793441e-01, -1.3892894015614579e-01,
          -2.0135974460530670e-01, 3.1290480381442476e-01,
          1.3619125395917120e-01, 7.9889258002086894e-01,
          1.4739198014881705e-02, 7.3148106064909943e-02,
          -2.0704652498406521e-02, 1.7273615550165949e-01,
          2.2198436691296713e-01, 8.1227921960189811e-02,
          -8.0010677289404641e-02, 3.0776939905091776e-02,
          -2.4967439726849802e-01, 6.3203769469924870e-03,
          -6.3368967808306559e-02, 2.4075736258863006e-01,
          3.1005051706028432e-02, 2.8701823874265603e-01,
          1.4859272909364446e-01, 3.0709261629264095e-01,
          6.0568659048548945e-01, 3.1411306801510774e-01,
          4.8832417495953094e-02, 3.7401251002434344e-01,
          1.6100655052238394e-01, 5.7504376068859864e-01,
          3.7627694079051205e-01, -5.4768392362673746e-01,
          -3.0093565834175362e-01, 2.8544935154472129e-01,
          2.6718814981114319e-01, 3.0351525704051802e-01,
          -4.0061771538549346e-01, -2.7454632631734455e-01,
          4.3412007557288324e-01, -1.4798075698361948e-01,
          2.3049458714954604e-01, -4.3001133624214349e-01,
          4.5749324965042019e-02, -3.6861023654661906e-01,
          -7.5294766377322873e-03, -3.5162322903590409e-01,
          4.4599701864742047e-01, -5.3479890462123214e-01,
          9.2824774734984725e-02, 1.0422856536068403e-01,
          -4.4044172324841473e-02, 1.1993852996971471e-01,
          1.0951249268758394e-01, -4.3532488700027960e-01,
          -8.1250001210719347e-02, -4.2435014250532876e-01,
          -2.9841822748186064e-01, 4.0679630033172942e-01,
          -1.1053121231223439e-01, 8.3390321673286708e-02,
          -2.6461624767122527e-01, -1.8396606583121818e-02,
          2.7793372912859832e-01, -2.4528984758642680e-01,
          5.8303332913457677e-02, 3.1210328817189742e-01,
          3.7465543529926086e-02, 2.5378985483687155e-01,
          5.5901865731592171e-02, 4.9118332740752935e-01,
          1.5903032270710927e-02, -2.3008390759765762e-01,
          -9.7187941091902482e-03, 4.2447552128466637e-01,
          -3.3879987111854731e-01, 4.5193331261759984e-01,
          -4.6134953808512102e-01, -3.4962815097558386e-01,
          -2.2597229863454854e-01, 3.4314070304953315e-01,
          3.1547778169502638e-01, -6.1055251586761394e-02,
          4.5766027642624454e-02, -1.9576452693864743e-01,
          -5.7262782567699913e-02, -3.2774692358840851e-01,
          -1.8051279106897850e-01, -4.8227133038323344e-01,
          1.4913723303302529e-02, 3.6133812348824640e-01,
          -3.8569423793625580e-02, -2.7151845238063560e-01,
          7.0731872442021415e-01, 1.9519345049124609e-01,
          2.0808848625486454e-01, -4.2468642451474814e-01,
          4.3975760811172443e-01, -1.8475668964681602e-01,
          1.3702385211394358e-01, 2.0658423609712290e-01,
          7.1313758813317668e-02, -2.7214595577450851e-01,
          5.8799300771120933e-01, -1.2878556673553618e-01 ]
      - [ -2.5625147711517265e-01, -5.4750883496166602e-01,
          9.9350067645711904e-01, 1.6923682159865178e-01,
          -2.3944269442449420e-01, 1.3518735268141738e-01,
          -5.3446170708584750e-01, -8.6657195764636286e-01,
          -7.5214212210210865e-02, 3.1485246323454362e-03,
          -1.0341922072103031e+00, 2.5321367319606003e-01,
          -9.8010986846904979e-01, -2.4596470353540517e-01,
          -5.1123152723957876e-01, -9.7692405816965855e-01,
          3.7278954676563408e-01, 7.6175771334995812e-02,
          3.4509674417585595e-01, -2.0368596980755760e-01,
          -3.5533472323161058e-01, -1.0794456338568035e+00,
          -3.0638478597269830e-01, -3.8762142171365227e-01,
          -7.0809498583844332e-02, 7.1652519160791239e-01,
          -7.3741139105670039e-01, -8.5511346621089934e-01,
          3.8398830346216724e-02, 9.2876392586049517e-01,
          -1.3536237200746754e-01, -3.1522659415786047e-01,
          6.7185221888345602e-03, -4.0724543863905582e-01,
          3.3884830528584969e-01, 1.5041203389793301e-01,
          -2.0978104153994606e-01, 2.8926346578211770e-01,
          -1.1553016864024983e+00, 3.9853503862427431e-01,
          -2.2763600273738840e-01, -7.2755220235921914e-01,
          4.6901344161640796e-01, 8.0640487274282269e-01,
          -4.4022529997511139e-01, 6.2650549243053522e-01,
          1.3175354239246344e+00, -4.7158961954567247e-01,
          9.7974204994693059e-02, -6.4130063410024440e-01,
          3.8047478209786939e-01, 6.8896926283527904e-01,
          1.1466429606694650e+00, -8.2039691873820708e-01,
          -7.4662651655034318e-01, 8.0806724945852348e-01,
          -5.0884551048285862e-02, -4.5061798684213533e-01,
          4.6104364023011046e-01, 4.6808368895049057e-01,
          -1.6386283616243491e-01, -6.1999461464454209e-01,
          1.5386444048809229e+00, 5.0973219602493636e-01,
          3.1716856375721730e-01, 6.1705657019296978e-01,
          -1.0061832774411983e-01, 1.8526922752234110e-02,
          -1.4059751049498110e+00, 4.0913105272644845e-01,
          1.8104351922928139e+00, -9.6085219842192438e-01,
          -3.2858338054506464e-01, -7.7603695997632927e-01,
          -4.6459319969068458e-01, 6.1933933555952991e-01,
          7.7636389927471916e-01, -4.6191261684417018e-01,
          -6.7805499024745808e-02, -6.4757351898514726e-01,
          4.1503736045599432e-01, -1.0839739152304124e+00,
          -2.3611242092799223e-01, -6.6516049904622832e-01,
          -1.0879032948540137e+00, -3.9276421252066374e-01,
          7.6360772836066071e-02, -9.2138323680691536e-01,
          -5.8084471108153746e-01, -1.7958357532515967e-01,
          -2.3854056336954665e-01, 3.8199580287728158e-01,
          -6.8332331704673566e-01, -5.0009234107390155e-01,
          -3.8252973102744758e-01, 2.1528398695778456e-01,
          5.2839846244905553e-01, -4.1912395711369343e-01,
          -6.2975927825924272e-01, 1.2253476708637094e+00,
          -3.0193479464521938e-01, -2.0677948854701161e-01,
          -1.0325262207155084e+00, -1.4661634435867144e-01,
          -1.0578992047274032e+00, -4.0611899115715577e-01,
          5.1726167192331018e-01, -6.1006204229773187e-01,
          8.4588682066250287e-01, -4.9216370484998204e-02,
          4.1436261445722206e-01, 3.6684578057845108e-01,
          -1.6758779240330088e-01, 8.8088181549085132e-01,
          8.7074107788414801e-01, -1.7449946614248990e-01,
          -3.2508153675883174e-02, -5.7801596069361794e-01,
          -9.1714436226996354e-01, -1.7798672807596383e-01,
          -6.2405062943642331e-01, -4.1337222843005050e-01,
          2.9902546982266670e-01, -5.0592326061761550e-01,
          -1.3605353812930929e+00, -5.6404082609324835e-03,
          4.8094439990960991e-01, -8.0353458335520545e-01,
          1.6384427196421084e-01, 7.2329243424404654e-01,
          5.8298758809193829e-01, 4.6024998512490445e-01,
          7.0111604419931783e-01, 4.9333650523317774e-01,
          -3.8603327764107825e-01, 5.9391706715822312e-01,
          -7.5257330515884258e-01, 2.1359451042766656e-02,
          -6.5406211112983981e-01, -6.8734699905151198e-01,
          -6.1515143920705684e-01, -2.9541367519438705e-01,
          7.3729475292210944e-01, -6.2934663689728521e-01,
          -1.3086826269526087e-02, 5.2928336411487487e-01,
          5.7060966126700230e-01, -1.0417626774408408e+00,
          2.2284418553601174e-01, -6.3475340744197861e-01,
          2.7843293423317650e-02, 1.2828929730539120e+00,
          -9.1414546719034140e-01, 9.9290968552131975e-01,
          1.2066694012100670e-01, 5.5900810417283897e-01,
          1.1686846310534535e+00, 1.0534211133993154e+00,
          -6.3042057829665477e-01, 5.7477971117193571e-01,
          6.8244732842811173e-01, -8.2724137502681996e-02,
          -1.1855868621933097e+00, 7.5726051038678921e-01,
          1.0412083252143547e+00, 1.1060173975714953e+00,
          5.5562552432362675e-02, 1.8470521450025162e-01,
          -7.9692565904809076e-01, -1.0862215258585386e+00,
          1.8741448379778172e-01, -8.1193352876194791e-01,
          7.3668129922741599e-01, -4.5937134365164473e-01,
          -1.9890184254738952e-01, 8.5474452762630426e-01,
          8.4992102114329537e-01, 1.0520733308602970e+00,
          -8.8474694693237654e-01, -3.1408227525668225e-01,
          7.0123616371930222e-02, -2.9858302898541803e-02,
          -1.3064737700757845e+00, -7.2263123710798149e-01,
          8.9171061125217388e-01, -5.8310136980780425e-01,
          -7.2660357116214613e-01, -4.5683523712896063e-01,
          7.5687469551815087e-02, -3.9467567266393822e-01,
          7.6113472877416544e-02, -7.4183108026787747e-01,
          4.4814967258077008e-02, 2.8115977092667532e-01,
          -1.0620607680110392e+00, 1.1729962530661096e+00,
          4.4256249528875219e-01, -5.4845991510106129e-01,
          5.0107520788843163e-01, 1.2706394712150706e+00,
          -9.5167213428455444e-01, -7.1938426764977303e-01,
          5.0318296991476363e-01, 4.8203850539948440e-01,
          9.6307570159348321e-01, 1.5075044053934392e+00,
          2.9182642784165186e-01, -4.1415944487620232e-01,
          -2.0507450226938670e-01, 2.5941261295785145e-01,
          -1.6988685554963945e-01, 1.5124009656117650e+00,
          3.2843918708580544e-01, -4.7637922616555882e-02,
          -1.2497183728030381e-01, -4.8734371442289881e-01,
          -5.5481675970491884e-01, 6.4363564080311919e-01,
          1.0653719424578501e+00, 5.5025572743044970e-01,
          1.1136978791396086e+00, -2.3289129338960785e-01,
          -8.6257955915042928e-01, 1.1925869212875662e-01,
          2.0117659626949272e-01, -2.6337677403082999e-01,
          3.9853693286881997e-01, 5.9785784626080340e-01,
          -9.5496208396474969e-01, 5.4600292992307953e-01,
          9.8968289679901522e-01, 1.0283742317598397e-01,
          -7.4743535505052039e-01, -3.4698446551713091e-01,
          7.5812478972431629e-01, -5.7097429266926458e-01,
          4.8911275560708795e-01, 5.5514986898689034e-01,
          3.0551670574537731e-01, 5.6696885209804415e-01,
          -1.3298189563090472e+00, 6.0647099587711706e-01,
          2.1286282554333384e+00, -1.0442114434016614e-01,
          3.5666164375290305e-01, 1.0856715565765042e-01,
          -6.5645124126671384e-01, -1.6255426526369361e+00,
          4.5410954732568115e-01, 3.3367073176736006e-01,
          -1.0766715700486600e+00, 7.7782138315237087e-02,
          -1.7427537623328904e-01, 2.0343524765472684e-01,
          -1.0468211712384261e+00, -6.1429151509228985e-01,
          -4.6227592863064371e-01, 1.8997100954417043e-01,
          7.4861496788741533e-01, -1.3372131692035572e-01,
          -5.2123634868479318e-01, -9.1574222973502450e-01,
          3.5991473055900353e-01, -7.5724930465990825e-01,
          -2.6192244533194137e-01, 2.3489300463485800e-02,
          5.0970359726086256e-01, 5.8302291566794462e-01,
          4.0592364087583771e-01, 4.3949180069348959e-01,
          -4.9047832571692929e-01, 5.1611062658343254e-01,
          2.2021737908005362e-01, -6.9001399711094613e-01,
          1.1362047025600304e+00, -8.0125477696881309e-01,
          -5.2814000382666115e-01, 7.1829073221847883e-01,
          -1.1065904129358843e+00, -6.9372586949040110e-03,
          8.4994213452137490e-01, 1.0068738394365564e+00,
          -5.6476423626614558e-01, -7.6529287967857948e-02,
          -2.0740200731490424e-01, -5.1402932366733012e-01,
          -4.3332658884125608e-01, 4.9047654483265213e-01,
          6.8072279977057326e-01, -4.1192787584824575e-01,
          8.0009297994995787e-01, 7.6502719904313332e-01,
          2.0044945941949027e-01, 5.0733192476808986e-01,
          2.1468828167185994e-01, 2.3231833154977671e-01,
          5.4296403661850212e-01, 3.0208464529981016e-01,
          6.3903958632184343e-01, 7.6342994466982450e-01,
          8.7139134770128690e-02, -8.4268995280153547e-01,
          -7.0583564034272828e-01, -1.0187118438750520e+00,
          -7.1544560698068571e-01, 9.2378610048081389e-01,
          -7.2123601537812143e-01, -1.3868899958046887e-01,
          -2.3418353463619623e-01, -2.3594938356316958e-01,
          1.3831466470168217e+00, 1.7698468944320517e-01,
          -1.3225443988527924e-01, -5.4715759635360495e-01,
          1.0358179711850934e+00, 6.7242639730195974e-01,
          4.6192839580421324e-01, -7.7090547951607580e-02,
          -9.4949988328114646e-02, -2.8718360477978155e-01,
          7.8606712140577717e-01, 9.8798508999871937e-01,
          -8.0815350457291768e-02, -5.8776486692013841e-01,
          6.9392960099996315e-01, 8.0409873703848900e-01,
          -5.5558021654118980e-02, -4.4578780183908212e-01,
          2.5038303421448216e-01, -3.5435647713992086e-01,
          1.5125323029728019e+00, -7.3114917796550671e-01,
          4.1783673040895153e-01, 2.5649857318293823e-01,
          1.3788220693183315e-01, 4.0523134062622812e-01,
          -2.0983423292153150e-01, -6.4563445900846617e-01,
          -2.6391105301956680e-01, -8.8371603936684651e-01,
          -1.9281258346422514e+00, -9.0053785963744470e-01,
          8.8204943280556591e-01, -8.7731886828529182e-01,
          -7.2948986000715565e-01, -2.7106149062591245e-01,
          1.5153971798689394e+00, -9.5514754005820102e-02,
          -7.7273662252066500e-01, -1.6835513162741361e-01,
          8.2970388638185477e-01, 3.6797977436310925e-01,
          -6.1122418347117724e-01, -1.2784176648350534e-01,
          -1.0878421854447032e-01, 3.3617033929004558e-01,
          -2.2692696802885562e-01, -2.3919673666686803e-01,
          3.6524668917853598e-01, 4.0442242012413081e-02,
          -4.4539710681657052e-01, -2.8088027937828491e-01,
          -6.8056998078552278e-01, 6.7222835799852632e-01,
          7.0704127039356945e-01, -2.7251656800233065e-01,
          2.0628795373074868e-01, 9.6135948067501209e-01,
          -1.4537278736993426e+00, -9.8573357816796692e-01,
          5.7764962701133959e-01, -7.9104694606763826e-01,
          -9.8397373182998493e-01, 8.8905657963717100e-01,
          4.9925869129460132e-01, -6.0649744679776174e-01,
          7.9103577015690718e-01, -2.5953098649900841e-01,
          -6.4501499760385594e-01, -4.4093827642407096e-01,
          7.0079820446906282e-01, -3.5958785003767959e+00,
          -6.1415600047455277e-01, 8.7233120166839440e-01,
          1.0594884038807219e-01, 1.0545361391293268e-01,
          1.0879441772703831e+00, -1.0395991443034289e+00,
          1.0473495215930821e+00, -1.0436010576816437e-01,
          2.7441864678640243e-01, -5.2539302216455941e-01,
          3.5766842402059579e-01, 6.8996042981212369e-01,
          -3.9682283708911237e-01, -1.1192919829489183e+00,
          2.4348695551837704e-01, -3.8871762303234847e-01,
          1.1979255478163469e+00, -8.9779578246273506e-01,
          -1.0241304079087086e+00, -1.2719681928886983e+00,
          7.4124497987687832e-01, 4.5612473558873701e-01 ]
   class_labels: !!opencv-matrix
      rows: 1
      cols: 4
      dt: i
      data: [ 1, 2, 3, 4 ]
