%YAML:1.0
---
opencv_ml_nbayes:
   format: 3
   var_count: 4
   var_all: 4
   cls_labels: !!opencv-matrix
      rows: 4
      cols: 1
      dt: i
      data: [ 1, 2, 3, 4 ]
   count:
      - !!opencv-matrix
         rows: 1
         cols: 4
         dt: i
         data: [ 43, 43, 43, 43 ]
      - !!opencv-matrix
         rows: 1
         cols: 4
         dt: i
         data: [ 43, 43, 43, 43 ]
      - !!opencv-matrix
         rows: 1
         cols: 4
         dt: i
         data: [ 43, 43, 43, 43 ]
      - !!opencv-matrix
         rows: 1
         cols: 4
         dt: i
         data: [ 43, 43, 43, 43 ]
   sum:
      - !!opencv-matrix
         rows: 1
         cols: 4
         dt: d
         data: [ -2.1922148197889328e+01, -2.7578045368194580e+01,
             -3.8794483482837677e+01, -7.2535933732986450e+01 ]
      - !!opencv-matrix
         rows: 1
         cols: 4
         dt: d
         data: [ 1.0171979464590549e+01, -3.2993363565765321e-01,
             -3.5552953544538468e+00, -4.6229716002941132e+01 ]
      - !!opencv-matrix
         rows: 1
         cols: 4
         dt: d
         data: [ -2.6771352648735046e+01, -2.0587651997804642e+01,
             -2.3959105100482702e+01, 5.0243718490004539e+01 ]
      - !!opencv-matrix
         rows: 1
         cols: 4
         dt: d
         data: [ 2.7658943295478821e+01, 5.2530834734439850e+01,
             1.0023734784126282e+02, 2.2044248998165131e+01 ]
   productsum:
      - !!opencv-matrix
         rows: 4
         cols: 4
         dt: d
         data: [ 1.1334907806227342e+01, 1.4106713934400750e+01,
             1.9791258782486747e+01, 3.6969268035793043e+01,
             1.4106713934400750e+01, 1.7828339347921343e+01,
             2.4954887837246293e+01, 4.6540633658028639e+01,
             1.9791258782486747e+01, 2.4954887837246293e+01,
             3.5146367402696725e+01, 6.5488413752753047e+01,
             3.6969268035793043e+01, 4.6540633658028639e+01,
             6.5488413752753047e+01, 1.2239178226438796e+02 ]
      - !!opencv-matrix
         rows: 4
         cols: 4
         dt: d
         data: [ 2.8536261169779271e+00, 2.7449107020275826e-01,
             -5.3549794570381493e-01, -1.0733534687198690e+01,
             2.7449107020275826e-01, 4.2257014677975757e-01,
             3.6893748841948659e-01, 5.6116084453262582e-01,
             -5.3549794570381493e-01, 3.6893748841948659e-01,
             6.3559240687495133e-01, 4.0204777421739273e+00,
             -1.0733534687198690e+01, 5.6116084453262582e-01,
             4.0204777421739273e+00, 4.9877192411097099e+01 ]
      - !!opencv-matrix
         rows: 4
         cols: 4
         dt: d
         data: [ 1.8361237094424304e+01, 1.4983181689856238e+01,
             1.7045058630829118e+01, -2.9246173065404498e+01,
             1.4983181689856238e+01, 1.3112342580539881e+01,
             1.4481228161753974e+01, -2.0114496856277562e+01,
             1.7045058630829118e+01, 1.4481228161753974e+01,
             1.6530650065412114e+01, -2.6706934624693098e+01,
             -2.9246173065404498e+01, -2.0114496856277562e+01,
             -2.6706934624693098e+01, 8.5356237339783718e+01 ]
      - !!opencv-matrix
         rows: 4
         cols: 4
         dt: d
         data: [ 2.1046145088390379e+01, 3.8424028927514179e+01,
             7.0411584893979324e+01, 1.8052737808870056e+01,
             3.8424028927514179e+01, 7.1539992924877623e+01,
             1.3217795888927964e+02, 3.3130444244416317e+01,
             7.0411584893979324e+01, 1.3217795888927964e+02,
             2.4793842825094077e+02, 6.0087130090913739e+01,
             1.8052737808870056e+01, 3.3130444244416317e+01,
             6.0087130090913739e+01, 1.6970155373076185e+01 ]
   avg:
      - !!opencv-matrix
         rows: 1
         cols: 4
         dt: d
         data: [ -5.0981739995091457e-01, -6.4134989228359485e-01,
             -9.0219729029855067e-01, -1.6868821798368943e+00 ]
      - !!opencv-matrix
         rows: 1
         cols: 4
         dt: d
         data: [ 2.3655766196722208e-01, -7.6728752478524001e-03,
             -8.2681287312880158e-02, -1.0751096744870030e+00 ]
      - !!opencv-matrix
         rows: 1
         cols: 4
         dt: d
         data: [ -6.2258959648221035e-01, -4.7878260460010796e-01,
             -5.5718849070890009e-01, 1.1684585695349894e+00 ]
      - !!opencv-matrix
         rows: 1
         cols: 4
         dt: d
         data: [ 6.4323123942974003e-01, 1.2216473194055779e+00,
             2.3311011125875072e+00, 5.1265695344570072e-01 ]
   inv_eigen_values:
      - !!opencv-matrix
         rows: 4
         cols: 1
         dt: d
         data: [ 1.7036290508681049e+02, 2.7444604480428723e+02,
             6.5083493560395721e+02, 3.0052952245071065e+03 ]
      - !!opencv-matrix
         rows: 4
         cols: 1
         dt: d
         data: [ 3.5198919026378150e+01, 4.1303600041327149e+02,
             7.2651362667433921e+02, 1.3331772008976288e+03 ]
      - !!opencv-matrix
         rows: 4
         cols: 1
         dt: d
         data: [ 1.5177841661358380e+00, 6.1140335203919873e+00,
             2.4593229198916498e+02, 6.3337767010678783e+02 ]
      - !!opencv-matrix
         rows: 4
         cols: 1
         dt: d
         data: [ 1.4315716189687104e+00, 4.9513712463596988e+01,
             1.9677065140428138e+02, 2.5476254270295976e+02 ]
   cov_rotate_mats:
      - !!opencv-matrix
         rows: 4
         cols: 4
         dt: d
         data: [ 4.1695057889651599e-01, 6.4872584607309292e-01,
             6.1291238795196767e-01, 1.7217838450173228e-01,
             -8.4289294103176060e-01, 2.8882034297684669e-02,
             4.6936532881636328e-01, 2.6152152140648732e-01,
             3.2719332438314597e-01, -7.5998937214176687e-01,
             5.2839992350979270e-01, 1.9014258740617218e-01,
             9.2888283415050593e-02, 2.7143304204536048e-02,
             -3.5331022294149550e-01, 9.3048744978430320e-01 ]
      - !!opencv-matrix
         rows: 4
         cols: 4
         dt: d
         data: [ 5.6331388567005680e-01, 5.6700602287854340e-01,
             5.0529676628764564e-01, 3.2535644178348067e-01,
             -8.2026606200476482e-01, 3.1884460935886832e-01,
             4.3698132566746828e-01, 1.8587367652222322e-01,
             1.1070747851106079e-02, -5.4847147103206251e-01,
             6.6459676893769637e-02, 8.3345041565357603e-01,
             -9.8582413626951415e-02, 5.2537732208972698e-01,
             -7.4115154344056122e-01, 4.0614599199424095e-01 ]
      - !!opencv-matrix
         rows: 4
         cols: 4
         dt: d
         data: [ 9.7834578499564964e-02, 1.7628233389972503e-01,
             8.1511481719752449e-02, 9.7606803674361176e-01,
             -4.3371629179348975e-01, -5.8373432894124921e-01,
             -6.5549659495318369e-01, 2.0363846751828477e-01,
             -8.9346623200725139e-01, 3.5312319613273568e-01,
             2.7751634090698968e-01, 2.6040632406344336e-03,
             -6.3534760135544988e-02, -7.0956520512450205e-01,
             6.9761362721941411e-01, 7.6261268340583208e-02 ]
      - !!opencv-matrix
         rows: 4
         cols: 4
         dt: d
         data: [ 3.0859729677305181e-01, 4.9224831904233540e-01,
             6.8930728884598891e-01, 4.3279875504459658e-01,
             -6.7341152277812066e-01, -4.3805358765120350e-01,
             5.9468443772075763e-01, 3.1247317777823819e-02,
             -2.0397763669206159e-01, -1.3249899686540750e-01,
             -3.7557263318394485e-01, 8.9430550527348318e-01,
             -6.4006074176091987e-01, 7.4043545469916905e-01,
             -1.7364065848705176e-01, -1.0920854362676437e-01 ]
   c: !!opencv-matrix
      rows: 1
      cols: 4
      dt: d
      data: [ -2.5239072722573727e+01, -2.3368127614578629e+01,
          -1.4183961333534718e+01, -1.5083393276383324e+01 ]
