%YAML:1.0
my_nb: !!opencv-ml-bayesian
   var_count: 4
   var_all: 4
   cls_labels: !!opencv-matrix
      rows: 1
      cols: 4
      dt: i
      data: [ 1, 2, 3, 4 ]
   count:
      - !!opencv-matrix
         rows: 1
         cols: 4
         dt: i
         data: [ 45, 45, 45, 45 ]
      - !!opencv-matrix
         rows: 1
         cols: 4
         dt: i
         data: [ 45, 45, 45, 45 ]
      - !!opencv-matrix
         rows: 1
         cols: 4
         dt: i
         data: [ 45, 45, 45, 45 ]
      - !!opencv-matrix
         rows: 1
         cols: 4
         dt: i
         data: [ 45, 45, 45, 45 ]
   sum:
      - !!opencv-matrix
         rows: 1
         cols: 4
         dt: d
         data: [ -2.1993521749973297e+01, -2.8384285211563110e+01,
             -4.0851101338863373e+01, -7.6161080718040466e+01 ]
      - !!opencv-matrix
         rows: 1
         cols: 4
         dt: d
         data: [ 1.1852214407175779e+01, 2.1828738153853919e+00,
             -9.8426717938855290e-01, -4.5424232423305511e+01 ]
      - !!opencv-matrix
         rows: 1
         cols: 4
         dt: d
         data: [ -2.6466631185496226e+01, -2.0262194167822599e+01,
             -2.4436924412846565e+01, 5.3284225802868605e+01 ]
      - !!opencv-matrix
         rows: 1
         cols: 4
         dt: d
         data: [ 2.8748684972524643e+01, 5.5096173614263535e+01,
             1.0371144127845764e+02, 2.2969044992700219e+01 ]
   productsum:
      - !!opencv-matrix
         rows: 4
         cols: 4
         dt: d
         data: [ 1.0931021061344623e+01, 1.3932592010588799e+01,
             1.9999838984088726e+01, 3.7232196121257424e+01,
             1.3932592010588799e+01, 1.8036070371851487e+01,
             2.5814145178148454e+01, 4.8054133068148040e+01,
             1.9999838984088726e+01, 2.5814145178148454e+01,
             3.7192839426428066e+01, 6.9180962433020156e+01,
             3.7232196121257424e+01, 4.8054133068148040e+01,
             6.9180962433020156e+01, 1.2893848664524063e+02 ]
      - !!opencv-matrix
         rows: 4
         cols: 4
         dt: d
         data: [ 3.4886572275727756e+00, 9.8869695434280458e-01,
             2.3385461100986127e-01, -1.1533777357248479e+01,
             9.8869695434280458e-01, 8.4519825034660911e-01,
             7.0250613969671982e-01, -1.6210542989008394e+00,
             2.3385461100986127e-01, 7.0250613969671982e-01,
             9.8201022770752466e-01, 1.7844632026252991e+00,
             -1.1533777357248479e+01, -1.6210542989008394e+00,
             1.7844632026252991e+00, 4.6702135952001868e+01 ]
      - !!opencv-matrix
         rows: 4
         cols: 4
         dt: d
         data: [ 1.7419171968756206e+01, 1.3921320045889088e+01,
             1.6782085983540895e+01, -3.3360197792963469e+01,
             1.3921320045889088e+01, 1.1704281533337863e+01,
             1.3771137662556043e+01, -2.4706907265536955e+01,
             1.6782085983540895e+01, 1.3771137662556043e+01,
             1.6885467707064716e+01, -3.3243810638877996e+01,
             -3.3360197792963469e+01, -2.4706907265536955e+01,
             -3.3243810638877996e+01, 9.1336598494961137e+01 ]
      - !!opencv-matrix
         rows: 4
         cols: 4
         dt: d
         data: [ 2.1738991185265157e+01, 4.0097965609184804e+01,
             7.2606272827508491e+01, 1.8884162486217626e+01,
             4.0097965609184804e+01, 7.5346369171722728e+01,
             1.3735549805366293e+02, 3.4845481105752164e+01,
             7.2606272827508491e+01, 1.3735549805366293e+02,
             2.5393415462855313e+02, 6.1974353708925271e+01,
             1.8884162486217626e+01, 3.4845481105752164e+01,
             6.1974353708925271e+01, 1.8009656142785030e+01 ]
   avg:
      - !!opencv-matrix
         rows: 1
         cols: 4
         dt: d
         data: [ -4.8874492777718437e-01, -6.3076189359029133e-01,
             -9.0780225197474163e-01, -1.6924684604008993e+00 ]
      - !!opencv-matrix
         rows: 1
         cols: 4
         dt: d
         data: [ 2.6338254238168396e-01, 4.8508307008564268e-02,
             -2.1872603986412286e-02, -1.0094273871845669e+00 ]
      - !!opencv-matrix
         rows: 1
         cols: 4
         dt: d
         data: [ -5.8814735967769394e-01, -4.5027098150716888e-01,
             -5.4304276472992363e-01, 1.1840939067304135e+00 ]
      - !!opencv-matrix
         rows: 1
         cols: 4
         dt: d
         data: [ 6.3885966605610323e-01, 1.2243594136503009e+00,
             2.3046986950768367e+00, 5.1042322206000490e-01 ]
   inv_eigen_values:
      - !!opencv-matrix
         rows: 1
         cols: 4
         dt: d
         data: [ 1.7698076305933722e+02, 3.7746235697487452e+02,
             5.7039067482115001e+02, 2.4177971123851048e+03 ]
      - !!opencv-matrix
         rows: 1
         cols: 4
         dt: d
         data: [ 1.7228020481698010e+01, 2.0722715247052972e+02,
             4.7779223904670704e+02, 7.5785542050956508e+02 ]
      - !!opencv-matrix
         rows: 1
         cols: 4
         dt: d
         data: [ 1.5039441374768798e+00, 6.4770979912640749e+00,
             2.9538485442619515e+02, 4.7103877483924140e+02 ]
      - !!opencv-matrix
         rows: 1
         cols: 4
         dt: d
         data: [ 1.4143681718516696e+00, 5.6617599680224615e+01,
             1.1071231935141257e+02, 2.5308819611786578e+02 ]
   cov_rotate_mats:
      - !!opencv-matrix
         rows: 4
         cols: 4
         dt: d
         data: [ 7.1737977751325399e-01, 5.4992261926702235e-01,
             4.0127183164892033e-01, 1.4809552578877000e-01,
             -6.4588324852860823e-01, 3.0021038845648496e-01,
             6.2626113067205036e-01, 3.1702610009635374e-01,
             2.5999085095076890e-01, -7.7716045882844476e-01,
             4.9147124258388614e-01, 2.9475819983251911e-01,
             2.4613847871904376e-02, 5.8995395709030625e-02,
             -4.5302751687677478e-01, 8.8920176041803756e-01 ]
      - !!opencv-matrix
         rows: 4
         cols: 4
         dt: d
         data: [ 3.3368736795205495e-01, 4.9506944360196226e-01,
             6.0041545741241886e-01, 5.3203408253711448e-01,
             -8.1924523688589670e-02, -6.6348337619629683e-01,
             -6.3949972071297642e-02, 7.4093763772779242e-01,
             -9.3863350345177454e-01, 2.1730263925665116e-01,
             2.4340284541973972e-01, 1.1181128749601008e-01,
             3.0137337066751219e-02, -5.1718045061168016e-01,
             7.5905647643234708e-01, -3.9427070396585906e-01 ]
      - !!opencv-matrix
         rows: 4
         cols: 4
         dt: d
         data: [ -9.1631879500872565e-02, -5.1617229134840556e-02,
             -1.7855403035709216e-01, 9.7829326817617313e-01,
             -4.6869465114088416e-01, -5.9907465441563035e-01,
             -6.2109843522403574e-01, -1.8886930981758859e-01,
             -8.7831371221630372e-01, 3.0639629827358905e-01,
             3.6699530575216255e-01, 8.8141530205549279e-04,
             2.2224886588655429e-02, -7.3794751066554609e-01,
             6.6908118906554948e-01, 8.5263640300396931e-02 ]
      - !!opencv-matrix
         rows: 4
         cols: 4
         dt: d
         data: [ 3.1032973829968136e-01, 4.9694383958708122e-01,
             6.8315246391149986e-01, 4.3594149249061792e-01,
             -5.1180185833831937e-01, -3.0898990952742572e-01,
             7.0302989938870719e-01, -3.8514030453482839e-01,
             -5.2453183693260685e-01, -2.8210197088669159e-01,
             -6.7322457629632321e-02, 8.0047018480681442e-01,
             -6.0549208365791152e-01, 7.6025688693265159e-01,
             -1.8579385973669157e-01, -1.4446260479174708e-01 ]
   c: !!opencv-matrix
      rows: 1
      cols: 4
      dt: d
      data: [ -2.5246445531409311e+01, -2.0980021323588918e+01,
          -1.4119583163904649e+01, -1.4623675943683679e+01 ]
