%YAML:1.0
my_nb: !!opencv-ml-bayesian
   var_count: 4
   var_all: 4
   cls_labels: !!opencv-matrix
      rows: 1
      cols: 4
      dt: i
      data: [ 1, 2, 3, 4 ]
   count:
      - !!opencv-matrix
         rows: 1
         cols: 4
         dt: i
         data: [ 43, 43, 43, 43 ]
      - !!opencv-matrix
         rows: 1
         cols: 4
         dt: i
         data: [ 43, 43, 43, 43 ]
      - !!opencv-matrix
         rows: 1
         cols: 4
         dt: i
         data: [ 43, 43, 43, 43 ]
      - !!opencv-matrix
         rows: 1
         cols: 4
         dt: i
         data: [ 43, 43, 43, 43 ]
   sum:
      - !!opencv-matrix
         rows: 1
         cols: 4
         dt: d
         data: [ -2.1922148197889328e+001, -2.7578045368194580e+001,
             -3.8794483482837677e+001, -7.2535933136940002e+001 ]
      - !!opencv-matrix
         rows: 1
         cols: 4
         dt: d
         data: [ 1.0171979464590549e+001, -3.2993363565765321e-001,
             -3.5552953544538468e+000, -4.6229716002941132e+001 ]
      - !!opencv-matrix
         rows: 1
         cols: 4
         dt: d
         data: [ -2.6771352648735046e+001, -2.0587651997804642e+001,
             -2.3959105100482702e+001, 5.0243718490004539e+001 ]
      - !!opencv-matrix
         rows: 1
         cols: 4
         dt: d
         data: [ 2.7658943295478821e+001, 5.2530834734439850e+001,
             1.0023734784126282e+002, 2.2044248998165131e+001 ]
   productsum:
      - !!opencv-matrix
         rows: 4
         cols: 4
         dt: d
         data: [ 1.1334907806227342e+001, 1.4106713934400750e+001,
             1.9791258782486747e+001, 3.6969267709500016e+001,
             1.4106713934400750e+001, 1.7828339347921343e+001,
             2.4954887837246293e+001, 4.6540633261747409e+001,
             1.9791258782486747e+001, 2.4954887837246293e+001,
             3.5146367402696725e+001, 6.5488413234197225e+001,
             3.6969267709500016e+001, 4.6540633261747409e+001,
             6.5488413234197225e+001, 1.2239178027397527e+002 ]
      - !!opencv-matrix
         rows: 4
         cols: 4
         dt: d
         data: [ 2.8536261169779271e+000, 2.7449107020275826e-001,
             -5.3549794570381493e-001, -1.0733534687198690e+001,
             2.7449107020275826e-001, 4.2257014677975757e-001,
             3.6893748841948659e-001, 5.6116084453262582e-001,
             -5.3549794570381493e-001, 3.6893748841948659e-001,
             6.3559240687495133e-001, 4.0204777421739273e+000,
             -1.0733534687198690e+001, 5.6116084453262582e-001,
             4.0204777421739273e+000, 4.9877192411097099e+001 ]
      - !!opencv-matrix
         rows: 4
         cols: 4
         dt: d
         data: [ 1.8361237094424304e+001, 1.4983181689856238e+001,
             1.7045058630829118e+001, -2.9246173065404498e+001,
             1.4983181689856238e+001, 1.3112342580539881e+001,
             1.4481228161753974e+001, -2.0114496856277562e+001,
             1.7045058630829118e+001, 1.4481228161753974e+001,
             1.6530650065412114e+001, -2.6706934624693098e+001,
             -2.9246173065404498e+001, -2.0114496856277562e+001,
             -2.6706934624693098e+001, 8.5356237339783718e+001 ]
      - !!opencv-matrix
         rows: 4
         cols: 4
         dt: d
         data: [ 2.1046145088390379e+001, 3.8424028927514179e+001,
             7.0411584893979324e+001, 1.8052737808870056e+001,
             3.8424028927514179e+001, 7.1539992924877623e+001,
             1.3217795888927964e+002, 3.3130444244416317e+001,
             7.0411584893979324e+001, 1.3217795888927964e+002,
             2.4793842825094077e+002, 6.0087130090913739e+001,
             1.8052737808870056e+001, 3.3130444244416317e+001,
             6.0087130090913739e+001, 1.6970155373076185e+001 ]
   avg:
      - !!opencv-matrix
         rows: 1
         cols: 4
         dt: d
         data: [ -5.0981739995091457e-001, -6.4134989228359485e-001,
             -9.0219729029855067e-001, -1.6868821659753488e+000 ]
      - !!opencv-matrix
         rows: 1
         cols: 4
         dt: d
         data: [ 2.3655766196722208e-001, -7.6728752478524001e-003,
             -8.2681287312880158e-002, -1.0751096744870030e+000 ]
      - !!opencv-matrix
         rows: 1
         cols: 4
         dt: d
         data: [ -6.2258959648221035e-001, -4.7878260460010796e-001,
             -5.5718849070890009e-001, 1.1684585695349894e+000 ]
      - !!opencv-matrix
         rows: 1
         cols: 4
         dt: d
         data: [ 6.4323123942974003e-001, 1.2216473194055779e+000,
             2.3311011125875072e+000, 5.1265695344570072e-001 ]
   inv_eigen_values:
      - !!opencv-matrix
         rows: 1
         cols: 4
         dt: d
         data: [ 1.7036290625358353e+002, 2.7444601649272164e+002,
             6.5083487652967528e+002, 3.0052951058879689e+003 ]
      - !!opencv-matrix
         rows: 1
         cols: 4
         dt: d
         data: [ 3.5198919026378150e+001, 4.1303600041327149e+002,
             7.2651362667433921e+002, 1.3331772008976288e+003 ]
      - !!opencv-matrix
         rows: 1
         cols: 4
         dt: d
         data: [ 1.5177841661358380e+000, 6.1140335203919873e+000,
             2.4593229198916495e+002, 6.3337767010678772e+002 ]
      - !!opencv-matrix
         rows: 1
         cols: 4
         dt: d
         data: [ 1.4315716189687104e+000, 4.9513712463596995e+001,
             1.9677065140428138e+002, 2.5476254270295979e+002 ]
   cov_rotate_mats:
      - !!opencv-matrix
         rows: 4
         cols: 4
         dt: d
         data: [ 4.1695054489568462e-001, 6.4872583957469543e-001,
             6.1291241945009900e-001, 1.7217837919763368e-001,
             -8.4289290356804625e-001, 2.8881928761187232e-002,
             4.6936528991681498e-001, 2.6152172362342396e-001,
             3.2719343990075672e-001, -7.5998937373404840e-001,
             5.2839976536855038e-001, 1.9014282173066599e-001,
             9.2888369087470682e-002, 2.7143527229696467e-002,
             -3.5331045648776233e-001, 9.3048734604733307e-001 ]
      - !!opencv-matrix
         rows: 4
         cols: 4
         dt: d
         data: [ 5.6331388567005680e-001, 5.6700602287854340e-001,
             5.0529676628764564e-001, 3.2535644178348067e-001,
             -8.2026606200476482e-001, 3.1884460935886832e-001,
             4.3698132566746828e-001, 1.8587367652222322e-001,
             1.1070747851106079e-002, -5.4847147103206251e-001,
             6.6459676893769637e-002, 8.3345041565357603e-001,
             -9.8582413626951415e-002, 5.2537732208972698e-001,
             -7.4115154344056122e-001, 4.0614599199424095e-001 ]
      - !!opencv-matrix
         rows: 4
         cols: 4
         dt: d
         data: [ 9.7834578499564964e-002, 1.7628233389972503e-001,
             8.1511481719752449e-002, 9.7606803674361176e-001,
             -4.3371629179348975e-001, -5.8373432894124921e-001,
             -6.5549659495318369e-001, 2.0363846751828477e-001,
             -8.9346623200725139e-001, 3.5312319613273568e-001,
             2.7751634090698968e-001, 2.6040632406344336e-003,
             -6.3534760135544988e-002, -7.0956520512450205e-001,
             6.9761362721941411e-001, 7.6261268340583208e-002 ]
      - !!opencv-matrix
         rows: 4
         cols: 4
         dt: d
         data: [ 3.0859729677305181e-001, 4.9224831904233540e-001,
             6.8930728884598891e-001, 4.3279875504459658e-001,
             -6.7341152277812066e-001, -4.3805358765120350e-001,
             5.9468443772075763e-001, 3.1247317777823819e-002,
             -2.0397763669206159e-001, -1.3249899686540750e-001,
             -3.7557263318394485e-001, 8.9430550527348318e-001,
             -6.4006074176091987e-001, 7.4043545469916905e-001,
             -1.7364065848705176e-001, -1.0920854362676437e-001 ]
   c: !!opencv-matrix
      rows: 1
      cols: 4
      dt: d
      data: [ -2.5239072496026552e+001, -2.3368127614578629e+001,
          -1.4183961333534718e+001, -1.5083393276383324e+001 ]
