%YAML:1.0
my_boost_tree: !!opencv-ml-gradient-boosting-trees
   loss_function: DevianceLoss
   ensemble_length: 200
   shrinkage: 9.9999997764825821e-03
   subsample_portion: 8.0000001192092896e-01
   class_labels: !!opencv-matrix
      rows: 1
      cols: 4
      dt: i
      data: [ 1, 2, 3, 4 ]
   is_classifier: 1
   var_all: 4
   var_count: 4
   ord_var_count: 4
   cat_var_count: 0
   training_params:
      use_surrogates: 0
      max_categories: 10
      max_depth: 3
      min_sample_count: 10
      cross_validation_folds: 0
      priors: !!opencv-matrix
         rows: 1
         cols: 1
         dt: d
         data: [ 1. ]
   var_type: [ 0, 0, 0, 0 ]
   cat_count: !!opencv-matrix
      rows: 1
      cols: 1
      dt: i
      data: [ 1 ]
   cat_map: !!opencv-matrix
      rows: 1
      cols: 1
      dt: i
      data: [ 0 ]
   base_value: 0.
   class_count: 4
   trees_0:
      -
         best_tree_idx: -1
         nodes:
            -
               depth: 0
               sample_count: 144
               value: -1.3888888888888888e-02
               Tn: 0
               complexity: 0
               alpha: 0.
               node_risk: 2.5972222222222221e+01
               tree_risk: 0.
               tree_error: 0.
               splits:
                  - { var:3, quality:26., le:-1.4449375867843628e+00 }
            -
               depth: 1
               sample_count: 34
               value: 7.5000000000000000e-01
               Tn: 0
               complexity: 0
               alpha: 0.
               node_risk: 0.
               tree_risk: 0.
               tree_error: 0.
               splits:
                  - { var:0, quality:1.9125000000000000e+01,
                      le:-6.1528128385543823e-01 }
            -
               depth: 2
               sample_count: 1
               value: 3.
               Tn: 0
               complexity: 0
               alpha: 0.
               node_risk: 0.
               tree_risk: 0.
               tree_error: 0.
            -
               depth: 2
               sample_count: 33
               value: 7.5000000000000000e-01
               Tn: 0
               complexity: 0
               alpha: 0.
               node_risk: 0.
               tree_risk: 0.
               tree_error: 0.
               splits:
                  - { var:0, quality:1.8562500000000000e+01,
                      le:-5.9371447563171387e-01 }
            -
               depth: 3
               sample_count: 1
               value: 3.
               Tn: 0
               complexity: 0
               alpha: 0.
               node_risk: 0.
               tree_risk: 0.
               tree_error: 0.
            -
               depth: 3
               sample_count: 32
               value: 3.
               Tn: 0
               complexity: 0
               alpha: 0.
               node_risk: 0.
               tree_risk: 0.
               tree_error: 0.
            -
               depth: 1
               sample_count: 110
               value: -2.5000000000000000e-01
               Tn: 0
               complexity: 0
               alpha: 0.
               node_risk: 0.
               tree_risk: 0.
               tree_error: 0.
               splits:
                  - { var:0, quality:6.8750000000000000e+00,
                      le:-1.0025591850280762e+00 }
            -
               depth: 2
               sample_count: 1
               value: -1.
               Tn: 0
               complexity: 0
               alpha: 0.
               node_risk: 0.
               tree_risk: 0.
               tree_error: 0.
            -
               depth: 2
               sample_count: 109
               value: -2.5000000000000000e-01
               Tn: 0
               complexity: 0
               alpha: 0.
               node_risk: 0.
               tree_risk: 0.
               tree_error: 0.
               splits:
                  - { var:0, quality:6.8125000000000000e+00,
                      le:-8.7099599838256836e-01 }
            -
               depth: 3
               sample_count: 1
               value: -1.
               Tn: 0
               complexity: 0
               alpha: 0.
               node_risk: 0.
               tree_risk: 0.
               tree_error: 0.
            -
               depth: 3
               sample_count: 108
               value: -1.
               Tn: 0
               complexity: 0
               alpha: 0.
               node_risk: 0.
               tree_risk: 0.
               tree_error: 0.
      -
         best_tree_idx: -1
         nodes:
            -
               depth: 0
               sample_count: 144
               value: 1.3713776547875669e-02
               Tn: 0
               complexity: 0
               alpha: 0.
               node_risk: 2.7412728982322388e+01
               tree_risk: 0.
               tree_error: 0.
               splits:
                  - { var:3, quality:2.7439758300781250e+01,
                      le:-1.4449375867843628e+00 }
            -
               depth: 1
               sample_count: 38
               value: 7.4242526292800903e-01
               Tn: 0
               complexity: 0
               alpha: 0.
               node_risk: 0.
               tree_risk: 0.
               tree_error: 0.
               splits:
                  - { var:0, quality:2.0945421218872070e+01,
                      le:-5.4732406139373779e-01 }
            -
               depth: 2
               sample_count: 9
               value: 2.9117763042449951e+00
               Tn: 0
               complexity: 0
               alpha: 0.
               node_risk: 0.
               tree_risk: 0.
               tree_error: 0.
            -
               depth: 2
               sample_count: 29
               value: 7.4242526292800903e-01
               Tn: 0
               complexity: 0
               alpha: 0.
               node_risk: 0.
               tree_risk: 0.
               tree_error: 0.
               splits:
                  - { var:0, quality:1.5984663009643555e+01,
                      le:-5.1086592674255371e-01 }
            -
               depth: 3
               sample_count: 6
               value: 2.9117763042449951e+00
               Tn: 0
               complexity: 0
               alpha: 0.
               node_risk: 0.
               tree_risk: 0.
               tree_error: 0.
            -
               depth: 3
               sample_count: 23
               value: 2.9117763042449951e+00
               Tn: 0
               complexity: 0
               alpha: 0.
               node_risk: 0.
               tree_risk: 0.
               tree_error: 0.
            -
               depth: 1
               sample_count: 106
               value: -2.4752241668273817e-01
               Tn: 0
               complexity: 0
               alpha: 0.
               node_risk: 5.1670509328083369e-05
               tree_risk: 0.
               tree_error: 0.
               splits:
                  - { var:0, quality:6.4943561553955078e+00,
                      le:2.4664748460054398e-02 }
            -
               depth: 2
               sample_count: 35
               value: -2.4809577848230088e-01
               Tn: 0
               complexity: 0
               alpha: 0.
               node_risk: 2.9419634495653213e-05
               tree_risk: 0.
               tree_error: 0.
               splits:
                  - { var:3, quality:2.1543259620666504e+00,
                      le:9.5511209964752197e-01 }
            -
               depth: 3
               sample_count: 13
               value: -9.9886560440063477e-01
               Tn: 0
               complexity: 0
               alpha: 0.
               node_risk: 6.6005590215745258e-06
               tree_risk: 0.
               tree_error: 0.
            -
               depth: 3
               sample_count: 22
               value: -9.9664473533630371e-01
               Tn: 0
               complexity: 0
               alpha: 0.
               node_risk: 0.
               tree_risk: 0.
               tree_error: 0.
            -
               depth: 2
               sample_count: 71
               value: -2.4723977354210866e-01
               Tn: 0
               complexity: 0
               alpha: 0.
               node_risk: 5.0728561813428996e-06
               tree_risk: 0.
               tree_error: 0.
               splits:
                  - { var:2, quality:4.3400573730468750e+00,
                      le:8.2657122611999512e-01 }
            -
               depth: 3
               sample_count: 37
               value: -9.9664473533630371e-01
               Tn: 0
               complexity: 0
               alpha: 0.
               node_risk: 0.
               tree_risk: 0.
               tree_error: 0.
            -
               depth: 3
               sample_count: 34
               value: -9.9599450826644897e-01
               Tn: 0
               complexity: 0
               alpha: 0.
               node_risk: 7.9449879919479827e-07
               tree_risk: 0.
               tree_error: 0.
      -
         best_tree_idx: -1
         nodes:
            -
               depth: 0
               sample_count: 144
               value: 1.3616425399151113e-02
               Tn: 0
               complexity: 0
               alpha: 0.
               node_risk: 2.6855376929401928e+01
               tree_risk: 0.
               tree_error: 0.
               splits:
                  - { var:3, quality:2.6881931304931641e+01,
                      le:-1.3956662416458130e+00 }
            -
               depth: 1
               sample_count: 38
               value: 7.3488056659698486e-01
               Tn: 0
               complexity: 0
               alpha: 0.
               node_risk: 0.
               tree_risk: 0.
               tree_error: 0.
               splits:
                  - { var:0, quality:2.0521879196166992e+01,
                      le:-5.3179574012756348e-01 }
            -
               depth: 2
               sample_count: 11
               value: 7.3488056659698486e-01
               Tn: 0
               complexity: 0
               alpha: 0.
               node_risk: 0.
               tree_risk: 0.
               tree_error: 0.
               splits:
                  - { var:0, quality:5.9405441284179688e+00,
                      le:-6.1528128385543823e-01 }
            -
               depth: 3
               sample_count: 1
               value: 2.8289136886596680e+00
               Tn: 0
               complexity: 0
               alpha: 0.
               node_risk: 0.
               tree_risk: 0.
               tree_error: 0.
            -
               depth: 3
               sample_count: 10
               value: 2.8289136886596680e+00
               Tn: 0
               complexity: 0
               alpha: 0.
               node_risk: 0.
               tree_risk: 0.
               tree_error: 0.
            -
               depth: 2
               sample_count: 27
               value: 7.3488056659698486e-01
               Tn: 0
               complexity: 0
               alpha: 0.
               node_risk: 0.
               tree_risk: 0.
               tree_error: 0.
               splits:
                  - { var:0, quality:1.4581335067749023e+01,
                      le:-5.2584606409072876e-01 }
            -
               depth: 3
               sample_count: 1
               value: 2.8289136886596680e+00
               Tn: 0
               complexity: 0
               alpha: 0.
               node_risk: 0.
               tree_risk: 0.
               tree_error: 0.
            -
               depth: 3
               sample_count: 26
               value: 2.8289136886596680e+00
               Tn: 0
               complexity: 0
               alpha: 0.
               node_risk: 0.
               tree_risk: 0.
               tree_error: 0.
            -
               depth: 1
               sample_count: 106
               value: -2.4494996484158174e-01
               Tn: 0
               complexity: 0
               alpha: 0.
               node_risk: 1.4511185860666131e-04
               tree_risk: 0.
               tree_error: 0.
               splits:
                  - { var:2, quality:6.3600997924804688e+00,
                      le:8.2657122611999512e-01 }
            -
               depth: 2
               sample_count: 76
               value: -2.4537430527178863e-01
               Tn: 0
               complexity: 0
               alpha: 0.
               node_risk: 9.3930236203298989e-05
               tree_risk: 0.
               tree_error: 0.
               splits:
                  - { var:3, quality:4.5758657455444336e+00,
                      le:6.1214454472064972e-02 }
            -
               depth: 3
               sample_count: 42
               value: -9.9332386255264282e-01
               Tn: 0
               complexity: 0
               alpha: 0.
               node_risk: 6.4733285398688167e-10
               tree_risk: 0.
               tree_error: 0.
            -
               depth: 3
               sample_count: 34
               value: -9.9455815553665161e-01
               Tn: 0
               complexity: 0
               alpha: 0.
               node_risk: 7.7757478970763572e-05
               tree_risk: 0.
               tree_error: 0.
            -
               depth: 2
               sample_count: 30
               value: -2.4387496908505757e-01
               Tn: 0
               complexity: 0
               alpha: 0.
               node_risk: 2.8282212589658684e-06
               tree_risk: 0.
               tree_error: 0.
               splits:
                  - { var:0, quality:1.7842522859573364e+00,
                      le:3.9238780736923218e-01 }
            -
               depth: 3
               sample_count: 6
               value: -9.9262672662734985e-01
               Tn: 0
               complexity: 0
               alpha: 0.
               node_risk: 0.
               tree_risk: 0.
               tree_error: 0.
            -
               depth: 3
               sample_count: 24
               value: -9.9171793460845947e-01
               Tn: 0
               complexity: 0
               alpha: 0.
               node_risk: 5.2640623726674107e-07
               tree_risk: 0.
               tree_error: 0.
      -
         best_tree_idx: -1
         nodes:
            -
               depth: 0
               sample_count: 144
               value: 4.0413422820468746e-02
               Tn: 0
               complexity: 0
               alpha: 0.
               node_risk: 2.7981574021009436e+01
               tree_risk: 0.
               tree_error: 0.
               splits:
                  - { var:3, quality:2.8216388702392578e+01,
                      le:-1.4449375867843628e+00 }
            -
               depth: 1
               sample_count: 42
               value: 7.2736698389053345e-01
               Tn: 0
               complexity: 0
               alpha: 0.
               node_risk: 0.
               tree_risk: 0.
               tree_error: 0.
               splits:
                  - { var:0, quality:2.2220634460449219e+01,
                      le:-5.1638197898864746e-01 }
            -
               depth: 2
               sample_count: 15
               value: 7.2736698389053345e-01
               Tn: 0
               complexity: 0
               alpha: 0.
               node_risk: 0.
               tree_risk: 0.
               tree_error: 0.
               splits:
                  - { var:0, quality:7.9359407424926758e+00,
                      le:-5.8443683385848999e-01 }
            -
               depth: 3
               sample_count: 3
               value: 2.7509508132934570e+00
               Tn: 0
               complexity: 0
               alpha: 0.
               node_risk: 0.
               tree_risk: 0.
               tree_error: 0.
            -
               depth: 3
               sample_count: 12
               value: 2.7509508132934570e+00
               Tn: 0
               complexity: 0
               alpha: 0.
               node_risk: 0.
               tree_risk: 0.
               tree_error: 0.
            -
               depth: 2
               sample_count: 27
               value: 7.2736698389053345e-01
               Tn: 0
               complexity: 0
               alpha: 0.
               node_risk: 0.
               tree_risk: 0.
               tree_error: 0.
               splits:
                  - { var:0, quality:1.4284693717956543e+01,
                      le:-5.0945907831192017e-01 }
            -
               depth: 3
               sample_count: 1
               value: 2.7509508132934570e+00
               Tn: 0
               complexity: 0
               alpha: 0.
               node_risk: 0.
               tree_risk: 0.
               tree_error: 0.
            -
               depth: 3
               sample_count: 26
               value: 2.7509508132934570e+00
               Tn: 0
               complexity: 0
               alpha: 0.
               node_risk: 0.
               tree_risk: 0.
               tree_error: 0.
            -
               depth: 1
               sample_count: 102
               value: -2.4244980820838144e-01
               Tn: 0
               complexity: 0
               alpha: 0.
               node_risk: 3.7186645779918592e-04
               tree_risk: 0.
               tree_error: 0.
               splits:
                  - { var:1, quality:5.9958767890930176e+00,
                      le:3.3814179897308350e-01 }
            -
               depth: 2
               sample_count: 68
               value: -2.4322364523130305e-01
               Tn: 0
               complexity: 0
               alpha: 0.
               node_risk: 2.4007492839750455e-04
               tree_risk: 0.
               tree_error: 0.
               splits:
                  - { var:0, quality:4.0227642059326172e+00,
                      le:9.4047710299491882e-02 }
            -
               depth: 3
               sample_count: 35
               value: -9.9202561378479004e-01
               Tn: 0
               complexity: 0
               alpha: 0.
               node_risk: 2.0228970893576559e-04
               tree_risk: 0.
               tree_error: 0.
            -
               depth: 3
               sample_count: 33
               value: -9.9004143476486206e-01
               Tn: 0
               complexity: 0
               alpha: 0.
               node_risk: 0.
               tree_risk: 0.
               tree_error: 0.
            -
               depth: 2
               sample_count: 34
               value: -2.4090213416253820e-01
               Tn: 0
               complexity: 0
               alpha: 0.
               node_risk: 9.6314868454072666e-06
               tree_risk: 0.
               tree_error: 0.
               splits:
                  - { var:0, quality:1.9731583595275879e+00,
                      le:3.3340600132942200e-01 }
            -
               depth: 3
               sample_count: 7
               value: -9.8924452066421509e-01
               Tn: 0
               complexity: 0
               alpha: 0.
               node_risk: 3.1528520766377355e-07
               tree_risk: 0.
               tree_error: 0.
            -
               depth: 3
               sample_count: 27
               value: -9.8769694566726685e-01
               Tn: 0
               complexity: 0
               alpha: 0.
               node_risk: 1.4713542624278375e-06
               tree_risk: 0.
               tree_error: 0.
      -
         best_tree_idx: -1
         nodes:
            -
               depth: 0
               sample_count: 144
               value: -2.0248931108249560e-02
               Tn: 0
               complexity: 0
               alpha: 0.
               node_risk: 2.3452572109231511e+01
               tree_risk: 0.
               tree_error: 0.
               splits:
                  - { var:3, quality:2.3510770797729492e+01,
                      le:-1.4449375867843628e+00 }
            -
               depth: 1
               sample_count: 33
               value: 7.1988564729690552e-01
               Tn: 0
               complexity: 0
               alpha: 0.
               node_risk: 0.
               tree_risk: 0.
               tree_error: 0.
               splits:
                  - { var:0, quality:1.7101766586303711e+01,
                      le:-6.1528128385543823e-01 }
            -
               depth: 2
               sample_count: 1
               value: 2.6774778366088867e+00
               Tn: 0
               complexity: 0
               alpha: 0.
               node_risk: 0.
               tree_risk: 0.
               tree_error: 0.
            -
               depth: 2
               sample_count: 32
               value: 7.1988564729690552e-01
               Tn: 0
               complexity: 0
               alpha: 0.
               node_risk: 0.
               tree_risk: 0.
               tree_error: 0.
               splits:
                  - { var:0, quality:1.6583530426025391e+01,
                      le:-6.0043042898178101e-01 }
            -
               depth: 3
               sample_count: 1
               value: 2.6774778366088867e+00
               Tn: 0
               complexity: 0
               alpha: 0.
               node_risk: 0.
               tree_risk: 0.
               tree_error: 0.
            -
               depth: 3
               sample_count: 31
               value: 2.6774778366088867e+00
               Tn: 0
               complexity: 0
               alpha: 0.
               node_risk: 0.
               tree_risk: 0.
               tree_error: 0.
            -
               depth: 1
               sample_count: 111
               value: -2.4028894090437675e-01
               Tn: 0
               complexity: 0
               alpha: 0.
               node_risk: 8.4444611933331970e-04
               tree_risk: 0.
               tree_error: 0.
               splits:
                  - { var:0, quality:6.4092879295349121e+00,
                      le:6.3666693866252899e-02 }
            -
               depth: 2
               sample_count: 45
               value: -2.4222508304648929e-01
               Tn: 0
               complexity: 0
               alpha: 0.
               node_risk: 4.8229211893646706e-04
               tree_risk: 0.
               tree_error: 0.
               splits:
                  - { var:2, quality:2.6407160758972168e+00,
                      le:-4.5061373710632324e-01 }
            -
               depth: 3
               sample_count: 31
               value: -9.8703086376190186e-01
               Tn: 0
               complexity: 0
               alpha: 0.
               node_risk: 1.0637454176842809e-05
               tree_risk: 0.
               tree_error: 0.
            -
               depth: 3
               sample_count: 14
               value: -9.9581092596054077e-01
               Tn: 0
               complexity: 0
               alpha: 0.
               node_risk: 4.0073646240257332e-05
               tree_risk: 0.
               tree_error: 0.
            -
               depth: 2
               sample_count: 66
               value: -2.3896884398930002e-01
               Tn: 0
               complexity: 0
               alpha: 0.
               node_risk: 7.8449625550369717e-05
               tree_risk: 0.
               tree_error: 0.
               splits:
                  - { var:1, quality:3.7690756320953369e+00,
                      le:6.4944797754287720e-01 }
            -
               depth: 3
               sample_count: 39
               value: -9.8663640022277832e-01
               Tn: 0
               complexity: 0
               alpha: 0.
               node_risk: 4.4764565112487276e-06
               tree_risk: 0.
               tree_error: 0.
            -
               depth: 3
               sample_count: 27
               value: -9.8387646675109863e-01
               Tn: 0
               complexity: 0
               alpha: 0.
               node_risk: 1.4424168692794836e-06
               tree_risk: 0.
               tree_error: 0.
      -
         best_tree_idx: -1
         nodes:
            -
               depth: 0
               sample_count: 144
               value: -1.9432976841926575e-05
               Tn: 0
               complexity: 0
               alpha: 0.
               node_risk: 2.4370217473861473e+01
               tree_risk: 0.
               tree_error: 0.
               splits:
                  - { var:3, quality:2.4369606018066406e+01,
                      le:-1.3990764617919922e+00 }
            -
               depth: 1
               sample_count: 36
               value: 7.1251135733392501e-01
               Tn: 0
               complexity: 0
               alpha: 0.
               node_risk: 6.8934309780388503e-06
               tree_risk: 0.
               tree_error: 0.
               splits:
                  - { var:0, quality:1.8276214599609375e+01,
                      le:-3.5889118909835815e-01 }
            -
               depth: 2
               sample_count: 35
               value: 7.1243739128112793e-01
               Tn: 0
               complexity: 0
               alpha: 0.
               node_risk: 0.
               tree_risk: 0.
               tree_error: 0.
               splits:
                  - { var:0, quality:1.7764846801757812e+01,
                      le:-5.5219870805740356e-01 }
            -
               depth: 3
               sample_count: 6
               value: 2.6081275939941406e+00
               Tn: 0
               complexity: 0
               alpha: 0.
               node_risk: 0.
               tree_risk: 0.
               tree_error: 0.
            -
               depth: 3
               sample_count: 29
               value: 2.6081275939941406e+00
               Tn: 0
               complexity: 0
               alpha: 0.
               node_risk: 0.
               tree_risk: 0.
               tree_error: 0.
            -
               depth: 2
               sample_count: 1
               value: 2.6325042247772217e+00
               Tn: 0
               complexity: 0
               alpha: 0.
               node_risk: 0.
               tree_risk: 0.
               tree_error: 0.
            -
               depth: 1
               sample_count: 108
               value: -2.3752969641376426e-01
               Tn: 0
               complexity: 0
               alpha: 0.
               node_risk: 6.0447766793902957e-04
               tree_risk: 0.
               tree_error: 0.
               splits:
                  - { var:2, quality:6.0935797691345215e+00,
                      le:8.2657122611999512e-01 }
            -
               depth: 2
               sample_count: 77
               value: -2.3835171875241515e-01
               Tn: 0
               complexity: 0
               alpha: 0.
               node_risk: 4.1536930545760242e-04
               tree_risk: 0.
               tree_error: 0.
               splits:
                  - { var:3, quality:4.3745584487915039e+00,
                      le:-3.8238123059272766e-01 }
            -
               depth: 3
               sample_count: 42
               value: -9.8358500003814697e-01
               Tn: 0
               complexity: 0
               alpha: 0.
               node_risk: 8.9743921183327302e-08
               tree_risk: 0.
               tree_error: 0.
            -
               depth: 3
               sample_count: 35
               value: -9.8610913753509521e-01
               Tn: 0
               complexity: 0
               alpha: 0.
               node_risk: 3.4559040331583191e-04
               tree_risk: 0.
               tree_error: 0.
            -
               depth: 2
               sample_count: 31
               value: -2.3548789899195394e-01
               Tn: 0
               complexity: 0
               alpha: 0.
               node_risk: 7.8408285761888408e-06
               tree_risk: 0.
               tree_error: 0.
               splits:
                  - { var:0, quality:1.7190972566604614e+00,
                      le:3.3340600132942200e-01 }
            -
               depth: 3
               sample_count: 6
               value: -9.8218792676925659e-01
               Tn: 0
               complexity: 0
               alpha: 0.
               node_risk: 2.8715933808598493e-07
               tree_risk: 0.
               tree_error: 0.
            -
               depth: 3
               sample_count: 25
               value: -9.8073780536651611e-01
               Tn: 0
               complexity: 0
               alpha: 0.
               node_risk: 1.3850269819926098e-06
               tree_risk: 0.
               tree_error: 0.
      -
         best_tree_idx: -1
         nodes:
            -
               depth: 0
               sample_count: 144
               value: 1.9249635438124340e-02
               Tn: 0
               complexity: 0
               alpha: 0.
               node_risk: 2.5164101121087249e+01
               tree_risk: 0.
               tree_error: 0.
               splits:
                  - { var:3, quality:2.5216627120971680e+01,
                      le:-1.4449375867843628e+00 }
            -
               depth: 1
               sample_count: 39
               value: 7.0515567981279814e-01
               Tn: 0
               complexity: 0
               alpha: 0.
               node_risk: 1.2687797511290455e-05
               tree_risk: 0.
               tree_error: 0.
               splits:
                  - { var:0, quality:1.9392543792724609e+01,
                      le:-3.5889118909835815e-01 }
            -
               depth: 2
               sample_count: 38
               value: 7.0508930714506857e-01
               Tn: 0
               complexity: 0
               alpha: 0.
               node_risk: 6.1590969373526150e-06
               tree_risk: 0.
               tree_error: 0.
               splits:
                  - { var:2, quality:1.8891740798950195e+01,
                      le:-8.1771504878997803e-01 }
            -
               depth: 3
               sample_count: 37
               value: 2.5425722599029541e+00
               Tn: 0
               complexity: 0
               alpha: 0.
               node_risk: 4.3698378249246161e-13
               tree_risk: 0.
               tree_error: 0.
            -
               depth: 3
               sample_count: 1
               value: 2.5644373893737793e+00
               Tn: 0
               complexity: 0
               alpha: 0.
               node_risk: 0.
               tree_risk: 0.
               tree_error: 0.
            -
               depth: 2
               sample_count: 1
               value: 2.5656623840332031e+00
               Tn: 0
               complexity: 0
               alpha: 0.
               node_risk: 0.
               tree_risk: 0.
               tree_error: 0.
            -
               depth: 1
               sample_count: 105
               value: -2.3551546675818308e-01
               Tn: 0
               complexity: 0
               alpha: 0.
               node_risk: 8.1945041592934587e-04
               tree_risk: 0.
               tree_error: 0.
               splits:
                  - { var:0, quality:5.8243947029113770e+00,
                      le:7.5652018189430237e-02 }
            -
               depth: 2
               sample_count: 39
               value: -2.3772725004416245e-01
               Tn: 0
               complexity: 0
               alpha: 0.
               node_risk: 4.4757247117832577e-04
               tree_risk: 0.
               tree_error: 0.
               splits:
                  - { var:2, quality:2.2044625282287598e+00,
                      le:-4.5061373710632324e-01 }
            -
               depth: 3
               sample_count: 25
               value: -9.8079276084899902e-01
               Tn: 0
               complexity: 0
               alpha: 0.
               node_risk: 1.5848584761446460e-05
               tree_risk: 0.
               tree_error: 0.
            -
               depth: 3
               sample_count: 14
               value: -9.8951309919357300e-01
               Tn: 0
               complexity: 0
               alpha: 0.
               node_risk: 2.4718062441975164e-05
               tree_risk: 0.
               tree_error: 0.
            -
               depth: 2
               sample_count: 66
               value: -2.3420850390737707e-01
               Tn: 0
               complexity: 0
               alpha: 0.
               node_risk: 6.8352492932355347e-05
               tree_risk: 0.
               tree_error: 0.
               splits:
                  - { var:1, quality:3.6204023361206055e+00,
                      le:7.0705437660217285e-01 }
            -
               depth: 3
               sample_count: 43
               value: -9.8029500246047974e-01
               Tn: 0
               complexity: 0
               alpha: 0.
               node_risk: 3.5175430119771534e-06
               tree_risk: 0.
               tree_error: 0.
            -
               depth: 3
               sample_count: 23
               value: -9.7767192125320435e-01
               Tn: 0
               complexity: 0
               alpha: 0.
               node_risk: 1.6985372108813124e-06
               tree_risk: 0.
               tree_error: 0.
      -
         best_tree_idx: -1
         nodes:
            -
               depth: 0
               sample_count: 144
               value: 6.3322905658019912e-03
               Tn: 0
               complexity: 0
               alpha: 0.
               node_risk: 2.3798011048496090e+01
               tree_risk: 0.
               tree_error: 0.
               splits:
                  - { var:3, quality:2.3803087234497070e+01,
                      le:-1.3956662416458130e+00 }
            -
               depth: 1
               sample_count: 37
               value: 6.9764371659304647e-01
               Tn: 0
               complexity: 0
               alpha: 0.
               node_risk: 4.2419401324877981e-12
               tree_risk: 0.
               tree_error: 0.
               splits:
                  - { var:0, quality:1.8008150100708008e+01,
                      le:-5.6208717823028564e-01 }
            -
               depth: 2
               sample_count: 3
               value: 2.4805083274841309e+00
               Tn: 0
               complexity: 0
               alpha: 0.
               node_risk: 0.
               tree_risk: 0.
               tree_error: 0.
            -
               depth: 2
               sample_count: 34
               value: 6.9764381296494427e-01
               Tn: 0
               complexity: 0
               alpha: 0.
               node_risk: 3.4816594052244909e-13
               tree_risk: 0.
               tree_error: 0.
               splits:
                  - { var:0, quality:1.6548034667968750e+01,
                      le:-5.2321660518646240e-01 }
            -
               depth: 3
               sample_count: 7
               value: 2.4805176258087158e+00
               Tn: 0
               complexity: 0
               alpha: 0.
               node_risk: 0.
               tree_risk: 0.
               tree_error: 0.
            -
               depth: 3
               sample_count: 27
               value: 2.4805183410644531e+00
               Tn: 0
               complexity: 0
               alpha: 0.
               node_risk: 3.1974423109204508e-13
               tree_risk: 0.
               tree_error: 0.
            -
               depth: 1
               sample_count: 107
               value: -2.3271932404174983e-01
               Tn: 0
               complexity: 0
               alpha: 0.
               node_risk: 6.9883575334195314e-04
               tree_risk: 0.
               tree_error: 0.
               splits:
                  - { var:0, quality:5.7951750755310059e+00,
                      le:4.7888163477182388e-02 }
            -
               depth: 2
               sample_count: 37
               value: -2.3477459155224464e-01
               Tn: 0
               complexity: 0
               alpha: 0.
               node_risk: 3.8454921119690511e-04
               tree_risk: 0.
               tree_error: 0.
               splits:
                  - { var:2, quality:2.0397613048553467e+00,
                      le:-4.5061373710632324e-01 }
            -
               depth: 3
               sample_count: 26
               value: -9.7753471136093140e-01
               Tn: 0
               complexity: 0
               alpha: 0.
               node_risk: 1.3332960341783107e-05
               tree_risk: 0.
               tree_error: 0.
            -
               depth: 3
               sample_count: 11
               value: -9.8624378442764282e-01
               Tn: 0
               complexity: 0
               alpha: 0.
               node_risk: 1.6842354424673189e-05
               tree_risk: 0.
               tree_error: 0.
            -
               depth: 2
               sample_count: 70
               value: -2.3163296835763114e-01
               Tn: 0
               complexity: 0
               alpha: 0.
               node_risk: 7.5382127108447605e-05
               tree_risk: 0.
               tree_error: 0.
               splits:
                  - { var:1, quality:3.7558393478393555e+00,
                      le:4.7503691911697388e-01 }
            -
               depth: 3
               sample_count: 38
               value: -9.7727197408676147e-01
               Tn: 0
               complexity: 0
               alpha: 0.
               node_risk: 1.5268250530553473e-07
               tree_risk: 0.
               tree_error: 0.
            -
               depth: 3
               sample_count: 32
               value: -9.7470396757125854e-01
               Tn: 0
               complexity: 0
               alpha: 0.
               node_risk: 4.1725784372115271e-06
               tree_risk: 0.
               tree_error: 0.
      -
         best_tree_idx: -1
         nodes:
            -
               depth: 0
               sample_count: 144
               value: 1.2713760965400271e-02
               Tn: 0
               complexity: 0
               alpha: 0.
               node_risk: 2.3706526149569935e+01
               tree_risk: 0.
               tree_error: 0.
               splits:
                  - { var:3, quality:2.3729125976562500e+01,
                      le:-1.4449375867843628e+00 }
            -
               depth: 1
               sample_count: 38
               value: 6.9036720144121266e-01
               Tn: 0
               complexity: 0
               alpha: 0.
               node_risk: 6.2729385952309258e-06
               tree_risk: 0.
               tree_error: 0.
               splits:
                  - { var:2, quality:1.8111066818237305e+01,
                      le:-8.1771504878997803e-01 }
            -
               depth: 2
               sample_count: 37
               value: 6.9030040663641856e-01
               Tn: 0
               complexity: 0
               alpha: 0.
               node_risk: 4.9915627187147038e-12
               tree_risk: 0.
               tree_error: 0.
               splits:
                  - { var:0, quality:1.7631042480468750e+01,
                      le:-5.6208717823028564e-01 }
            -
               depth: 3
               sample_count: 4
               value: 2.4216935634613037e+00
               Tn: 0
               complexity: 0
               alpha: 0.
               node_risk: 0.
               tree_risk: 0.
               tree_error: 0.
            -
               depth: 3
               sample_count: 33
               value: 2.4217026233673096e+00
               Tn: 0
               complexity: 0
               alpha: 0.
               node_risk: 3.7125857943465235e-13
               tree_risk: 0.
               tree_error: 0.
            -
               depth: 2
               sample_count: 1
               value: 2.4417130947113037e+00
               Tn: 0
               complexity: 0
               alpha: 0.
               node_risk: 0.
               tree_risk: 0.
               tree_error: 0.
            -
               depth: 1
               sample_count: 106
               value: -2.3021860448819287e-01
               Tn: 0
               complexity: 0
               alpha: 0.
               node_risk: 6.7060826348885882e-04
               tree_risk: 0.
               tree_error: 0.
               splits:
                  - { var:0, quality:5.6182451248168945e+00,
                      le:8.6890108883380890e-02 }
            -
               depth: 2
               sample_count: 38
               value: -2.3196689784526825e-01
               Tn: 0
               complexity: 0
               alpha: 0.
               node_risk: 4.2080905255881262e-04
               tree_risk: 0.
               tree_error: 0.
               splits:
                  - { var:2, quality:2.0450465679168701e+00,
                      le:-4.5061373710632324e-01 }
            -
               depth: 3
               sample_count: 29
               value: -9.7447812557220459e-01
               Tn: 0
               complexity: 0
               alpha: 0.
               node_risk: 1.7265248375419873e-05
               tree_risk: 0.
               tree_error: 0.
            -
               depth: 3
               sample_count: 9
               value: -9.8322200775146484e-01
               Tn: 0
               complexity: 0
               alpha: 0.
               node_risk: 8.5280146862931616e-05
               tree_risk: 0.
               tree_error: 0.
            -
               depth: 2
               sample_count: 68
               value: -2.2924161702394485e-01
               Tn: 0
               complexity: 0
               alpha: 0.
               node_risk: 6.8744777404816659e-05
               tree_risk: 0.
               tree_error: 0.
               splits:
                  - { var:1, quality:3.5735814571380615e+00,
                      le:4.7503691911697388e-01 }
            -
               depth: 3
               sample_count: 38
               value: -9.7416210174560547e-01
               Tn: 0
               complexity: 0
               alpha: 0.
               node_risk: 1.8958948055924907e-07
               tree_risk: 0.
               tree_error: 0.
            -
               depth: 3
               sample_count: 30
               value: -9.7168546915054321e-01
               Tn: 0
               complexity: 0
               alpha: 0.
               node_risk: 3.9618148055531321e-06
               tree_risk: 0.
               tree_error: 0.
      -
         best_tree_idx: -1
         nodes:
            -
               depth: 0
               sample_count: 144
               value: -3.8678343925211165e-04
               Tn: 0
               complexity: 0
               alpha: 0.
               node_risk: 2.2449303997126055e+01
               tree_risk: 0.
               tree_error: 0.
               splits:
                  - { var:3, quality:2.2447904586791992e+01,
                      le:-1.4449375867843628e+00 }
            -
               depth: 1
               sample_count: 36
               value: 6.8347302244769204e-01
               Tn: 0
               complexity: 0
               alpha: 0.
               node_risk: 1.2294591240191721e-05
               tree_risk: 0.
               tree_error: 0.
               splits:
                  - { var:0, quality:1.6816881179809570e+01,
                      le:-3.5889118909835815e-01 }
            -
               depth: 2
               sample_count: 35
               value: 6.8339784315654206e-01
               Tn: 0
               complexity: 0
               alpha: 0.
               node_risk: 5.1731647090491606e-06
               tree_risk: 0.
               tree_error: 0.
               splits:
                  - { var:2, quality:1.6346145629882812e+01,
                      le:-8.1771504878997803e-01 }
            -
               depth: 3
               sample_count: 34
               value: 2.3684368133544922e+00
               Tn: 0
               complexity: 0
               alpha: 0.
               node_risk: 5.3562429336295736e-07
               tree_risk: 0.
               tree_error: 0.
            -
               depth: 3
               sample_count: 1
               value: 2.3848919868469238e+00
               Tn: 0
               complexity: 0
               alpha: 0.
               node_risk: 0.
               tree_risk: 0.
               tree_error: 0.
            -
               depth: 2
               sample_count: 1
               value: 2.3893287181854248e+00
               Tn: 0
               complexity: 0
               alpha: 0.
               node_risk: 0.
               tree_risk: 0.
               tree_error: 0.
            -
               depth: 1
               sample_count: 108
               value: -2.2834005206823349e-01
               Tn: 0
               complexity: 0
               alpha: 0.
               node_risk: 1.4084653638430922e-03
               tree_risk: 0.
               tree_error: 0.
               splits:
                  - { var:0, quality:5.6315078735351562e+00,
                      le:7.5652018189430237e-02 }
            -
               depth: 2
               sample_count: 42
               value: -2.3097320965358190e-01
               Tn: 0
               complexity: 0
               alpha: 0.
               node_risk: 8.6099021989394231e-04
               tree_risk: 0.
               tree_error: 0.
               splits:
                  - { var:2, quality:2.2413923740386963e+00,
                      le:-4.5061373710632324e-01 }
            -
               depth: 3
               sample_count: 28
               value: -9.7148692607879639e-01
               Tn: 0
               complexity: 0
               alpha: 0.
               node_risk: 1.9018412579230315e-05
               tree_risk: 0.
               tree_error: 0.
            -
               depth: 3
               sample_count: 14
               value: -9.8293381929397583e-01
               Tn: 0
               complexity: 0
               alpha: 0.
               node_risk: 9.1682556325634046e-05
               tree_risk: 0.
               tree_error: 0.
            -
               depth: 2
               sample_count: 66
               value: -2.2666440633210269e-01
               Tn: 0
               complexity: 0
               alpha: 0.
               node_risk: 7.0953301661624835e-05
               tree_risk: 0.
               tree_error: 0.
               splits:
                  - { var:1, quality:3.3909337520599365e+00,
                      le:4.7503691911697388e-01 }
            -
               depth: 3
               sample_count: 33
               value: -9.7109991312026978e-01
               Tn: 0
               complexity: 0
               alpha: 0.
               node_risk: 2.4013017729807018e-07
               tree_risk: 0.
               tree_error: 0.
            -
               depth: 3
               sample_count: 33
               value: -9.6855342388153076e-01
               Tn: 0
               complexity: 0
               alpha: 0.
               node_risk: 2.6584387591288561e-06
               tree_risk: 0.
               tree_error: 0.
      -
         best_tree_idx: -1
         nodes:
            -
               depth: 0
               sample_count: 144
               value: -4.0729850944545533e-04
               Tn: 0
               complexity: 0
               alpha: 0.
               node_risk: 2.1971907370411628e+01
               tree_risk: 0.
               tree_error: 0.
               splits:
                  - { var:3, quality:2.1970256805419922e+01,
                      le:-1.4449375867843628e+00 }
            -
               depth: 1
               sample_count: 36
               value: 6.7613774538040161e-01
               Tn: 0
               complexity: 0
               alpha: 0.
               node_risk: 4.9748473571753493e-06
               tree_risk: 0.
               tree_error: 0.
               splits:
                  - { var:2, quality:1.6457845687866211e+01,
                      le:-8.1771504878997803e-01 }
            -
               depth: 2
               sample_count: 35
               value: 6.7607766219547816e-01
               Tn: 0
               complexity: 0
               alpha: 0.
               node_risk: 4.2626107799037527e-07
               tree_risk: 0.
               tree_error: 0.
               splits:
                  - { var:0, quality:1.5997835159301758e+01,
                      le:-5.6208717823028564e-01 }
            -
               depth: 3
               sample_count: 3
               value: 2.3127963542938232e+00
               Tn: 0
               complexity: 0
               alpha: 0.
               node_risk: 0.
               tree_risk: 0.
               tree_error: 0.
            -
               depth: 3
               sample_count: 32
               value: 2.3156113624572754e+00
               Tn: 0
               complexity: 0
               alpha: 0.
               node_risk: 3.1086244689504383e-13
               tree_risk: 0.
               tree_error: 0.
            -
               depth: 2
               sample_count: 1
               value: 2.3309347629547119e+00
               Tn: 0
               complexity: 0
               alpha: 0.
               node_risk: 0.
               tree_risk: 0.
               tree_error: 0.
            -
               depth: 1
               sample_count: 108
               value: -2.2592231313939448e-01
               Tn: 0
               complexity: 0
               alpha: 0.
               node_risk: 1.6689677923586999e-03
               tree_risk: 0.
               tree_error: 0.
               splits:
                  - { var:0, quality:5.5129528045654297e+00,
                      le:8.6890108883380890e-02 }
            -
               depth: 2
               sample_count: 40
               value: -2.2882884256541730e-01
               Tn: 0
               complexity: 0
               alpha: 0.
               node_risk: 1.0327805828680425e-03
               tree_risk: 0.
               tree_error: 0.
               splits:
                  - { var:2, quality:2.0953259468078613e+00,
                      le:-4.5061373710632324e-01 }
            -
               depth: 3
               sample_count: 26
               value: -9.6837729215621948e-01
               Tn: 0
               complexity: 0
               alpha: 0.
               node_risk: 1.6083470674610467e-05
               tree_risk: 0.
               tree_error: 0.
            -
               depth: 3
               sample_count: 14
               value: -9.8046910762786865e-01
               Tn: 0
               complexity: 0
               alpha: 0.
               node_risk: 1.9634843653582035e-04
               tree_risk: 0.
               tree_error: 0.
            -
               depth: 2
               sample_count: 68
               value: -2.2421258994761636e-01
               Tn: 0
               complexity: 0
               alpha: 0.
               node_risk: 9.9496246631858298e-05
               tree_risk: 0.
               tree_error: 0.
               splits:
                  - { var:1, quality:3.4185407161712646e+00,
                      le:4.7503691911697388e-01 }
            -
               depth: 3
               sample_count: 38
               value: -9.6805810928344727e-01
               Tn: 0
               complexity: 0
               alpha: 0.
               node_risk: 3.4299984230656833e-07
               tree_risk: 0.
               tree_error: 0.
            -
               depth: 3
               sample_count: 30
               value: -9.6512120962142944e-01
               Tn: 0
               complexity: 0
               alpha: 0.
               node_risk: 5.9035340236324174e-06
               tree_risk: 0.
               tree_error: 0.
      -
         best_tree_idx: -1
         nodes:
            -
               depth: 0
               sample_count: 144
               value: 1.2054964382615354e-02
               Tn: 0
               complexity: 0
               alpha: 0.
               node_risk: 2.2279278686616575e+01
               tree_risk: 0.
               tree_error: 0.
               splits:
                  - { var:3, quality:2.2298435211181641e+01,
                      le:-1.4449375867843628e+00 }
            -
               depth: 1
               sample_count: 38
               value: 6.6897604340001160e-01
               Tn: 0
               complexity: 0
               alpha: 0.
               node_risk: 1.2114487677905572e-05
               tree_risk: 0.
               tree_error: 0.
               splits:
                  - { var:0, quality:1.7006107330322266e+01,
                      le:-3.6238422989845276e-01 }
            -
               depth: 2
               sample_count: 37
               value: 6.6890455903233703e-01
               Tn: 0
               complexity: 0
               alpha: 0.
               node_risk: 4.9298068418579533e-06
               tree_risk: 0.
               tree_error: 0.
               splits:
                  - { var:2, quality:1.6555036544799805e+01,
                      le:-8.1771504878997803e-01 }
            -
               depth: 3
               sample_count: 36
               value: 2.2648103237152100e+00
               Tn: 0
               complexity: 0
               alpha: 0.
               node_risk: 4.2567364744172664e-07
               tree_risk: 0.
               tree_error: 0.
            -
               depth: 3
               sample_count: 1
               value: 2.2796211242675781e+00
               Tn: 0
               complexity: 0
               alpha: 0.
               node_risk: 0.
               tree_risk: 0.
               tree_error: 0.
            -
               depth: 2
               sample_count: 1
               value: 2.2839460372924805e+00
               Tn: 0
               complexity: 0
               alpha: 0.
               node_risk: 0.
               tree_risk: 0.
               tree_error: 0.
            -
               depth: 1
               sample_count: 106
               value: -2.2344504507645122e-01
               Tn: 0
               complexity: 0
               alpha: 0.
               node_risk: 1.7580456950883061e-03
               tree_risk: 0.
               tree_error: 0.
               splits:
                  - { var:0, quality:5.2928524017333984e+00,
                      le:8.0944746732711792e-02 }
            -
               depth: 2
               sample_count: 39
               value: -2.2634126895513290e-01
               Tn: 0
               complexity: 0
               alpha: 0.
               node_risk: 1.1386863358788801e-03
               tree_risk: 0.
               tree_error: 0.
               splits:
                  - { var:2, quality:1.9989223480224609e+00,
                      le:-4.5061373710632324e-01 }
            -
               depth: 3
               sample_count: 27
               value: -9.6534377336502075e-01
               Tn: 0
               complexity: 0
               alpha: 0.
               node_risk: 1.6415702706940039e-05
               tree_risk: 0.
               tree_error: 0.
            -
               depth: 3
               sample_count: 12
               value: -9.7880929708480835e-01
               Tn: 0
               complexity: 0
               alpha: 0.
               node_risk: 1.8437681845573373e-04
               tree_risk: 0.
               tree_error: 0.
            -
               depth: 2
               sample_count: 67
               value: -2.2175918341572606e-01
               Tn: 0
               complexity: 0
               alpha: 0.
               node_risk: 1.0180028263029328e-04
               tree_risk: 0.
               tree_error: 0.
               splits:
                  - { var:1, quality:3.2949681282043457e+00,
                      le:4.1908296942710876e-01 }
            -
               depth: 3
               sample_count: 38
               value: -9.6503508090972900e-01
               Tn: 0
               complexity: 0
               alpha: 0.
               node_risk: 1.8745724084112680e-08
               tree_risk: 0.
               tree_error: 0.
            -
               depth: 3
               sample_count: 29
               value: -9.6198409795761108e-01
               Tn: 0
               complexity: 0
               alpha: 0.
               node_risk: 1.8323657908769775e-06
               tree_risk: 0.
               tree_error: 0.
      -
         best_tree_idx: -1
         nodes:
            -
               depth: 0
               sample_count: 144
               value: 1.8064695824351575e-02
               Tn: 0
               complexity: 0
               alpha: 0.
               node_risk: 2.2164210868022362e+01
               tree_risk: 0.
               tree_error: 0.
               splits:
                  - { var:3, quality:2.2209142684936523e+01,
                      le:-1.3990764617919922e+00 }
            -
               depth: 1
               sample_count: 39
               value: 6.6176995100119174e-01
               Tn: 0
               complexity: 0
               alpha: 0.
               node_risk: 1.2254832313374209e-05
               tree_risk: 0.
               tree_error: 0.
               splits:
                  - { var:0, quality:1.7079647064208984e+01,
                      le:-3.5889118909835815e-01 }
            -
               depth: 2
               sample_count: 38
               value: 6.6170033185105570e-01
               Tn: 0
               complexity: 0
               alpha: 0.
               node_risk: 5.0718360817825214e-06
               tree_risk: 0.
               tree_error: 0.
               splits:
                  - { var:2, quality:1.6638202667236328e+01,
                      le:-8.1812518835067749e-01 }
            -
               depth: 3
               sample_count: 37
               value: 2.2165985107421875e+00
               Tn: 0
               complexity: 0
               alpha: 0.
               node_risk: 5.6435864692616633e-07
               tree_risk: 0.
               tree_error: 0.
            -
               depth: 3
               sample_count: 1
               value: 2.2307837009429932e+00
               Tn: 0
               complexity: 0
               alpha: 0.
               node_risk: 0.
               tree_risk: 0.
               tree_error: 0.
            -
               depth: 2
               sample_count: 1
               value: 2.2349064350128174e+00
               Tn: 0
               complexity: 0
               alpha: 0.
               node_risk: 0.
               tree_risk: 0.
               tree_error: 0.
            -
               depth: 1
               sample_count: 105
               value: -2.2102582752704619e-01
               Tn: 0
               complexity: 0
               alpha: 0.
               node_risk: 2.0476196143315306e-03
               tree_risk: 0.
               tree_error: 0.
               splits:
                  - { var:0, quality:5.1300730705261230e+00,
                      le:9.2182837426662445e-02 }
            -
               depth: 2
               sample_count: 40
               value: -2.2399415671825409e-01
               Tn: 0
               complexity: 0
               alpha: 0.
               node_risk: 1.3362409932997643e-03
               tree_risk: 0.
               tree_error: 0.
               splits:
                  - { var:2, quality:2.0079567432403564e+00,
                      le:-4.5061373710632324e-01 }
            -
               depth: 3
               sample_count: 28
               value: -9.6238875389099121e-01
               Tn: 0
               complexity: 0
               alpha: 0.
               node_risk: 1.8890300652607550e-05
               tree_risk: 0.
               tree_error: 0.
            -
               depth: 3
               sample_count: 12
               value: -9.7633296251296997e-01
               Tn: 0
               complexity: 0
               alpha: 0.
               node_risk: 2.9597439887241173e-04
               tree_risk: 0.
               tree_error: 0.
            -
               depth: 2
               sample_count: 65
               value: -2.1919916340937981e-01
               Tn: 0
               complexity: 0
               alpha: 0.
               node_risk: 1.4205387661947455e-04
               tree_risk: 0.
               tree_error: 0.
               splits:
                  - { var:1, quality:3.1232757568359375e+00,
                      le:4.7503691911697388e-01 }
            -
               depth: 3
               sample_count: 37
               value: -9.6211427450180054e-01
               Tn: 0
               complexity: 0
               alpha: 0.
               node_risk: 1.8021732228756804e-06
               tree_risk: 0.
               tree_error: 0.
            -
               depth: 3
               sample_count: 28
               value: -9.5849674940109253e-01
               Tn: 0
               complexity: 0
               alpha: 0.
               node_risk: 2.2759787117188068e-06
               tree_risk: 0.
               tree_error: 0.
      -
         best_tree_idx: -1
         nodes:
            -
               depth: 0
               sample_count: 144
               value: 5.4469368317061001e-03
               Tn: 0
               complexity: 0
               alpha: 0.
               node_risk: 2.0983996682301264e+01
               tree_risk: 0.
               tree_error: 0.
               splits:
                  - { var:3, quality:2.0985332489013672e+01,
                      le:-1.4449375867843628e+00 }
            -
               depth: 1
               sample_count: 37
               value: 6.5456470605489370e-01
               Tn: 0
               complexity: 0
               alpha: 0.
               node_risk: 7.9851762144755867e-06
               tree_risk: 0.
               tree_error: 0.
               splits:
                  - { var:0, quality:1.5852840423583984e+01,
                      le:-3.5889118909835815e-01 }
            -
               depth: 2
               sample_count: 36
               value: 6.5449011325836182e-01
               Tn: 0
               complexity: 0
               alpha: 0.
               node_risk: 5.7381460294436692e-07
               tree_risk: 0.
               tree_error: 0.
               splits:
                  - { var:0, quality:1.5420864105224609e+01,
                      le:-5.6208717823028564e-01 }
            -
               depth: 3
               sample_count: 4
               value: 2.1684637069702148e+00
               Tn: 0
               complexity: 0
               alpha: 0.
               node_risk: 0.
               tree_risk: 0.
               tree_error: 0.
            -
               depth: 3
               sample_count: 32
               value: 2.1709854602813721e+00
               Tn: 0
               complexity: 0
               alpha: 0.
               node_risk: 3.1086244689504383e-13
               tree_risk: 0.
               tree_error: 0.
            -
               depth: 2
               sample_count: 1
               value: 2.1881840229034424e+00
               Tn: 0
               complexity: 0
               alpha: 0.
               node_risk: 0.
               tree_risk: 0.
               tree_error: 0.
            -
               depth: 1
               sample_count: 107
               value: -2.1901434785294754e-01
               Tn: 0
               complexity: 0
               alpha: 0.
               node_risk: 2.9282887528383483e-03
               tree_risk: 0.
               tree_error: 0.
               splits:
                  - { var:0, quality:5.1332950592041016e+00,
                      le:6.3666693866252899e-02 }
            -
               depth: 2
               sample_count: 43
               value: -2.2234092271605202e-01
               Tn: 0
               complexity: 0
               alpha: 0.
               node_risk: 1.9645630090048272e-03
               tree_risk: 0.
               tree_error: 0.
               splits:
                  - { var:2, quality:2.1273803710937500e+00,
                      le:-4.5061373710632324e-01 }
            -
               depth: 3
               sample_count: 30
               value: -9.5939850807189941e-01
               Tn: 0
               complexity: 0
               alpha: 0.
               node_risk: 1.7112870665192403e-05
               tree_risk: 0.
               tree_error: 0.
            -
               depth: 3
               sample_count: 13
               value: -9.7638612985610962e-01
               Tn: 0
               complexity: 0
               alpha: 0.
               node_risk: 2.9290059815756386e-04
               tree_risk: 0.
               tree_error: 0.
            -
               depth: 2
               sample_count: 64
               value: -2.1677930536679924e-01
               Tn: 0
               complexity: 0
               alpha: 0.
               node_risk: 1.6817687553016825e-04
               tree_risk: 0.
               tree_error: 0.
               splits:
                  - { var:1, quality:3.0077254772186279e+00,
                      le:4.3127530813217163e-01 }
            -
               depth: 3
               sample_count: 38
               value: -9.5916801691055298e-01
               Tn: 0
               complexity: 0
               alpha: 0.
               node_risk: 9.5483497863924072e-07
               tree_risk: 0.
               tree_error: 0.
            -
               depth: 3
               sample_count: 26
               value: -9.5528209209442139e-01
               Tn: 0
               complexity: 0
               alpha: 0.
               node_risk: 1.0855693107547637e-05
               tree_risk: 0.
               tree_error: 0.
      -
         best_tree_idx: -1
         nodes:
            -
               depth: 0
               sample_count: 144
               value: 2.3475614686806996e-02
               Tn: 0
               complexity: 0
               alpha: 0.
               node_risk: 2.1570997210294554e+01
               tree_risk: 0.
               tree_error: 0.
               splits:
                  - { var:3, quality:2.1647361755371094e+01,
                      le:-1.4449375867843628e+00 }
            -
               depth: 1
               sample_count: 40
               value: 6.4751269072294237e-01
               Tn: 0
               complexity: 0
               alpha: 0.
               node_risk: 1.1964555731935889e-05
               tree_risk: 0.
               tree_error: 0.
               splits:
                  - { var:0, quality:1.6770914077758789e+01,
                      le:-3.5889118909835815e-01 }
            -
               depth: 2
               sample_count: 39
               value: 6.4744573220228541e-01
               Tn: 0
               complexity: 0
               alpha: 0.
               node_risk: 4.9703838875814199e-06
               tree_risk: 0.
               tree_error: 0.
               splits:
                  - { var:2, quality:1.6348257064819336e+01,
                      le:-8.1771504878997803e-01 }
            -
               depth: 3
               sample_count: 38
               value: 2.1269986629486084e+00
               Tn: 0
               complexity: 0
               alpha: 0.
               node_risk: 4.3869021304487887e-07
               tree_risk: 0.
               tree_error: 0.
            -
               depth: 3
               sample_count: 1
               value: 2.1400876045227051e+00
               Tn: 0
               complexity: 0
               alpha: 0.
               node_risk: 0.
               tree_risk: 0.
               tree_error: 0.
            -
               depth: 2
               sample_count: 1
               value: 2.1436171531677246e+00
               Tn: 0
               complexity: 0
               alpha: 0.
               node_risk: 0.
               tree_risk: 0.
               tree_error: 0.
            -
               depth: 1
               sample_count: 104
               value: -2.1653864532709122e-01
               Tn: 0
               complexity: 0
               alpha: 0.
               node_risk: 2.9824739876112005e-03
               tree_risk: 0.
               tree_error: 0.
               splits:
                  - { var:0, quality:4.8773441314697266e+00,
                      le:6.3666693866252899e-02 }
            -
               depth: 2
               sample_count: 40
               value: -2.2023789845407010e-01
               Tn: 0
               complexity: 0
               alpha: 0.
               node_risk: 1.9129007212346227e-03
               tree_risk: 0.
               tree_error: 0.
               splits:
                  - { var:2, quality:1.9417899847030640e+00,
                      le:-4.5061373710632324e-01 }
            -
               depth: 3
               sample_count: 27
               value: -9.5645093917846680e-01
               Tn: 0
               complexity: 0
               alpha: 0.
               node_risk: 1.5941584351031324e-05
               tree_risk: 0.
               tree_error: 0.
            -
               depth: 3
               sample_count: 13
               value: -9.7333580255508423e-01
               Tn: 0
               complexity: 0
               alpha: 0.
               node_risk: 2.9620994199341943e-04
               tree_risk: 0.
               tree_error: 0.
            -
               depth: 2
               sample_count: 64
               value: -2.1422661212272942e-01
               Tn: 0
               complexity: 0
               alpha: 0.
               node_risk: 1.8008247604450744e-04
               tree_risk: 0.
               tree_error: 0.
               splits:
                  - { var:1, quality:2.9373185634613037e+00,
                      le:4.7503691911697388e-01 }
            -
               depth: 3
               sample_count: 33
               value: -9.5636236667633057e-01
               Tn: 0
               complexity: 0
               alpha: 0.
               node_risk: 5.3005202227396353e-06
               tree_risk: 0.
               tree_error: 0.
            -
               depth: 3
               sample_count: 31
               value: -9.5247423648834229e-01
               Tn: 0
               complexity: 0
               alpha: 0.
               node_risk: 1.0877810664222665e-05
               tree_risk: 0.
               tree_error: 0.
      -
         best_tree_idx: -1
         nodes:
            -
               depth: 0
               sample_count: 144
               value: -6.1644371598958969e-03
               Tn: 0
               complexity: 0
               alpha: 0.
               node_risk: 1.9331037795706255e+01
               tree_risk: 0.
               tree_error: 0.
               splits:
                  - { var:3, quality:1.9333919525146484e+01,
                      le:-1.3956662416458130e+00 }
            -
               depth: 1
               sample_count: 35
               value: 6.4037716559001379e-01
               Tn: 0
               complexity: 0
               alpha: 0.
               node_risk: 4.9303833300484712e-06
               tree_risk: 0.
               tree_error: 0.
               splits:
                  - { var:2, quality:1.4352906227111816e+01,
                      le:-8.1771504878997803e-01 }
            -
               depth: 2
               sample_count: 34
               value: 6.4031575357212744e-01
               Tn: 0
               complexity: 0
               alpha: 0.
               node_risk: 4.4237456009454945e-07
               tree_risk: 0.
               tree_error: 0.
               splits:
                  - { var:0, quality:1.3940145492553711e+01,
                      le:-5.6208717823028564e-01 }
            -
               depth: 3
               sample_count: 3
               value: 2.0830388069152832e+00
               Tn: 0
               complexity: 0
               alpha: 0.
               node_risk: 0.
               tree_risk: 0.
               tree_error: 0.
            -
               depth: 3
               sample_count: 31
               value: 2.0853679180145264e+00
               Tn: 0
               complexity: 0
               alpha: 0.
               node_risk: 3.3573144264664734e-13
               tree_risk: 0.
               tree_error: 0.
            -
               depth: 2
               sample_count: 1
               value: 2.0976977348327637e+00
               Tn: 0
               complexity: 0
               alpha: 0.
               node_risk: 0.
               tree_risk: 0.
               tree_error: 0.
            -
               depth: 1
               sample_count: 109
               value: -2.1376953896032561e-01
               Tn: 0
               complexity: 0
               alpha: 0.
               node_risk: 2.5845882994142144e-03
               tree_risk: 0.
               tree_error: 0.
               splits:
                  - { var:0, quality:4.9818096160888672e+00,
                      le:3.5902839154005051e-02 }
            -
               depth: 2
               sample_count: 35
               value: -2.1768679235662733e-01
               Tn: 0
               complexity: 0
               alpha: 0.
               node_risk: 1.5888238475612049e-03
               tree_risk: 0.
               tree_error: 0.
               splits:
                  - { var:2, quality:1.6599977016448975e+00,
                      le:-4.5061373710632324e-01 }
            -
               depth: 3
               sample_count: 25
               value: -9.5376485586166382e-01
               Tn: 0
               complexity: 0
               alpha: 0.
               node_risk: 2.0996043258225683e-05
               tree_risk: 0.
               tree_error: 0.
            -
               depth: 3
               sample_count: 10
               value: -9.7133368253707886e-01
               Tn: 0
               complexity: 0
               alpha: 0.
               node_risk: 1.3398333207159663e-04
               tree_risk: 0.
               tree_error: 0.
            -
               depth: 2
               sample_count: 74
               value: -2.1191678397558830e-01
               Tn: 0
               complexity: 0
               alpha: 0.
               node_risk: 2.0467397939993859e-04
               tree_risk: 0.
               tree_error: 0.
               splits:
                  - { var:1, quality:3.3234379291534424e+00,
                      le:4.7503691911697388e-01 }
            -
               depth: 3
               sample_count: 40
               value: -9.5347523689270020e-01
               Tn: 0
               complexity: 0
               alpha: 0.
               node_risk: 5.7478650232756223e-06
               tree_risk: 0.
               tree_error: 0.
            -
               depth: 3
               sample_count: 34
               value: -9.4957029819488525e-01
               Tn: 0
               complexity: 0
               alpha: 0.
               node_risk: 6.5939302538176037e-06
               tree_risk: 0.
               tree_error: 0.
      -
         best_tree_idx: -1
         nodes:
            -
               depth: 0
               sample_count: 144
               value: 2.2877403121027682e-02
               Tn: 0
               complexity: 0
               alpha: 0.
               node_risk: 2.0652045458247596e+01
               tree_risk: 0.
               tree_error: 0.
               splits:
                  - { var:3, quality:2.0723445892333984e+01,
                      le:-1.4449375867843628e+00 }
            -
               depth: 1
               sample_count: 40
               value: 6.3346117734909058e-01
               Tn: 0
               complexity: 0
               alpha: 0.
               node_risk: 1.1697677592792388e-05
               tree_risk: 0.
               tree_error: 0.
               splits:
                  - { var:0, quality:1.6050930023193359e+01,
                      le:-3.5889118909835815e-01 }
            -
               depth: 2
               sample_count: 39
               value: 6.3339421687982023e-01
               Tn: 0
               complexity: 0
               alpha: 0.
               node_risk: 4.7030986589646773e-06
               tree_risk: 0.
               tree_error: 0.
               splits:
                  - { var:2, quality:1.5646345138549805e+01,
                      le:-8.1771504878997803e-01 }
            -
               depth: 3
               sample_count: 38
               value: 2.0454902648925781e+00
               Tn: 0
               complexity: 0
               alpha: 0.
               node_risk: 3.0351997359900906e-07
               tree_risk: 0.
               tree_error: 0.
            -
               depth: 3
               sample_count: 1
               value: 2.0574138164520264e+00
               Tn: 0
               complexity: 0
               alpha: 0.
               node_risk: 0.
               tree_risk: 0.
               tree_error: 0.
            -
               depth: 2
               sample_count: 1
               value: 2.0608508586883545e+00
               Tn: 0
               complexity: 0
               alpha: 0.
               node_risk: 0.
               tree_risk: 0.
               tree_error: 0.
            -
               depth: 1
               sample_count: 104
               value: -2.1196251004361188e-01
               Tn: 0
               complexity: 0
               alpha: 0.
               node_risk: 3.9543257682952415e-03
               tree_risk: 0.
               tree_error: 0.
               splits:
                  - { var:0, quality:4.6739468574523926e+00,
                      le:6.3666693866252899e-02 }
            -
               depth: 2
               sample_count: 35
               value: -2.1715816174234662e-01
               Tn: 0
               complexity: 0
               alpha: 0.
               node_risk: 2.3008341371808516e-03
               tree_risk: 0.
               tree_error: 0.
               splits:
                  - { var:2, quality:1.6524567604064941e+00,
                      le:-4.5061373710632324e-01 }
            -
               depth: 3
               sample_count: 21
               value: -9.5067191123962402e-01
               Tn: 0
               complexity: 0
               alpha: 0.
               node_risk: 1.0630652418242015e-05
               tree_risk: 0.
               tree_error: 0.
            -
               depth: 3
               sample_count: 14
               value: -9.6947276592254639e-01
               Tn: 0
               complexity: 0
               alpha: 0.
               node_risk: 3.5185012234728585e-04
               tree_risk: 0.
               tree_error: 0.
            -
               depth: 2
               sample_count: 69
               value: -2.0932703454425369e-01
               Tn: 0
               complexity: 0
               alpha: 0.
               node_risk: 2.2941830457723356e-04
               tree_risk: 0.
               tree_error: 0.
               splits:
                  - { var:1, quality:3.0236380100250244e+00,
                      le:4.7503691911697388e-01 }
            -
               depth: 3
               sample_count: 35
               value: -9.5062357187271118e-01
               Tn: 0
               complexity: 0
               alpha: 0.
               node_risk: 6.2895308736710120e-06
               tree_risk: 0.
               tree_error: 0.
            -
               depth: 3
               sample_count: 34
               value: -9.4644653797149658e-01
               Tn: 0
               complexity: 0
               alpha: 0.
               node_risk: 1.3899620863400131e-05
               tree_risk: 0.
               tree_error: 0.
      -
         best_tree_idx: -1
         nodes:
            -
               depth: 0
               sample_count: 144
               value: 1.7099134106602933e-02
               Tn: 0
               complexity: 0
               alpha: 0.
               node_risk: 1.9863358649370877e+01
               tree_risk: 0.
               tree_error: 0.
               splits:
                  - { var:3, quality:1.9902259826660156e+01,
                      le:-1.4449375867843628e+00 }
            -
               depth: 1
               sample_count: 39
               value: 6.2645702025829220e-01
               Tn: 0
               complexity: 0
               alpha: 0.
               node_risk: 1.2046245783992049e-05
               tree_risk: 0.
               tree_error: 0.
               splits:
                  - { var:0, quality:1.5305494308471680e+01,
                      le:-3.5889118909835815e-01 }
            -
               depth: 2
               sample_count: 38
               value: 6.2638817805992930e-01
               Tn: 0
               complexity: 0
               alpha: 0.
               node_risk: 5.0226798400387906e-06
               tree_risk: 0.
               tree_error: 0.
               splits:
                  - { var:2, quality:1.4909766197204590e+01,
                      le:-8.1771504878997803e-01 }
            -
               depth: 3
               sample_count: 37
               value: 2.0071294307708740e+00
               Tn: 0
               complexity: 0
               alpha: 0.
               node_risk: 5.8300939542732522e-07
               tree_risk: 0.
               tree_error: 0.
            -
               depth: 3
               sample_count: 1
               value: 2.0186650753021240e+00
               Tn: 0
               complexity: 0
               alpha: 0.
               node_risk: 0.
               tree_risk: 0.
               tree_error: 0.
            -
               depth: 2
               sample_count: 1
               value: 2.0219612121582031e+00
               Tn: 0
               complexity: 0
               alpha: 0.
               node_risk: 0.
               tree_risk: 0.
               tree_error: 0.
            -
               depth: 1
               sample_count: 105
               value: -2.0923379503545306e-01
               Tn: 0
               complexity: 0
               alpha: 0.
               node_risk: 3.1898444577160845e-03
               tree_risk: 0.
               tree_error: 0.
               splits:
                  - { var:0, quality:4.5976605415344238e+00,
                      le:6.3666693866252899e-02 }
            -
               depth: 2
               sample_count: 37
               value: -2.1317704666305232e-01
               Tn: 0
               complexity: 0
               alpha: 0.
               node_risk: 2.0811716987954032e-03
               tree_risk: 0.
               tree_error: 0.
               splits:
                  - { var:2, quality:1.6831603050231934e+00,
                      le:-4.5061373710632324e-01 }
            -
               depth: 3
               sample_count: 26
               value: -9.4786804914474487e-01
               Tn: 0
               complexity: 0
               alpha: 0.
               node_risk: 1.3981286049791208e-05
               tree_risk: 0.
               tree_error: 0.
            -
               depth: 3
               sample_count: 11
               value: -9.6623152494430542e-01
               Tn: 0
               complexity: 0
               alpha: 0.
               node_risk: 3.5168418275388635e-04
               tree_risk: 0.
               tree_error: 0.
            -
               depth: 2
               sample_count: 68
               value: -2.0708820223808289e-01
               Tn: 0
               complexity: 0
               alpha: 0.
               node_risk: 2.2030846843357210e-04
               tree_risk: 0.
               tree_error: 0.
               splits:
                  - { var:1, quality:2.9164187908172607e+00,
                      le:4.7503691911697388e-01 }
            -
               depth: 3
               sample_count: 36
               value: -9.4783049821853638e-01
               Tn: 0
               complexity: 0
               alpha: 0.
               node_risk: 7.2487919728914108e-06
               tree_risk: 0.
               tree_error: 0.
            -
               depth: 3
               sample_count: 32
               value: -9.4369989633560181e-01
               Tn: 0
               complexity: 0
               alpha: 0.
               node_risk: 9.7821686757537663e-06
               tree_risk: 0.
               tree_error: 0.
      -
         best_tree_idx: -1
         nodes:
            -
               depth: 0
               sample_count: 144
               value: -5.7517614008651841e-03
               Tn: 0
               complexity: 0
               alpha: 0.
               node_risk: 1.8082475446499338e+01
               tree_risk: 0.
               tree_error: 0.
               splits:
                  - { var:3, quality:1.8083988189697266e+01,
                      le:-1.4449375867843628e+00 }
            -
               depth: 1
               sample_count: 35
               value: 6.1954745224543983e-01
               Tn: 0
               complexity: 0
               alpha: 0.
               node_risk: 1.1407448392120045e-05
               tree_risk: 0.
               tree_error: 0.
               splits:
                  - { var:0, quality:1.3434373855590820e+01,
                      le:-3.5889118909835815e-01 }
            -
               depth: 2
               sample_count: 34
               value: 6.1947187606026144e-01
               Tn: 0
               complexity: 0
               alpha: 0.
               node_risk: 4.6104542708036433e-06
               tree_risk: 0.
               tree_error: 0.
               splits:
                  - { var:2, quality:1.3047348022460938e+01,
                      le:-8.1771504878997803e-01 }
            -
               depth: 3
               sample_count: 33
               value: 1.9706245660781860e+00
               Tn: 0
               complexity: 0
               alpha: 0.
               node_risk: 3.1146053736108570e-07
               tree_risk: 0.
               tree_error: 0.
            -
               depth: 3
               sample_count: 1
               value: 1.9815821647644043e+00
               Tn: 0
               complexity: 0
               alpha: 0.
               node_risk: 0.
               tree_risk: 0.
               tree_error: 0.
            -
               depth: 2
               sample_count: 1
               value: 1.9847415685653687e+00
               Tn: 0
               complexity: 0
               alpha: 0.
               node_risk: 0.
               tree_risk: 0.
               tree_error: 0.
            -
               depth: 1
               sample_count: 109
               value: -2.0653591257169707e-01
               Tn: 0
               complexity: 0
               alpha: 0.
               node_risk: 3.2392941251986329e-03
               tree_risk: 0.
               tree_error: 0.
               splits:
                  - { var:0, quality:4.6504812240600586e+00,
                      le:6.3666693866252899e-02 }
            -
               depth: 2
               sample_count: 35
               value: -2.1061821622507912e-01
               Tn: 0
               complexity: 0
               alpha: 0.
               node_risk: 2.1040298118437661e-03
               tree_risk: 0.
               tree_error: 0.
               splits:
                  - { var:2, quality:1.5544531345367432e+00,
                      le:-4.5061373710632324e-01 }
            -
               depth: 3
               sample_count: 27
               value: -9.4537532329559326e-01
               Tn: 0
               complexity: 0
               alpha: 0.
               node_risk: 3.1586857046628225e-05
               tree_risk: 0.
               tree_error: 0.
            -
               depth: 3
               sample_count: 8
               value: -9.6662539243698120e-01
               Tn: 0
               complexity: 0
               alpha: 0.
               node_risk: 2.2045128058456598e-04
               tree_risk: 0.
               tree_error: 0.
            -
               depth: 2
               sample_count: 74
               value: -2.0460509327617851e-01
               Tn: 0
               complexity: 0
               alpha: 0.
               node_risk: 2.7610553097101587e-04
               tree_risk: 0.
               tree_error: 0.
               splits:
                  - { var:1, quality:3.0981299877166748e+00,
                      le:4.7503691911697388e-01 }
            -
               depth: 3
               sample_count: 38
               value: -9.4505441188812256e-01
               Tn: 0
               complexity: 0
               alpha: 0.
               node_risk: 7.3696379347953922e-06
               tree_risk: 0.
               tree_error: 0.
            -
               depth: 3
               sample_count: 36
               value: -9.4069766998291016e-01
               Tn: 0
               complexity: 0
               alpha: 0.
               node_risk: 1.8775386922298409e-05
               tree_risk: 0.
               tree_error: 0.
      -
         best_tree_idx: -1
         nodes:
            -
               depth: 0
               sample_count: 144
               value: 1.0992386481828161e-02
               Tn: 0
               complexity: 0
               alpha: 0.
               node_risk: 1.8718703091594978e+01
               tree_risk: 0.
               tree_error: 0.
               splits:
                  - { var:3, quality:1.8731943130493164e+01,
                      le:-1.3956662416458130e+00 }
            -
               depth: 1
               sample_count: 38
               value: 6.1309361457824707e-01
               Tn: 0
               complexity: 0
               alpha: 0.
               node_risk: 1.2113418357273531e-05
               tree_risk: 0.
               tree_error: 0.
               splits:
                  - { var:0, quality:1.4283591270446777e+01,
                      le:-3.5889118909835815e-01 }
            -
               depth: 2
               sample_count: 37
               value: 6.1302222432316955e-01
               Tn: 0
               complexity: 0
               alpha: 0.
               node_risk: 4.9476430188377662e-06
               tree_risk: 0.
               tree_error: 0.
               splits:
                  - { var:2, quality:1.3904463768005371e+01,
                      le:-8.1771504878997803e-01 }
            -
               depth: 3
               sample_count: 36
               value: 1.9378762245178223e+00
               Tn: 0
               complexity: 0
               alpha: 0.
               node_risk: 2.3745898047877745e-06
               tree_risk: 0.
               tree_error: 0.
            -
               depth: 3
               sample_count: 1
               value: 1.9460526704788208e+00
               Tn: 0
               complexity: 0
               alpha: 0.
               node_risk: 0.
               tree_risk: 0.
               tree_error: 0.
            -
               depth: 2
               sample_count: 1
               value: 1.9517782926559448e+00
               Tn: 0
               complexity: 0
               alpha: 0.
               node_risk: 0.
               tree_risk: 0.
               tree_error: 0.
            -
               depth: 1
               sample_count: 106
               value: -2.0485522359047295e-01
               Tn: 0
               complexity: 0
               alpha: 0.
               node_risk: 4.1469788824963771e-03
               tree_risk: 0.
               tree_error: 0.
               splits:
                  - { var:0, quality:4.4493904113769531e+00,
                      le:1.9879650324583054e-02 }
            -
               depth: 2
               sample_count: 39
               value: -2.0894148640143564e-01
               Tn: 0
               complexity: 0
               alpha: 0.
               node_risk: 2.8727565082131701e-03
               tree_risk: 0.
               tree_error: 0.
               splits:
                  - { var:0, quality:1.7050422430038452e+00,
                      le:-5.2336454391479492e-01 }
            -
               depth: 3
               sample_count: 31
               value: -9.4335716962814331e-01
               Tn: 0
               complexity: 0
               alpha: 0.
               node_risk: 2.6195715829513411e-04
               tree_risk: 0.
               tree_error: 0.
            -
               depth: 3
               sample_count: 8
               value: -9.6724140644073486e-01
               Tn: 0
               complexity: 0
               alpha: 0.
               node_risk: 1.7382827758127828e-04
               tree_risk: 0.
               tree_error: 0.
            -
               depth: 2
               sample_count: 67
               value: -2.0247665270050960e-01
               Tn: 0
               complexity: 0
               alpha: 0.
               node_risk: 2.4395900257312420e-04
               tree_risk: 0.
               tree_error: 0.
               splits:
                  - { var:1, quality:2.7470076084136963e+00,
                      le:4.7503691911697388e-01 }
            -
               depth: 3
               sample_count: 37
               value: -9.4235122203826904e-01
               Tn: 0
               complexity: 0
               alpha: 0.
               node_risk: 8.0763007563877665e-06
               tree_risk: 0.
               tree_error: 0.
            -
               depth: 3
               sample_count: 30
               value: -9.3803393840789795e-01
               Tn: 0
               complexity: 0
               alpha: 0.
               node_risk: 1.3444889149560879e-05
               tree_risk: 0.
               tree_error: 0.
      -
         best_tree_idx: -1
         nodes:
            -
               depth: 0
               sample_count: 144
               value: -8.6311933894952142e-04
               Tn: 0
               complexity: 0
               alpha: 0.
               node_risk: 1.7701750653322517e+01
               tree_risk: 0.
               tree_error: 0.
               splits:
                  - { var:3, quality:1.7695653915405273e+01,
                      le:-1.4483478069305420e+00 }
            -
               depth: 1
               sample_count: 36
               value: 6.0630835923883653e-01
               Tn: 0
               complexity: 0
               alpha: 0.
               node_risk: 1.1068174194051039e-05
               tree_risk: 0.
               tree_error: 0.
               splits:
                  - { var:0, quality:1.3233961105346680e+01,
                      le:-3.5889118909835815e-01 }
            -
               depth: 2
               sample_count: 35
               value: 6.0623408726283479e-01
               Tn: 0
               complexity: 0
               alpha: 0.
               node_risk: 4.1176029075273846e-06
               tree_risk: 0.
               tree_error: 0.
               splits:
                  - { var:2, quality:1.2863194465637207e+01,
                      le:-8.1812518835067749e-01 }
            -
               depth: 3
               sample_count: 34
               value: 1.9044649600982666e+00
               Tn: 0
               complexity: 0
               alpha: 0.
               node_risk: 1.6468967718452632e-06
               tree_risk: 0.
               tree_error: 0.
            -
               depth: 3
               sample_count: 1
               value: 1.9122083187103271e+00
               Tn: 0
               complexity: 0
               alpha: 0.
               node_risk: 0.
               tree_risk: 0.
               tree_error: 0.
            -
               depth: 2
               sample_count: 1
               value: 1.9177067279815674e+00
               Tn: 0
               complexity: 0
               alpha: 0.
               node_risk: 0.
               tree_risk: 0.
               tree_error: 0.
            -
               depth: 1
               sample_count: 108
               value: -2.0325361219821153e-01
               Tn: 0
               complexity: 0
               alpha: 0.
               node_risk: 6.1937740282038689e-03
               tree_risk: 0.
               tree_error: 0.
               splits:
                  - { var:0, quality:4.4636721611022949e+00,
                      le:7.5652018189430237e-02 }
            -
               depth: 2
               sample_count: 39
               value: -2.0893832315237093e-01
               Tn: 0
               complexity: 0
               alpha: 0.
               node_risk: 3.9323344928763326e-03
               tree_risk: 0.
               tree_error: 0.
               splits:
                  - { var:0, quality:1.7059355974197388e+00,
                      le:-5.2336454391479492e-01 }
            -
               depth: 3
               sample_count: 27
               value: -9.4077610969543457e-01
               Tn: 0
               complexity: 0
               alpha: 0.
               node_risk: 3.0445426360792283e-04
               tree_risk: 0.
               tree_error: 0.
            -
               depth: 3
               sample_count: 12
               value: -9.6524900197982788e-01
               Tn: 0
               complexity: 0
               alpha: 0.
               node_risk: 2.4600539739938476e-04
               tree_risk: 0.
               tree_error: 0.
            -
               depth: 2
               sample_count: 69
               value: -2.0004051470238229e-01
               Tn: 0
               complexity: 0
               alpha: 0.
               node_risk: 2.8876223795082367e-04
               tree_risk: 0.
               tree_error: 0.
               splits:
                  - { var:1, quality:2.7613854408264160e+00,
                      le:4.8238876461982727e-01 }
            -
               depth: 3
               sample_count: 39
               value: -9.3957519531250000e-01
               Tn: 0
               complexity: 0
               alpha: 0.
               node_risk: 7.6588972699465074e-06
               tree_risk: 0.
               tree_error: 0.
            -
               depth: 3
               sample_count: 30
               value: -9.3492877483367920e-01
               Tn: 0
               complexity: 0
               alpha: 0.
               node_risk: 1.4058154848450855e-05
               tree_risk: 0.
               tree_error: 0.
      -
         best_tree_idx: -1
         nodes:
            -
               depth: 0
               sample_count: 144
               value: 4.7472654324438833e-03
               Tn: 0
               complexity: 0
               alpha: 0.
               node_risk: 1.7616422919098284e+01
               tree_risk: 0.
               tree_error: 0.
               splits:
                  - { var:3, quality:1.7613746643066406e+01,
