%YAML:1.0
---
opencv_ml_knn:
   format: 3
   is_classifier: 1
   default_k: 10
   samples: !!opencv-matrix
      rows: 172
      cols: 4
      dt: f
      data: [ -4.46948558e-01, -5.66697836e-01, -8.59733582e-01,
          -1.67416108e+00, -4.56049651e-01, -6.11006856e-01,
          -8.53775561e-01, -1.66663468e+00, -5.16565681e-01,
          -7.03446031e-01, -8.97729456e-01, -1.65270054e+00,
          -5.08504331e-01, -6.47248566e-01, -8.84783506e-01,
          -1.68689644e+00, -4.61930990e-01, -6.88520849e-01,
          -9.12056267e-01, -1.67689633e+00, -4.63746607e-01,
          -6.01508617e-01, -8.98185372e-01, -1.64905238e+00,
          -6.53530777e-01, -6.99212492e-01, -8.82863402e-01,
          -1.66423690e+00, -5.27986944e-01, -5.93413353e-01,
          -7.52647042e-01, -1.67166030e+00, -4.97610569e-01,
          -6.44278109e-01, -8.40974569e-01, -1.65535975e+00,
          -4.88181293e-01, -7.09269702e-01, -8.15378249e-01,
          -1.67657351e+00, -4.46948558e-01, -5.39982319e-01,
          -8.36835146e-01, -1.65700543e+00, -4.34517890e-01,
          -5.02751768e-01, -8.35220277e-01, -1.65436661e+00,
          -5.67885995e-01, -6.97401762e-01, -9.24538493e-01,
          -1.64274502e+00, -5.97825527e-01, -5.78740597e-01,
          -8.04449797e-01, -1.62845087e+00, -5.27104378e-01,
          -5.61096966e-01, -7.71762073e-01, -1.66405499e+00,
          -4.83090222e-01, -6.39422774e-01, -8.43865573e-01,
          -1.69317436e+00, -5.13838351e-01, -6.53654277e-01,
          -8.84129286e-01, -1.68089175e+00, -4.72589612e-01,
          -6.62357330e-01, -9.13946807e-01, -1.67681241e+00,
          -5.35162210e-01, -6.11284137e-01, -9.29601312e-01,
          -1.70581853e+00, -3.99349809e-01, -6.43851280e-01,
          -9.04805720e-01, -1.67428172e+00, -5.81533909e-01,
          -6.95566177e-01, -8.66416752e-01, -1.65575349e+00,
          -4.61985886e-01, -6.12083793e-01, -9.07867730e-01,
          -1.67734706e+00, -5.45597434e-01, -5.85167706e-01,
          -9.21712816e-01, -1.69149053e+00, -4.56001401e-01,
          -6.64610147e-01, -9.35647786e-01, -1.70783639e+00,
          -4.57913548e-01, -5.15557110e-01, -8.77942383e-01,
          -1.66635430e+00, -5.40074646e-01, -6.12679780e-01,
          -9.35486972e-01, -1.70911598e+00, -5.05483508e-01,
          -7.29492307e-01, -9.56964850e-01, -1.71212590e+00,
          -4.50693876e-01, -6.08187258e-01, -9.26523507e-01,
          -1.71582222e+00, -5.30618846e-01, -7.09148467e-01,
          -9.38186526e-01, -1.71132302e+00, -5.13148487e-01,
          -6.11006856e-01, -9.80724871e-01, -1.72676802e+00,
          -4.81535405e-01, -7.14391410e-01, -9.96625125e-01,
          -1.73104799e+00, -5.06344557e-01, -6.44268513e-01,
          -9.52965438e-01, -1.73104799e+00, -6.12849236e-01,
          -6.45241201e-01, -8.63043845e-01, -1.64458787e+00,
          -5.67356944e-01, -6.03891790e-01, -8.56385052e-01,
          -1.69919825e+00, -4.83695179e-01, -6.16941690e-01,
          -9.62536037e-01, -1.70655811e+00, -6.41126156e-01,
          -6.46906734e-01, -9.56660450e-01, -1.69722903e+00,
          -5.26402116e-01, -6.61975801e-01, -9.52965438e-01,
          -1.72201812e+00, -5.52775443e-01, -7.41691172e-01,
          -9.80250895e-01, -1.70549810e+00, -3.53313297e-01,
          -6.39044344e-01, -8.99394095e-01, -1.72429574e+00,
          -4.86583650e-01, -6.64360285e-01, -9.25692677e-01,
          -1.72307372e+00, -5.51688552e-01, -7.45292544e-01,
          -9.90728319e-01, -1.70696092e+00, -6.04472220e-01,
          -7.07830012e-01, -9.90535438e-01, -1.69474828e+00,
          -5.11585951e-01, -6.47564650e-01, -9.71944988e-01,
          -1.72395909e+00, 3.41262579e-01, 1.76560745e-01,
          1.80551693e-01, -9.37755466e-01, 3.03759962e-01,
          1.04680330e-01, -2.73722364e-03, -1.01609802e+00,
          1.61289990e-01, 1.48379831e-02, -3.33889276e-02,
          -1.01909566e+00, 2.18985230e-01, -6.45141825e-02,
          -1.30375698e-01, -1.05120850e+00, 1.60232678e-01,
          -1.61842659e-01, -1.89336821e-01, -1.11116898e+00,
          2.39177465e-01, -2.53682770e-02, -6.43055141e-02,
          -1.09118164e+00, 3.27861786e-01, 5.98245561e-02,
          -6.03279546e-02, -9.32512224e-01, 2.67031640e-01,
          3.25858369e-02, 7.22086057e-02, -1.02207232e+00,
          3.44851792e-01, -1.53524633e-02, -8.83002803e-02,
          -1.06475079e+00, 1.67438745e-01, -9.90389138e-02,
          -1.42918244e-01, -1.07463300e+00, 4.00876999e-01,
          1.98359489e-01, 2.86294259e-02, -1.04077458e+00,
          2.07224905e-01, -1.39847726e-01, -1.96534336e-01,
          -1.08906233e+00, 1.84439629e-01, -6.34176359e-02,
          -1.96528912e-01, -1.13836718e+00, 1.18345551e-01,
          -1.12904616e-01, -1.93847880e-01, -1.13641369e+00,
          1.11699671e-01, -3.43873911e-03, -1.18510447e-01,
          -1.09071386e+00, 1.49588451e-01, -2.96833776e-02,
          -1.35426924e-01, -1.09427679e+00, 1.02784641e-01,
          -7.63720945e-02, -1.53107464e-01, -1.16034305e+00,
          2.18369380e-01, -3.68952677e-02, -1.09563231e-01,
          -1.08032429e+00, 1.81083605e-01, 1.34741720e-02,
          -7.99618885e-02, -1.11703181e+00, 3.16972703e-01,
          4.02856097e-02, -7.92868994e-03, -9.86768067e-01,
          3.14993948e-01, 6.96136504e-02, -3.84480576e-03,
          -1.06739962e+00, 9.74015966e-02, -6.05814531e-02,
          -1.47111371e-01, -1.13554454e+00, 2.80794442e-01,
          4.74443100e-02, -4.91212532e-02, -1.07027745e+00,
          2.20602706e-01, -3.17726955e-02, -1.14407003e-01,
          -1.08989692e+00, 2.59170800e-01, 2.85754981e-03,
          -5.71306758e-02, -1.06051874e+00, 2.16104507e-01,
          -3.77088450e-02, -1.45875618e-01, -1.14800119e+00,
          2.02372849e-01, -1.20177984e-01, -1.44050583e-01,
          -1.10084724e+00, 3.67209613e-01, 1.58403497e-02,
          1.31657235e-02, -1.01482916e+00, 2.28769928e-01,
          -3.90918413e-03, -6.76559284e-02, -1.07176614e+00,
          -6.51146397e-02, -3.24571282e-01, -3.14177305e-01,
          -1.22654772e+00, 3.91734987e-01, 5.91417775e-02,
          -2.66040247e-02, -1.06007206e+00, 9.06689018e-02,
          -2.76123732e-02, -1.38468772e-01, -1.11464715e+00,
          2.56038994e-01, -5.93684986e-02, -1.37429029e-01,
          -1.10840213e+00, 1.73974857e-01, -1.23901427e-01,
          -1.75399348e-01, -1.17315793e+00, 3.79087895e-01,
          1.52135536e-01, -3.41013749e-03, -1.07002175e+00,
          1.08259164e-01, -8.42371210e-02, -1.63397387e-01,
          -1.14783370e+00, 3.13335210e-01, 2.46074554e-02,
          -6.87801614e-02, -1.05881929e+00, 1.86630532e-01,
          -7.55572096e-02, -1.64317280e-01, -1.15730608e+00,
          3.71031612e-01, 8.26086551e-02, 5.41056832e-03,
          -1.07188213e+00, 2.65104294e-01, -1.30141908e-02,
          -5.90684749e-02, -1.08321583e+00, 4.45223242e-01,
          1.67155340e-01, 1.47048524e-02, -9.52174306e-01,
          2.50238240e-01, 7.45435134e-02, -2.54537887e-03,
          -1.06094563e+00, 2.95068383e-01, 1.24597721e-01,
          1.59287490e-02, -9.31057036e-01, -5.39944232e-01,
          -4.29144353e-01, -5.44024408e-01, 1.69119549e+00,
          -5.13295293e-01, -3.54777426e-01, -6.00818038e-01,
          1.61581862e+00, -4.95547742e-01, -3.83148879e-01,
          -6.10018671e-01, 1.85299206e+00, -6.15885258e-01,
          -5.76548874e-01, -6.98663712e-01, 1.80542278e+00,
          -6.49582207e-01, -5.09848535e-01, -6.81967616e-01,
          2.31453824e+00, -5.08298397e-01, -4.20400798e-01,
          -6.19868279e-01, 2.36081243e+00, -5.55574000e-01,
          -3.84849727e-01, -4.35844034e-01, 1.94935668e+00,
          -4.72460777e-01, -3.64511132e-01, -4.48076338e-01,
          8.52394283e-01, -5.49805999e-01, -5.24852216e-01,
          -6.68688476e-01, 1.45372140e+00, -6.12570524e-01,
          -3.69335920e-01, -5.59488118e-01, 2.17052507e+00,
          -5.74031234e-01, -4.07966495e-01, -5.50423324e-01,
          1.25544810e+00, -1.12885430e-01, 1.46199390e-01,
          1.91030964e-01, 1.25045192e+00, -7.17646480e-01,
          -5.58606565e-01, -7.29648113e-01, 1.83791971e+00,
          -6.13248646e-01, -4.00057852e-01, -5.31376362e-01,
          1.56711793e+00, -6.12002909e-01, -4.93517280e-01,
          -5.67826092e-01, 1.07947457e+00, -1.91826329e-01,
          -1.34165764e-01, -6.15674555e-02, 8.72062027e-01,
          -7.92463303e-01, -6.49939120e-01, -8.02621841e-01,
          2.07753062e+00, -6.97946310e-01, -5.25704145e-01,
          -6.10257089e-01, 1.37619519e+00, -6.73010230e-01,
          -5.35140991e-01, -6.54031873e-01, 1.61708903e+00,
          -6.84495330e-01, -5.66915870e-01, -5.74980557e-01,
          1.33760536e+00, -4.87682611e-01, -3.74954224e-01,
          -3.05449605e-01, 6.92766607e-01, -4.85121906e-01,
          -4.02999997e-01, -5.40215194e-01, 1.22589958e+00,
          -5.36449611e-01, -3.30279410e-01, -4.53200817e-01,
          1.45925260e+00, -6.95438147e-01, -5.08727610e-01,
          -6.71028674e-01, 2.15672374e+00, -3.89693201e-01,
          -1.84483320e-01, -2.58636951e-01, 1.39422882e+00,
          -6.42141819e-01, -4.18552577e-01, -5.00651419e-01,
          1.06689143e+00, -8.39231253e-01, -6.44534469e-01,
          -7.99126148e-01, 1.90181708e+00, -6.30314529e-01,
          -4.26162094e-01, -4.46045965e-01, 1.22596312e+00,
          -6.26025021e-01, -3.66392046e-01, -5.12862086e-01,
          1.42072594e+00, -5.48997462e-01, -2.29580194e-01,
          -4.59165901e-01, 1.27198672e+00, -7.22586513e-01,
          -4.32918370e-01, -5.56958318e-01, 1.35740209e+00,
          -8.63592744e-01, -8.92662585e-01, -9.45297062e-01,
          1.33584332e+00, -1.08690727e+00, -1.26999581e+00,
          -1.16261029e+00, -6.74086154e-01, -9.64670777e-01,
          -1.21186304e+00, -1.05195165e+00, -1.14683950e+00,
          -6.38567805e-01, -4.34271723e-01, -3.56891334e-01,
          5.38419247e-01, -1.02676845e+00, -1.12357318e+00,
          -1.15071678e+00, -1.72901630e-01, -6.93820238e-01,
          -4.24222767e-01, -4.99890924e-01, 8.60216856e-01,
          -9.59453583e-01, -9.63278592e-01, -9.16592896e-01,
          -5.10851085e-01, -9.10532415e-01, -6.67087495e-01,
          -7.57945895e-01, 6.25979245e-01, -6.03374004e-01,
          -2.65797496e-01, -4.00591403e-01, 1.24058545e+00,
          -2.97706962e-01, -8.07033330e-02, -2.99475789e-02,
          1.83375910e-01, -6.10298216e-01, -3.75901222e-01,
          -3.83322239e-01, 2.98909992e-01, -3.29457492e-01,
          -1.15477890e-01, -4.08465378e-02, 1.53737605e-01,
          3.41641337e-01, 7.38861978e-01, 1.86064959e+00, 2.07197502e-01,
          5.05629480e-01, 1.09300148e+00, 2.27729702e+00, 5.53631902e-01,
          5.19827485e-01, 1.01366282e+00, 2.16862559e+00, 3.54996353e-01,
          1.10822260e+00, 1.92474556e+00, 3.67126012e+00, 1.34833372e+00,
          5.12870193e-01, 1.02176023e+00, 2.17805314e+00, 2.87255794e-01,
          1.20027614e+00, 2.21111751e+00, 3.74878931e+00, 1.43911862e+00,
          2.45663360e-01, 5.14523387e-01, 1.53946126e+00,
          -3.70410979e-02, 3.00625831e-01, 5.27543187e-01,
          1.36096466e+00, -5.58168814e-03, 1.14701796e+00,
          2.04327369e+00, 3.44015121e+00, 1.31375182e+00, 2.71086037e-01,
          6.88138485e-01, 1.73605192e+00, 9.20595452e-02, 5.94557106e-01,
          1.22514558e+00, 2.20433545e+00, 4.59493518e-01, 1.15198684e+00,
          1.69476819e+00, 2.45161080e+00, 6.82792604e-01, 5.79046369e-01,
          9.77896810e-01, 1.99519789e+00, 3.12839568e-01, 7.29777813e-01,
          1.34452307e+00, 2.60428429e+00, 5.53774714e-01, 7.80976653e-01,
          1.37725008e+00, 2.47155547e+00, 6.26802087e-01, 8.08212638e-01,
          1.24001312e+00, 1.70221686e+00, 2.98653036e-01, 1.06458986e+00,
          1.84443295e+00, 3.21968412e+00, 9.24458444e-01, 7.48376310e-01,
          1.17672503e+00, 2.35953808e+00, 4.48971123e-01, 1.11130726e+00,
          1.83250046e+00, 3.00800180e+00, 8.40876341e-01, 7.22780764e-01,
          1.19461501e+00, 2.34383965e+00, 4.37947124e-01, 5.79222381e-01,
          1.21573222e+00, 2.40567446e+00, 4.49687749e-01, 7.01622307e-01,
          1.28791833e+00, 2.25345206e+00, 6.64738834e-01, 5.47783673e-01,
          1.12054980e+00, 1.96370578e+00, 3.49317670e-01, 5.70775628e-01,
          1.28193986e+00, 2.47999787e+00, 5.87479889e-01, 5.83949029e-01,
          1.32032931e+00, 2.59799623e+00, 6.05332911e-01, 3.82911831e-01,
          7.64297783e-01, 1.91444445e+00, 1.60216272e-01, 5.79661489e-01,
          1.24109972e+00, 2.30912685e+00, 4.45490807e-01, 3.70107859e-01,
          8.95037472e-01, 1.79401577e+00, 2.56975740e-01, 9.61627722e-01,
          1.69166827e+00, 3.01577020e+00, 9.83801663e-01, 4.95567977e-01,
          9.24839854e-01, 1.67896581e+00, 4.19232547e-01, 5.95945299e-01,
          1.16720104e+00, 2.15112114e+00, 3.74878556e-01, 9.88754332e-02,
          5.60033977e-01, 1.37631726e+00, -8.94777402e-02,
          8.97521734e-01, 1.52894306e+00, 2.78295016e+00, 8.78828287e-01,
          4.88168448e-01, 1.12375617e+00, 2.09152603e+00, 2.96939343e-01,
          6.12318635e-01, 1.29034603e+00, 2.24306893e+00, 4.59332228e-01,
          1.60337016e-01, 5.00625372e-01, 1.49847806e+00,
          -6.65879697e-02, 8.89290690e-01, 1.75028336e+00,
          3.00478339e+00, 9.70289946e-01, 7.33331978e-01, 1.28147733e+00,
          2.46489334e+00, 5.74490368e-01, 2.80944705e-01, 7.54520059e-01,
          1.70776165e+00, 4.65571843e-02, 6.01227105e-01, 1.40001678e+00,
          2.79215002e+00, 7.33449936e-01, 5.85812986e-01, 8.21468413e-01,
          1.86841118e+00, 2.28735253e-01, 6.03735685e-01, 1.46194673e+00,
          2.65275502e+00, 6.66015804e-01, 8.93731654e-01, 1.46230519e+00,
          2.84841394e+00, 9.08192694e-01 ]
   responses: !!opencv-matrix
      rows: 172
      cols: 1
      dt: f
      data: [ 1., 1., 1., 1., 1., 1., 1., 1., 1., 1., 1., 1., 1., 1., 1.,
          1., 1., 1., 1., 1., 1., 1., 1., 1., 1., 1., 1., 1., 1., 1., 1.,
          1., 1., 1., 1., 1., 1., 1., 1., 1., 1., 1., 1., 2., 2., 2., 2.,
          2., 2., 2., 2., 2., 2., 2., 2., 2., 2., 2., 2., 2., 2., 2., 2.,
          2., 2., 2., 2., 2., 2., 2., 2., 2., 2., 2., 2., 2., 2., 2., 2.,
          2., 2., 2., 2., 2., 2., 2., 3., 3., 3., 3., 3., 3., 3., 3., 3.,
          3., 3., 3., 3., 3., 3., 3., 3., 3., 3., 3., 3., 3., 3., 3., 3.,
          3., 3., 3., 3., 3., 3., 3., 3., 3., 3., 3., 3., 3., 3., 3., 3.,
          3., 3., 4., 4., 4., 4., 4., 4., 4., 4., 4., 4., 4., 4., 4., 4.,
          4., 4., 4., 4., 4., 4., 4., 4., 4., 4., 4., 4., 4., 4., 4., 4.,
          4., 4., 4., 4., 4., 4., 4., 4., 4., 4., 4., 4., 4. ]
   DecisionRule: 0
