svm_type c_svc
kernel_type linear
nr_class 4
total_sv 23
rho 2.12233 0.543452 0.1967 0.422026 -0.393876 -0.743758
label 1 2 3 4
nr_sv 7 8 6 2
SV
0 0.5743491774985174 0 1:-0.65353078 2:-0.69921249 3:-0.8828634 4:-1.6642369 
0.05396531228430195 0 0 1:-0.52798694 2:-0.59341335 3:-0.75264704 4:-1.6716602 
0.5743491774985174 0 0 1:-0.44694856 2:-0.53998232 3:-0.83683515 4:-1.6570054 
0.5743491774985174 0 0.02912258741426205 1:-0.43451789 2:-0.50275177 3:-0.83522028 4:-1.6543666 
0 0.5743491774985174 0 1:-0.56788599 2:-0.69740176 3:-0.92453849 4:-1.642745 
0.5743491774985174 0 0.1996641171554398 1:-0.52710438 2:-0.56109697 3:-0.77176207 4:-1.664055 
0 0.3905925956255053 0 1:-0.61284924 2:-0.6452412 3:-0.86304384 4:-1.6445878 
-0 0 0.5743491774985174 1:0.34126258 2:0.17656074 3:0.18055169 4:-0.93775547 
-0 0.5743491774985174 0 1:0.16023268 2:-0.16184266 3:-0.18933682 4:-1.111169 
-0 0.3789004935797246 0 1:0.16743875 2:-0.099038914 3:-0.14291824 4:-1.074633 
-0.5743491774985174 0 0 1:0.11834555 2:-0.11290462 3:-0.19384788 4:-1.1364137 
-0.05396531228430195 0 0 1:0.10278464 2:-0.076372094 3:-0.15310746 4:-1.1603431 
-0.5743491774985174 0.5743491774985174 0 1:-0.06511464 2:-0.32457128 3:-0.3141773 4:-1.2265477 
-0.5743491774985174 0 0 1:0.10825916 2:-0.084237121 3:-0.16339739 4:-1.1478337 
-0 0 0.1900176457163732 1:0.29506838 2:0.12459772 3:0.015928749 4:-0.93105704 
-0 -0 0.1823316035207872 1:-0.11288543 2:0.14619939 3:0.19103096 4:1.2504519 
-0.2917080592596723 -0 0 1:-1.0869073 2:-1.2699958 3:-1.1626103 4:-0.67408615 
-0.5743491774985174 -0.5743491774985174 0 1:-0.96467078 2:-1.211863 3:-1.0519516 4:-1.1468395 
-0.5743491774985174 -0 0 1:-0.95945358 2:-0.96327859 3:-0.9165929 4:-0.51085109 
-0 -0.5743491774985174 0.5743491774985174 1:-0.29770696 2:-0.080703333 3:-0.029947579 4:0.18337591 
-0.09888453636583297 -0.3789004935797244 0.01227214881002571 1:-0.32945749 2:-0.11547789 3:-0.040846538 4:0.1537376 
-0 -0.1900176457163732 -0.194603752330813 1:0.30062583 2:0.52754319 3:1.3609647 4:-0.0055816881 
-0.2287867045697018 -0.5743491774985174 -0.5743491774985174 1:0.098875433 2:0.56003398 3:1.3763173 4:-0.08947774 
