svm_type c_svc
kernel_type linear
nr_class 4
total_sv 16
rho 2.24406 0.523384 0.1967 0.408639 -0.49244 -0.771717
label 1 2 3 4
nr_sv 5 4 5 2
SV
0 1 0 1:-0.65353078 2:-0.69921249 3:-0.8828634 4:-1.6642369 
0.9755036584757611 0 0 1:-0.44694856 2:-0.53998232 3:-0.83683515 4:-1.6570054 
1 0 0.02912258741426205 1:-0.43451789 2:-0.50275177 3:-0.83522028 4:-1.6543666 
0 0.7516861151460025 0 1:-0.56788599 2:-0.69740176 3:-0.92453849 4:-1.642745 
0 0 0.1996641171554397 1:-0.52710438 2:-0.56109697 3:-0.77176207 4:-1.664055 
-0 0 0.8499838415806464 1:0.34126258 2:0.17656074 3:0.18055169 4:-0.93775547 
-0 0.649521076614003 0 1:0.16023268 2:-0.16184266 3:-0.18933682 4:-1.111169 
-0.9755036584757611 0 0 1:0.11834555 2:-0.11290462 3:-0.19384788 4:-1.1364137 
-1 1 0 1:-0.06511464 2:-0.32457128 3:-0.3141773 4:-1.2265477 
-0 -0 0.1591644547503703 1:-0.11288543 2:0.14619939 3:0.19103096 4:1.2504519 
-1 -0.742900504279114 0 1:-0.96467078 2:-1.211863 3:-1.0519516 4:-1.1468395 
-0.6578137330916849 -0 0 1:-0.95945358 2:-0.96327859 3:-0.9165929 4:-0.51085109 
-0 -0.9066205723348891 0.617721951234408 1:-0.29770696 2:-0.080703333 3:-0.029947579 4:0.18337591 
-0.09387238205431792 -0 0 1:-0.32945749 2:-0.11547789 3:-0.040846538 4:0.1537376 
-0 -0.1323686582174377 -0.1509689760132209 1:0.30062583 2:0.52754319 3:1.3609647 4:-0.0055816881 
-0.2287867045697018 -0.7176151833632087 -0.6259174299715575 1:0.098875433 2:0.56003398 3:1.3763173 4:-0.08947774 
