svm_type c_svc
kernel_type linear
nr_class 2
total_sv 284
rho -3.48989
label 50 49
probA -1.62443
probB -0.0697371
nr_sv 142 142
SV
1 1:135 2:160 3:179 
1 1:59 2:73 3:90 
1 1:39 2:50 3:69 
1 1:72 2:96 3:76 
1 1:60 2:74 3:106 
1 1:96 2:118 3:120 
1 1:73 2:101 3:126 
1 1:119 2:153 3:149 
1 1:135 2:159 3:173 
1 1:51 2:62 3:82 
1 1:39 2:51 3:60 
1 1:66 2:83 3:81 
0.3296984453421782 1:82 2:96 3:103 
1 1:15 2:23 3:34 
1 1:27 2:44 3:39 
1 1:48 2:64 3:57 
1 1:37 2:50 3:61 
1 1:200 2:234 3:248 
1 1:15 2:23 3:30 
1 1:41 2:60 3:51 
1 1:64 2:81 3:93 
1 1:26 2:37 3:37 
1 1:22 2:31 3:39 
1 1:63 2:93 3:70 
1 1:31 2:43 3:45 
1 1:99 2:118 3:115 
1 1:43 2:54 3:61 
1 1:32 2:46 3:51 
1 1:24 2:35 3:46 
1 1:27 2:41 3:48 
1 1:18 2:29 3:34 
1 1:23 2:31 3:39 
1 1:25 2:36 3:34 
1 1:51 2:72 3:78 
1 1:32 2:49 3:42 
1 1:32 2:43 3:48 
1 1:23 2:31 3:42 
1 1:26 2:42 3:42 
1 1:37 2:53 3:42 
1 1:49 2:74 3:51 
1 1:53 2:72 3:57 
1 1:60 2:78 3:70 
1 1:35 2:46 3:49 
1 1:55 2:74 3:70 
1 1:26 2:36 3:39 
1 1:39 2:51 3:55 
1 1:24 2:39 3:40 
1 1:51 2:71 3:55 
1 1:49 2:74 3:58 
1 1:47 2:62 3:58 
1 1:62 2:81 3:67 
1 1:48 2:71 3:51 
1 1:38 2:51 3:60 
1 1:51 2:72 3:58 
1 1:43 2:63 3:48 
1 1:37 2:56 3:46 
1 1:29 2:39 3:46 
1 1:35 2:43 3:57 
1 1:112 2:130 3:138 
1 1:35 2:54 3:49 
1 1:34 2:62 3:49 
1 1:37 2:62 3:55 
1 1:43 2:65 3:49 
1 1:32 2:50 3:46 
1 1:53 2:72 3:64 
1 1:27 2:36 3:42 
1 1:40 2:58 3:54 
1 1:63 2:81 3:70 
1 1:72 2:88 3:88 
1 1:27 2:44 3:40 
1 1:33 2:52 3:36 
1 1:36 2:63 3:52 
1 1:38 2:56 3:52 
1 1:81 2:101 3:97 
1 1:83 2:104 3:100 
1 1:36 2:47 3:58 
1 1:142 2:170 3:171 
1 1:111 2:131 3:141 
1 1:88 2:107 3:126 
1 1:16 2:27 3:31 
1 1:27 2:42 3:43 
1 1:28 2:38 3:48 
1 1:63 2:78 3:87 
1 1:107 2:127 3:137 
1 1:86 2:100 3:118 
1 1:16 2:23 3:39 
1 1:43 2:56 3:54 
1 1:31 2:42 3:42 
1 1:88 2:103 3:115 
1 1:81 2:93 3:111 
1 1:83 2:103 3:120 
1 1:8 2:13 3:28 
1 1:34 2:52 3:48 
1 1:87 2:103 3:112 
1 1:19 2:28 3:34 
1 1:32 2:46 3:40 
1 1:43 2:59 3:58 
1 1:41 2:61 3:57 
1 1:79 2:93 3:111 
1 1:31 2:54 3:48 
1 1:55 2:68 3:79 
1 1:15 2:19 3:39 
1 1:30 2:46 3:31 
1 1:120 2:135 3:156 
1 1:83 2:93 3:117 
1 1:32 2:47 3:45 
1 1:64 2:85 3:72 
1 1:60 2:86 3:73 
1 1:58 2:81 3:64 
1 1:56 2:75 3:61 
1 1:19 2:33 3:33 
1 1:82 2:99 3:112 
1 1:59 2:71 3:84 
1 1:73 2:85 3:96 
1 1:64 2:85 3:96 
1 1:39 2:54 3:58 
1 1:45 2:65 3:51 
1 1:34 2:42 3:57 
1 1:32 2:45 3:43 
1 1:20 2:30 3:40 
1 1:44 2:53 3:67 
1 1:49 2:77 3:52 
1 1:48 2:78 3:45 
1 1:52 2:74 3:52 
1 1:60 2:93 3:55 
0.9477719686597526 1:29 2:31 3:61 
1 1:50 2:62 3:72 
1 1:127 2:157 3:176 
1 1:43 2:62 3:51 
1 1:53 2:74 3:57 
1 1:80 2:95 3:106 
1 1:184 2:228 3:243 
1 1:217 2:255 3:255 
1 1:207 2:237 3:255 
1 1:150 2:178 3:177 
1 1:55 2:76 3:57 
1 1:64 2:85 3:81 
1 1:141 2:158 3:180 
1 1:19 2:31 3:28 
1 1:76 2:92 3:99 
1 1:72 2:96 3:103 
1 1:74 2:93 3:87 
-1 1:58 2:77 3:78 
-1 1:57 2:73 3:69 
-1 1:52 2:71 3:72 
-1 1:51 2:69 3:72 
-1 1:59 2:77 3:81 
-1 1:56 2:68 3:82 
-1 1:58 2:75 3:81 
-1 1:55 2:69 3:82 
-1 1:56 2:73 3:81 
-1 1:58 2:73 3:81 
-1 1:57 2:71 3:82 
-1 1:59 2:77 3:82 
-1 1:54 2:72 3:70 
-1 1:55 2:74 3:75 
-1 1:58 2:73 3:78 
-1 1:58 2:77 3:78 
-1 1:59 2:79 3:78 
-1 1:52 2:68 3:79 
-1 1:58 2:73 3:75 
-1 1:56 2:76 3:73 
-1 1:59 2:75 3:75 
-1 1:59 2:74 3:75 
-1 1:58 2:70 3:75 
-1 1:59 2:73 3:78 
-1 1:59 2:77 3:78 
-1 1:60 2:79 3:79 
-1 1:58 2:73 3:72 
-1 1:57 2:75 3:73 
-1 1:57 2:74 3:75 
-1 1:57 2:70 3:75 
-1 1:57 2:77 3:76 
-1 1:61 2:77 3:85 
-1 1:57 2:77 3:73 
-1 1:59 2:75 3:81 
-1 1:55 2:71 3:79 
-1 1:55 2:73 3:78 
-1 1:59 2:80 3:75 
-1 1:59 2:77 3:72 
-1 1:59 2:80 3:73 
-1 1:59 2:77 3:72 
-1 1:63 2:78 3:75 
-1 1:55 2:74 3:73 
-1 1:55 2:69 3:75 
-1 1:61 2:77 3:78 
-1 1:56 2:72 3:76 
-1 1:56 2:73 3:75 
-1 1:56 2:70 3:75 
-1 1:63 2:82 3:82 
-1 1:61 2:80 3:79 
-1 1:56 2:74 3:76 
-1 1:59 2:78 3:76 
-1 1:59 2:78 3:76 
-1 1:64 2:78 3:90 
-1 1:62 2:77 3:72 
-1 1:56 2:74 3:73 
-1 1:55 2:72 3:73 
-1 1:61 2:79 3:78 
-1 1:62 2:78 3:78 
-1 1:60 2:77 3:75 
-1 1:58 2:76 3:75 
-1 1:59 2:78 3:75 
-1 1:59 2:77 3:75 
-1 1:59 2:77 3:75 
-1 1:58 2:79 3:75 
-1 1:60 2:79 3:76 
-1 1:59 2:80 3:76 
-1 1:59 2:79 3:76 
-1 1:59 2:80 3:76 
-0.3714535954221775 1:63 2:82 3:87 
-1 1:63 2:82 3:76 
-1 1:57 2:75 3:79 
-1 1:57 2:77 3:76 
-1 1:59 2:80 3:76 
-1 1:59 2:80 3:76 
-1 1:59 2:72 3:76 
-1 1:62 2:81 3:84 
-1 1:63 2:77 3:87 
-1 1:60 2:77 3:76 
-1 1:59 2:77 3:75 
-1 1:61 2:77 3:78 
-1 1:59 2:76 3:78 
-1 1:57 2:76 3:75 
-1 1:57 2:77 3:76 
-1 1:60 2:81 3:76 
-1 1:61 2:81 3:76 
-1 1:59 2:73 3:78 
-1 1:57 2:69 3:75 
-1 1:62 2:81 3:79 
-1 1:57 2:72 3:78 
-1 1:57 2:77 3:73 
-1 1:58 2:77 3:78 
-1 1:56 2:75 3:76 
-1 1:56 2:73 3:72 
-1 1:57 2:74 3:82 
-1 1:59 2:76 3:82 
-1 1:57 2:74 3:79 
-1 1:58 2:74 3:79 
-1 1:62 2:80 3:79 
-1 1:61 2:77 3:78 
-1 1:53 2:71 3:66 
-1 1:60 2:78 3:82 
-1 1:61 2:77 3:79 
-1 1:61 2:77 3:79 
-1 1:60 2:77 3:79 
-1 1:61 2:81 3:79 
-1 1:61 2:73 3:81 
-1 1:64 2:81 3:79 
-1 1:57 2:76 3:75 
-1 1:58 2:71 3:76 
-1 1:58 2:73 3:78 
-1 1:55 2:73 3:76 
-1 1:57 2:73 3:85 
-1 1:55 2:73 3:78 
-1 1:56 2:73 3:75 
-1 1:51 2:69 3:61 
-1 1:58 2:76 3:75 
-1 1:54 2:71 3:76 
-1 1:53 2:71 3:75 
-1 1:53 2:71 3:73 
-1 1:49 2:64 3:75 
-1 1:62 2:78 3:76 
-1 1:59 2:80 3:76 
-1 1:59 2:79 3:76 
-1 1:55 2:72 3:78 
-1 1:54 2:70 3:78 
-1 1:51 2:65 3:76 
-1 1:55 2:73 3:70 
-1 1:53 2:71 3:72 
-1 1:53 2:71 3:72 
-1 1:54 2:71 3:66 
-1 1:51 2:70 3:67 
-1 1:52 2:70 3:69 
-1 1:52 2:70 3:69 
-1 1:51 2:69 3:69 
-1 1:51 2:68 3:69 
-1 1:53 2:69 3:69 
-1 1:55 2:73 3:78 
-1 1:52 2:68 3:76 
-1 1:51 2:65 3:72 
-1 1:51 2:69 3:72 
-0.9060168185797608 1:45 2:66 3:58 
-1 1:40 2:57 3:60 
