svm_type c_svc
kernel_type generic
generic_kernel_parameters FunctorName 5   CoefPoly 0   DegreePoly 1   GammaPoly 1   GammaRBF 1.5   Mixture 0.5
nr_class 4
total_sv 1024
rho -5.219751264  -2.651439537  3.025362147  2.892278765  1.919874537  10.93855472 
label 128 255 64 191
probA -1.772899543  -2.327875297  -1.657050508  -4.474421388  -3.813250947  -1.761693497 
probB -0.3395733418  -0.1099232988  -0.1161434438  1.390302024  0.2071160477  -0.438624775 
nr_sv 474 136 223 191
SV
0.1848115029603897 0 0 1:179 2:106 3:85 
1 0 0 1:184 2:174 3:165 
0 1 0 1:135 2:160 3:179 
0 1 0 1:59 2:73 3:90 
0 1 0 1:39 2:50 3:69 
0 0 1 1:19 2:18 3:30 
0 0 1 1:18 2:17 3:28 
0 0 0.507206458399734 1:26 2:22 3:33 
0.2123536733028878 0 0 1:133 2:130 3:112 
0.4377798057539343 0 0 1:153 2:143 3:132 
0 1 0 1:72 2:96 3:76 
1 0 0 1:183 2:120 3:96 
0 1 0 1:60 2:74 3:106 
0 1 0 1:96 2:118 3:120 
0 1 0 1:73 2:101 3:126 
0 0 1 1:24 2:20 3:25 
0 0 0.4035898902559714 1:27 2:28 3:36 
1 0 0 1:151 2:148 3:124 
0.7225077409462058 0 0 1:150 2:126 3:103 
1 0 0 1:202 2:124 3:97 
1 0 0 1:211 2:130 3:108 
1 0 0 1:225 2:157 3:112 
0.6601223762420999 0 0 1:171 2:123 3:103 
0 0 0.1679634712705485 1:24 2:19 3:34 
0 1 0 1:119 2:153 3:149 
0 1 0 1:135 2:159 3:173 
0 1 0 1:51 2:62 3:82 
0 0 1 1:23 2:19 3:22 
0 0 1 1:19 2:19 3:33 
0 0 1 1:15 2:10 3:27 
0 0 0.6948879277505434 1:18 2:20 3:33 
1 0 0 1:179 2:152 3:118 
1 0 0 1:232 2:143 3:108 
0.4422797532134443 0 0 1:176 2:122 3:105 
0.7940128097023696 0 0 1:163 2:123 3:100 
0.5952859928982739 0 0 1:137 2:132 3:111 
0 1 0 1:39 2:51 3:60 
0 0.3088828096778926 0 1:28 2:30 3:57 
0 0 0.6033612056680268 1:24 2:24 3:34 
0 0.2876842060136914 0 1:18 2:23 3:37 
0 1 0 1:66 2:83 3:81 
0 0.1930045448075247 0 1:82 2:96 3:103 
0 0.1539883170713798 0 1:31 2:40 3:45 
0 0 1 1:13 2:15 3:18 
0 0 0.8967426244662872 1:15 2:13 3:30 
0 0 1 1:27 2:19 3:30 
0 0.09388639980095459 0 1:63 2:69 3:94 
0 0.3056678909263596 0 1:84 2:94 3:115 
1 0 0 1:162 2:167 3:152 
1 0 0 1:171 2:142 3:120 
0 0 0.3602817992232996 1:18 2:11 3:31 
0 1 0.7890999941702045 1:15 2:23 3:34 
0 1 1 1:27 2:44 3:39 
0 0.7914116346232064 0 1:48 2:64 3:57 
0 0 1 1:23 2:29 3:31 
0 1 0 1:37 2:50 3:61 
0 0 1 1:43 2:40 3:34 
0 0 0.5293994803296166 1:19 2:13 3:31 
0 0 0.12629095327387 1:22 2:18 3:34 
1 1 0 1:200 2:234 3:248 
1 0 0 1:175 2:186 3:173 
0.4353719375106493 0 0 1:152 2:137 3:123 
0 0 0.7336675215213669 1:19 2:11 3:27 
0 0.8149384293700267 1 1:15 2:23 3:30 
0 0 1 1:24 2:22 3:27 
0 0.09876668202520331 0 1:31 2:39 3:49 
0 1 0 1:41 2:60 3:51 
0 0.1892756770405702 0 1:37 2:48 3:49 
0 0 0.7796007510045033 1:40 2:52 3:42 
0 0 1 1:52 2:58 3:42 
0 0 0.7974416762755163 1:61 2:83 3:51 
0 0 0.6469773680694819 1:31 2:41 3:39 
0 0 1 1:21 2:11 3:24 
0 1 0 1:64 2:81 3:93 
1 0 0 1:183 2:186 3:177 
0 0 0.5429932124639875 1:47 2:46 3:40 
0 0.5699162058563145 0 1:23 2:25 3:52 
0 0 0.2878389419897283 1:23 2:25 3:36 
0 0 1 1:25 2:28 3:33 
0 0.605981512850249 1 1:26 2:37 3:37 
0 0 0.7108464897867712 1:34 2:46 3:40 
0 0.1333046462759535 0.3331062698535256 1:36 2:49 3:43 
0 1 0.04421942377016274 1:22 2:31 3:39 
0 0 0.9118187846070308 1:23 2:18 3:31 
0 0 1 1:26 2:27 3:28 
0 0 0.2804334701975104 1:28 2:27 3:36 
0 0 0.0490345985919881 1:18 2:5 3:30 
0.939994419912814 0 0 1:123 2:133 3:106 
0 1 0 1:63 2:93 3:70 
0 0.2069950899447963 0 1:40 2:52 3:51 
0 0 1 1:28 2:27 3:31 
1 0 0 1:183 2:192 3:153 
0 0 1 1:24 2:17 3:19 
1 0 0 1:151 2:151 3:123 
0 0 1 1:50 2:66 3:45 
0 0 0.2751367877489728 1:31 2:41 3:40 
0 1 0 1:31 2:43 3:45 
0 0 1 1:18 2:22 3:30 
0 0 0.3438330845795505 1:27 2:22 3:34 
0 0 0.7586443864865843 1:25 2:31 3:36 
0 0 1 1:19 2:21 3:25 
0 0 1 1:21 2:19 3:25 
0 0 1 1:19 2:13 3:27 
1 0 0 1:233 2:239 3:206 
0 0.1785443355915611 0 1:99 2:118 3:115 
0 0 0.409706712064455 1:34 2:23 3:31 
0 0.7901496596560504 0 1:43 2:54 3:61 
0 1 0 1:32 2:46 3:51 
0 0 0.5025015507527677 1:26 2:23 3:33 
0 0 1 1:17 2:18 3:31 
0 0 0.7763454548797013 1:22 2:22 3:33 
0 1 0 1:24 2:35 3:46 
0 0 0.9523880115593241 1:15 2:8 3:28 
0 0 1 1:17 2:14 3:28 
0 0 0.8753676341234193 1:30 2:30 3:34 
0 1 0 1:27 2:41 3:48 
0 0.1807596231800752 0 1:43 2:54 3:57 
1 0 0 1:203 2:223 3:203 
1 0 0 1:195 2:186 3:177 
0 0 1 1:27 2:24 3:31 
0 0 1 1:15 2:15 3:30 
0 0 0.7811043824941556 1:23 2:25 3:34 
0 1 1 1:18 2:29 3:34 
0 0.3265202911591073 0.009355373620080107 1:23 2:31 3:39 
0 0.3588041639372249 1 1:25 2:36 3:34 
0 0 0.6443251637414288 1:47 2:64 3:46 
0 0 0.9235078469917604 1:25 2:33 3:36 
0 0 1 1:33 2:43 3:33 
0 0 0.3127876345001444 1:43 2:44 3:40 
0 0.1490733659388878 0 1:34 2:43 3:49 
1 0 0 1:207 2:217 3:203 
1 0 0 1:253 2:246 3:236 
0.457945265953435 0 0 1:134 2:140 3:124 
0 1 0 1:51 2:72 3:78 
0 1 0.7087358035464683 1:32 2:49 3:42 
0 1 0 1:32 2:43 3:48 
0 1 0 1:23 2:31 3:42 
0 1 0.1976675819189619 1:26 2:42 3:42 
0 0.7564354938611542 0.9578965110023601 1:37 2:53 3:42 
0 1 0.257336587433471 1:49 2:74 3:51 
0 0.7448247214955344 0 1:53 2:72 3:57 
0 0 0.5753696019226607 1:50 2:61 3:45 
0 0.9709196763763929 0 1:60 2:78 3:70 
0 0.0849652597111613 0.7862890981535978 1:34 2:47 3:40 
0 0 1 1:36 2:42 3:31 
0 0 0.4542480941307616 1:38 2:44 3:40 
0 0.5984326002967491 0 1:35 2:46 3:49 
0.1800939647213684 0 0 1:145 2:150 3:144 
1 0 0 1:226 2:213 3:227 
1 0 0 1:229 2:241 3:255 
1 0 0 1:208 2:216 3:224 
0 1 0 1:55 2:74 3:70 
0 0.5890723694809151 0.4181666522998848 1:26 2:36 3:39 
0 1 0 1:39 2:51 3:55 
0 1 0.4959425386910008 1:24 2:39 3:40 
0 0 1 1:37 2:47 3:39 
0 1 0 1:51 2:71 3:55 
0 1 0 1:49 2:74 3:58 
0 0.821604464390605 0 1:47 2:62 3:58 
0 0.04399774889035951 0 1:59 2:74 3:69 
0 0.4315161091426475 0 1:62 2:81 3:67 
0 1 0 1:48 2:71 3:51 
0 0 1 1:33 2:40 3:36 
0 1 0 1:38 2:51 3:60 
0 1 0 1:51 2:72 3:58 
0 1 0.1598363688714873 1:43 2:63 3:48 
0 1 0.1814970945075637 1:37 2:56 3:46 
0 1 0 1:29 2:39 3:46 
0 0.7872873847243024 0 1:35 2:43 3:57 
0 0.6977422900038839 0 1:112 2:130 3:138 
1 0 0 1:170 2:197 3:188 
0 0.01513108499115728 0 1:47 2:60 3:57 
0 1 0 1:35 2:54 3:49 
0 1 0.04276295383726062 1:34 2:62 3:49 
0 1 0 1:37 2:62 3:55 
0 1 0.08614780778423947 1:43 2:65 3:49 
0 0 0.7118362782830677 1:45 2:61 3:45 
0 1 0 1:32 2:50 3:46 
0 1 0 1:53 2:72 3:64 
0 0 1 1:46 2:59 3:43 
0 0 0.9657675729279874 1:34 2:36 3:36 
0 0.5151874657784854 0 1:27 2:36 3:42 
0 1 0 1:40 2:58 3:54 
0 0 1 1:32 2:39 3:37 
0 0.08962355178108486 1 1:31 2:44 3:36 
0 0 1 1:32 2:35 3:34 
0 0.3573871255577398 0 1:63 2:81 3:70 
1 0 0 1:158 2:162 3:146 
1 0 0 1:167 2:189 3:189 
0 0.6059462982120306 0 1:72 2:88 3:88 
0 1 0.6729302069863685 1:27 2:44 3:40 
0 1 1 1:33 2:52 3:36 
0 1 0 1:36 2:63 3:52 
0 1 0 1:38 2:56 3:52 
0 0 1 1:27 2:28 3:34 
0 1 0 1:81 2:101 3:97 
0 1 0 1:83 2:104 3:100 
0 0 1 1:35 2:42 3:33 
0 1 0 1:36 2:47 3:58 
0 0 1 1:31 2:32 3:34 
0 0 1 1:27 2:17 3:27 
0.347579128943297 1 0 1:142 2:170 3:171 
0 1 0 1:111 2:131 3:141 
0 0 1 1:33 2:36 3:34 
0 0 1 1:32 2:33 3:34 
0 1 0 1:88 2:107 3:126 
0 0 1 1:26 2:19 3:27 
0 1 1 1:16 2:27 3:31 
0 1 0 1:27 2:42 3:43 
0 1 0 1:28 2:38 3:48 
0 0.1693930285217709 0 1:67 2:79 3:87 
0 1 0 1:63 2:78 3:87 
0 0 1 1:36 2:48 3:37 
0 0 0.442168787266414 1:27 2:31 3:37 
0 0 0.1344514730489834 1:31 2:33 3:39 
0 0 0.6576563190906352 1:35 2:36 3:37 
0.3055090408565402 0 0 1:179 2:191 3:209 
0 1 0 1:107 2:127 3:137 
0 0 1 1:47 2:46 3:36 
0 0 0.6186818713555482 1:26 2:33 3:37 
0 0 0.6481706136658248 1:25 2:23 3:33 
0 1 0 1:86 2:100 3:118 
0 0 1 1:32 2:20 3:28 
0 0 1 1:18 2:18 3:30 
0 1 0 1:16 2:23 3:39 
0 0 0.3643292286815059 1:34 2:24 3:34 
0 0 1 1:23 2:20 3:27 
0 0 1 1:34 2:42 3:37 
0 0.09873539689322976 0 1:40 2:54 3:46 
0 0.377065871209662 0 1:43 2:56 3:54 
0 0 0.2358060707620865 1:30 2:38 3:40 
0 0 0.2678350292768884 1:16 2:15 3:33 
0 0.3503436175037494 0.06102519988566701 1:31 2:42 3:42 
0 0 1 1:19 2:27 3:28 
0 0 1 1:33 2:32 3:30 
0 1 0 1:88 2:103 3:115 
0 0.9611301943333417 0 1:81 2:93 3:111 
0 1 0 1:83 2:103 3:120 
0 0 1 1:19 2:21 3:30 
0 0.327390371366491 0.3172957808064025 1:21 2:28 3:37 
0 0 0.8248410726862966 1:27 2:36 3:37 
0 0 1 1:38 2:47 3:40 
0 0 1 1:12 2:11 3:24 
0 0.962053475948631 1 1:8 2:13 3:28 
0 0 1 1:17 2:21 3:24 
0 0 1 1:26 2:33 3:31 
0 0 0.7799286549008038 1:33 2:44 3:40 
0 0 1 1:35 2:47 3:39 
0 1 0 1:34 2:52 3:48 
0 0 0.04820835665055423 1:33 2:34 3:39 
0 0 0.3680832476276189 1:30 2:26 3:36 
0.337042196882203 0 0 1:168 2:116 3:96 
1 0 0 1:184 2:137 3:118 
0 1 0 1:87 2:103 3:112 
0 0 0.8383118523155655 1:31 2:30 3:34 
0 0 1 1:33 2:39 3:36 
0 0 0.8209666314005042 1:32 2:42 3:39 
0 0 0.06255512574018636 1:44 2:54 3:45 
0 0 1 1:19 2:21 3:22 
0 0.1533731842380339 1 1:16 2:24 3:27 
0 0 1 1:17 2:16 3:24 
0 0 1 1:15 2:19 3:24 
0 0.8829739941207972 1 1:19 2:28 3:34 
0 0.1019736293039177 1 1:26 2:36 3:36 
0 0.8210865779353894 0.9503761198470776 1:32 2:46 3:40 
0 1 0 1:43 2:59 3:58 
0 1 0 1:41 2:61 3:57 
0 0 0.2341709366961098 1:35 2:23 3:34 
0 0 1 1:31 2:20 3:30 
1 0 0 1:189 2:130 3:109 
0.8991590359585478 0 0 1:151 2:149 3:135 
0 1 0 1:79 2:93 3:111 
0 0 1 1:32 2:37 3:36 
0 0 1 1:26 2:34 3:31 
0 0 1 1:15 2:14 3:28 
0 0 0.9114618221224586 1:19 2:14 3:30 
0 0 1 1:19 2:19 3:28 
0 0 1 1:22 2:26 3:33 
0 1 0 1:31 2:54 3:48 
0 0 0.3147855123057848 1:46 2:24 3:33 
0 0 0.1102105848034412 1:56 2:33 3:36 
0.1339705027530959 0 0 1:150 2:147 3:141 
1 0 0 1:255 2:255 3:255 
1 0 0 1:215 2:180 3:164 
1 0 0 1:189 2:126 3:94 
1 0 0 1:160 2:161 3:144 
1 0 0 1:188 2:184 3:168 
0 1 0 1:55 2:68 3:79 
0 0.1966367512789644 0 1:31 2:39 3:48 
0 0.8793433185368787 0 1:15 2:19 3:39 
0 0 0.2821811064784622 1:19 2:16 3:33 
0 0.5125090755509997 1 1:30 2:46 3:31 
0 0.8241779057601436 0 1:120 2:135 3:156 
1 0 0 1:177 2:143 3:127 
0.2414344488228992 0 0 1:179 2:160 3:164 
0.6043550618838527 0 0 1:173 2:144 3:135 
0.08716614326262637 0 0 1:153 2:130 3:117 
0.7094211953626451 0 0 1:175 2:169 3:171 
0.8708492730693733 0 0 1:127 2:134 3:109 
0 0.8149105640284786 0 1:83 2:93 3:117 
0 0 0.210728318995574 1:43 2:58 3:46 
0 0 1 1:22 2:22 3:31 
0 1 0 1:32 2:47 3:45 
1 0 0 1:255 2:233 3:221 
1 0 0 1:208 2:185 3:158 
0.3213267456822382 0 0 1:176 2:182 3:195 
0.9010983298414225 0 0 1:191 2:170 3:173 
0 1 0 1:64 2:85 3:72 
0 1 0 1:60 2:86 3:73 
0 1 0 1:58 2:81 3:64 
0 0.7445082464004824 0 1:56 2:75 3:61 
0 0 0.6631251322824706 1:19 2:11 3:27 
0 0 1 1:23 2:19 3:27 
0 0 0.08471877348758483 1:31 2:33 3:39 
0 0 1 1:29 2:32 3:34 
0 1 1 1:19 2:33 3:33 
0 0 1 1:32 2:35 3:31 
0.9081787799618075 0 0 1:183 2:129 3:111 
1 0 0 1:193 2:160 3:147 
0 1 0 1:82 2:99 3:112 
0 0 0.4558441745404668 1:35 2:39 3:39 
0 0 0.9669408394393972 1:31 2:26 3:33 
0 0 1 1:27 2:35 3:36 
0 0 1 1:29 2:29 3:28 
0 0 1 1:27 2:23 3:25 
0 0 1 1:33 2:32 3:34 
0 0 0.2835084202616818 1:37 2:46 3:42 
0 0 1 1:23 2:18 3:21 
0 0 1 1:17 2:12 3:24 
0 0 1 1:39 2:42 3:36 
1 0 0 1:180 2:121 3:93 
0.2031737527049469 0 0 1:176 2:116 3:99 
0 1 0 1:59 2:71 3:84 
0 0.3136153655719293 0 1:73 2:85 3:96 
0 1 0 1:64 2:85 3:96 
0 0 1 1:34 2:33 3:31 
0 0 1 1:22 2:16 3:22 
0 0 1 1:25 2:18 3:28 
0 0 1 1:28 2:23 3:30 
0 0 0.3616392347878135 1:31 2:23 3:34 
0 0 0.5761382060949501 1:21 2:14 3:31 
0 0 1 1:25 2:28 3:31 
0.8190559899645469 0 0 1:157 2:109 3:78 
1 0 0 1:179 2:125 3:90 
0.2422972835833238 0 0 1:152 2:109 3:84 
0 1 0 1:39 2:54 3:58 
0 1 0 1:45 2:65 3:51 
0 0 0.04699040278975503 1:49 2:58 3:46 
0 0.4029345222060924 0.9334960485894812 1:16 2:22 3:33 
0 1 0 1:34 2:42 3:57 
0 0 0.6589085124031699 1:43 2:44 3:39 
0 0 0.05240469971362399 1:65 2:46 3:40 
0 0 1 1:27 2:21 3:25 
0 0 1 1:24 2:15 3:24 
0 0 0.6693471024303487 1:34 2:23 3:31 
0 0 1 1:36 2:34 3:30 
0 0 1 1:35 2:35 3:30 
0 0 0.6386904436905201 1:38 2:45 3:40 
0.1185552061402055 0 0 1:159 2:97 3:69 
0 0.9514809157260162 0.06788096764604921 1:32 2:45 3:43 
0 1 0 1:20 2:30 3:40 
0 0.8463641827157047 0 1:44 2:53 3:67 
0 0 1 1:33 2:42 3:36 
0 0 0.5967484643755054 1:44 2:54 3:43 
0 0 1 1:25 2:31 3:34 
0 0 0.2946783041755864 1:43 2:34 3:37 
0 0 1 1:27 2:25 3:22 
0 0 1 1:30 2:26 3:27 
0 0 1 1:38 2:50 3:39 
0.8949648009238623 0 0 1:170 2:104 3:72 
0.8901471453730961 0 0 1:196 2:109 3:84 
0 0 0.8434781022213137 1:17 2:13 3:30 
0 0 0.7318134284030879 1:24 2:17 3:31 
0 0 0.06183609059264314 1:26 2:24 3:36 
0.1766470752154999 0 0 1:124 2:124 3:102 
0 0 0.04056941539906864 1:59 2:58 3:45 
0 0 1 1:24 2:23 3:22 
0 0 1 1:34 2:31 3:34 
0 1 0.2801218259552946 1:49 2:77 3:52 
0 1 1 1:48 2:78 3:45 
0 1 0 1:52 2:74 3:52 
0 1 0.7230361826885783 1:60 2:93 3:55 
0 0.7137166014787962 0 1:29 2:31 3:61 
0 0 0.2558101704428688 1:33 2:28 3:36 
0 1 0 1:50 2:62 3:72 
0 1 0 1:127 2:157 3:176 
0.6207105987217626 0 0 1:136 2:133 3:112 
0 0 0.0999537414309892 1:42 2:45 3:42 
0 1 0 1:43 2:62 3:51 
0 0 0.717062153405534 1:48 2:65 3:46 
0 1 0 1:53 2:74 3:57 
1 0 0 1:243 2:166 3:118 
1 0 0 1:247 2:163 3:123 
1 0 0 1:203 2:185 3:180 
0 1 0 1:80 2:95 3:106 
1 1 0 1:184 2:228 3:243 
1 1 0 1:217 2:255 3:255 
0.4659511092931275 0 0 1:159 2:173 3:177 
0.03057587426291552 0 0 1:152 2:110 3:88 
1 0 0 1:238 2:152 3:127 
0 0 1 1:56 2:71 3:45 
0 0 1 1:42 2:48 3:33 
0 0 0.04551123146135529 1:43 2:48 3:43 
0 0 1 1:24 2:23 3:28 
0 0 1 1:15 2:11 3:28 
0 0 0.7590474918707304 1:21 2:16 3:31 
0 0 1 1:27 2:25 3:33 
1 0 0 1:201 2:139 3:97 
1 0 0 1:232 2:162 3:97 
1 0 0 1:177 2:132 3:103 
1 0 0 1:171 2:147 3:134 
0.9100777813484662 0 0 1:155 2:152 3:140 
1 0 0 1:167 2:173 3:152 
1 1 0 1:207 2:237 3:255 
1 0 0 1:229 2:255 3:255 
0.9524584134636842 1 0 1:150 2:178 3:177 
0 0.9931143282571465 0 1:55 2:76 3:57 
0.9913685588433568 0 0 1:168 2:124 3:100 
1 0 0 1:255 2:172 3:147 
1 0 0 1:255 2:165 3:135 
1 0 0 1:195 2:143 3:109 
0.2458010468799 0 0 1:122 2:137 3:120 
1 0 0 1:168 2:180 3:162 
0 1 0 1:64 2:85 3:81 
0 0.8395426949675987 0 1:141 2:158 3:180 
0 0 0.2657276400781613 1:42 2:50 3:43 
0 0 0.07652062132756529 1:35 2:38 3:40 
0.1225466224367413 0 0 1:151 2:119 3:100 
1 0 0 1:212 2:196 3:185 
1 0 0 1:171 2:171 3:153 
0 0.9987579163072552 1 1:19 2:31 3:28 
0 0 1 1:23 2:27 3:21 
0 0 1 1:23 2:28 3:31 
0 0 0.307497034737898 1:31 2:40 3:40 
0.2158363008187489 0 0 1:175 2:123 3:109 
1 0 0 1:210 2:139 3:126 
1 0 0 1:195 2:133 3:117 
0.2283487288268858 0 0 1:109 2:114 3:84 
0.05349270531609355 0 0 1:138 2:141 3:131 
1 0 0 1:182 2:184 3:183 
0 0 1 1:13 2:14 3:24 
0 0 1 1:8 2:12 3:18 
0 0.01351738449570769 1 1:12 2:18 3:25 
0 0.2135106357807424 0 1:19 2:23 3:40 
0 0 0.3201653946867949 1:35 2:32 3:37 
0 0 0.9286242440198942 1:47 2:50 3:40 
0 1 0 1:76 2:92 3:99 
0.7421191829710244 0 0 1:172 2:131 3:114 
0.8496440072673002 0 0 1:185 2:131 3:115 
1 0 0 1:229 2:163 3:121 
1 0 0 1:242 2:176 3:138 
1 0 0 1:208 2:152 3:117 
1 0 0 1:161 2:135 3:114 
0 1 0 1:72 2:96 3:103 
0.788816032996526 0 0 1:123 2:125 3:96 
0 0 1 1:14 2:11 3:24 
0 0 1 1:12 2:7 3:19 
0 0 1 1:13 2:14 3:28 
0 0 0.5463272251332698 1:33 2:42 3:40 
0 0 0.9931329862413993 1:35 2:39 3:37 
0 0.2939354348823078 0 1:31 2:39 3:49 
1 0 0 1:199 2:152 3:134 
0.3532331701135228 0 0 1:189 2:136 3:129 
0.0534505197979101 0 0 1:146 2:117 3:97 
1 0 0 1:162 2:135 3:112 
1 0 0 1:173 2:156 3:138 
0.5460416368110237 0 0 1:162 2:155 3:150 
1 0 0 1:190 2:189 3:176 
1 0 0 1:218 2:224 3:206 
1 0 0 1:211 2:206 3:191 
1 0 0 1:191 2:157 3:132 
0 1 0 1:74 2:93 3:87 
0.9876795938908524 0 0 1:173 2:183 3:188 
1 0 0 1:195 2:212 3:216 
-1 0 0 1:170 2:152 3:143 
-1 0 0 1:175 2:147 3:137 
-1 0 0 1:176 2:153 3:141 
-1 0 0 1:175 2:156 3:144 
-1 0 0 1:178 2:155 3:144 
-1 0 0 1:181 2:152 3:144 
-1 0 0 1:183 2:159 3:140 
-1 0 0 1:187 2:164 3:146 
-1 0 0 1:195 2:174 3:162 
-0.4352836587984028 0 0 1:203 2:184 3:164 
-0.5434289868378008 0 0 1:210 2:184 3:167 
-0.5679378135469549 0 0 1:207 2:185 3:168 
-0.7291995403328091 0 0 1:206 2:185 3:170 
-0.5245200508614059 0 0 1:211 2:185 3:168 
-0.9705468263383347 0 0 1:200 2:178 3:161 
-0.4481597189784989 0 0 1:199 2:182 3:162 
-0.1839491552141181 0 0 1:208 2:186 3:165 
-0.2959180592415254 0 0 1:210 2:187 3:168 
-0.03362637965917047 0 0 1:211 2:189 3:168 
-0.2484762134504898 0 0 1:204 2:186 3:165 
-0.6615339521936724 0 0 1:202 2:185 3:168 
-1 0 0 1:175 2:149 3:134 
-1 0 0 1:177 2:150 3:140 
-1 0 0 1:175 2:155 3:144 
-1 0 0 1:176 2:154 3:143 
-1 0 0 1:176 2:157 3:141 
-1 0 0 1:183 2:159 3:141 
-1 0 0 1:189 2:165 3:149 
-1 0 0 1:193 2:174 3:156 
-0.5701425316174278 0 0 1:199 2:180 3:159 
-0.08004888003938988 0 0 1:207 2:187 3:165 
-0.0847757516144564 0 0 1:207 2:185 3:162 
-0.8713751888346548 0 0 1:207 2:180 3:164 
-0.4225854528778664 0 0 1:208 2:186 3:168 
-1 0 0 1:203 2:175 3:162 
-1 0 0 1:203 2:180 3:171 
-0.213106122638024 0 0 1:208 2:185 3:164 
-0.5678908533685012 0 0 1:207 2:183 3:165 
-0.7053746473140688 0 0 1:202 2:186 3:170 
-1 0 0 1:181 2:155 3:129 
-1 0 0 1:178 2:152 3:134 
-1 0 0 1:179 2:153 3:138 
-1 0 0 1:179 2:152 3:137 
-1 0 0 1:178 2:160 3:147 
-0.886474179985607 0 0 1:184 2:165 3:138 
-1 0 0 1:195 2:166 3:146 
-1 0 0 1:197 2:173 3:161 
-0.6946381741669356 0 0 1:200 2:180 3:162 
-0.8793729741679865 0 0 1:203 2:179 3:162 
-0.3733625605308722 0 0 1:203 2:181 3:159 
-0.05994300345295096 0 0 1:203 2:185 3:161 
-0.4222257959519708 0 0 1:212 2:181 3:161 
-0.0658778874320734 0 0 1:207 2:183 3:159 
-0.4086471812812799 0 0 1:201 2:178 3:156 
-1 0 0 1:199 2:174 3:156 
-0.3974252944763221 0 0 1:200 2:181 3:162 
-0.5787910018235102 0 0 1:216 2:184 3:168 
-0.8205555813431169 0 0 1:208 2:183 3:168 
-0.5862483971523372 0 0 1:196 2:178 3:156 
-1 0 0 1:179 2:153 3:134 
-1 0 0 1:178 2:152 3:138 
-1 0 0 1:177 2:153 3:138 
-1 0 0 1:178 2:153 3:138 
-1 0 0 1:176 2:161 3:138 
-1 0 0 1:184 2:166 3:144 
-1 0 0 1:189 2:162 3:146 
-1 0 0 1:195 2:165 3:149 
-0.8176244433174817 0 0 1:199 2:178 3:159 
-0.47372531397209 0 0 1:199 2:181 3:162 
-0.5004473539953759 0 0 1:204 2:182 3:162 
-0.2112888276217396 0 0 1:206 2:182 3:159 
-0.7141788024544553 0 0 1:209 2:179 3:161 
-0.5972379837608688 0 0 1:201 2:174 3:152 
-0.2556016852296361 0 0 1:203 2:178 3:153 
-0.1535941282228411 0 0 1:200 2:183 3:159 
-0.5499230201253354 0 0 1:212 2:182 3:164 
-0.3395815920641184 0 0 1:207 2:184 3:164 
-1 0 0 1:197 2:176 3:158 
-1 0 0 1:176 2:151 3:137 
-1 0 0 1:175 2:151 3:134 
-1 0 0 1:175 2:155 3:134 
-1 0 0 1:176 2:154 3:131 
-1 0 0 1:175 2:156 3:138 
-1 0 0 1:183 2:161 3:140 
-1 0 0 1:187 2:162 3:147 
-1 0 0 1:191 2:167 3:144 
-0.5137486216414082 0 0 1:195 2:178 3:155 
-0.5304945085580683 0 0 1:196 2:180 3:158 
-0.3008356150725288 0 0 1:202 2:181 3:158 
-0.7655673418630026 0 0 1:210 2:183 3:168 
-0.4961581827436421 0 0 1:207 2:181 3:161 
-0.4293545957912263 0 0 1:202 2:178 3:156 
-1 0 0 1:199 2:172 3:153 
-0.2750011258083164 0 0 1:199 2:178 3:153 
-0.1345341218886988 0 0 1:201 2:183 3:159 
-0.174673457699326 0 0 1:212 2:183 3:161 
-0.1759844862366741 0 0 1:203 2:186 3:164 
-1 0 0 1:179 2:150 3:129 
-1 0 0 1:178 2:148 3:127 
-1 0 0 1:175 2:154 3:127 
-1 0 0 1:177 2:153 3:135 
-1 0 0 1:181 2:151 3:149 
-1 0 0 1:180 2:156 3:135 
-1 0 0 1:181 2:161 3:143 
-1 0 0 1:185 2:159 3:149 
-1 0 0 1:186 2:165 3:143 
-0.715792856090683 0 0 1:187 2:174 3:152 
-0.1266837531832432 0 0 1:199 2:179 3:153 
-0.8756696967430249 0 0 1:204 2:181 3:165 
-0.2449158368056108 0 0 1:204 2:180 3:156 
-0.1078126489117713 0 0 1:207 2:182 3:158 
-0.9306622456774187 0 0 1:196 2:173 3:153 
-1 0 0 1:198 2:169 3:155 
-0.4372480750463748 0 0 1:201 2:175 3:152 
-0.2620924673102785 0 0 1:215 2:186 3:167 
-0.8745496201461684 0 0 1:205 2:184 3:170 
-0.2315626738675392 0 0 1:198 2:178 3:152 
-1 0 0 1:172 2:150 3:126 
-1 0 0 1:172 2:149 3:129 
-1 0.0002426153939467459 0.0001267306656528213 1:167 2:151 3:129 
-1 0 0 1:171 2:151 3:135 
-1 0 0 1:175 2:150 3:135 
-0.7786781011139289 0 0 1:176 2:154 3:131 
-1 0 0 1:180 2:163 3:140 
-1 0 0 1:185 2:159 3:143 
-1 0 0 1:182 2:164 3:146 
-0.8241749400958626 0 0 1:187 2:174 3:153 
-0.4002919642667548 0 0 1:201 2:177 3:153 
-0.9047502542175797 0 0 1:204 2:178 3:161 
-0.6559971209204816 0 0 1:200 2:177 3:156 
-0.1824773439466587 0 0 1:201 2:178 3:152 
-0.06301331765521538 0 0 1:199 2:178 3:150 
-0.2486043794352844 0 0 1:207 2:183 3:161 
-0.6266679453404943 0 0 1:216 2:187 3:173 
-1 0 0 1:201 2:174 3:159 
-1 0 0 1:195 2:172 3:153 
-0.4567839527324218 -0 0 1:52 2:70 3:76 
-0.05117303144571581 -0 0 1:58 2:79 3:79 
-0.5233965803743952 -0 0 1:58 2:77 3:78 
-0.1451731524556384 -0 0 1:57 2:77 3:78 
-1 -0 0 1:57 2:73 3:69 
-0.4791236199581784 -0 0 1:52 2:71 3:72 
-0.227930070515258 -0 0 1:51 2:70 3:73 
-0.06618680585545342 -0 0 1:51 2:70 3:73 
-0.1621537391294051 -0 0 1:50 2:69 3:72 
-0.7677839635565245 -0 0 1:51 2:69 3:72 
-0.2875540493170161 -0 0 1:51 2:70 3:72 
-0.2874673950152082 -0 0 1:56 2:76 3:78 
-0.009976617350597112 -0 0 1:54 2:73 3:78 
-0.8937976239239168 -0 0 1:59 2:77 3:81 
-0.4602733094087954 -0 0 1:59 2:79 3:81 
-1 -0 0 1:56 2:68 3:82 
-0.2550772384620028 -0 0 1:58 2:77 3:81 
-1 -0 0 1:58 2:75 3:81 
-1 -0 0 1:55 2:69 3:82 
-0.8423197416795051 -0 0 1:56 2:73 3:81 
-1 -0 0 1:58 2:73 3:81 
-1 -0 0 1:57 2:71 3:82 
-0.1902107368185537 -0 0 1:58 2:77 3:82 
-0.4046939164281863 -0 0 1:59 2:77 3:82 
-1 -0 0 1:54 2:72 3:70 
-0.6546496082006887 -0 0 1:55 2:74 3:75 
-0.8258014816778544 -0 0 1:58 2:73 3:78 
-0.1646233153908038 -0 0 1:58 2:77 3:78 
-0.8235572865061178 -0 0 1:59 2:79 3:78 
-0.1012919835572238 -0 0 1:60 2:81 3:79 
-0.6619792034166789 -0 0 1:52 2:68 3:79 
-1 -0 0 1:58 2:73 3:75 
-0.3221221712569485 -0 0 1:58 2:81 3:73 
-0.9027761608092093 -0 0 1:56 2:76 3:73 
-1 -0 0 1:59 2:75 3:75 
-1 -0 0 1:59 2:74 3:75 
-1 -0 0 1:58 2:70 3:75 
-0.2622344215566757 -0 0 1:51 2:68 3:78 
-1 -0 0 1:59 2:73 3:78 
-0.2488397272165647 -0 0 1:59 2:81 3:78 
-1 -0 0 1:59 2:77 3:78 
-0.1227526956406284 -0 0 1:59 2:80 3:79 
-0.2151433961328048 -0 0 1:59 2:80 3:79 
-1 -0 0 1:60 2:79 3:79 
-1 -0 0 1:58 2:73 3:72 
-0.07070610682666507 -0 0 1:55 2:76 3:75 
-0.3349688225809197 -0 0 1:55 2:76 3:73 
-1 -0 0 1:57 2:75 3:73 
-1 -0 0 1:57 2:74 3:75 
-1 -0 0 1:57 2:70 3:75 
-0.4889497551364364 -0 0 1:55 2:72 3:82 
-1 -0 0 1:61 2:77 3:85 
-0.002812011847374491 -0 0 1:55 2:77 3:73 
-0.03632132944557266 -0 0 1:55 2:77 3:73 
-1 -0 0 1:57 2:77 3:73 
-0.2821616789490601 -0 0 1:56 2:77 3:75 
-1 -0 0 1:59 2:75 3:81 
-0.3556635224893838 -0 0 1:60 2:81 3:79 
-1 -0 0 1:55 2:71 3:79 
-0.09651347558583864 -0 0 1:55 2:73 3:78 
-0.0379944124113994 -0 0 1:57 2:77 3:78 
-0.7934744166091655 -0 0 1:59 2:80 3:75 
-1 -0 0 1:59 2:77 3:72 
-1 -0 0 1:59 2:80 3:73 
-1 -0 0 1:59 2:77 3:72 
-0.1862421595643259 -0 0 1:61 2:79 3:90 
-1 -0 0 1:63 2:78 3:75 
-0.3312520336178253 -0 0 1:54 2:72 3:78 
-0.05996378990815066 -0 0 1:54 2:73 3:76 
-0.9808269772541873 -0 0 1:55 2:74 3:73 
-1 -0 0 1:55 2:69 3:75 
-0.06345699558257539 -0 0 1:55 2:76 3:75 
-0.9299734074482031 -0 0 1:61 2:77 3:78 
-1 -0 0 1:56 2:72 3:76 
-0.09046351270286948 -0 0 1:59 2:81 3:76 
-0.8556805549590585 -0 0 1:56 2:73 3:75 
-1 -0 0 1:56 2:70 3:75 
-0.1569598803243324 -0 0 1:58 2:81 3:73 
-0.06493125509153377 -0 0 1:58 2:81 3:75 
-0.3361866603595376 -0 0 1:60 2:81 3:81 
-1 -0 0 1:63 2:82 3:82 
-1 -0 0 1:61 2:80 3:79 
-0.9506897584959005 -0 0 1:56 2:74 3:76 
-0.2193950193919247 -0 0 1:57 2:78 3:76 
-0.3823837250573195 -0 0 1:59 2:78 3:76 
-0.657038889032053 -0 0 1:59 2:78 3:76 
-0.3585060736677007 -0 0 1:55 2:77 3:72 
-1 -0 0 1:64 2:78 3:90 
-1 -0 0 1:62 2:77 3:72 
-1 -0 0 1:56 2:74 3:73 
-1 -0 0 1:55 2:72 3:73 
-0.3194998657187636 -0 0 1:59 2:82 3:75 
-1 -0 0 1:61 2:79 3:78 
-0.2674071287232883 -0 0 1:59 2:78 3:82 
-1 -0 0 1:62 2:78 3:78 
-1 -0 0 1:60 2:77 3:75 
-0.9044215557116246 -0 0 1:58 2:76 3:75 
-1 -0 0 1:59 2:78 3:75 
-0.8781837807213062 -0 0 1:59 2:77 3:75 
-0 -0.0002426153939467459 0 1:63 2:86 3:91 
-0.4809668003985924 -0 0 1:59 2:77 3:75 
-0.3947707956817195 -0 0 1:56 2:76 3:76 
-0.6367494692105852 -0 0 1:58 2:79 3:75 
-1 -0 0 1:60 2:79 3:76 
-0.3278638859514648 -0 0 1:59 2:79 3:76 
-0.1118715370619098 -0 0 1:59 2:80 3:76 
-0.6056242504382853 -0 0 1:63 2:82 3:87 
-0.4327877904789695 -0 0 1:63 2:82 3:88 
-1 -0 0 1:63 2:82 3:76 
-0.6615538913499092 -0 0 1:57 2:75 3:79 
-0.1466002348600327 -0 0 1:57 2:77 3:79 
-0.1198052348267819 -0 0 1:57 2:77 3:76 
-0.2968629234180377 -0 0 1:59 2:80 3:76 
-0.00317575880786523 -0 0 1:59 2:80 3:76 
-1 -0 0 1:59 2:72 3:76 
-0.07580182674024384 -0 0 1:59 2:81 3:76 
-0.9249630542695209 -0 0 1:62 2:81 3:84 
-1 -0 0 1:63 2:77 3:87 
-1 -0 0 1:60 2:77 3:76 
-0.07474216962012556 -0 0 1:59 2:77 3:75 
-0.2905197741376769 -0 0 1:61 2:77 3:78 
-0.1246739419807495 -0 0 1:58 2:78 3:81 
-0.5063890650112559 -0 0 1:58 2:78 3:79 
-0.05443804612134893 -0 0 1:58 2:77 3:81 
-1 -0 0 1:59 2:76 3:78 
-0.4954089767333641 -0 0 1:57 2:76 3:79 
-0.2655434243025885 -0 0 1:57 2:76 3:75 
-0.5506989892187086 -0 0 1:57 2:77 3:76 
-0.3893021219957954 -0 0 1:59 2:81 3:75 
-0.4865728695094984 -0 0 1:62 2:81 3:87 
-0.8169267127276855 -0 0 1:60 2:81 3:76 
-1 -0 0 1:61 2:81 3:76 
-1 -0 0 1:59 2:73 3:78 
-1 -0 0 1:57 2:69 3:75 
-1 -0 0 1:62 2:81 3:79 
-1 -0 0 1:57 2:72 3:78 
-0.2527344599613566 -0 0 1:57 2:77 3:73 
-0.004927790220602077 -0 0 1:58 2:77 3:78 
-0.04910531087232737 -0 0 1:56 2:77 3:75 
-0.6200106207038313 -0 0 1:56 2:75 3:76 
-1 -0 0 1:56 2:73 3:72 
-0.8830671733150787 -0 0 1:57 2:74 3:82 
-1 -0 0 1:59 2:76 3:82 
-0.977906867896188 -0 0 1:57 2:74 3:79 
-0.2808548030712149 -0 0 1:57 2:75 3:84 
-0.1121041700826528 -0 0 1:55 2:74 3:79 
-1 -0 0 1:58 2:74 3:79 
-1 -0 0 1:62 2:80 3:79 
-0.3104393746346737 -0 0 1:53 2:71 3:78 
-0.9397388968764192 -0 0 1:61 2:77 3:78 
-1 -0 0 1:53 2:71 3:66 
-1 -0 0 1:60 2:78 3:82 
-0.2416807527898742 -0 0 1:61 2:81 3:82 
-0.4549069845802141 -0 0 1:55 2:73 3:79 
-1 -0 0 1:61 2:77 3:79 
-0.7983997204064976 -0 0 1:61 2:77 3:79 
-0.493303978940717 -0 0 1:61 2:81 3:82 
-1 -0 0 1:60 2:77 3:79 
-0.1913915321324118 -0 0 1:58 2:79 3:78 
-0.5952726706481833 -0 0 1:50 2:69 3:70 
-0.02421013472830706 -0 0 1:61 2:81 3:84 
-0.2155241434910489 -0 0 1:61 2:81 3:84 
-0.6105534971493874 -0 0 1:61 2:81 3:79 
-1 -0 0 1:61 2:73 3:81 
-1 -0 0 1:64 2:81 3:79 
-0.121835963112022 -0 0 1:57 2:77 3:78 
-0.4869242455315527 -0 0 1:57 2:78 3:75 
-0.6350347086617454 -0 0 1:57 2:76 3:75 
-0.005499935383107603 -0 0 1:59 2:81 3:78 
-1 -0 0 1:58 2:71 3:76 
-1 -0 0 1:58 2:73 3:78 
-0.04160586313453347 -0 0 1:57 2:78 3:75 
-0.7988790702273757 -0 0 1:55 2:73 3:76 
-0.3197818115055459 -0 0 1:55 2:74 3:78 
-0.7832184415519824 -0 0 1:57 2:73 3:85 
-0.1332867725043218 -0 0 1:55 2:73 3:78 
-0.364602962107553 -0 0 1:55 2:75 3:75 
-0.6956590334805606 -0 0 1:56 2:73 3:75 
-1 -0 0 1:51 2:69 3:61 
-0.02649878807640703 -0 0 1:55 2:73 3:82 
-0.6197660255641331 -0 0 1:58 2:76 3:75 
-1 -0 0 1:54 2:71 3:76 
-0.7534548023689562 -0 0 1:53 2:71 3:75 
-0.8917946168838817 -0 0 1:53 2:71 3:73 
-0.3579140841764225 -0 0 1:58 2:79 3:76 
-0.9975047142883413 -0 0 1:49 2:64 3:75 
-1 -0 0 1:62 2:78 3:76 
-0.05364351636713652 -0 0 1:59 2:80 3:76 
-0.1116499810719333 -0 0 1:52 2:71 3:75 
-0.1055574976314652 -0 0 1:47 2:70 3:61 
-0.5314949736656549 -0 0 1:43 2:58 3:70 
-0.1638315508678684 -0 0 1:59 2:79 3:76 
-0.002941569330946259 -0 0 1:57 2:79 3:76 
-0.4092206020230471 -0 0 1:44 2:60 3:70 
-0.4659249080842623 -0 0 1:43 2:61 3:64 
-0.4104687727903435 -0 0 1:51 2:69 3:75 
-0.5371895117564615 -0 0 1:59 2:77 3:85 
-0.8733713445534667 -0 0 1:55 2:72 3:78 
-1 -0 0 1:54 2:70 3:78 
-1 -0 0 1:51 2:65 3:76 
-0.3091892457518952 -0 0 1:54 2:73 3:76 
-1 -0 0 1:55 2:73 3:70 
-0.4814366741563931 -0 0 1:53 2:73 3:73 
-0.8405017111234604 -0 0 1:53 2:71 3:72 
-0.1462059194626221 -0 0 1:53 2:71 3:72 
-0.7608261193890753 -0 0 1:47 2:68 3:61 
-1 -0 0 1:54 2:71 3:66 
-1 -0 0 1:51 2:70 3:67 
-0.7719709378366199 -0 0 1:52 2:70 3:69 
-0.6716822718809158 -0 0 1:52 2:70 3:69 
-1 -0 0 1:51 2:69 3:69 
-1 -0 0 1:51 2:68 3:69 
-1 -0 0 1:53 2:69 3:69 
-0.1619314599357411 -0 0 1:55 2:73 3:78 
-0.3920459255083076 -0 0 1:47 2:64 3:72 
-1 -0 0 1:52 2:68 3:76 
-1 -0 0 1:51 2:65 3:72 
-0.574587418430159 -0 0 1:48 2:66 3:70 
-0.2136969808121841 -0 0 1:49 2:65 3:78 
-0.1680994977420494 -0 0 1:54 2:77 3:70 
-0.8089714795635851 -0 0 1:45 2:66 3:58 
-0.1769488862168211 -0 0 1:45 2:67 3:60 
-0.7884517428936697 -0 0.01907291977443331 1:40 2:57 3:60 
-1 -0 -0 1:31 2:32 3:42 
-1 -0 -0 1:43 2:42 3:42 
-1 -0 -0 1:38 2:39 3:34 
-1 -0 -0 1:31 2:42 3:37 
-1 -0 -0 1:43 2:45 3:37 
-1 -0 -0 1:43 2:42 3:39 
-1 -0 -0 1:28 2:33 3:37 
-1 -0 -0 1:24 2:19 3:31 
-1 -0 -0 1:23 2:13 3:33 
-1 -0 -0 1:28 2:27 3:34 
-1 -0 -0 1:25 2:39 3:33 
-1 -0 -0 1:23 2:30 3:37 
-1 -0 -0 1:26 2:35 3:33 
-1 -0 -0 1:27 2:26 3:33 
-1 -0 -0 1:22 2:25 3:33 
-1 -0 -0 1:29 2:26 3:30 
-1 -0 -0 1:30 2:32 3:28 
-1 -0 -0 1:29 2:35 3:30 
-1 -0 -0 1:31 2:31 3:30 
-1 -0 -0 1:32 2:27 3:42 
-1 -0 -0 1:38 2:47 3:39 
-1 -0 -0.005601210010723663 1:45 2:46 3:49 
-1 -0 -0 1:43 2:45 3:45 
-1 -0 -0 1:44 2:35 3:45 
-1 -0 -0 1:45 2:37 3:45 
-0.8245189668882755 -0 -0 1:27 2:25 3:28 
-1 -0 -0 1:19 2:19 3:27 
-1 -0 -0 1:19 2:19 3:33 
-1 -0 -0 1:17 2:17 3:28 
-1 -0 -0 1:21 2:26 3:28 
-1 -0 -0 1:25 2:27 3:40 
-0.6076836120473762 -0 -0 1:27 2:35 3:28 
-0.8013708776563635 -0 -0 1:31 2:42 3:31 
-1 -0 -0 1:33 2:39 3:31 
-0.6841604461451913 -0 -0 1:22 2:30 3:31 
-1 -0 -0 1:28 2:26 3:30 
-1 -0 -0 1:31 2:39 3:33 
-1 -0 -0 1:30 2:27 3:33 
-1 -0 -0 1:29 2:34 3:33 
-1 -0 -0 1:32 2:31 3:30 
-1 -0 -0 1:31 2:33 3:37 
-1 -0 -0 1:33 2:43 3:39 
-1 -0 -0 1:47 2:46 3:46 
-1 -0.0001267306656528213 -0 1:50 2:47 3:45 
-1 -0 -0 1:40 2:30 3:46 
-1 -0 -0 1:32 2:17 3:30 
-1 -0 -0 1:26 2:16 3:27 
-0.7562323420390739 -0 -0 1:24 2:29 3:27 
-1 -0 -0 1:22 2:21 3:31 
-1 -0 -0 1:19 2:17 3:27 
-0.8623484244176691 -0 -0 1:27 2:25 3:28 
-1 -0 -0 1:30 2:27 3:36 
-0.4496735880870356 -0 -0 1:27 2:19 3:21 
-1 -0 -0 1:28 2:24 3:28 
-0.733897098672546 -0 -0 1:27 2:34 3:30 
-0.416546189786957 -0 -0 1:27 2:47 3:31 
-0.6204814060042549 -0 -0 1:38 2:48 3:31 
-1 -0 -0 1:32 2:38 3:31 
-0.8214489887754569 -0 -0 1:28 2:35 3:30 
-1 -0 -0 1:37 2:46 3:48 
-1 -0 -0 1:39 2:38 3:48 
-1 -0 -0 1:27 2:37 3:49 
-1 -0 -0 1:28 2:23 3:31 
-1 -0 -0 1:35 2:44 3:37 
-1 -0 -0 1:38 2:46 3:39 
-1 -0 -0 1:43 2:38 3:46 
-1 -0 -0 1:40 2:23 3:30 
-0.6853052023154063 -0 -0 1:30 2:34 3:27 
-1 -0 -0 1:20 2:19 3:28 
-1 -0 -0 1:19 2:24 3:28 
-1 -0 -0 1:21 2:28 3:27 
-1 -0 -0 1:21 2:32 3:31 
-0.4266676270286542 -0 -0 1:19 2:23 3:27 
-1 -0 -0 1:20 2:13 3:30 
-1 -0 -0 1:14 2:24 3:27 
-1 -0 -0 1:18 2:21 3:28 
-0.62241115786801 -0 -0 1:31 2:41 3:30 
-0.3508933825275845 -0 -0 1:29 2:46 3:30 
-1 -0 -0 1:27 2:37 3:30 
-0.7299823985139831 -0 -0 1:27 2:34 3:28 
-1 -0 -0 1:32 2:35 3:40 
-1 -0 -0 1:36 2:35 3:42 
-1 -0 -0 1:29 2:34 3:39 
-1 -0 -0 1:27 2:32 3:33 
-1 -0 -0 1:37 2:42 3:40 
-1 -0 -0 1:41 2:46 3:42 
-1 -0 -0 1:22 2:30 3:30 
-1 -0 -0 1:26 2:22 3:28 
-1 -0 -0 1:29 2:31 3:30 
-1 -0 -0 1:28 2:31 3:30 
-0.1638544556028185 -0 -0 1:27 2:28 3:27 
-1 -0 -0 1:25 2:27 3:27 
-1 -0 -0 1:25 2:40 3:31 
-0.4824772341679698 -0 -0 1:24 2:34 3:27 
-1 -0 -0 1:23 2:24 3:28 
-1 -0 -0 1:23 2:25 3:39 
-0.5682877620094636 -0 -0 1:24 2:22 3:22 
-1 -0 -0 1:17 2:23 3:27 
-0.9155880410001787 -0 -0 1:19 2:23 3:27 
-1 -0 -0 1:23 2:33 3:30 
-1 -0 -0 1:25 2:36 3:30 
-1 -0 -0 1:25 2:27 3:30 
-1 -0 -0 1:25 2:23 3:28 
-1 -0 -0 1:29 2:35 3:40 
-1 -0 -0 1:31 2:37 3:42 
-0.8961710355164395 -0 -0 1:29 2:26 3:25 
-1 -0 -0 1:29 2:27 3:28 
-1 -0 -0 1:30 2:30 3:28 
-0.3888388162507532 -0 -0 1:27 2:35 3:30 
-1 -0 -0 1:20 2:20 3:28 
-1 -0 -0 1:23 2:25 3:27 
-1 -0 -0 1:34 2:38 3:43 
-1 -0 -0.01347170976370965 1:35 2:50 3:48 
-1 -0 -0 1:31 2:37 3:30 
-0.07709995031460425 -0 -0 1:29 2:34 3:25 
-1 -0 -0 1:28 2:28 3:28 
-0.9786866116680137 -0 -0 1:27 2:28 3:27 
-1 -0 -0 1:25 2:26 3:28 
-1 -0 -0 1:24 2:26 3:36 
-0.6456728851019856 -0 -0 1:24 2:23 3:25 
-0.9319620410085543 -0 -0 1:25 2:23 3:25 
-0.7891438681424141 -0 -0 1:25 2:34 3:28 
-1 -0 -0 1:23 2:36 3:31 
-0.9348786661310534 -0 -0 1:24 2:38 3:30 
-0.8309650208695418 -0 -0 1:24 2:28 3:27 
-1 -0 -0 1:23 2:27 3:30 
-1 -0 -0 1:28 2:34 3:37 
-1 -0 -0 1:22 2:34 3:37 
-1 -0 -0 1:22 2:30 3:31 
-1 -0 -0 1:23 2:28 3:28 
-1 -0 -0 1:14 2:19 3:28 
-1 -0 -0 1:19 2:30 3:30 
-1 -0 -0 1:23 2:31 3:30 
-1 -0 -0 1:17 2:18 3:27 
-0.3016339110308531 -0 -0 1:23 2:36 3:27 
-0.2183835763387981 -0 -0 1:27 2:38 3:27 
-1 -0 -0 1:37 2:34 3:45 
-1 -0 -0 1:30 2:36 3:30 
-1 -0 -0 1:24 2:30 3:28 
-1 -0 -0 1:34 2:27 3:27 
-1 -0 -0 1:26 2:34 3:30 
-1 -0 -0 1:31 2:37 3:34 
-0.2208871383245604 -0 -0 1:24 2:31 3:25 
-0.01135379349885356 -0 -0 1:29 2:35 3:25 
-1 -0 -0 1:31 2:46 3:42 
-1 -0 -0 1:34 2:46 3:42 
-1 -0 -0 1:35 2:47 3:42 
-1 -0 -0 1:31 2:34 3:39 
-1 -0 -0 1:32 2:46 3:37 
-1 -0 -0 1:26 2:37 3:37 
-1 -0 -0 1:23 2:31 3:31 
-0.7865966828724709 -0 -0 1:31 2:41 3:31 
-1 -0 -0 1:18 2:22 3:27 
-1 -0 -0 1:21 2:27 3:31 
-1 -0 -0 1:15 2:14 3:27 
-1 -0 -0 1:23 2:22 3:30 
-1 -0 -0 1:31 2:24 3:30 
-1 -0 -0 1:28 2:24 3:30 
-1 -0 -0 1:26 2:25 3:31 
-1 -0 -0 1:33 2:26 3:31 
-1 -0 -0 1:27 2:31 3:31 
-1 -0 -0 1:29 2:32 3:31 
-0.6849434684769272 -0 -0 1:27 2:31 3:31 
-1 -0 -0 1:28 2:34 3:31 
-0.5758717433485734 -0 -0 1:31 2:31 3:30 
-1 -0 -0 1:27 2:34 3:31 
-0.4644970300218705 -0 -0 1:27 2:35 3:30 
-1 -0 -0 1:27 2:32 3:31 
-1 -0 -0 1:23 2:23 3:30 
-1 -0 -0 1:15 2:22 3:30 
-1 -0 -0 1:24 2:26 3:30 
-1 -0 -0 1:35 2:38 3:31 
-0.484022738801094 -0 -0 1:33 2:48 3:31 
-1 -0 -0 1:18 2:21 3:24 
-0.7732141618815118 -0 -0 1:21 2:25 3:25 
-1 -0 -0 1:13 2:18 3:24 
-0.2540187452007667 -0 -0 1:25 2:31 3:25 
-0.8722600228210859 -0 -0 1:23 2:23 3:25 
-1 -0 -0 1:21 2:20 3:27 
-1 -0 -0 1:22 2:21 3:27 
-0.8259795201999486 -0 -0 1:25 2:31 3:27 
-0.3584918239922201 -0 -0 1:34 2:33 3:25 
-1 -0 -0 1:35 2:34 3:42 
-1 -0 -0 1:23 2:23 3:27 
-1 -0 -0 1:21 2:24 3:28 
-0.7440644743296903 -0 -0 1:27 2:27 3:25 
-1 -0 -0 1:20 2:21 3:25 
-1 -0 -0 1:13 2:10 3:25 
-0.8856134558417713 -0 -0 1:11 2:21 3:25 
-0.6221105582478436 -0 -0 1:19 2:26 3:25 
-0.2045705702079194 -0 -0 1:29 2:33 3:25 
