svm_type c_svc
kernel_type linear
nr_class 2
total_sv 135
rho 0.0118114
label 1 -1
probA -5.61618
probB -0.221943
nr_sv 68 67
SV
1 1:0.745 2:0.708 
1 1:0.48899999 2:0.428 
1 1:0.39199999 2:0.242 
1 1:0.207 2:0.074000001 
1 1:0.64700001 2:0.51899999 
1 1:0.57200003 2:0.486 
1 1:0.58099997 2:0.43599999 
1 1:0.96799999 2:0.86199999 
1 1:0.89899999 2:0.76599997 
1 1:0.131 2:0.106 
1 1:0.597 2:0.54699999 
1 1:0.94800001 2:0.86199999 
1 1:0.40900001 2:0.34900001 
1 1:0.153 2:0.1 
1 1:0.94300002 2:0.87 
1 1:0.537 2:0.52499998 
1 1:0.212 2:0.186 
1 1:0.45300001 2:0.28600001 
1 1:0.96899998 2:0.889 
1 1:0.60100001 2:0.505 
1 1:0.15899999 2:0.112 
1 1:0.90700001 2:0.81300002 
1 1:0.47299999 2:0.36500001 
1 1:0.54699999 2:0.505 
1 1:0.41600001 2:0.36399999 
1 1:0.53500003 2:0.51099998 
1 1:0.186 2:0.142 
1 1:0.156 2:0.118 
1 1:0.93300003 2:0.91900003 
1 1:0.184 2:0.15099999 
1 1:0.56999999 2:0.505 
1 1:0.44 2:0.36500001 
1 1:0.71100003 2:0.69099998 
1 1:0.78299999 2:0.63300002 
1 1:0.86500001 2:0.72500002 
1 1:0.19 2:0.050999999 
1 1:0.46799999 2:0.45500001 
1 1:0.537 2:0.382 
1 1:0.64499998 2:0.491 
1 1:0.287 2:0.205 
1 1:0.17 2:0.15000001 
1 1:0.68400002 2:0.634 
1 1:0.75099999 2:0.63800001 
1 1:0.31299999 2:0.18000001 
1 1:0.67299998 2:0.602 
1 1:0.56800002 2:0.463 
0.2416080216478867 1:0.92799997 2:0.76700002 
1 1:0.12800001 2:0.071000002 
1 1:0.26499999 2:0.199 
1 1:0.84899998 2:0.83399999 
1 1:0.50199997 2:0.47999999 
1 1:0.97799999 2:0.96100003 
1 1:0.30700001 2:0.162 
1 1:0.43200001 2:0.40599999 
1 1:0.588 2:0.48500001 
1 1:0.53100002 2:0.48100001 
1 1:0.89600003 2:0.87599999 
1 1:0.33000001 2:0.255 
1 1:0.49000001 2:0.456 
1 1:0.192 2:0.153 
0.2297827740318356 1:0.19499999 2:0.023 
1 1:0.242 2:0.18099999 
1 1:0.244 2:0.123 
1 1:0.60000002 2:0.484 
1 1:0.28200001 2:0.27399999 
1 1:0.52600002 2:0.43900001 
1 1:0.23899999 2:0.133 
1 1:0.033 2:0.0060000001 
-1 1:0.616 2:0.63 
-1 1:0.76499999 2:0.838 
-1 1:0.85399997 2:0.921 
-1 1:0.704 2:0.824 
-1 1:0.78899997 2:0.81800002 
-1 1:0.89200002 2:0.91500002 
-1 1:0.616 2:0.74000001 
-1 1:0.667 2:0.82300001 
-1 1:0.57200003 2:0.66100001 
-1 1:0.34299999 2:0.47299999 
-1 1:0.28 2:0.294 
-1 1:0.156 2:0.27200001 
-1 1:0.197 2:0.347 
-0.4713907956797222 1:0.67500001 2:0.85600001 
-1 1:0.0060000001 2:0.116 
-1 1:0.28999999 2:0.38699999 
-1 1:0.169 2:0.198 
-1 1:0.46399999 2:0.51999998 
-1 1:0.59500003 2:0.755 
-1 1:0.64700001 2:0.80000001 
-1 1:0.244 2:0.41100001 
-1 1:0.48500001 2:0.57300001 
-1 1:0.26300001 2:0.39300001 
-1 1:0.322 2:0.38999999 
-1 1:0.36399999 2:0.449 
-1 1:0.56699997 2:0.73900002 
-1 1:0.15700001 2:0.234 
-1 1:0.057999998 2:0.182 
-1 1:0.178 2:0.31400001 
-1 1:0.25099999 2:0.384 
-1 1:0.12800001 2:0.27500001 
-1 1:0.491 2:0.53200001 
-1 1:0.85500002 2:0.93000001 
-1 1:0.79900002 2:0.98100001 
-1 1:0.597 2:0.671 
-1 1:0.121 2:0.242 
-1 1:0.78500003 2:0.81599998 
-1 1:0.015 2:0.156 
-1 1:0.82800001 2:0.96499997 
-1 1:0.30199999 2:0.36000001 
-1 1:0.163 2:0.29699999 
-1 1:0.113 2:0.249 
-1 1:0.88099998 2:0.96100003 
-1 1:0.252 2:0.42500001 
-1 1:0.046 2:0.13500001 
-1 1:0.131 2:0.29300001 
-1 1:0.66299999 2:0.676 
-1 1:0.184 2:0.241 
-1 1:0.204 2:0.266 
-1 1:0.50300002 2:0.65700001 
-1 1:0.64399999 2:0.82300001 
-1 1:0.229 2:0.38 
-1 1:0.0040000002 2:0.14300001 
-1 1:0.48699999 2:0.63700002 
-1 1:0.77600002 2:0.833 
-1 1:0.013 2:0.145 
-1 1:0.38 2:0.54799998 
-1 1:0.92400002 2:0.95200002 
-1 1:0.60000002 2:0.68199998 
-1 1:0.163 2:0.19599999 
-1 1:0.34599999 2:0.37400001 
-1 1:0.22400001 2:0.30000001 
-1 1:0.32499999 2:0.37599999 
-1 1:0.057999998 2:0.145 
-1 1:0.34200001 2:0.433 
-1 1:0.43700001 2:0.56300002 
-1 1:0.81400001 2:0.88700002 
